{
  "dataset": "research/datasets/20260627-mixed-winner-19task-routing.jsonl",
  "epochs": 300,
  "l2": 0.0001,
  "learning_rate": 0.0005,
  "model_type": "linear-softmax-logits-router",
  "reward_temperature": 0.05,
  "router": {
    "feature_names": [
      "bias",
      "category_datasci",
      "category_filesystem",
      "category_general",
      "category_network",
      "category_plotting",
      "category_subprocess",
      "combo_archive_filesystem",
      "combo_dataframe_plotting",
      "combo_network_archive",
      "combo_network_filesystem",
      "combo_network_plotting",
      "environment_risk",
      "family_bigcodebench_hard",
      "family_code_data",
      "family_code_easy",
      "family_code_text",
      "kw_archive",
      "kw_base64",
      "kw_convert",
      "kw_count",
      "kw_csv",
      "kw_default",
      "kw_dict",
      "kw_directory",
      "kw_download",
      "kw_email",
      "kw_encoding",
      "kw_exception",
      "kw_file",
      "kw_flatten",
      "kw_frequent",
      "kw_ftp",
      "kw_group",
      "kw_hash",
      "kw_hex",
      "kw_http",
      "kw_https",
      "kw_key",
      "kw_list",
      "kw_lowercase",
      "kw_number",
      "kw_pair",
      "kw_parse",
      "kw_process",
      "kw_request",
      "kw_requests",
      "kw_socket",
      "kw_sorted",
      "kw_ssl",
      "kw_string",
      "kw_strip",
      "kw_subprocess",
      "kw_sum",
      "kw_title",
      "kw_unpack",
      "kw_url",
      "kw_urllib",
      "kw_window",
      "kw_word",
      "kw_zip",
      "length_chars",
      "length_tokens",
      "lib_base64",
      "lib_binascii",
      "lib_codecs",
      "lib_collections",
      "lib_csv",
      "lib_datetime",
      "lib_ftplib",
      "lib_functools",
      "lib_glob",
      "lib_itertools",
      "lib_json",
      "lib_math",
      "lib_matplotlib",
      "lib_numpy",
      "lib_os",
      "lib_pandas",
      "lib_pathlib",
      "lib_random",
      "lib_re",
      "lib_requests",
      "lib_shutil",
      "lib_statistics",
      "lib_subprocess",
      "lib_urllib",
      "lib_zipfile",
      "library_count",
      "missing_library_count",
      "plausibility_score",
      "signal_archive",
      "signal_dataframe",
      "signal_filesystem",
      "signal_network",
      "signal_plotting",
      "signal_subprocess"
    ],
    "policy": "logits-router",
    "weights": [
      [
        -0.06002847697844185,
        -0.04997576183101567,
        -0.02294802195250341,
        0.007432176728849116,
        -0.02053350407652046,
        0.026852378992194628,
        -0.016681771377419892,
        0.03560962858340569,
        0.0,
        -0.02173758618118905,
        -0.009161906854891703,
        0.025839222049295514,
        -0.012320102445912305,
        -0.06002847697844185,
        0.0,
        0.0,
        0.0,
        0.0,
        -0.004778589416907965,
        -0.004778589416907965,
        0.03310918340281795,
        -0.08765749973811247,
        -0.02053350407652046,
        0.002491371936614426,
        -0.0038082285803589773,
        -0.009161906854891703,
        -0.021954244476443303,
        -0.004778589416907965,
        -0.09101872821928503,
        0.04157627621136561,
        0.0,
        0.0,
        -0.02053350407652046,
        0.0,
        0.0,
        -0.004778589416907965,
        0.0,
        0.0,
        -0.004778589416907965,
        -0.0733211378056059,
        0.0,
        -0.03252911925229306,
        0.0,
        -0.004778589416907965,
        -0.04369183065763244,
        0.03310918340281795,
        -0.02173758618118905,
        0.0,
        0.0,
        0.0,
        -0.004778589416907965,
        0.0,
        -0.02053350407652046,
        -0.00667358694148705,
        0.0,
        0.0,
        0.006593007804720865,
        0.028330593985909893,
        0.0,
        0.025839222049295514,
        -0.06981343568294608,
        -0.06190346040461176,
        -0.04765926273923483,
        -0.004778589416907965,
        -0.004778589416907965,
        -0.026732833893351217,
        0.03412234034571693,
        -0.044979015421439804,
        -0.047809776787249285,
        -0.02053350407652046,
        0.012210766145757099,
        -0.06822836546085494,
        0.016564607287322397,
        0.014434379953915064,
        0.012210766145757099,
        0.026852378992194628,
        -0.0176004033348779,
        -0.04878724400179892,
        -0.04997576183101567,
        -0.023794131229428535,
        0.03718892604662429,
        -0.020208306484352952,
        -0.02173758618118905,
        0.10542306426635192,
        -0.05431882982696481,
        -0.02053350407652046,
        0.028330593985909893,
        -0.06981343568294608,
        -0.025727205395277727,
        0.0,
        -0.030625290803703797,
        0.03560962858340569,
        -0.04997576183101567,
        -0.02294802195250341,
        -0.013940496271799628,
        0.026852378992194628,
        -0.016681771377419892
      ],
      [
        -0.0848706210004816,
        -0.0389130005924883,
        -0.05388170953503493,
        -0.009310971658278227,
        -0.019283266270049074,
        0.0012410006256157514,
        -0.046654670379096,
        0.021080500000672686,
        0.0,
        -0.022554098753331038,
        -0.026822646908337803,
        0.003934698102948873,
        -0.011569959762029418,
        -0.0848706210004816,
        0.0,
        0.0,
        0.0,
        0.0,
        -0.005003513407950738,
        -0.005003513407950738,
        0.015014718115042147,
        0.05761392162145067,
        -0.019283266270049074,
        0.006076506604142518,
        -0.019215554401694073,
        -0.026822646908337803,
        -0.020916053340422694,
        -0.005003513407950738,
        0.03833585262995024,
        0.012276112063583998,
        0.0,
        0.0,
        -0.019283266270049074,
        0.0,
        0.0,
        -0.005003513407950738,
        0.0,
        0.0,
        -0.005003513407950738,
        -0.0984130010447633,
        0.0,
        -0.04960473401856485,
        0.0,
        -0.005003513407950738,
        -0.04347015209375367,
        0.015014718115042147,
        -0.022554098753331038,
        0.0,
        0.0,
        0.0,
        -0.005003513407950738,
        0.0,
        -0.019283266270049074,
        -0.025320246382645267,
        0.0,
        0.0,
        -0.012542894046239577,
        0.010011204707091395,
        0.0,
        0.003934698102948873,
        0.07106875918036204,
        -0.05186080829009178,
        -0.0411915602088172,
        -0.005003513407950738,
        -0.005003513407950738,
        -0.025919566748373497,
        0.012321020637709,
        -0.03860085323628974,
        -0.04520054097634247,
        -0.019283266270049074,
        -0.004307458250327463,
        0.07340065589156462,
        -0.004490300862747986,
        0.0010840298696647107,
        -0.004307458250327463,
        0.0012410006256157514,
        -0.021098895952843186,
        -0.057816407637983666,
        -0.0389130005924883,
        0.11722756299005792,
        -0.07356732756866595,
        -0.04553681991105915,
        -0.022554098753331038,
        -0.04998825917968932,
        -0.023281731989455434,
        -0.019283266270049074,
        0.010011204707091395,
        0.07106875918036204,
        -0.02178020453638588,
        0.0,
        -0.026672703067275493,
        0.021080500000672686,
        -0.0389130005924883,
        -0.05388170953503493,
        -0.03182616031628857,
        0.0012410006256157514,
        -0.046654670379096
      ],
      [
        0.042405579060582406,
        -0.05495686105435918,
        0.06319230983365774,
        -0.0020544906478609766,
        0.0162825494519274,
        0.008260140519913303,
        0.04245288081773069,
        -0.0768976994246549,
        0.0,
        0.08995390206334847,
        0.08099993008134172,
        0.007837562084830918,
        0.009769529671156458,
        0.042405579060582406,
        0.0,
        0.0,
        0.0,
        0.0,
        0.0010925247314308704,
        0.0010925247314308704,
        -0.025236521433934227,
        0.07623184763606002,
        0.0162825494519274,
        -0.03198155878733426,
        -0.09116485843468788,
        0.08099993008134172,
        -0.03329471523150867,
        0.0010925247314308704,
        -0.043570675980720765,
        0.1123261087034144,
        0.0,
        0.0,
        0.0162825494519274,
        0.0,
        0.0,
        0.0010925247314308704,
        0.0,
        0.0,
        0.0010925247314308704,
        -0.08213176290029083,
        0.0,
        0.05609684253989557,
        0.0,
        0.0010925247314308704,
        0.05665918683183972,
        -0.025236521433934227,
        0.08995390206334847,
        0.0,
        0.0,
        0.0,
        0.0010925247314308704,
        0.0,
        0.0162825494519274,
        -0.03369672384125206,
        0.0,
        0.0,
        0.0658099053608451,
        -0.024143996702503452,
        0.0,
        0.007837562084830918,
        0.006102431724644926,
        0.028304525714549954,
        0.020192579955205486,
        0.0010925247314308704,
        0.0010925247314308704,
        -0.03220219050007771,
        -0.02481394299885188,
        0.14651960618351445,
        0.05649885114963902,
        0.0162825494519274,
        -0.0031470153792918583,
        -0.11358602859793929,
        0.0006309471913834337,
        -0.0052523340321023555,
        -0.0031470153792918583,
        0.008260140519913303,
        -0.029516752660833326,
        0.0553547477488267,
        -0.05495686105435918,
        -0.03973805008549422,
        0.1462593163426184,
        -0.059901214571319306,
        0.08995390206334847,
        -0.08300013114930005,
        0.10016205742166878,
        0.0162825494519274,
        -0.024143996702503452,
        0.006102431724644926,
        0.017108661560090957,
        0.0,
        0.018976083942309284,
        -0.0768976994246549,
        -0.05495686105435918,
        0.06319230983365774,
        0.08209245481277216,
        0.008260140519913303,
        0.04245288081773069
      ],
      [
        0.1024935189183407,
        0.14384562347786306,
        0.013637421653880705,
        0.00393328557729009,
        0.02353422089464203,
        -0.03635352013772359,
        0.020883560938785115,
        0.020207570840576904,
        0.0,
        -0.04566221712882832,
        -0.045015376318111866,
        -0.03761148223707533,
        0.014120532536785298,
        0.1024935189183407,
        0.0,
        0.0,
        0.0,
        0.0,
        0.008689578093427843,
        0.008689578093427843,
        -0.022887380083925754,
        -0.046188269519398535,
        0.02353422089464203,
        0.02341368024657739,
        0.11418864141674093,
        -0.045015376318111866,
        0.0761650130483747,
        0.008689578093427843,
        0.09625355157005576,
        -0.16617849697836384,
        0.0,
        0.0,
        0.02353422089464203,
        0.0,
        0.0,
        0.008689578093427843,
        0.0,
        0.0,
        0.008689578093427843,
        0.25386590175065954,
        0.0,
        0.02603701073096229,
        0.0,
        0.008689578093427843,
        0.030502795919546334,
        -0.022887380083925754,
        -0.04566221712882832,
        0.0,
        0.0,
        0.0,
        0.008689578093427843,
        0.0,
        0.02353422089464203,
        0.06569055716538431,
        0.0,
        0.0,
        -0.059860019119326334,
        -0.014197801990497859,
        0.0,
        -0.03761148223707533,
        -0.007357755222060885,
        0.08545974298015391,
        0.06865824299284655,
        0.008689578093427843,
        0.008689578093427843,
        0.08485459114180247,
        -0.021629417984574125,
        -0.06293973752578504,
        0.03651146661395229,
        0.02353422089464203,
        -0.004756292516137756,
        0.10841373816723021,
        -0.012705253615957895,
        -0.01026607579147744,
        -0.004756292516137756,
        -0.03635352013772359,
        0.06821605194855443,
        0.051248903890956,
        0.14384562347786306,
        -0.05369538167513565,
        -0.10988091482057663,
        0.12564634096673127,
        -0.04566221712882832,
        0.02756532606263766,
        -0.022561495605248474,
        0.02353422089464203,
        -0.014197801990497859,
        -0.007357755222060885,
        0.030398748371572654,
        0.0,
        0.03832190992867006,
        0.020207570840576904,
        0.14384562347786306,
        0.013637421653880705,
        -0.03632579822468426,
        -0.03635352013772359,
        0.020883560938785115
      ]
    ],
    "worker_ids": [
      "ollama-cloud-deepseek-v4-pro",
      "ollama-cloud-glm-5.2",
      "ollama-cloud-kimi-k2.7-code",
      "ollama-cloud-qwen3-coder-480b"
    ]
  },
  "target_mode": "reward"
}
