{
  "dataset": "research/datasets/20260627-expanded-profile-38task-routing.jsonl",
  "epochs": 300,
  "l2": 0.0001,
  "learning_rate": 0.0005,
  "model_type": "linear-softmax-logits-router",
  "reward_temperature": 0.05,
  "router": {
    "feature_names": [
      "bias",
      "category_datasci",
      "category_filesystem",
      "category_general",
      "category_network",
      "category_plotting",
      "category_subprocess",
      "combo_archive_filesystem",
      "combo_dataframe_plotting",
      "combo_network_archive",
      "combo_network_filesystem",
      "combo_network_plotting",
      "environment_risk",
      "family_bigcodebench_hard",
      "family_code_data",
      "family_code_easy",
      "family_code_text",
      "kw_archive",
      "kw_base64",
      "kw_convert",
      "kw_count",
      "kw_csv",
      "kw_default",
      "kw_dict",
      "kw_directory",
      "kw_download",
      "kw_email",
      "kw_encoding",
      "kw_exception",
      "kw_file",
      "kw_flatten",
      "kw_frequent",
      "kw_ftp",
      "kw_group",
      "kw_hash",
      "kw_hex",
      "kw_http",
      "kw_https",
      "kw_key",
      "kw_list",
      "kw_lowercase",
      "kw_number",
      "kw_pair",
      "kw_parse",
      "kw_process",
      "kw_request",
      "kw_requests",
      "kw_socket",
      "kw_sorted",
      "kw_ssl",
      "kw_string",
      "kw_strip",
      "kw_subprocess",
      "kw_sum",
      "kw_title",
      "kw_unpack",
      "kw_url",
      "kw_urllib",
      "kw_window",
      "kw_word",
      "kw_zip",
      "length_chars",
      "length_tokens",
      "lib_base64",
      "lib_binascii",
      "lib_bs4",
      "lib_codecs",
      "lib_collections",
      "lib_csv",
      "lib_datetime",
      "lib_ftplib",
      "lib_functools",
      "lib_glob",
      "lib_itertools",
      "lib_json",
      "lib_math",
      "lib_matplotlib",
      "lib_numpy",
      "lib_os",
      "lib_pandas",
      "lib_pathlib",
      "lib_random",
      "lib_re",
      "lib_requests",
      "lib_seaborn",
      "lib_shutil",
      "lib_sklearn",
      "lib_statistics",
      "lib_string",
      "lib_subprocess",
      "lib_urllib",
      "lib_zipfile",
      "library_count",
      "missing_library_count",
      "plausibility_score",
      "signal_archive",
      "signal_dataframe",
      "signal_filesystem",
      "signal_network",
      "signal_plotting",
      "signal_subprocess"
    ],
    "policy": "logits-router",
    "weights": [
      [
        -0.004605072013858959,
        0.05042083131539666,
        -0.03568478668365603,
        -0.004516018300788733,
        0.06541878992389587,
        0.03959166738634254,
        -0.030776538501106666,
        0.02554840279231391,
        0.019362828330714118,
        -0.02825669072810683,
        -0.03955749957158318,
        0.017791587038607653,
        0.0903692867877748,
        -0.004605072013858959,
        0.0,
        0.0,
        0.0,
        0.02293094701799652,
        -0.014199886334962396,
        -0.054091122800829214,
        0.017642539026302837,
        -0.037661427617825,
        -0.026375817581178233,
        0.09117330099778329,
        -0.028788448481745384,
        -0.03955749957158318,
        -0.03268176354019348,
        -0.014199886334962396,
        -0.05151071478423957,
        0.02303006992123379,
        0.0,
        0.0,
        -0.026375817581178233,
        0.09880537475633332,
        0.0,
        -0.014199886334962396,
        0.091794607505074,
        0.0,
        0.06128986922565761,
        -0.0889861453852989,
        0.00246029837269948,
        0.016293931132317703,
        -0.0037381370458512875,
        0.07759472117011124,
        -0.05837092397969959,
        0.10686961624277558,
        0.06353791677696675,
        0.0,
        -0.042458766754468025,
        0.0,
        -0.011739587962262956,
        0.0,
        -0.026375817581178233,
        -0.020737464031406833,
        0.01156388848345172,
        0.0,
        0.06441303917970634,
        0.0008751224027394055,
        0.0,
        0.02456967363676708,
        -0.06228716796391726,
        -0.04267303293679912,
        -0.031154689941932035,
        -0.014199886334962396,
        -0.014199886334962396,
        0.091794607505074,
        -0.046881649875155834,
        0.08808051314911879,
        0.03936335021565751,
        -0.07836533308180581,
        -0.026375817581178233,
        0.007223569661474181,
        -0.08727376070074469,
        0.0012743171536010267,
        0.06681589275642072,
        0.007223569661474181,
        0.03959166738634254,
        0.08053296081497545,
        -0.08273551047290344,
        0.029717174321587558,
        -0.02747123543889342,
        0.06596639664408029,
        -0.0540165635339815,
        0.06353791677696675,
        -0.04670827049554144,
        0.11076651777422805,
        -0.03656424863726871,
        -0.07130075793901398,
        0.00246029837269948,
        -0.026375817581178233,
        0.0008751224027394055,
        -0.06228716796391726,
        0.0020467968624931446,
        0.025559006416718464,
        0.059958737405343424,
        0.02554840279231391,
        0.05042083131539666,
        -0.03568478668365603,
        0.038037221598528154,
        0.03959166738634254,
        -0.030776538501106666
      ],
      [
        -0.08052232439314932,
        -0.05026746524647008,
        -0.0017756640266808025,
        -0.0021428243414494605,
        -0.04217246058361519,
        -0.03964697538933287,
        -0.026802194487795018,
        0.022678736375433814,
        -0.045063078846836795,
        -0.024037190475308563,
        -0.030897251591898395,
        0.003410448152015631,
        -0.009727839665231606,
        -0.08052232439314932,
        0.0,
        0.0,
        0.0,
        0.020665191369249304,
        -0.006697657757660694,
        0.11762727128318153,
        0.025094332306641296,
        -0.004598435225489044,
        -0.02077506392012166,
        -0.018839423226238345,
        -0.0211103507821244,
        -0.030897251591898395,
        -0.022854927801843023,
        -0.006697657757660694,
        -0.03669178592277915,
        0.05083128203448193,
        0.0,
        0.0,
        -0.02077506392012166,
        -0.021119680443569804,
        0.0,
        -0.006697657757660694,
        -0.021397396663493735,
        0.0,
        0.07424705973095999,
        -0.016583777629846305,
        0.008683129659929173,
        -0.06883306943199909,
        0.01785741151533822,
        -0.028095054421154248,
        -0.0357127887740418,
        -0.007482393859962051,
        -0.04543458713880209,
        0.0,
        0.11314559953773261,
        0.0,
        0.0019854719022684582,
        0.0,
        -0.02077506392012166,
        -0.027142319481154524,
        -0.03472741967462116,
        0.0,
        -0.0382172420929312,
        0.007217345045870827,
        0.0,
        0.020869484079647192,
        0.08269713195405855,
        -0.06223158879033383,
        -0.052291349011093356,
        -0.006697657757660694,
        -0.006697657757660694,
        -0.021397396663493735,
        -0.02955258555950379,
        0.10223394519929023,
        -0.07078436419539187,
        -0.06926420332035782,
        -0.02077506392012166,
        -0.004128296243717919,
        0.06464016598709721,
        0.0016711059313184768,
        0.0777930460603858,
        -0.004128296243717919,
        -0.03964697538933287,
        0.04033096136641385,
        -0.06143669746658257,
        0.027621243046898194,
        0.11563694894625211,
        -0.1176537925464782,
        -0.04736166467952466,
        -0.04543458713880209,
        -0.005580530777124122,
        -0.03935320420937555,
        -0.01796745599803328,
        -0.023431317335507136,
        0.008683129659929173,
        -0.02077506392012166,
        0.007217345045870827,
        0.08269713195405855,
        -0.012354178792499403,
        0.00778781834246876,
        -0.024066160084365396,
        0.022678736375433814,
        -0.05026746524647008,
        -0.0017756640266808025,
        -0.0589923060130532,
        -0.03964697538933287,
        -0.026802194487795018
      ],
      [
        0.02009801160625345,
        -0.07510714299466362,
        0.07467574534849247,
        -0.004328476120993754,
        -0.014083531738374292,
        -0.004076549053971662,
        0.014022498253777634,
        -0.09405173783858578,
        -0.02358813037853742,
        0.09382146679484767,
        0.09521738410992495,
        0.011884405371060357,
        -0.02065501763360824,
        0.02009801160625345,
        0.0,
        0.0,
        0.0,
        -0.033917934035885965,
        0.006001832282641311,
        -0.011352299350727763,
        -0.006580135012939928,
        0.126484912745912,
        0.019673327855093396,
        -0.06857363197200977,
        -0.10457882666846241,
        0.09521738410992495,
        -0.03333002222446526,
        0.006001832282641311,
        0.03733663851691258,
        0.15084879642904092,
        0.0,
        0.0,
        0.019673327855093396,
        -0.028106436162489423,
        0.0,
        0.006001832282641311,
        -0.03375685959346775,
        0.0,
        -0.08092031919435805,
        -0.17184803198165685,
        -0.010215291710698028,
        -0.01554191031721108,
        0.006939266346073448,
        -0.027755027310826314,
        0.0721887200974585,
        -0.05203427013348379,
        0.06006460720137967,
        0.0,
        -0.029051407160445086,
        0.0,
        -0.00421345942805675,
        0.0,
        0.019673327855093396,
        -0.03031543337790801,
        -0.01179066885718339,
        0.0,
        0.04778902894400492,
        -0.012275578257374674,
        0.0,
        0.010053796764097634,
        -0.019789196197351807,
        0.028784512011748732,
        0.020644437523329454,
        0.006001832282641311,
        0.006001832282641311,
        -0.03375685959346775,
        -0.027328189941823875,
        -0.08872025174549227,
        0.11823028530876557,
        0.14035214900956794,
        0.019673327855093396,
        -0.00011501669293697954,
        -0.11034109113616601,
        -0.0022563289940781745,
        -0.0652215812325162,
        -0.00011501669293697954,
        -0.004076549053971662,
        -0.1696781512981925,
        0.02417742758950176,
        -0.04134491790810856,
        -0.039736244375457246,
        0.10263818837490955,
        0.02801378655398623,
        0.06006460720137967,
        0.03701404388337911,
        -0.10818047567711951,
        0.06771384277889152,
        0.1044647154413871,
        -0.010215291710698028,
        0.019673327855093396,
        -0.012275578257374674,
        -0.019789196197351807,
        8.68625909546634e-05,
        -0.006102449295291829,
        -0.009703958916022352,
        -0.09405173783858578,
        -0.07510714299466362,
        0.07467574534849247,
        0.0674623567990988,
        -0.004076549053971662,
        0.014022498253777634
      ],
      [
        0.0650293848007545,
        0.07495377692573685,
        -0.03721529463815566,
        0.01098731876323194,
        -0.009162797601906058,
        0.004131857056962135,
        0.04355623473512424,
        0.04582459867083758,
        0.04928838089465991,
        -0.041527585591432006,
        -0.024762632946443056,
        -0.03308644056168332,
        -0.059986429488934685,
        0.0650293848007545,
        0.0,
        0.0,
        0.0,
        -0.00967820435135977,
        0.01489571180998177,
        -0.0521838491316242,
        -0.03615673632000397,
        -0.08422504990259798,
        0.027477553646206365,
        -0.0037602457995351037,
        0.1544776259323329,
        -0.024762632946443056,
        0.08886671356650178,
        0.01489571180998177,
        0.050865862190105374,
        -0.22471014838475692,
        0.0,
        0.0,
        0.027477553646206365,
        -0.04957925815027437,
        0.0,
        0.01489571180998177,
        -0.0366403512481125,
        0.0,
        -0.05461660976225973,
        0.27741795499680333,
        -0.0009281363219305559,
        0.06808104861689225,
        -0.021058540815560273,
        -0.02174463943813076,
        0.021894992656282822,
        -0.0473529522493297,
        -0.07816793683954461,
        0.0,
        -0.04163542562281917,
        0.0,
        0.013967575488051163,
        0.0,
        0.027477553646206365,
        0.07819521689046939,
        0.034954200048352736,
        0.0,
        -0.07398482603078034,
        0.004183110808764469,
        0.0,
        -0.055492954480511954,
        -0.0006207677927898721,
        0.07612010971538458,
        0.06280160142969611,
        0.01489571180998177,
        0.01489571180998177,
        -0.0366403512481125,
        0.10376242537648325,
        -0.1015942066029171,
        -0.08680927132903114,
        0.007277387392596119,
        0.027477553646206365,
        -0.0029802567248192863,
        0.13297468584981328,
        -0.000689094090841249,
        -0.07938735758428943,
        -0.0029802567248192863,
        0.004131857056962135,
        0.048814229116803554,
        0.1199947803499843,
        -0.01599349946037727,
        -0.04842946913190141,
        -0.05095079247251158,
        0.07336444165951965,
        -0.07816793683954461,
        0.015274757389286296,
        0.03676716211226756,
        -0.013182138143589744,
        -0.009732640166866442,
        -0.0009281363219305559,
        0.027477553646206365,
        0.004183110808764469,
        -0.0006207677927898721,
        0.010220519339051637,
        -0.027244375463895472,
        -0.026188618404955902,
        0.04582459867083758,
        0.07495377692573685,
        -0.03721529463815566,
        -0.04650727238457368,
        0.004131857056962135,
        0.04355623473512424
      ]
    ],
    "worker_ids": [
      "ollama-cloud-deepseek-v4-pro",
      "ollama-cloud-glm-5.2",
      "ollama-cloud-kimi-k2.7-code",
      "ollama-cloud-qwen3-coder-480b"
    ]
  },
  "target_mode": "reward"
}
