{
  "dataset": "research/datasets/20260628-contrast-aware-26task-routing.jsonl",
  "epochs": 300,
  "l2": 0.0001,
  "learning_rate": 0.0005,
  "model_type": "linear-softmax-logits-router",
  "reward_temperature": 0.2,
  "router": {
    "feature_names": [
      "bias",
      "category_algorithmic",
      "category_datasci",
      "category_filesystem",
      "category_general",
      "category_network",
      "category_plotting",
      "category_subprocess",
      "combo_archive_filesystem",
      "combo_filesystem_random",
      "combo_filesystem_tabular",
      "combo_network_archive",
      "combo_network_filesystem",
      "combo_network_plotting",
      "combo_random_math",
      "combo_random_statistics",
      "environment_risk",
      "family_bigcodebench_hard",
      "kw_archive",
      "kw_base64",
      "kw_count",
      "kw_dict",
      "kw_download",
      "kw_fetch",
      "kw_file",
      "kw_files",
      "kw_frequent",
      "kw_hex",
      "kw_http",
      "kw_key",
      "kw_list",
      "kw_lowercase",
      "kw_mean",
      "kw_median",
      "kw_number",
      "kw_plot",
      "kw_random",
      "kw_request",
      "kw_requests",
      "kw_scan",
      "kw_sorted",
      "kw_standard",
      "kw_statistics",
      "kw_string",
      "kw_strip",
      "kw_subprocess",
      "kw_sum",
      "kw_url",
      "kw_word",
      "kw_zip",
      "length_chars",
      "length_tokens",
      "lib_base64",
      "lib_binascii",
      "lib_codecs",
      "lib_collections",
      "lib_csv",
      "lib_datetime",
      "lib_ftplib",
      "lib_functools",
      "lib_glob",
      "lib_itertools",
      "lib_json",
      "lib_math",
      "lib_matplotlib",
      "lib_numpy",
      "lib_os",
      "lib_pandas",
      "lib_pathlib",
      "lib_random",
      "lib_re",
      "lib_requests",
      "lib_shutil",
      "lib_statistics",
      "lib_subprocess",
      "lib_urllib",
      "lib_zipfile",
      "library_count",
      "missing_library_count",
      "plausibility_score",
      "signal_algorithmic",
      "signal_archive",
      "signal_datasci",
      "signal_filesystem",
      "signal_general",
      "signal_math",
      "signal_network",
      "signal_plotting",
      "signal_random",
      "signal_statistics",
      "signal_subprocess",
      "signal_tabular_data"
    ],
    "policy": "logits-router",
    "weights": [
      [
        0.0366744762637642,
        0.007161369271986091,
        0.06283049747237773,
        0.051347035594319065,
        -0.0018236171468389757,
        -0.016093402076322306,
        0.0285928319523314,
        -0.0056446114947228555,
        0.0224364280965693,
        0.054717258575797664,
        0.008688472063601725,
        -0.014104014967166815,
        -0.0077732765114251435,
        0.018668858441681414,
        0.0032715296245745505,
        -0.07051600100604888,
        -0.009656041245793367,
        0.0366744762637642,
        0.0,
        0.006956871899171101,
        0.022424140532063992,
        0.06914533846143656,
        -0.0077732765114251435,
        0.0,
        0.11510503624219029,
        -0.0776071384590305,
        0.0,
        0.006956871899171101,
        0.0,
        0.10467257481478293,
        0.019985686762436835,
        0.0,
        0.0210970269951247,
        0.08458564835433624,
        -0.04153679971817981,
        0.00899442969834132,
        0.011945679369089192,
        0.022424140532063992,
        -0.014104014967166815,
        0.0,
        -0.029423993507027926,
        0.0032715296245745505,
        -0.07051600100604888,
        0.006956871899171101,
        0.0,
        -0.016093402076322306,
        -0.008719911146753728,
        0.015276997464068286,
        0.021643477395060423,
        -0.05686755604143104,
        -0.08611445331482284,
        -0.011532751407856891,
        0.006956871899171101,
        0.006956871899171101,
        -0.0018683149094036993,
        0.11091395165208776,
        0.03540714290690028,
        -0.02576373969833744,
        -0.016093402076322306,
        0.010210605564457126,
        -0.06240236478932823,
        0.024399354483280764,
        0.08568097524291186,
        0.013482135189031717,
        0.0285928319523314,
        0.08576246014597784,
        -0.051907471201698384,
        -0.024729769835337576,
        -0.01874200595736509,
        0.02077086617766398,
        -0.014986247461544217,
        -0.014104014967166815,
        0.07930398413800033,
        -0.07051600100604888,
        -0.016093402076322306,
        0.029381012431235073,
        -0.05686755604143104,
        0.01637447736619151,
        0.0,
        -0.004672657709815504,
        0.007161369271986091,
        0.0224364280965693,
        0.06283049747237773,
        0.051347035594319065,
        -0.0018236171468389757,
        0.013482135189031717,
        -0.0008164046122540586,
        0.0285928319523314,
        0.011945679369089192,
        0.0210970269951247,
        -0.0056446114947228555,
        -0.0332800356140466
      ],
      [
        -0.0014644314486041835,
        0.005688258727895363,
        -0.01817228340687051,
        -0.06907085578121427,
        0.0523864918524459,
        -0.01998225976457162,
        0.021160706946250604,
        -0.007263121328029032,
        0.004616643282511511,
        -0.06877576380525278,
        0.022654059037723367,
        -0.013729183945337689,
        -0.00866291984038784,
        0.014713725273253545,
        0.007487685393959038,
        0.021014541968638337,
        -0.011989355858742985,
        -0.0014644314486041835,
        0.0,
        0.0018263847046375123,
        0.02504852386952144,
        0.027656673524077767,
        -0.00866291984038784,
        0.0,
        -0.003017606019989431,
        0.029035326386388522,
        0.0,
        0.0018263847046375123,
        0.0,
        -0.008555873520283527,
        -0.09006387264456134,
        0.0,
        0.0024049654622068893,
        -0.025936033013280176,
        -0.03100536126650761,
        0.003934773128883247,
        -0.01799468925663221,
        0.02504852386952144,
        -0.013729183945337689,
        0.0,
        0.03394383784249313,
        0.007487685393959038,
        0.021014541968638337,
        0.0018263847046375123,
        0.0,
        -0.01998225976457162,
        -0.014965790584192626,
        0.013145724628821374,
        0.01643370011818216,
        0.05004817548834358,
        -0.03231405999515875,
        -0.00680442595957234,
        0.0018263847046375123,
        0.0018263847046375123,
        -0.0102359582210163,
        0.0033446742452837804,
        -0.0580789381991544,
        -0.017821025929614074,
        -0.01998225976457162,
        0.0034403251834607095,
        0.04850659366869369,
        0.01645504041820468,
        -0.020539980969667516,
        0.010928010577419715,
        0.021160706946250604,
        -0.028951944587156653,
        -0.05784854804118765,
        0.006043774761481053,
        0.08567697156651831,
        -0.005932346330978343,
        -0.020781308492357525,
        -0.013729183945337689,
        -0.04543153220583239,
        0.021014541968638337,
        -0.01998225976457162,
        0.026874908574159032,
        0.05004817548834358,
        -0.0022168793643716767,
        0.0,
        -0.007387024209903609,
        0.005688258727895363,
        0.004616643282511511,
        -0.01817228340687051,
        -0.06907085578121427,
        0.0523864918524459,
        0.010928010577419715,
        -0.006836535135750311,
        0.021160706946250604,
        -0.01799468925663221,
        0.0024049654622068893,
        -0.007263121328029032,
        0.07468491778598016
      ],
      [
        -0.022241428771950122,
        -0.006232696371793344,
        -0.0791539509754143,
        0.043225891877330815,
        -0.04385927297223258,
        0.0220309740288819,
        0.005709258184042615,
        0.03491964657094575,
        -0.06288091845845911,
        0.11197268010463055,
        0.05067435031203391,
        0.0713766385732123,
        0.07643867915302015,
        0.004212335318358401,
        -0.002043862997684962,
        0.045694146888105185,
        0.01321858441732915,
        -0.022241428771950122,
        0.0,
        0.0007846408955352847,
        -0.0169689334490743,
        -0.0842355210336145,
        0.07643867915302015,
        0.0,
        0.06937143368966932,
        -0.09448058595257183,
        0.0,
        0.0007846408955352847,
        0.0,
        -0.03294331638051432,
        -0.08465410347029372,
        0.0,
        0.02588464171572555,
        -0.02446157208050788,
        0.057554155443658245,
        -0.0005605016486396067,
        0.03735190567259313,
        -0.0169689334490743,
        0.0713766385732123,
        0.0,
        -0.03733345808352405,
        -0.002043862997684962,
        0.045694146888105185,
        0.0007846408955352847,
        0.0,
        0.0220309740288819,
        -0.023185600782791766,
        0.0551923460196733,
        0.004905553197893142,
        0.015125675192589639,
        0.022500711704997865,
        -0.00023452646595892776,
        0.0007846408955352847,
        0.0007846408955352847,
        -0.03385918935103172,
        -0.03867986313572353,
        0.11123772755443216,
        0.03761968425385184,
        0.0220309740288819,
        0.0009661035852346257,
        -0.08982388149111117,
        -0.0006145258784305364,
        -0.024114252218158425,
        -0.0010777594124503618,
        0.005709258184042615,
        -0.053760117539411956,
        0.0634751286394805,
        -0.05538559677444106,
        -0.029536470538864726,
        0.07199573591916016,
        -0.05170566400754405,
        0.0713766385732123,
        -0.07800659365104816,
        0.045694146888105185,
        0.0220309740288819,
        -0.01618429255353904,
        0.015125675192589639,
        -0.0003916877912810428,
        0.0,
        0.007179312007170425,
        -0.006232696371793344,
        -0.06288091845845911,
        -0.0791539509754143,
        0.043225891877330815,
        -0.04385927297223258,
        -0.0010777594124503618,
        0.07722332004855514,
        0.005709258184042615,
        0.03735190567259313,
        0.02588464171572555,
        0.03491964657094575,
        -0.01102330041637238
      ],
      [
        -0.012968616043209895,
        -0.006616931628088096,
        0.03449573690990704,
        -0.025502071690435786,
        -0.006703601733374333,
        0.014044687812012045,
        -0.05546279708262445,
        -0.02201191374819376,
        0.03582784707937822,
        -0.0979141748751755,
        -0.0820168814133594,
        -0.043543439660708026,
        -0.060002482801207326,
        -0.037594919033293255,
        -0.008715352020848631,
        0.00380731214930518,
        0.008426812687207262,
        -0.012968616043209895,
        0.0,
        -0.009567897499343881,
        -0.030503730952511174,
        -0.012566490951899604,
        -0.060002482801207326,
        0.0,
        -0.18145886391187072,
        0.1430523980252144,
        0.0,
        -0.009567897499343881,
        0.0,
        -0.06317338491398472,
        0.15473228935241706,
        0.0,
        -0.049386634173057144,
        -0.034188043260547925,
        0.014988005541029043,
        -0.012368701178584955,
        -0.031302895785050376,
        -0.030503730952511174,
        -0.043543439660708026,
        0.0,
        0.03281361374805872,
        -0.008715352020848631,
        0.00380731214930518,
        -0.009567897499343881,
        0.0,
        0.014044687812012045,
        0.0468713025137381,
        -0.08361506811256288,
        -0.042982730711135585,
        -0.008306294639502113,
        0.09592780160498339,
        0.018571703833388197,
        -0.009567897499343881,
        -0.009567897499343881,
        0.04596346248145151,
        -0.07557876276164822,
        -0.08856593226217882,
        0.005965081374099658,
        0.014044687812012045,
        -0.014617034333152437,
        0.10371965261174464,
        -0.04023986902305505,
        -0.041026742055085934,
        -0.023332386354001023,
        -0.05546279708262445,
        -0.0030503980194093133,
        0.04628089060340526,
        0.07407159184829747,
        -0.03739849507028845,
        -0.08683425576584598,
        0.0874732199614456,
        -0.043543439660708026,
        0.04413414171888044,
        0.00380731214930518,
        0.014044687812012045,
        -0.040071628451855155,
        -0.008306294639502113,
        -0.01376591021053877,
        0.0,
        0.004880369912548708,
        -0.006616931628088096,
        0.03582784707937822,
        0.03449573690990704,
        -0.025502071690435786,
        -0.006703601733374333,
        -0.023332386354001023,
        -0.06957038030055117,
        -0.05546279708262445,
        -0.031302895785050376,
        -0.049386634173057144,
        -0.02201191374819376,
        -0.03038158175556124
      ]
    ],
    "worker_ids": [
      "ollama-cloud-deepseek-v4-pro",
      "ollama-cloud-glm-5.2",
      "ollama-cloud-kimi-k2.7-code",
      "ollama-cloud-qwen3-coder-480b"
    ]
  },
  "target_mode": "reward"
}
