{
  "dataset": "research/datasets/20260628-live-plus-corpus-guided-38task-routing.jsonl",
  "epochs": 300,
  "initial_model": "research/models/20260627-mixed-winner-23task-heldout-hard-reward-t0p05-logits-router.json",
  "l2": 0.0001,
  "learning_rate": 0.0005,
  "model_type": "linear-softmax-logits-router",
  "reward_temperature": 0.2,
  "router": {
    "feature_names": [
      "bias",
      "category_algorithmic",
      "category_datasci",
      "category_filesystem",
      "category_general",
      "category_network",
      "category_plotting",
      "category_subprocess",
      "category_text",
      "combo_network_archive",
      "combo_network_filesystem",
      "combo_network_plotting",
      "environment_risk",
      "family_bigcodebench_hard",
      "kw_archive",
      "kw_base64",
      "kw_count",
      "kw_dict",
      "kw_download",
      "kw_fetch",
      "kw_file",
      "kw_files",
      "kw_frequent",
      "kw_hex",
      "kw_http",
      "kw_key",
      "kw_list",
      "kw_lowercase",
      "kw_number",
      "kw_plot",
      "kw_request",
      "kw_requests",
      "kw_scan",
      "kw_sorted",
      "kw_string",
      "kw_strip",
      "kw_subprocess",
      "kw_sum",
      "kw_url",
      "kw_word",
      "kw_zip",
      "length_chars",
      "length_tokens",
      "lib_base64",
      "lib_binascii",
      "lib_codecs",
      "lib_collections",
      "lib_csv",
      "lib_datetime",
      "lib_ftplib",
      "lib_functools",
      "lib_glob",
      "lib_hashlib",
      "lib_hmac",
      "lib_itertools",
      "lib_json",
      "lib_math",
      "lib_matplotlib",
      "lib_numpy",
      "lib_operator",
      "lib_os",
      "lib_pandas",
      "lib_pathlib",
      "lib_random",
      "lib_re",
      "lib_requests",
      "lib_shutil",
      "lib_sqlite3",
      "lib_statistics",
      "lib_subprocess",
      "lib_sys",
      "lib_urllib",
      "lib_zipfile",
      "library_count",
      "missing_library_count",
      "plausibility_score",
      "signal_algorithmic",
      "signal_archive",
      "signal_datasci",
      "signal_filesystem",
      "signal_general",
      "signal_network",
      "signal_plotting",
      "signal_subprocess",
      "signal_text"
    ],
    "policy": "logits-router",
    "weights": [
      [
        -0.012660675285979878,
        -0.06775264513329965,
        0.11602946273091948,
        0.019350143605754027,
        -0.034042369678840084,
        -0.05858762316087222,
        0.05578192358459601,
        -0.014622516001636542,
        -0.0506490668035883,
        -0.026962590242818055,
        -0.04044509787752759,
        0.03887045949738118,
        -0.024632289401973272,
        -0.012660675285979878,
        0.0,
        0.0009531205601590133,
        0.020344900879599236,
        0.15174307720742075,
        -0.011184021215014741,
        0.0,
        0.18051656416045642,
        -0.05529098952578217,
        0.0,
        0.0009531205601590133,
        0.0,
        0.15262029608945857,
        0.0030301099601567935,
        0.0,
        -0.0904307014998179,
        0.0029692904479170883,
        0.015844038863649875,
        -0.026962590242818055,
        -0.02476021464656346,
        0.0,
        -0.005438100391492821,
        0.0,
        -0.03524727735063599,
        -0.006045777061383507,
        -0.01016543081900906,
        0.04352319196870874,
        -0.09999558497911228,
        -0.06559886199087422,
        -0.04450712045186208,
        0.0009531205601590133,
        0.0009531205601590133,
        -0.029728020547129832,
        0.15066776701391385,
        0.008029795644575346,
        -0.048148900065193796,
        -0.02932654649835934,
        0.026034591576805814,
        -0.10601743677621268,
        -0.029261076662512712,
        -0.029261076662512712,
        0.03294271058633976,
        0.13177338947276687,
        0.026034591576805814,
        0.05578192358459601,
        0.15284623820161666,
        -0.01461119386674753,
        -0.15472700608455195,
        -0.060589797568451134,
        -0.03801290077203578,
        0.05314808807750431,
        -0.060960341572542646,
        -0.026962590242818055,
        0.1790450174314943,
        -0.022063905538289342,
        -0.10140699315381897,
        -0.03524727735063599,
        0.006273627213663868,
        0.016797159423808914,
        -0.09999558497911228,
        -0.004503950741671478,
        0.0,
        -0.05151474459309646,
        -0.06775264513329965,
        0.07904943245238269,
        0.06758955808339741,
        0.019350143605754027,
        -0.03464603225541099,
        -0.039491977317368435,
        0.05578192358459601,
        -0.014622516001636542,
        -0.0506490668035883
      ],
      [
        -0.03895083367934747,
        -0.010545004026120583,
        -0.05087828539257852,
        -0.041054821500600754,
        0.03863000628332609,
        0.0073269885164575265,
        0.01886578319910194,
        -0.04724951521342616,
        0.039435286011955416,
        -0.03766356279681823,
        0.0054746558453618276,
        0.01462175152136944,
        -0.013080777878656915,
        -0.03895083367934747,
        0.0,
        -0.006152600645684779,
        0.07611236901136341,
        0.025952155099852797,
        -0.03783838823047301,
        0.0,
        -0.004825158956161741,
        0.07989797510590713,
        0.0,
        -0.006152600645684779,
        0.0,
        0.006652593403841281,
        -0.17368448129240835,
        0.0,
        -0.06437235067153817,
        0.007014884019581693,
        0.0791242742015579,
        -0.03766356279681823,
        0.04030113888564044,
        0.0,
        -0.0191357478968562,
        0.0,
        -0.03674482235036466,
        -0.027716493611009724,
        0.03530811075905459,
        0.02379892828169357,
        0.09836172474190025,
        0.001986616403568622,
        -0.03784445272771247,
        -0.006152600645684779,
        -0.006152600645684779,
        -0.037110895295349826,
        -0.011691980455407626,
        -0.12913773380662763,
        -0.05310069977779866,
        -0.035986055559377214,
        0.003830203685751932,
        0.1105323092000007,
        0.043313044075834826,
        0.043313044075834826,
        0.016261047678862408,
        0.02167696855789732,
        0.003830203685751932,
        0.01886578319910194,
        -0.06102118041476903,
        -0.026215522172997607,
        -0.012192483482003158,
        -0.008384555634363714,
        0.1896059497241375,
        -0.09744566895844359,
        -0.01363379692890153,
        -0.03766356279681823,
        -0.0817301059107166,
        0.023571097751026848,
        -0.02790940172374125,
        -0.03674482235036466,
        0.008377952191892498,
        0.07297167355587308,
        0.09836172474190025,
        -0.0027762664435184757,
        0.0,
        -0.0032801024284272143,
        -0.010545004026120583,
        0.01663161883118392,
        0.00998074730965663,
        -0.041054821500600754,
        0.04649338391569701,
        -0.0006779448003228256,
        0.01886578319910194,
        -0.04724951521342616,
        0.039435286011955416
      ],
      [
        0.0016569661240983117,
        -0.07536640249984936,
        -0.11890204834877445,
        0.004059256330805839,
        -0.013085386722466478,
        0.05651750429463139,
        0.018913825833623155,
        0.037589591328478604,
        -0.030916079094497832,
        0.1388574521762158,
        0.1512500817075405,
        0.010561663477542367,
        0.021248403706525327,
        0.0016569661240983117,
        0.0,
        0.0029685874821916043,
        -0.06572256414991093,
        -0.11558984454144736,
        0.1341418541109759,
        0.0,
        0.0573949987235936,
        -0.10816115789576568,
        0.0,
        0.0029685874821916043,
        0.0,
        -0.025448253909477307,
        -0.1441078387797935,
        0.0,
        0.08511685490173292,
        0.0009670211499154659,
        -0.02701664716674382,
        0.1388574521762158,
        -0.021597689386603443,
        0.0,
        -0.03450552579831315,
        0.0,
        0.010315237539927191,
        -0.0366629141659317,
        0.1148093924916632,
        0.016013910634053805,
        0.024786770512710676,
        0.012707043322294689,
        0.011547686381403589,
        0.0029685874821916043,
        0.0029685874821916043,
        -0.05139118148987519,
        -0.15289408651392364,
        0.11944889250885661,
        0.08976322696513155,
        0.03940927669806788,
        0.0025348950023753487,
        -0.1577058029290759,
        0.01710822759656381,
        0.01710822759656381,
        0.02279448297512209,
        -0.013859888403801634,
        0.0025348950023753487,
        0.018913825833623155,
        -0.07959324454019932,
        -0.03570175275222983,
        0.04331782642906911,
        -0.07340898480789503,
        -0.05966165600938584,
        0.25669312847072,
        -0.09691104156701122,
        0.1388574521762158,
        -0.13279948856349696,
        0.0038479721591869495,
        0.18266834835965587,
        0.010315237539927191,
        0.0028974362533663776,
        -0.02404805968455235,
        0.024786770512710676,
        0.012096210978246695,
        0.0,
        0.014051491630024318,
        -0.07536640249984936,
        -0.1080127180507867,
        -0.0219626465531431,
        0.004059256330805839,
        -0.013528804678802232,
        0.15421866918973234,
        0.018913825833623155,
        0.037589591328478604,
        -0.030916079094497832
      ],
      [
        0.04995454284122914,
        0.15366405165927088,
        0.05375087101043309,
        0.01764542156404102,
        0.008497750117980553,
        -0.005256869650217005,
        -0.09356153261732028,
        0.024282439886584076,
        0.0421298598861308,
        -0.07423129913657914,
        -0.11627963967537466,
        -0.06405387449629292,
        0.016464663574105014,
        0.04995454284122914,
        0.0,
        0.0022308926033343095,
        -0.030734705741051162,
        -0.06210538776582641,
        -0.08511944466548886,
        0.0,
        -0.2330864039278902,
        0.08355417231564155,
        0.0,
        0.0022308926033343095,
        0.0,
        -0.1338246355838225,
        0.3147622101120457,
        0.0,
        0.06968619726962337,
        -0.010951195617414273,
        -0.06795166589846381,
        -0.07423129913657914,
        0.0060567651475266675,
        0.0,
        0.059079374086662216,
        0.0,
        0.061676862161073216,
        0.07042518483832487,
        -0.13995207243171004,
        -0.08333603088445686,
        -0.023152910275500406,
        0.05090520226501104,
        0.07080388679817101,
        0.0022308926033343095,
        0.0022308926033343095,
        0.11823009733235423,
        0.013918299955417913,
        0.0016590456531958187,
        0.011486372877860767,
        0.02590332535966888,
        -0.032399690264932945,
        0.15319093050528543,
        -0.031160195009886038,
        -0.031160195009886038,
        -0.07199824124032433,
        -0.1395904696268638,
        -0.032399690264932945,
        -0.09356153261732028,
        -0.012231813246647695,
        0.0765284687919755,
        0.12360166313748648,
        0.1423833380107101,
        -0.09193139294271538,
        -0.21239554758977794,
        0.1715051800684545,
        -0.07423129913657914,
        0.035484577042719706,
        -0.005355164371924443,
        -0.05335195348209517,
        0.061676862161073216,
        -0.017549015658922622,
        -0.06572077329512947,
        -0.023152910275500406,
        -0.004815993793056824,
        0.0,
        0.040743355391499626,
        0.15366405165927088,
        0.012331666767219942,
        -0.055607658839911464,
        0.01764542156404102,
        0.0016814530185161607,
        -0.11404874707204062,
        -0.09356153261732028,
        0.024282439886584076,
        0.0421298598861308
      ]
    ],
    "worker_ids": [
      "ollama-cloud-deepseek-v4-pro",
      "ollama-cloud-glm-5.2",
      "ollama-cloud-kimi-k2.7-code",
      "ollama-cloud-qwen3-coder-480b"
    ]
  },
  "target_mode": "reward"
}
