{
  "dataset": "research/datasets/20260628-normal-offset16-contrast-29task-weight0p25-routing.jsonl",
  "epochs": 100,
  "initial_model": "research/models/20260627-mixed-winner-23task-heldout-hard-reward-t0p05-logits-router.json",
  "l2": 0.0001,
  "learning_rate": 0.0001,
  "model_type": "linear-softmax-logits-router",
  "reward_temperature": 0.05,
  "router": {
    "feature_names": [
      "bias",
      "category_datasci",
      "category_filesystem",
      "category_general",
      "category_network",
      "category_plotting",
      "category_subprocess",
      "combo_network_archive",
      "combo_network_filesystem",
      "combo_network_plotting",
      "environment_risk",
      "family_bigcodebench_hard",
      "kw_archive",
      "kw_base64",
      "kw_count",
      "kw_dict",
      "kw_download",
      "kw_fetch",
      "kw_file",
      "kw_files",
      "kw_frequent",
      "kw_hex",
      "kw_http",
      "kw_key",
      "kw_list",
      "kw_lowercase",
      "kw_number",
      "kw_plot",
      "kw_request",
      "kw_requests",
      "kw_scan",
      "kw_sorted",
      "kw_string",
      "kw_strip",
      "kw_subprocess",
      "kw_sum",
      "kw_url",
      "kw_word",
      "kw_zip",
      "length_chars",
      "length_tokens",
      "lib_base64",
      "lib_binascii",
      "lib_codecs",
      "lib_collections",
      "lib_csv",
      "lib_datetime",
      "lib_ftplib",
      "lib_functools",
      "lib_glob",
      "lib_hashlib",
      "lib_itertools",
      "lib_json",
      "lib_math",
      "lib_matplotlib",
      "lib_numpy",
      "lib_os",
      "lib_pandas",
      "lib_pathlib",
      "lib_random",
      "lib_re",
      "lib_requests",
      "lib_shutil",
      "lib_statistics",
      "lib_subprocess",
      "lib_urllib",
      "lib_zipfile",
      "lib_zlib",
      "library_count",
      "missing_library_count",
      "plausibility_score",
      "signal_archive",
      "signal_datasci",
      "signal_filesystem",
      "signal_general",
      "signal_network",
      "signal_plotting",
      "signal_subprocess"
    ],
    "policy": "logits-router",
    "weights": [
      [
        -0.01440926375448073,
        0.05525768805485715,
        0.03504852241343443,
        0.0020164909272095974,
        -0.023647176196350483,
        0.03587614347989914,
        -0.03212621419075288,
        -0.02397461840650421,
        -0.026414604242288933,
        0.02191657733133665,
        -0.014188305717810183,
        -0.01440926375448073,
        0.0,
        -0.008678935422538744,
        0.021207190360565658,
        0.09678993667115177,
        -0.026414604242288933,
        0.0,
        0.1141824355073894,
        -0.002440554688836777,
        0.0,
        -0.008810993802923408,
        0.0,
        0.11205230791006009,
        -0.001982276996868884,
        0.0,
        -0.05017766299007696,
        0.0016082792390377236,
        0.021207190360565658,
        -0.02397461840650421,
        0.0,
        0.0,
        -0.008825695704693562,
        0.0,
        -0.02300003463697253,
        -0.015369486897286023,
        -0.011578421848861882,
        0.03236458857083579,
        -0.08417138424888988,
        -0.042243731650022966,
        -0.04242227037134157,
        -0.008678935422538744,
        -0.008810993802923408,
        -0.03675212317004697,
        0.13298367477555179,
        0.03574502930888421,
        -0.03978058318982421,
        -0.023647176196350483,
        0.010695426349748342,
        -0.08856918329262833,
        0.00014676028215483824,
        0.007586786809538632,
        0.11361759765786998,
        0.010695426349748342,
        0.03587614347989914,
        0.0857862209534815,
        -0.0929539509041236,
        -0.06150064062948789,
        -0.0291615403582365,
        0.025525053079610564,
        -0.029532297839626555,
        -0.02397461840650421,
        0.0962351982865992,
        -0.06988932258103149,
        -0.02300003463697253,
        0.01239619655764232,
        -0.08417138424888988,
        -1.4701901770225878e-05,
        -0.005314797269022594,
        0.0,
        -0.024074941494391527,
        0.012063814037709737,
        0.0067915703282377905,
        0.03504852241343443,
        0.0014125016808201746,
        -0.035225598045212046,
        0.03587614347989914,
        -0.03212621419075288
      ],
      [
        -0.08958469905467491,
        -0.060480781558194155,
        -0.05975896452680621,
        -0.006118491831191991,
        -0.01958521005933719,
        -0.0028595797074088517,
        -0.03744129782488234,
        -0.023161006623618467,
        -0.023336019241983707,
        0.005991140010833687,
        -0.011751126035602381,
        -0.08958469905467491,
        0.0,
        -0.0028237314132697378,
        0.019410197440971888,
        -0.01288418104338431,
        -0.023336019241983707,
        0.0,
        0.007254526326784446,
        0.006575120513295827,
        0.0,
        -0.0038619558329628227,
        0.0,
        -0.02277799681982631,
        -0.11689043492947121,
        0.0,
        -0.04890799576191076,
        0.00022258161593767615,
        0.019410197440971888,
        -0.023161006623618467,
        0.0,
        0.0,
        -0.0034171523157190916,
        0.0,
        -0.01912801653774417,
        -0.024447313354460702,
        -0.007612765015609331,
        0.0014264303238727444,
        0.07916413624108115,
        -0.0250645330286599,
        -0.038216158401477116,
        -0.0028237314132697378,
        -0.0038619558329628227,
        -0.024482293828974912,
        -0.007919925712310072,
        -0.05865722662818664,
        -0.045079357956987316,
        -0.01958521005933719,
        -0.0032947604179221868,
        0.08275685638981778,
        0.0005934209024493438,
        -0.0010804393605348365,
        -0.01922662246147314,
        -0.0032947604179221868,
        -0.0028595797074088517,
        -0.04585030926444473,
        -0.04315370099293018,
        -0.03347478923067316,
        0.12587624318700186,
        -0.07542291107881212,
        -0.046433133928196105,
        -0.023161006623618467,
        -0.049744755088741224,
        -0.021618988715349997,
        -0.01912801653774417,
        0.015548241608009078,
        0.07916413624108115,
        0.0004448035172437334,
        -0.024576977341219778,
        0.0,
        -0.027464005608444985,
        0.029419381152340027,
        0.0004111847893396566,
        -0.05975896452680621,
        0.0017491410395272142,
        -0.027197975074946486,
        -0.0028595797074088517,
        -0.03744129782488234
      ],
      [
        0.02391691699095186,
        -0.10344914617743639,
        0.03877615103158128,
        0.00021822101835821883,
        0.018322580412176052,
        0.008266255349740724,
        0.04100956101523919,
        0.09537372169671963,
        0.09343799957112846,
        0.010914375868315692,
        0.010993548247305652,
        0.02391691699095186,
        0.0,
        0.0024337168487938345,
        -0.02025830253776695,
        -0.06466932677668698,
        0.09343799957112846,
        0.0,
        0.0868219418146474,
        -0.011328853217245015,
        0.0,
        0.0027072067601866924,
        0.0,
        -0.05024534165957572,
        -0.11216572339056834,
        0.0,
        0.06687097268507695,
        -0.0007324006463074887,
        -0.02025830253776695,
        0.09537372169671963,
        0.0,
        0.0,
        0.0027165987600166297,
        0.0,
        0.017670850636257514,
        -0.03232021683666721,
        0.07782262591913958,
        0.0044824514708358895,
        0.00937355748947181,
        0.009393248906741397,
        0.01596512911564593,
        0.0024337168487938345,
        0.0027072067601866924,
        -0.02979832640495759,
        -0.06017615469749331,
        0.13028795388776768,
        0.05092882757993566,
        0.018322580412176052,
        -0.0022154958304356153,
        -0.11538534292700095,
        -0.00028288191122279727,
        0.00464963744234784,
        -0.038850198251398495,
        -0.0022154958304356153,
        0.008266255349740724,
        -0.06820216742257784,
        0.0638567603808878,
        -0.0608133666491651,
        -0.04084560211828574,
        0.16603703382965962,
        -0.061554033313248324,
        0.09537372169671963,
        -0.0830232079175452,
        0.11222365141194376,
        0.017670850636257514,
        -0.01755109577758033,
        0.00937355748947181,
        9.391999829943566e-06,
        0.010122777667437154,
        0.0,
        0.016764693736658818,
        -0.07364965042807403,
        -0.006457285975345697,
        0.03877615103158128,
        -0.00022543689199983888,
        0.0961452063313152,
        0.008266255349740724,
        0.04100956101523919
      ],
      [
        0.0800770458182047,
        0.10867223968077322,
        -0.014065708918209503,
        0.003883779885624138,
        0.024909805843511584,
        -0.04128281912223107,
        0.02855795100039609,
        -0.04823809666659709,
        -0.04368737608685646,
        -0.038822093210486026,
        0.01494588350610695,
        0.0800770458182047,
        0.0,
        0.009068949987014767,
        -0.0203590852637707,
        -0.019236428851079835,
        -0.04368737608685646,
        0.0,
        -0.20825890364882174,
        0.007194287392785964,
        0.0,
        0.00996574287569961,
        0.0,
        -0.039028969430657985,
        0.23103843531690932,
        0.0,
        0.03221468606691036,
        -0.0010984602086679114,
        -0.0203590852637707,
        -0.04823809666659709,
        0.0,
        0.0,
        0.00952624926039615,
        0.0,
        0.024457200538459165,
        0.07213701708841368,
        -0.058631439054668284,
        -0.038273470365544335,
        -0.004366309481663333,
        0.057915015771941324,
        0.06467329965717244,
        0.009068949987014767,
        0.00996574287569961,
        0.09103274340397931,
        -0.06488759436574855,
        -0.10737575656846601,
        0.033931113566875726,
        0.024909805843511584,
        -0.005185170101390586,
        0.12119766982981148,
        -0.00045729927338138555,
        -0.01115598489135165,
        -0.05554077694499812,
        -0.005185170101390586,
        -0.04128281912223107,
        0.028266255733541527,
        0.07225089151616665,
        0.15578879650932684,
        -0.05586910071047956,
        -0.11613917583045798,
        0.1375194650810711,
        -0.04823809666659709,
        0.03653276471968707,
        -0.02071534011556198,
        0.024457200538459165,
        -0.010393342388071089,
        -0.004366309481663333,
        -0.0004394936153034515,
        0.019768996942805046,
        0.0,
        0.03477425336617765,
        0.03216645523802392,
        -0.0007454691422317572,
        -0.014065708918209503,
        -0.0029362058283475562,
        -0.03372163321115679,
        -0.04128281912223107,
        0.02855795100039609
      ]
    ],
    "worker_ids": [
      "ollama-cloud-deepseek-v4-pro",
      "ollama-cloud-glm-5.2",
      "ollama-cloud-kimi-k2.7-code",
      "ollama-cloud-qwen3-coder-480b"
    ]
  },
  "target_mode": "reward"
}
