{
  "dataset": "research/datasets/20260628-live-augmented-30task-routing.jsonl",
  "epochs": 300,
  "initial_model": "research/models/20260627-mixed-winner-23task-heldout-hard-reward-t0p05-logits-router.json",
  "l2": 0.0001,
  "learning_rate": 0.0005,
  "model_type": "linear-softmax-logits-router",
  "reward_temperature": 0.1,
  "router": {
    "feature_names": [
      "bias",
      "category_algorithmic",
      "category_datasci",
      "category_filesystem",
      "category_general",
      "category_network",
      "category_plotting",
      "category_subprocess",
      "category_text",
      "combo_network_archive",
      "combo_network_filesystem",
      "combo_network_plotting",
      "environment_risk",
      "family_bigcodebench_hard",
      "kw_archive",
      "kw_base64",
      "kw_count",
      "kw_dict",
      "kw_download",
      "kw_fetch",
      "kw_file",
      "kw_files",
      "kw_frequent",
      "kw_hex",
      "kw_http",
      "kw_key",
      "kw_list",
      "kw_lowercase",
      "kw_number",
      "kw_plot",
      "kw_request",
      "kw_requests",
      "kw_scan",
      "kw_sorted",
      "kw_string",
      "kw_strip",
      "kw_subprocess",
      "kw_sum",
      "kw_url",
      "kw_word",
      "kw_zip",
      "length_chars",
      "length_tokens",
      "lib_base64",
      "lib_binascii",
      "lib_codecs",
      "lib_collections",
      "lib_csv",
      "lib_datetime",
      "lib_ftplib",
      "lib_functools",
      "lib_glob",
      "lib_itertools",
      "lib_json",
      "lib_math",
      "lib_matplotlib",
      "lib_numpy",
      "lib_operator",
      "lib_os",
      "lib_pandas",
      "lib_pathlib",
      "lib_random",
      "lib_re",
      "lib_requests",
      "lib_shutil",
      "lib_statistics",
      "lib_subprocess",
      "lib_urllib",
      "lib_zipfile",
      "library_count",
      "missing_library_count",
      "plausibility_score",
      "signal_algorithmic",
      "signal_archive",
      "signal_datasci",
      "signal_filesystem",
      "signal_general",
      "signal_network",
      "signal_plotting",
      "signal_subprocess",
      "signal_text"
    ],
    "policy": "logits-router",
    "weights": [
      [
        0.012433398784502938,
        -0.06263604901927913,
        0.12021114059815467,
        0.0488545372007868,
        0.0047400913706616395,
        -0.0323082617536922,
        0.060168476157602103,
        -0.038041295722178965,
        -0.020757565090069163,
        -0.03355616968463667,
        -0.021876784713565106,
        0.03933609526916517,
        -0.022939357047384364,
        0.012433398784502938,
        0.0,
        -0.002177112296294244,
        0.04398764672476367,
        0.18117452083779947,
        -0.021876784713565106,
        0.0,
        0.16696306367577965,
        -0.04655332789164543,
        0.0,
        -0.002177112296294244,
        0.0,
        0.21363961407468243,
        0.0184746749921649,
        0.0,
        -0.08622447272829814,
        0.0080741985213887,
        0.04398764672476367,
        -0.03355616968463667,
        0.0,
        0.0,
        -0.027425597800024203,
        0.0,
        -0.05008026172953804,
        -0.011700365467910005,
        0.008254364743832635,
        0.04838557093457044,
        -0.1182286065157524,
        -0.09437298832517468,
        -0.0498635326147531,
        -0.002177112296294244,
        -0.002177112296294244,
        -0.03888458673939461,
        0.16461113043810766,
        -0.014865309910569818,
        -0.04928877596320228,
        -0.0323082617536922,
        0.027674768757024935,
        -0.12327975845450831,
        0.03545862174336463,
        0.19184341981807684,
        0.027674768757024935,
        0.060168476157602103,
        0.15882593588713895,
        -0.02524848550373003,
        -0.1484240746568033,
        -0.06753841674574608,
        -0.04666082719634994,
        0.07289868092402647,
        -0.03923705861617225,
        -0.03355616968463667,
        0.17717910964408964,
        -0.11318856157086928,
        -0.05008026172953804,
        0.041810534428469374,
        -0.1182286065157524,
        0.005300206692137104,
        0.0,
        -0.03709093871192718,
        -0.06263604901927913,
        0.05895050312833756,
        0.07176542281314735,
        0.0488545372007868,
        0.0041363563502333405,
        -0.024053897009859188,
        0.060168476157602103,
        -0.038041295722178965,
        -0.020757565090069163
      ],
      [
        -0.07745060332095736,
        -0.03679316335685014,
        -0.045240798337487544,
        -0.09065852063044713,
        -0.028725304083289258,
        -0.0300408489581868,
        0.024120620750762774,
        -0.04129896636382571,
        -0.03609859919561283,
        -0.040122691508001115,
        -0.022232557674297784,
        0.01884660744564672,
        -0.020629957129862188,
        -0.07745060332095736,
        0.0,
        0.0008308009413260278,
        0.04793098279189021,
        -0.006573363186812076,
        -0.022232557674297784,
        0.0,
        0.021725009501038336,
        0.06563694130823042,
        0.0,
        0.0008308009413260278,
        0.0,
        -0.012331803249365822,
        -0.18014402273671348,
        0.0,
        -0.07519342959998546,
        0.006905646151478993,
        0.04793098279189021,
        -0.040122691508001115,
        0.0,
        0.0,
        -0.015982637967799286,
        0.0,
        -0.04306808773293727,
        -0.027804602533840327,
        0.008639092225215288,
        0.01707106247284699,
        0.13614251135115796,
        0.001274522295091089,
        -0.037270666066687747,
        0.0008308009413260278,
        0.0008308009413260278,
        -0.03164432414160718,
        -0.02045052548855149,
        -0.12373917774341822,
        -0.05637681811341114,
        -0.0300408489581868,
        0.006542494170997562,
        0.15333190531122712,
        0.02021965449280069,
        -0.0011462985876735546,
        0.006542494170997562,
        0.024120620750762774,
        -0.057062049208311594,
        -0.016813438909125275,
        -0.03691798940609954,
        -0.006976713890305756,
        0.22211676603781194,
        -0.12873881454122574,
        -0.05672390755495738,
        -0.040122691508001115,
        -0.08084645130449952,
        -0.02340966312408885,
        -0.04306808773293727,
        0.04876178373321676,
        0.13614251135115796,
        -0.013463796831077575,
        0.0,
        -0.03176179793545674,
        -0.03679316335685014,
        0.05529606004665915,
        0.015625537887057322,
        -0.09065852063044713,
        -0.020860982788960206,
        -0.0214017567329715,
        0.024120620750762774,
        -0.04129896636382571,
        -0.03609859919561283
      ],
      [
        -0.0035335422008863416,
        -0.060548052084094375,
        -0.1382258874547955,
        -0.0014890572248914722,
        -0.019860838324065544,
        0.04211722753821009,
        0.01653105234123904,
        0.03939366094233328,
        -0.026643281844147163,
        0.1531735184795643,
        0.14793064840742323,
        0.011747450351740598,
        0.017584687501004847,
        -0.0035335422008863416,
        0.0,
        0.004210294026526101,
        -0.04736009761035072,
        -0.10975812360273728,
        0.14793064840742323,
        0.0,
        0.060365433402531365,
        -0.10518553794017249,
        0.0,
        0.004210294026526101,
        0.0,
        -0.0523280729058735,
        -0.17494947310526074,
        0.0,
        0.09863986937962292,
        -0.002713806427808621,
        -0.04736009761035072,
        0.1531735184795643,
        0.0,
        0.0,
        -0.03242873937517455,
        0.0,
        0.003688982428603438,
        -0.04312311382328699,
        0.11002371489573955,
        0.009678912841096487,
        0.0180338321219646,
        0.02789911956877811,
        0.014720130555847005,
        0.004210294026526101,
        0.004210294026526101,
        -0.049258708502970976,
        -0.15263447072354389,
        0.11299802429214915,
        0.09611199055039985,
        0.04211722753821009,
        0.0025721494935555264,
        -0.17593128679704553,
        0.02372282060648386,
        -0.03872818019170978,
        0.0025721494935555264,
        0.01653105234123904,
        -0.0892477385943849,
        -0.03663903340170074,
        0.06826764393468757,
        -0.08129648027697978,
        -0.06892397767212363,
        0.28638981075621883,
        -0.08986345838847325,
        0.1531735184795643,
        -0.13901283094688724,
        0.1934543827834075,
        0.003688982428603438,
        -0.04314980358382461,
        0.0180338321219646,
        0.006336820379344843,
        0.0,
        0.00819494356118341,
        -0.060548052084094375,
        -0.12097899882492254,
        -0.04127485223266594,
        -0.0014890572248914722,
        -0.020304309493750092,
        0.15214094243395024,
        0.01653105234123904,
        0.03939366094233328,
        -0.026643281844147163
      ],
      [
        0.06855074673734038,
        0.1599772644602235,
        0.06325554519412786,
        0.043293040654551675,
        0.043846051036693076,
        0.020231883173668485,
        -0.1008201492496045,
        0.03994660114367122,
        0.08349944612982899,
        -0.07949465728692641,
        -0.10382130601956159,
        -0.06993015306655244,
        0.025984626676241726,
        0.06855074673734038,
        0.0,
        -0.0028639826715577913,
        -0.04455853190630323,
        -0.06484303404824937,
        -0.10382130601956159,
        0.0,
        -0.2490535065793493,
        0.0861019245235877,
        0.0,
        -0.0028639826715577913,
        0.0,
        -0.1489797379194431,
        0.3366188208498092,
        0.0,
        0.06277803294866043,
        -0.012266038245059152,
        -0.04455853190630323,
        -0.07949465728692641,
        0.0,
        0.0,
        0.07583697514299821,
        0.0,
        0.08945936703387153,
        0.08262808182503706,
        -0.12691717186478688,
        -0.07513554624851383,
        -0.035947736957371225,
        0.06519934646130535,
        0.07241406812559394,
        -0.0028639826715577913,
        -0.0028639826715577913,
        0.11978761938397375,
        0.008473865773986863,
        0.02560646336183865,
        0.009553603526214106,
        0.020231883173668485,
        -0.03678941242157813,
        0.1458791399403258,
        -0.07940109684264861,
        -0.15196894103869246,
        -0.03678941242157813,
        -0.1008201492496045,
        -0.012516148084442066,
        0.0787009578145563,
        0.11707442012821631,
        0.15581161091302953,
        -0.106531961169339,
        -0.23054967713901892,
        0.18582442455960213,
        -0.07949465728692641,
        0.04268017260729725,
        -0.05685615808844854,
        0.08945936703387153,
        -0.047422514577861015,
        -0.035947736957371225,
        0.0018267697595956164,
        0.0,
        0.06065779308620046,
        0.1599772644602235,
        0.006732435649926163,
        -0.046116108467538615,
        0.043293040654551675,
        0.03702893593247667,
        -0.10668528869111886,
        -0.1008201492496045,
        0.03994660114367122,
        0.08349944612982899
      ]
    ],
    "worker_ids": [
      "ollama-cloud-deepseek-v4-pro",
      "ollama-cloud-glm-5.2",
      "ollama-cloud-kimi-k2.7-code",
      "ollama-cloud-qwen3-coder-480b"
    ]
  },
  "target_mode": "reward"
}
