{
  "dataset": "research/datasets/20260628-mixed-winner-24task-next3-routing.jsonl",
  "epochs": 300,
  "l2": 0.0001,
  "learning_rate": 0.0005,
  "model_type": "linear-softmax-logits-router",
  "reward_temperature": 0.2,
  "router": {
    "feature_names": [
      "bias",
      "category_datasci",
      "category_filesystem",
      "category_general",
      "category_network",
      "category_plotting",
      "category_subprocess",
      "combo_archive_filesystem",
      "combo_dataframe_plotting",
      "combo_network_archive",
      "combo_network_filesystem",
      "combo_network_plotting",
      "environment_risk",
      "family_bigcodebench_hard",
      "family_code_data",
      "family_code_easy",
      "family_code_text",
      "kw_archive",
      "kw_base64",
      "kw_convert",
      "kw_count",
      "kw_csv",
      "kw_default",
      "kw_dict",
      "kw_directory",
      "kw_download",
      "kw_email",
      "kw_encoding",
      "kw_exception",
      "kw_file",
      "kw_flatten",
      "kw_frequent",
      "kw_ftp",
      "kw_group",
      "kw_hash",
      "kw_hex",
      "kw_http",
      "kw_https",
      "kw_key",
      "kw_list",
      "kw_lowercase",
      "kw_number",
      "kw_pair",
      "kw_parse",
      "kw_process",
      "kw_request",
      "kw_requests",
      "kw_socket",
      "kw_sorted",
      "kw_ssl",
      "kw_string",
      "kw_strip",
      "kw_subprocess",
      "kw_sum",
      "kw_title",
      "kw_unpack",
      "kw_url",
      "kw_urllib",
      "kw_window",
      "kw_word",
      "kw_zip",
      "length_chars",
      "length_tokens",
      "lib_base64",
      "lib_binascii",
      "lib_codecs",
      "lib_collections",
      "lib_csv",
      "lib_datetime",
      "lib_ftplib",
      "lib_functools",
      "lib_glob",
      "lib_itertools",
      "lib_json",
      "lib_math",
      "lib_matplotlib",
      "lib_numpy",
      "lib_os",
      "lib_pandas",
      "lib_pathlib",
      "lib_random",
      "lib_re",
      "lib_requests",
      "lib_shutil",
      "lib_statistics",
      "lib_statsmodels",
      "lib_subprocess",
      "lib_typing",
      "lib_urllib",
      "lib_zipfile",
      "library_count",
      "missing_library_count",
      "plausibility_score",
      "signal_archive",
      "signal_dataframe",
      "signal_filesystem",
      "signal_network",
      "signal_plotting",
      "signal_subprocess"
    ],
    "policy": "logits-router",
    "weights": [
      [
        -0.026055279553949505,
        0.015799350825029493,
        0.033837372456894575,
        0.004253104569538948,
        -0.020054120541237928,
        -0.002700177904382743,
        -0.030576362199700505,
        0.01682960193660799,
        -0.01900631542716102,
        -0.017707420944705756,
        -0.021502816485896303,
        0.015551378774475908,
        -0.030349087583107396,
        -0.026055279553949505,
        0.0,
        0.0,
        0.0,
        0.0,
        -0.002578320748366654,
        -0.002578320748366654,
        0.01625872500004739,
        0.0012704205084255213,
        -0.020054120541237928,
        0.0871366955390359,
        -0.02138963766368466,
        -0.021502816485896303,
        -0.018930860864743215,
        -0.002578320748366654,
        -0.07787536755624017,
        0.10131907645817617,
        0.0,
        0.0,
        -0.020054120541237928,
        0.0,
        0.0,
        -0.002578320748366654,
        0.0,
        0.0,
        0.09363598714676741,
        -0.031335545015529515,
        0.0,
        -0.044944003484522786,
        0.0,
        -0.002578320748366654,
        -0.03663828180944906,
        0.01625872500004739,
        -0.017707420944705756,
        0.0,
        0.0,
        0.0,
        -0.002578320748366654,
        0.0,
        -0.020054120541237928,
        -0.011333693741149356,
        0.007198719690449234,
        0.0,
        -0.004027016693025092,
        0.013680404251680716,
        0.0,
        0.019874035754140294,
        -0.06323622545925527,
        -0.050392075997679794,
        -0.03781180381497798,
        -0.002578320748366654,
        -0.002578320748366654,
        -0.021509181613109756,
        0.1103438107898447,
        0.03246899351279981,
        -0.038135813084363576,
        -0.020054120541237928,
        0.006831425317905591,
        -0.06638061211719035,
        0.00886057521746801,
        0.09165834737946571,
        0.006831425317905591,
        -0.002700177904382743,
        0.07642861607631447,
        -0.07072167637941201,
        -0.07753097621646585,
        -0.020240091778622973,
        0.030324511002305866,
        -0.027564530763289283,
        -0.017707420944705756,
        0.08006582739586338,
        -0.05262820196757302,
        -0.03052769209727444,
        -0.020054120541237928,
        -0.03052769209727444,
        0.013680404251680716,
        -0.06323622545925527,
        -0.010718123874057517,
        -0.009158307629182329,
        -0.03659157424278669,
        0.01682960193660799,
        0.015799350825029493,
        0.033837372456894575,
        -0.024081137234263115,
        -0.002700177904382743,
        -0.030576362199700505
      ],
      [
        -0.04474620801314441,
        -0.005029830273916848,
        -0.07171610975681489,
        0.002528590857830221,
        -0.022313335868506055,
        0.04275218378169594,
        -0.020065189623790704,
        0.005947680013975867,
        0.029352757120496703,
        -0.01600054277215407,
        -0.01505197809239073,
        0.013033151197242977,
        0.006825950729890157,
        -0.04474620801314441,
        0.0,
        0.0,
        0.0,
        0.0,
        0.0005404959771205435,
        0.0005404959771205435,
        0.023261900548269484,
        0.018636357607963304,
        -0.022313335868506055,
        -0.014531801442259908,
        -0.03442774312280351,
        -0.01505197809239073,
        -0.019271479874278963,
        0.0005404959771205435,
        0.025791347641191172,
        -0.0045314781539960835,
        0.0,
        0.0,
        -0.022313335868506055,
        0.0,
        0.0,
        0.0005404959771205435,
        0.0,
        0.0,
        -0.017951648693346384,
        -0.07889971451133855,
        0.0,
        -0.032246356442310255,
        0.0,
        0.0005404959771205435,
        -0.03527202264643306,
        0.023261900548269484,
        -0.01600054277215407,
        0.0,
        0.0,
        0.0,
        0.0005404959771205435,
        0.0,
        -0.022313335868506055,
        -0.01607399238756351,
        -0.002100313572257627,
        0.0,
        0.007801853753235991,
        0.02380239652538996,
        0.0,
        0.01079630147167432,
        0.0503724999439876,
        -0.026784076293603656,
        -0.022165141984584195,
        0.0005404959771205435,
        0.0005404959771205435,
        -0.01873098389715843,
        -0.003909720483749926,
        -0.057130419931194644,
        -0.03073525540134323,
        -0.022313335868506055,
        0.001988094880709671,
        0.049416643248001456,
        0.0052332886455154284,
        -0.017851680527468206,
        0.001988094880709671,
        0.04275218378169594,
        -0.04356418260544901,
        -0.059448214183651024,
        0.022508066222058757,
        0.08701996270749174,
        -0.05958053718025445,
        -0.034918111404688264,
        -0.01600054277215407,
        -0.044424819930011676,
        -0.015137194046206642,
        0.03368992041832304,
        -0.022313335868506055,
        0.03368992041832304,
        0.02380239652538996,
        0.0503724999439876,
        -0.009251627047389514,
        0.010106976125496922,
        -0.0034754216778894614,
        0.005947680013975867,
        -0.005029830273916848,
        -0.07171610975681489,
        -0.014511482115270088,
        0.04275218378169594,
        -0.020065189623790704
      ],
      [
        0.04039222972881787,
        -0.058782720706121366,
        0.0375526164958571,
        -0.0027513465839746794,
        0.019975085664921195,
        0.031193007966259324,
        0.028539815693547674,
        -0.06339399004773465,
        0.031110253769397824,
        0.07393575503172514,
        0.07488965994457672,
        0.0012855768959381766,
        0.034922157111873776,
        0.04039222972881787,
        0.0,
        0.0,
        0.0,
        0.0,
        -0.0011447716052248901,
        -0.0011447716052248901,
        -0.019021180752069582,
        0.049197224061310545,
        0.019975085664921195,
        -0.049018868401007526,
        -0.06991493532667085,
        0.07488965994457672,
        -0.034836711120527684,
        -0.0011447716052248901,
        -0.04037770549618598,
        0.07030488751965021,
        0.0,
        0.0,
        0.019975085664921195,
        0.0,
        0.0,
        -0.0011447716052248901,
        0.0,
        0.0,
        -0.039026576105023775,
        -0.05659632522821215,
        0.0,
        0.054938196757964686,
        0.0,
        -0.0011447716052248901,
        0.03909904391119719,
        -0.019021180752069582,
        0.07393575503172514,
        0.0,
        0.0,
        0.0,
        -0.0011447716052248901,
        0.0,
        0.019975085664921195,
        -0.028102605922606865,
        -0.00482530918255994,
        0.0,
        0.05376980267443073,
        -0.020165952357294337,
        0.0,
        -0.0010073696736394172,
        0.013808879583771845,
        0.020183044750633147,
        0.013174407400469901,
        -0.0011447716052248901,
        -0.0011447716052248901,
        -0.035981482725752655,
        -0.050084289168498775,
        0.11649644027861344,
        0.03306431702545971,
        0.019975085664921195,
        -0.0016065749787497802,
        -0.09494249246191336,
        0.0012485099358579728,
        -0.02876600692625223,
        -0.0016065749787497802,
        0.031193007966259324,
        -0.06184191192327247,
        0.06383437874769361,
        -0.028922434988768914,
        -0.030488719921421867,
        0.12575709280630204,
        -0.06327822923810103,
        0.07393575503172514,
        -0.07720286963150633,
        0.08899488934635928,
        0.03822850952153523,
        0.019975085664921195,
        0.03822850952153523,
        -0.020165952357294337,
        0.013808879583771845,
        0.01675633785842241,
        0.011468552856460514,
        0.03609294503447975,
        -0.06339399004773465,
        -0.058782720706121366,
        0.0375526164958571,
        0.07374488833935193,
        0.031193007966259324,
        0.028539815693547674
      ],
      [
        0.03040925783827562,
        0.04801320015500885,
        0.00032612080406352724,
        -0.004030348843394482,
        0.022392370744822865,
        -0.07124501384357268,
        0.022101736129943927,
        0.040616708097150525,
        -0.04145669546273327,
        -0.04022779131486543,
        -0.03833486536628986,
        -0.029870106867657092,
        -0.01139902025865656,
        0.03040925783827562,
        0.0,
        0.0,
        0.0,
        0.0,
        0.0031825963764710178,
        0.0031825963764710178,
        -0.020499444796247303,
        -0.06910400217769908,
        0.022392370744822865,
        -0.02358602569576797,
        0.12573231611315905,
        -0.03833486536628986,
        0.07303905185954973,
        0.0031825963764710178,
        0.09246172541123467,
        -0.1670924858238306,
        0.0,
        0.0,
        0.022392370744822865,
        0.0,
        0.0,
        0.0031825963764710178,
        0.0,
        0.0,
        -0.03665776234839775,
        0.1668315847550794,
        0.0,
        0.022252163168868307,
        0.0,
        0.0031825963764710178,
        0.03281126054468447,
        -0.020499444796247303,
        -0.04022779131486543,
        0.0,
        0.0,
        0.0,
        0.0031825963764710178,
        0.0,
        0.022392370744822865,
        0.05551029205131983,
        -0.000273096935631663,
        0.0,
        -0.057544639734641655,
        -0.017316848419776196,
        0.0,
        -0.029662967552175165,
        -0.0009451540685041466,
        0.05699310754065023,
        0.046802538399092,
        0.0031825963764710178,
        0.0031825963764710178,
        0.07622164823602129,
        -0.056349801137596744,
        -0.09183501386021801,
        0.03580675146024711,
        0.022392370744822865,
        -0.007212945219865492,
        0.11190646133110192,
        -0.015342373798841433,
        -0.045040659925745415,
        -0.007212945219865492,
        -0.07124501384357268,
        0.02897747845240695,
        0.06633551181536987,
        0.08394534498317584,
        -0.03629115100744635,
        -0.0965010666283532,
        0.1257608714060785,
        -0.04022779131486543,
        0.04156186216565482,
        -0.021229493332579424,
        -0.04139073784258391,
        0.022392370744822865,
        -0.04139073784258391,
        -0.017316848419776196,
        -0.0009451540685041466,
        0.0032134130630246814,
        -0.01241722135277518,
        0.003974050886196238,
        0.040616708097150525,
        0.04801320015500885,
        0.00032612080406352724,
        -0.035152268989818866,
        -0.07124501384357268,
        0.022101736129943927
      ]
    ],
    "worker_ids": [
      "ollama-cloud-deepseek-v4-pro",
      "ollama-cloud-glm-5.2",
      "ollama-cloud-kimi-k2.7-code",
      "ollama-cloud-qwen3-coder-480b"
    ]
  },
  "target_mode": "reward"
}
