{
  "dataset": "research/datasets/20260627-mixed-winner-10task-routing.jsonl",
  "epochs": 300,
  "l2": 0.0001,
  "learning_rate": 0.0005,
  "model_type": "linear-softmax-logits-router",
  "reward_temperature": 0.1,
  "router": {
    "feature_names": [
      "bias",
      "category_datasci",
      "category_filesystem",
      "category_general",
      "category_network",
      "category_plotting",
      "category_subprocess",
      "environment_risk",
      "family_bigcodebench_hard",
      "family_code_data",
      "family_code_easy",
      "family_code_text",
      "kw_base64",
      "kw_convert",
      "kw_count",
      "kw_csv",
      "kw_default",
      "kw_dict",
      "kw_directory",
      "kw_download",
      "kw_email",
      "kw_encoding",
      "kw_exception",
      "kw_file",
      "kw_flatten",
      "kw_frequent",
      "kw_ftp",
      "kw_group",
      "kw_hash",
      "kw_hex",
      "kw_key",
      "kw_list",
      "kw_lowercase",
      "kw_number",
      "kw_pair",
      "kw_parse",
      "kw_process",
      "kw_socket",
      "kw_sorted",
      "kw_ssl",
      "kw_string",
      "kw_strip",
      "kw_subprocess",
      "kw_sum",
      "kw_title",
      "kw_url",
      "kw_urllib",
      "kw_window",
      "kw_word",
      "kw_zip",
      "length_chars",
      "length_tokens",
      "lib_base64",
      "lib_binascii",
      "lib_codecs",
      "lib_collections",
      "lib_csv",
      "lib_datetime",
      "lib_ftplib",
      "lib_functools",
      "lib_glob",
      "lib_itertools",
      "lib_math",
      "lib_os",
      "lib_pathlib",
      "lib_random",
      "lib_re",
      "lib_shutil",
      "lib_statistics",
      "lib_subprocess",
      "lib_urllib",
      "lib_zipfile",
      "library_count",
      "missing_library_count",
      "plausibility_score"
    ],
    "policy": "logits-router",
    "weights": [
      [
        -0.10207689742352946,
        0.0,
        -0.11152520203331012,
        0.009448304609780174,
        -0.020668840985898978,
        0.0,
        -0.00948867594525587,
        -0.01240130459153939,
        -0.10207689742352946,
        0.0,
        0.0,
        0.0,
        3.828288960943704e-05,
        3.828288960943704e-05,
        0.011180165040643073,
        -0.05438428969914782,
        -0.020668840985898978,
        0.011218447930252513,
        -0.07780252298275407,
        -0.00948867594525587,
        0.0,
        3.828288960943704e-05,
        -0.03383622373924964,
        -0.06748024856471968,
        0.0,
        0.0,
        -0.020668840985898978,
        0.0,
        0.0,
        3.828288960943704e-05,
        3.828288960943704e-05,
        -0.05680172721811051,
        0.0,
        -0.013348670077466906,
        0.0,
        3.828288960943704e-05,
        0.0,
        0.0,
        0.0,
        0.0,
        3.828288960943704e-05,
        0.0,
        -0.020668840985898978,
        0.00941002172017071,
        0.0,
        0.011218447930252513,
        0.011218447930252513,
        0.0,
        0.0,
        -0.03496688652716425,
        -0.03924557465775442,
        -0.02930211902739122,
        3.828288960943704e-05,
        3.828288960943704e-05,
        3.828288960943704e-05,
        0.011180165040643073,
        -0.0337226790505555,
        -0.02275869179763761,
        -0.020668840985898978,
        0.00941002172017071,
        -0.033757569514164386,
        0.00941002172017071,
        0.00941002172017071,
        -0.11152520203331012,
        -0.020661610648592274,
        -0.0449028440911986,
        -0.023376112482691037,
        -0.022166795469691223,
        -0.02214415229356095,
        -0.020668840985898978,
        0.011218447930252513,
        -0.03496688652716425,
        -0.0360576699080127,
        0.0,
        -0.029770277843009906
      ],
      [
        -0.0428727804482572,
        0.0,
        -0.03684495578496932,
        -0.006027824663287933,
        -0.026287789498982708,
        0.0,
        -0.02173308589007716,
        -0.015772673699389592,
        -0.0428727804482572,
        0.0,
        0.0,
        0.0,
        -0.003327079613641,
        -0.003327079613641,
        0.004554703608905604,
        0.0535447933489498,
        -0.026287789498982708,
        0.0012276239952645977,
        0.016594635101090816,
        -0.02173308589007716,
        0.0,
        -0.003327079613641,
        0.05016256777680477,
        0.02115680783046875,
        0.0,
        0.0,
        -0.026287789498982708,
        0.0,
        0.0,
        -0.003327079613641,
        -0.003327079613641,
        -0.09190578331582987,
        0.0,
        -0.030926638304325026,
        0.0,
        -0.003327079613641,
        0.0,
        0.0,
        0.0,
        0.0,
        -0.003327079613641,
        0.0,
        -0.026287789498982708,
        -0.0027007450496469416,
        0.0,
        0.0012276239952645977,
        0.0012276239952645977,
        0.0,
        0.0,
        0.07408569925081825,
        -0.02172963048784012,
        -0.01695129114229276,
        -0.003327079613641,
        -0.003327079613641,
        -0.003327079613641,
        0.004554703608905604,
        -0.053439590886059964,
        -0.02822589325467808,
        -0.026287789498982708,
        -0.0027007450496469416,
        0.07459639871652894,
        -0.0027007450496469416,
        -0.0027007450496469416,
        -0.03684495578496932,
        0.10698438423500978,
        -0.057994294494965626,
        -0.03171397411645531,
        -0.031203274650744725,
        -0.02976840124028753,
        -0.026287789498982708,
        0.0012276239952645977,
        0.07408569925081825,
        -0.007840062760946285,
        0.0,
        -0.018919453338441465
      ],
      [
        0.06831598216631536,
        0.0,
        0.07211974651019605,
        -0.0038037643438805172,
        0.027503060457390018,
        0.0,
        0.010366998443129844,
        0.016501836274434006,
        0.06831598216631536,
        0.0,
        0.0,
        0.0,
        0.0003975052992567291,
        0.0003975052992567291,
        -0.01713606201426019,
        0.12006264065213837,
        0.027503060457390018,
        -0.016738556715003475,
        -0.08596864025639438,
        0.010366998443129844,
        0.0,
        0.0003975052992567291,
        -0.07240625434564284,
        0.0795164036209551,
        0.0,
        0.0,
        0.027503060457390018,
        0.0,
        0.0,
        0.0003975052992567291,
        0.0003975052992567291,
        -0.04902212326420041,
        0.0,
        0.08243477591152784,
        0.0,
        0.0003975052992567291,
        0.0,
        0.0,
        0.0,
        0.0,
        0.0003975052992567291,
        0.0,
        0.027503060457390018,
        -0.0042012696431372384,
        0.0,
        -0.016738556715003475,
        -0.016738556715003475,
        0.0,
        0.0,
        -0.07604750420348044,
        0.022295492785754767,
        0.014015163892591501,
        0.0003975052992567291,
        0.0003975052992567291,
        0.0003975052992567291,
        -0.01713606201426019,
        0.15808838676659048,
        0.08663604555466543,
        0.027503060457390018,
        -0.0042012696431372384,
        -0.0785719831456355,
        -0.0042012696431372384,
        -0.0042012696431372384,
        0.07211974651019605,
        -0.03802574611445251,
        0.1752244487808503,
        -0.03489971756814917,
        -0.03742419651030413,
        0.08858840322618526,
        0.027503060457390018,
        -0.016738556715003475,
        -0.07604750420348044,
        0.03254080924503411,
        0.0,
        0.02822475899873837
      ],
      [
        0.07663369570547132,
        0.0,
        0.07625041130808334,
        0.00038328439738830576,
        0.01945357002749162,
        0.0,
        0.020854763392203116,
        0.01167214201649495,
        0.07663369570547132,
        0.0,
        0.0,
        0.0,
        0.0028912914247748622,
        0.0028912914247748622,
        0.0014011933647115336,
        -0.11922314430194011,
        0.01945357002749162,
        0.004292484789486375,
        0.14717652813805826,
        0.020854763392203116,
        0.0,
        0.0028912914247748622,
        0.056079910308087615,
        -0.03319296288670396,
        0.0,
        0.0,
        0.01945357002749162,
        0.0,
        0.0,
        0.0028912914247748622,
        0.0028912914247748622,
        0.19772963379814051,
        0.0,
        -0.03815946752973614,
        0.0,
        0.0028912914247748622,
        0.0,
        0.0,
        0.0,
        0.0,
        0.0028912914247748622,
        0.0,
        0.01945357002749162,
        -0.0025080070273865423,
        0.0,
        0.004292484789486375,
        0.004292484789486375,
        0.0,
        0.0,
        0.036928691479826574,
        0.0386797123598399,
        0.03223824627709254,
        0.0028912914247748622,
        0.0028912914247748622,
        0.0028912914247748622,
        0.0014011933647115336,
        -0.07092611682997495,
        -0.03565146050234956,
        0.01945357002749162,
        -0.0025080070273865423,
        0.037733153943271064,
        -0.0025080070273865423,
        -0.0025080070273865423,
        0.07625041130808334,
        -0.04829702747196519,
        -0.07232731019468652,
        0.0899898041672955,
        0.0907942666307399,
        -0.03667584969233689,
        0.01945357002749162,
        0.004292484789486375,
        0.036928691479826574,
        0.011356923423924884,
        0.0,
        0.020464972182712936
      ]
    ],
    "worker_ids": [
      "ollama-cloud-deepseek-v4-pro",
      "ollama-cloud-glm-5.2",
      "ollama-cloud-kimi-k2.7-code",
      "ollama-cloud-qwen3-coder-480b"
    ]
  },
  "target_mode": "reward"
}
