{
  "dataset": "research/datasets/20260627-mixed-winner-14task-routing.jsonl",
  "epochs": 300,
  "l2": 0.0001,
  "learning_rate": 0.0005,
  "model_type": "linear-softmax-logits-router",
  "reward_temperature": 0.2,
  "router": {
    "feature_names": [
      "bias",
      "category_datasci",
      "category_filesystem",
      "category_general",
      "category_network",
      "category_plotting",
      "category_subprocess",
      "environment_risk",
      "family_bigcodebench_hard",
      "family_code_data",
      "family_code_easy",
      "family_code_text",
      "kw_base64",
      "kw_convert",
      "kw_count",
      "kw_csv",
      "kw_default",
      "kw_dict",
      "kw_directory",
      "kw_download",
      "kw_email",
      "kw_encoding",
      "kw_exception",
      "kw_file",
      "kw_flatten",
      "kw_frequent",
      "kw_ftp",
      "kw_group",
      "kw_hash",
      "kw_hex",
      "kw_key",
      "kw_list",
      "kw_lowercase",
      "kw_number",
      "kw_pair",
      "kw_parse",
      "kw_process",
      "kw_socket",
      "kw_sorted",
      "kw_ssl",
      "kw_string",
      "kw_strip",
      "kw_subprocess",
      "kw_sum",
      "kw_title",
      "kw_url",
      "kw_urllib",
      "kw_window",
      "kw_word",
      "kw_zip",
      "length_chars",
      "length_tokens",
      "lib_base64",
      "lib_binascii",
      "lib_codecs",
      "lib_collections",
      "lib_csv",
      "lib_datetime",
      "lib_ftplib",
      "lib_functools",
      "lib_glob",
      "lib_itertools",
      "lib_json",
      "lib_math",
      "lib_os",
      "lib_pandas",
      "lib_pathlib",
      "lib_random",
      "lib_re",
      "lib_shutil",
      "lib_statistics",
      "lib_subprocess",
      "lib_urllib",
      "lib_zipfile",
      "library_count",
      "missing_library_count",
      "plausibility_score"
    ],
    "policy": "logits-router",
    "weights": [
      [
        -0.04436190243059645,
        -0.03714838865103254,
        -0.024904820628505308,
        0.008560905787218177,
        -0.020357187231202035,
        0.0,
        -0.0071106619477573465,
        -0.012214312338721297,
        -0.04436190243059645,
        0.0,
        0.0,
        0.0,
        0.0003997226999606588,
        0.0003997226999606588,
        0.007020476934299142,
        -0.07271985163941241,
        -0.020357187231202035,
        0.007420199634259809,
        0.015060573344340729,
        -0.013336710296902969,
        0.0,
        0.0003997226999606588,
        -0.06076570957108622,
        0.038308951123963264,
        0.0,
        0.0,
        -0.020357187231202035,
        0.0,
        0.0,
        0.0003997226999606588,
        0.0003997226999606588,
        -0.08356574900846692,
        0.0,
        -0.03576351215638689,
        0.0,
        0.0003997226999606588,
        0.0,
        0.0,
        0.0,
        0.0,
        0.0003997226999606588,
        0.0,
        -0.020357187231202035,
        -0.0071952663236114454,
        0.0,
        0.007420199634259809,
        0.007420199634259809,
        0.0,
        0.0,
        -0.03922070771771336,
        -0.03872707795734383,
        -0.029439153043700504,
        0.0003997226999606588,
        0.0003997226999606588,
        0.0003997226999606588,
        0.007020476934299142,
        -0.03996539397284603,
        -0.02856824583277541,
        -0.020357187231202035,
        0.0081611830872575,
        -0.05559018236144086,
        0.0081611830872575,
        0.006226048349145657,
        0.0081611830872575,
        -0.024904820628505308,
        -0.03714838865103254,
        -0.017398008255697345,
        0.037278171201780945,
        -0.027500135110397422,
        0.08999491770412513,
        -0.04643561266367909,
        -0.020357187231202035,
        0.007420199634259809,
        -0.03922070771771336,
        -0.0183823338471227,
        0.0,
        -0.02333996669200271
      ],
      [
        -0.05584078230318602,
        -0.0027401549012266856,
        -0.06912903558180966,
        0.002335361573049747,
        -0.0239595753638149,
        0.0,
        -0.011988725478582844,
        -0.014375745218288919,
        -0.05584078230318602,
        0.0,
        0.0,
        0.0,
        -0.00017383130939536664,
        -0.00017383130939536664,
        0.006933039127007673,
        0.02765029909618751,
        -0.0239595753638149,
        0.006759207817612303,
        -0.03043507912995006,
        -0.017026536236807235,
        0.0,
        -0.00017383130939536664,
        0.029743204288021324,
        0.001755796493776837,
        0.0,
        0.0,
        -0.0239595753638149,
        0.0,
        0.0,
        -0.00017383130939536664,
        -0.00017383130939536664,
        -0.09490493261016349,
        0.0,
        -0.034186029442993704,
        0.0,
        -0.00017383130939536664,
        0.0,
        0.0,
        0.0,
        0.0,
        -0.00017383130939536664,
        0.0,
        -0.0239595753638149,
        -0.01622166448257986,
        0.0,
        0.006759207817612303,
        0.006759207817612303,
        0.0,
        0.0,
        0.06132629907768368,
        -0.019382696765686217,
        -0.01522129306635935,
        -0.00017383130939536664,
        -0.00017383130939536664,
        -0.00017383130939536664,
        0.006933039127007673,
        -0.038693956451859475,
        -0.01796436496041385,
        -0.0239595753638149,
        0.0025091928824451217,
        0.044260547642383484,
        0.0025091928824451217,
        0.005037810758224436,
        0.0025091928824451217,
        -0.06912903558180966,
        -0.0027401549012266856,
        0.08507511291307213,
        -0.06225356669328998,
        -0.028194399346746557,
        -0.04907094547879358,
        -0.016709738912879545,
        -0.0239595753638149,
        0.006759207817612303,
        0.06132629907768368,
        -0.011627721099951641,
        0.0,
        -0.018728050651837014
      ],
      [
        0.0406791375853578,
        -0.021306734141745592,
        0.03581522540537142,
        -0.0007015858920646041,
        0.030743818062699397,
        0.0,
        0.01766939699741355,
        0.01844629083761966,
        0.0406791375853578,
        0.0,
        0.0,
        0.0,
        -0.00011988492400581661,
        -0.00011988492400581661,
        -0.011588897771677369,
        0.10140168059854017,
        0.030743818062699397,
        -0.011708782695683238,
        -0.11764403617454199,
        0.019154920291022098,
        0.0,
        -0.00011988492400581661,
        -0.06467851404319365,
        0.05388370508859685,
        0.0,
        0.0,
        0.030743818062699397,
        0.0,
        0.0,
        -0.00011988492400581661,
        -0.00011988492400581661,
        -0.051106313352538915,
        0.0,
        0.056777296567648884,
        0.0,
        -0.00011988492400581661,
        0.0,
        0.0,
        0.0,
        0.0,
        -0.00011988492400581661,
        0.0,
        0.030743818062699397,
        -0.025968409888246925,
        0.0,
        -0.011708782695683238,
        -0.011708782695683238,
        0.0,
        0.0,
        -0.04883448057045095,
        0.019885937399730488,
        0.0124351106527317,
        -0.00011988492400581661,
        -0.00011988492400581661,
        -0.00011988492400581661,
        -0.011588897771677369,
        0.15345926157991327,
        0.08274570645589605,
        0.030743818062699397,
        -0.000581700968058786,
        -0.08325173336615675,
        -0.000581700968058786,
        -0.0014855232936084773,
        -0.000581700968058786,
        0.03581522540537142,
        -0.021306734141745592,
        -0.026670872061185093,
        0.13038864867190228,
        -0.023425588825736803,
        -0.07416666474660247,
        0.0878679509677459,
        0.030743818062699397,
        -0.011708782695683238,
        -0.04883448057045095,
        0.024722039405718765,
        0.0,
        0.02646461940016235
      ],
      [
        0.059523547148424824,
        0.06119527769400473,
        0.058218630804943716,
        -0.010194681468203287,
        0.01357294453231768,
        0.0,
        0.0014299904289266153,
        0.008143766719390608,
        0.059523547148424824,
        0.0,
        0.0,
        0.0,
        -0.00010600646655946619,
        -0.00010600646655946619,
        -0.002364618289629451,
        -0.0563321280553156,
        0.01357294453231768,
        -0.0024706247561889112,
        0.13301854196015134,
        0.011208326242688214,
        0.0,
        -0.00010600646655946619,
        0.0957010193262589,
        -0.0939484527063369,
        0.0,
        0.0,
        0.01357294453231768,
        0.0,
        0.0,
        -0.00010600646655946619,
        -0.00010600646655946619,
        0.22957699497116854,
        0.0,
        0.01317224503173159,
        0.0,
        -0.00010600646655946619,
        0.0,
        0.0,
        0.0,
        0.0,
        -0.00010600646655946619,
        0.0,
        0.01357294453231768,
        0.04938534069443836,
        0.0,
        -0.0024706247561889112,
        -0.0024706247561889112,
        0.0,
        0.0,
        0.026728889210480698,
        0.03822383732329976,
        0.03222533545732817,
        -0.00010600646655946619,
        -0.00010600646655946619,
        -0.00010600646655946619,
        -0.002364618289629451,
        -0.0747999111552078,
        -0.036213095662706675,
        0.01357294453231768,
        -0.010088675001643817,
        0.09458136808521418,
        -0.010088675001643817,
        -0.009778335813761576,
        -0.010088675001643817,
        0.058218630804943716,
        0.06119527769400473,
        -0.04100623259618982,
        -0.10541325318039373,
        0.07912012328288084,
        0.03324269252127108,
        -0.024722599391187455,
        0.01357294453231768,
        -0.0024706247561889112,
        0.026728889210480698,
        0.005288015541355563,
        0.0,
        0.015603397943677322
      ]
    ],
    "worker_ids": [
      "ollama-cloud-deepseek-v4-pro",
      "ollama-cloud-glm-5.2",
      "ollama-cloud-kimi-k2.7-code",
      "ollama-cloud-qwen3-coder-480b"
    ]
  },
  "target_mode": "reward"
}
