{
  "epochs": 300,
  "l2": 0.0001,
  "latency_regret_weight": 0.2,
  "learning_rate": 0.0005,
  "model_type": "linear-multi-head-orchestrator",
  "orchestrator": {
    "abstain_weights": [
      -0.546384338511937,
      -0.1427878824359029,
      -0.20268543285668397,
      -0.10961191111889153,
      -0.05130773629093166,
      -0.1028608484842786,
      -0.052843574213139045,
      -0.14583974159697738,
      -0.03669898464178147,
      -0.013322734101723566,
      -0.07468551436842444,
      -0.014080675824158645,
      -0.09022203739903256,
      -0.546384338511937,
      0.0,
      0.0,
      0.0,
      -0.01932458329401844,
      -0.0240998654433747,
      -0.061037089928501334,
      -0.08578643378376097,
      -0.029541138913473656,
      -0.01613935222790464,
      -0.08859812029711718,
      -0.17697880318716244,
      -0.05820511966316103,
      -0.020085317388469755,
      -0.0240998654433747,
      0.0541354998248989,
      -0.13251058362090795,
      0.0,
      0.0,
      -0.01613935222790464,
      -0.01642699523683016,
      0.0,
      -0.0240998654433747,
      -0.018687989357763612,
      -0.016480394705263204,
      0.07521501983997025,
      -0.2807858733228023,
      -0.03309787550820065,
      -0.197997908390261,
      -0.01877755949330147,
      -0.08387556530452932,
      -0.054537656141287576,
      -0.04743102269129624,
      -0.07309843396287823,
      0.0,
      -0.015807619834032064,
      0.0,
      -0.09229786721934628,
      0.0,
      -0.01613935222790464,
      -0.06526944823050834,
      -0.02844787948452665,
      0.0,
      -0.12594133273978547,
      -0.09393060928030006,
      0.0,
      0.03994180125547564,
      -0.09112760017503442,
      -0.2555472236758327,
      -0.19331637294249393,
      -0.0240998654433747,
      -0.0240998654433747,
      -0.059775699861154705,
      -0.04418518283184438,
      -0.05275154232072906,
      -0.09709372936359656,
      0.15067974497797268,
      -0.01613935222790464,
      -0.027806854369188207,
      -0.07189535361290068,
      -0.08315085372017406,
      -0.04705776190786592,
      -0.027806854369188207,
      -0.08208919293949252,
      -0.15749368624229204,
      -0.10899358905578405,
      -0.13309425740777114,
      -0.018723095539864537,
      -0.041900192195301736,
      -0.0583303198983137,
      -0.07309843396287823,
      -0.0634399454780509,
      -0.11384732612863452,
      -0.07403672471596259,
      -0.1389075261883263,
      -0.05232671952597525,
      -0.03309787550820065,
      -0.01613935222790464,
      -0.09393060928030006,
      -0.09112760017503442,
      -0.17757596169634052,
      -0.029718697812236673,
      -0.18092755937816005,
      -0.14583974159697738,
      -0.1427878824359029,
      -0.20268543285668397,
      -0.14208068496769213,
      -0.1028608484842786,
      -0.052843574213139045
    ],
    "feature_names": [
      "bias",
      "category_datasci",
      "category_filesystem",
      "category_general",
      "category_network",
      "category_plotting",
      "category_subprocess",
      "combo_archive_filesystem",
      "combo_dataframe_plotting",
      "combo_network_archive",
      "combo_network_filesystem",
      "combo_network_plotting",
      "environment_risk",
      "family_bigcodebench_hard",
      "family_code_data",
      "family_code_easy",
      "family_code_text",
      "kw_archive",
      "kw_base64",
      "kw_convert",
      "kw_count",
      "kw_csv",
      "kw_default",
      "kw_dict",
      "kw_directory",
      "kw_download",
      "kw_email",
      "kw_encoding",
      "kw_exception",
      "kw_file",
      "kw_flatten",
      "kw_frequent",
      "kw_ftp",
      "kw_group",
      "kw_hash",
      "kw_hex",
      "kw_http",
      "kw_https",
      "kw_key",
      "kw_list",
      "kw_lowercase",
      "kw_number",
      "kw_pair",
      "kw_parse",
      "kw_process",
      "kw_request",
      "kw_requests",
      "kw_socket",
      "kw_sorted",
      "kw_ssl",
      "kw_string",
      "kw_strip",
      "kw_subprocess",
      "kw_sum",
      "kw_title",
      "kw_unpack",
      "kw_url",
      "kw_urllib",
      "kw_window",
      "kw_word",
      "kw_zip",
      "length_chars",
      "length_tokens",
      "lib_base64",
      "lib_binascii",
      "lib_bs4",
      "lib_codecs",
      "lib_collections",
      "lib_csv",
      "lib_datetime",
      "lib_ftplib",
      "lib_functools",
      "lib_glob",
      "lib_itertools",
      "lib_json",
      "lib_math",
      "lib_matplotlib",
      "lib_numpy",
      "lib_os",
      "lib_pandas",
      "lib_pathlib",
      "lib_random",
      "lib_re",
      "lib_requests",
      "lib_scipy",
      "lib_seaborn",
      "lib_shutil",
      "lib_sklearn",
      "lib_statistics",
      "lib_string",
      "lib_subprocess",
      "lib_urllib",
      "lib_zipfile",
      "library_count",
      "missing_library_count",
      "plausibility_score",
      "signal_archive",
      "signal_dataframe",
      "signal_filesystem",
      "signal_network",
      "signal_plotting",
      "signal_subprocess"
    ],
    "policy": "linear-multi-head-orchestrator",
    "verifier_weights": [
      -0.07379625942615822,
      -0.043914074153917106,
      -0.20914885875844258,
      0.022342058054629094,
      -0.004911275507807385,
      0.05684451978482308,
      0.1528910314725415,
      -0.07851002344611412,
      -0.01609036910092643,
      -0.04385363536498028,
      0.0564995469240672,
      0.013839067240410733,
      -0.035871295106799886,
      -0.07379625942615822,
      0.0,
      0.0,
      0.0,
      0.044700317868921355,
      0.0244483795901892,
      0.003030290763239358,
      0.09034570504647846,
      -0.14622796000393437,
      0.006993789512376403,
      0.04366751037687619,
      -0.11504769107417599,
      0.012037914146971905,
      -0.06381710129406004,
      0.0244483795901892,
      0.19165894599490652,
      -0.1735062996852445,
      0.0,
      0.0,
      0.006993789512376403,
      -0.058730523407486,
      0.0,
      0.0244483795901892,
      -0.056366697797279076,
      0.04446163277709519,
      0.02840306951231664,
      -0.20939712779809952,
      0.029199965598113525,
      -0.11043399565250953,
      0.03782444173671835,
      -0.047646509623391634,
      -0.08231533134054983,
      -0.007468937797703484,
      -0.11594852457856081,
      0.0,
      -0.0467734941454406,
      0.0,
      -0.06239178557856756,
      0.0,
      0.006993789512376403,
      0.012708453243579231,
      0.018593889771795245,
      0.0,
      -0.04260238498879637,
      0.05761794817346309,
      0.0,
      0.16822681242709614,
      -0.04160561694367106,
      -0.05285910684033915,
      -0.0507301789298805,
      0.0244483795901892,
      0.0244483795901892,
      -0.07209488921358105,
      -0.03936872170387098,
      0.13380591552619764,
      -0.05044006092563404,
      -0.0028620520222142035,
      0.006993789512376403,
      0.02888353705972338,
      -0.08527860715355678,
      0.0870178187954668,
      -0.04357065679219179,
      0.02888353705972338,
      0.1151796492598219,
      -0.06466783265521092,
      -0.06914214556815484,
      0.00558591213357978,
      -0.04152976208425889,
      -0.25687556783726734,
      -0.0091596426343254,
      -0.11594852457856081,
      -0.040642976871073815,
      -0.07000675239898256,
      0.0077959113664790546,
      0.08327790318308455,
      -0.0233605353278631,
      0.029199965598113525,
      0.006993789512376403,
      0.05761794817346309,
      -0.04160561694367106,
      -0.03864219083496324,
      -0.016462264901057722,
      -0.05100005949040462,
      -0.07851002344611412,
      -0.043914074153917106,
      -0.20914885875844258,
      -0.03560859547641968,
      0.05684451978482308,
      0.1528910314725415
    ],
    "worker_ids": [
      "ollama-cloud-deepseek-v4-pro",
      "ollama-cloud-glm-5.2",
      "ollama-cloud-kimi-k2.7-code",
      "ollama-cloud-qwen3-coder-480b"
    ],
    "worker_weights": [
      [
        -0.06323254389487701,
        0.054168278369917076,
        0.030682506476801086,
        -0.05572419307956525,
        0.08248783589699867,
        0.03902982421378849,
        0.04099575342052683,
        0.004773711531575525,
        0.013263682286661705,
        -0.043547965022746375,
        -0.05231332639721266,
        0.01792548762686124,
        0.08690318024913893,
        -0.06323254389487701,
        0.0,
        0.0,
        0.0,
        0.024364881460097753,
        -0.011948311855062515,
        -0.05520580269418544,
        -0.007731443628997577,
        0.06000962060087469,
        -0.03559762984515267,
        0.0951157241961507,
        -0.06342647553239784,
        -0.06762386919913757,
        -0.02413234895985283,
        -0.011948311855062515,
        0.03789128669777702,
        0.099353276845078,
        0.0,
        0.0,
        -0.03559762984515267,
        0.11177395564590878,
        0.0,
        -0.011948311855062515,
        0.1027749229402262,
        0.015310542801925061,
        0.055351663099116113,
        -0.039340832707078305,
        0.006261039868245676,
        -0.006595822413188467,
        0.0042216390505032215,
        0.04722382318553356,
        -0.0647100320961613,
        0.11429664860898736,
        0.015624170017849479,
        0.0,
        -0.046227772725561105,
        0.0,
        0.0381140548620771,
        0.0,
        -0.03559762984515267,
        -0.02635631959707999,
        0.0004573528076251106,
        0.0,
        0.015197583831548293,
        -0.044029374085931314,
        0.0,
        0.051505631724286814,
        -0.08015912228183064,
        -0.008936278095139812,
        -0.0018047610222087656,
        -0.011948311855062515,
        -0.011948311855062515,
        0.05917213504059617,
        -0.036080660814915164,
        0.08497364566520363,
        0.05087038543541931,
        -0.10417122585621179,
        -0.03559762984515267,
        0.008876409608806932,
        -0.1016421969649337,
        0.002876229089132583,
        0.0612614655086372,
        0.008876409608806932,
        0.0711676562901018,
        0.05417306610547195,
        -0.12875240150129896,
        0.07414913032445594,
        -0.029799089288203216,
        0.008229816130847504,
        -0.0785436137995295,
        0.015624170017849479,
        -0.08199564537849298,
        -0.1347641386393906,
        0.10929771527350386,
        0.09475297146444066,
        -0.06952393118876325,
        0.006261039868245676,
        -0.03559762984515267,
        -0.044029374085931314,
        -0.08015912228183064,
        -0.027399103776841353,
        0.01870523935546983,
        0.05380044324593128,
        0.004773711531575525,
        0.054168278369917076,
        0.030682506476801086,
        -0.020400046013604466,
        0.03902982421378849,
        0.04099575342052683
      ],
      [
        -0.09128408676266302,
        -0.06668051164506479,
        -0.019535022315625462,
        -0.01805507954787632,
        -0.03178284704681399,
        -0.06417623070771726,
        -0.029130882089668977,
        0.027994558668222393,
        -0.07572538340681638,
        -0.026506782508479113,
        -0.02113486619251813,
        0.0029460912272348465,
        0.0274710009630647,
        -0.09128408676266302,
        0.0,
        0.0,
        0.0,
        0.024287352864871718,
        -0.007517559573912202,
        0.12751067882135464,
        0.028472004580800125,
        -0.02981377735742522,
        -0.020832985959935053,
        -0.024906803406816024,
        -0.01900138226073316,
        -0.030164555999448346,
        -0.03619379663162528,
        -0.007517559573912202,
        -0.035600491060282645,
        0.035366424539340996,
        0.0,
        0.0,
        -0.020832985959935053,
        -0.02523691943193712,
        0.0,
        -0.007517559573912202,
        -0.0199795508938092,
        0.009029689806930242,
        0.0665897370960982,
        -0.03720530764590196,
        0.012823853645422616,
        -0.0475829868521514,
        0.02335758970381318,
        -0.03602315982010271,
        -0.04642452355569858,
        -0.002804338424843561,
        -0.05501238275466964,
        0.0,
        0.11875218281086136,
        0.0,
        -0.030734572096487,
        0.0,
        -0.020832985959935053,
        -0.01525327422702914,
        -0.029454443932519576,
        0.0,
        -0.04535472985961643,
        0.0011316035426721818,
        0.0,
        0.015702063442050846,
        0.08504287521010268,
        -0.08035126728077434,
        -0.0686518004106926,
        -0.007517559573912202,
        -0.007517559573912202,
        -0.028505600246190626,
        -0.043711356205537434,
        0.08637897649346818,
        -0.07385733654518148,
        -0.09788080894468931,
        -0.020832985959935053,
        -0.005805634460075146,
        0.06765612656837351,
        0.002048769102739538,
        0.07015406724278868,
        -0.005805634460075146,
        -0.048212037287382596,
        0.05337794260481944,
        -0.05764885731358076,
        0.012147820733962587,
        0.11858109170458371,
        -0.14321183675558358,
        -0.08722351697876207,
        -0.05501238275466964,
        0.016538162700547716,
        -0.03427320001639823,
        -0.03276096367700877,
        0.019482111537393567,
        -0.027729760202444692,
        0.012823853645422616,
        -0.020832985959935053,
        0.0011316035426721818,
        0.08504287521010268,
        -0.02529766158283982,
        0.023270354595576498,
        -0.004321184287850321,
        0.027994558668222393,
        -0.06668051164506479,
        -0.019535022315625462,
        -0.06618771581955121,
        -0.06417623070771726,
        -0.029130882089668977
      ],
      [
        0.0036914102948516292,
        -0.10534836648746047,
        0.0865345747952673,
        -0.027607467817331657,
        -0.002736070311171456,
        -0.03447372342274989,
        -0.007078383526280035,
        -0.08447666101974405,
        -0.06986401387150745,
        0.1051933812730068,
        0.11894135355979095,
        0.01807364899210115,
        -0.013697319095089915,
        0.0036914102948516292,
        0.0,
        0.0,
        0.0,
        -0.034938828581077996,
        0.01150996523978467,
        0.008455955355023513,
        0.024176819871377403,
        0.11878705549065195,
        0.019928886955395915,
        -0.0590572850425668,
        -0.09608429011109698,
        0.11031285872704541,
        -0.05140819858344865,
        0.01150996523978467,
        0.05345921481492772,
        0.16341813171770156,
        0.0,
        0.0,
        0.019928886955395915,
        -0.02095807955094403,
        0.0,
        0.01150996523978467,
        -0.03129345209931311,
        0.008628494832746024,
        -0.06810343906823742,
        -0.19922818483226795,
        -0.010783419279560441,
        -0.011315162189073018,
        0.015609228687526492,
        -0.04079636459144759,
        0.07777357196410041,
        -0.04610286160066989,
        0.05288705144177416,
        0.0,
        -0.027042399159303225,
        0.0,
        -0.05996665697694658,
        0.0,
        0.019928886955395915,
        -0.039017099210453814,
        0.01846021929636926,
        0.0,
        0.04958760718020183,
        -0.024312321993491277,
        0.0,
        0.020784420268022793,
        -0.013231624336001618,
        0.013198516204761706,
        0.007122196947547068,
        0.01150996523978467,
        0.01150996523978467,
        -0.05230632983123229,
        -0.039898233343663755,
        -0.06519265457730623,
        0.13787988096049902,
        0.11850229017186335,
        0.019928886955395915,
        0.0013073587871091352,
        -0.11803515716066937,
        0.0017981446071900407,
        -0.054967246414038766,
        0.0013073587871091352,
        -0.00693904545165048,
        -0.17412902220124582,
        0.03439763588660392,
        -0.058352718503702994,
        -0.041264043536165695,
        0.07676062953271981,
        0.005585792444844052,
        0.05288705144177416,
        -0.02648400108247164,
        0.012751137730917439,
        -0.10618386526482039,
        0.06699372693803832,
        0.11299268146562746,
        -0.010783419279560441,
        0.019928886955395915,
        -0.024312321993491277,
        -0.013231624336001618,
        -0.010603828983136488,
        -0.006027838454193516,
        -0.01134462622446272,
        -0.08447666101974405,
        -0.10534836648746047,
        0.0865345747952673,
        0.06951649413559766,
        -0.03447372342274989,
        -0.007078383526280035
      ],
      [
        0.15082522036268925,
        0.11786059976260804,
        -0.09768205895644239,
        0.10138674044477362,
        -0.04796891853901331,
        0.05962012991667951,
        -0.004786487804577693,
        0.05170839081994625,
        0.13232571499166154,
        -0.0351386337417806,
        -0.0454931609700608,
        -0.03894522784619719,
        -0.10067686211711319,
        0.15082522036268925,
        0.0,
        0.0,
        0.0,
        -0.013713405743891597,
        0.00795590618919006,
        -0.08076083148219317,
        -0.044917380823180204,
        -0.14898289873409995,
        0.03650172884969152,
        -0.011151635746767806,
        0.17851214790422726,
        -0.01252443352845913,
        0.11173434417492671,
        0.00795590618919006,
        -0.05575001045242245,
        -0.29813783310211994,
        0.0,
        0.0,
        0.03650172884969152,
        -0.06557895666302718,
        0.0,
        0.00795590618919006,
        -0.05150191994710353,
        -0.03296872744160129,
        -0.053837961126976655,
        0.2757743251852481,
        -0.00830147423410785,
        0.06549397145441281,
        -0.04318845744184301,
        0.02959570122601694,
        0.03336098368776015,
        -0.06538944858347374,
        -0.01349883870495381,
        0.0,
        -0.045482010925997324,
        0.0,
        0.05258717421135617,
        0.0,
        0.03650172884969152,
        0.08062669303456353,
        0.010536871828525236,
        0.0,
        -0.019430461152133767,
        0.06721009253675082,
        0.0,
        -0.0879921154343606,
        0.008347871407729609,
        0.07608902917115279,
        0.06333436448535407,
        0.00795590618919006,
        0.00795590618919006,
        0.021639795036826896,
        0.11969025036411665,
        -0.10615996758136471,
        -0.11489292985073822,
        0.08354974462903773,
        0.03650172884969152,
        -0.004378133935840936,
        0.15202122755722883,
        -0.006723142799062173,
        -0.07644828633738829,
        -0.004378133935840936,
        -0.0160165735510686,
        0.06657801349095473,
        0.1520036229282758,
        -0.027944232554715367,
        -0.04751795888021509,
        0.05822139109201634,
        0.16018133833344841,
        -0.01349883870495381,
        0.09194148376041694,
        0.15628620092487203,
        0.029647113668324846,
        -0.18122880993987206,
        -0.015738990074419847,
        -0.00830147423410785,
        0.03650172884969152,
        0.06721009253675082,
        0.008347871407729609,
        0.06330059434281766,
        -0.035947755496852675,
        -0.0381346327336182,
        0.05170839081994625,
        0.11786059976260804,
        -0.09768205895644239,
        0.017071267697557877,
        0.05962012991667951,
        -0.004786487804577693
      ]
    ],
    "workflow_labels": [
      "direct",
      "verify_then_fallback"
    ],
    "workflow_weights": [
      [
        0.32912168643904866,
        0.036752765426751426,
        0.10737910168298036,
        0.07954689540577392,
        0.03496172973032696,
        0.034944991196126665,
        0.00668191267231223,
        0.10059343929102821,
        -0.017871782753574365,
        0.00849107227566682,
        0.04937436156173549,
        0.009720369887515625,
        0.06806578335669185,
        0.32912168643904866,
        0.0,
        0.0,
        0.0,
        0.013275561102138046,
        0.016405568395173733,
        0.044260087164501194,
        0.06560315701311614,
        -0.011745968329043434,
        0.010888351880606151,
        0.06410425226069798,
        0.12213191397958995,
        0.03908187971606287,
        0.01648109344876405,
        0.016405568395173733,
        -0.12856536321361742,
        0.059548496782725634,
        0.0,
        0.0,
        0.010888351880606151,
        0.012721620431539975,
        0.0,
        0.016405568395173733,
        0.013780896004048688,
        0.010292481845671974,
        -0.09278815869965476,
        0.208865385973178,
        0.02569625241104355,
        0.15173227883638413,
        0.01495427039004879,
        0.05753537197388453,
        0.04158313524139598,
        0.03348335156383882,
        0.04962087585437795,
        0.0,
        0.011243549252362223,
        0.0,
        0.06684134111632158,
        0.0,
        0.010888351880606151,
        0.04991967239438166,
        -0.0021702618037495406,
        0.0,
        0.08572889980934198,
        0.06345693152962573,
        0.0,
        -0.060291063792807034,
        0.06245804709019857,
        0.15438580344084182,
        0.11624246863788885,
        0.016405568395173733,
        0.016405568395173733,
        0.04112980357871115,
        0.032886661843937515,
        0.010264252669576944,
        0.0706403600200364,
        -0.16763633640169728,
        0.010888351880606151,
        0.020388648870566347,
        0.05069048582858681,
        0.06256541301814592,
        0.033360448787209715,
        0.020388648870566347,
        0.017322106625713363,
        0.09738356192163701,
        0.03800182424235199,
        0.055756185661837064,
        0.013320640299489614,
        0.0054073498264705575,
        0.014325557840710672,
        0.04962087585437795,
        0.051803317040897294,
        0.0946470831996244,
        0.05141095330296832,
        0.11395027223989894,
        0.041829778239853684,
        0.02569625241104355,
        0.010888351880606151,
        0.06345693152962573,
        0.06245804709019857,
        0.10256569649639029,
        0.023544372759247725,
        0.11782449197942345,
        0.10059343929102821,
        0.036752765426751426,
        0.10737910168298036,
        0.09661725168994824,
        0.034944991196126665,
        0.00668191267231223
      ],
      [
        -0.32912168643904866,
        -0.03675276542675139,
        -0.10737910168298048,
        -0.0795468954057739,
        -0.034961729730326976,
        -0.03494499119612669,
        -0.00668191267231224,
        -0.10059343929102821,
        0.017871782753574376,
        -0.008491072275666818,
        -0.049374361561735525,
        -0.009720369887515627,
        -0.06806578335669183,
        -0.32912168643904866,
        0.0,
        0.0,
        0.0,
        -0.013275561102138046,
        -0.01640556839517373,
        -0.0442600871645012,
        -0.06560315701311611,
        0.011745968329043439,
        -0.010888351880606145,
        -0.06410425226069799,
        -0.12213191397958993,
        -0.03908187971606288,
        -0.01648109344876405,
        -0.01640556839517373,
        0.12856536321361736,
        -0.059548496782725606,
        0.0,
        0.0,
        -0.010888351880606145,
        -0.012721620431539972,
        0.0,
        -0.01640556839517373,
        -0.013780896004048691,
        -0.010292481845671976,
        0.09278815869965473,
        -0.20886538597317797,
        -0.025696252411043553,
        -0.15173227883638413,
        -0.014954270390048796,
        -0.05753537197388452,
        -0.04158313524139595,
        -0.03348335156383883,
        -0.04962087585437799,
        0.0,
        -0.011243549252362229,
        0.0,
        -0.06684134111632158,
        0.0,
        -0.010888351880606145,
        -0.04991967239438165,
        0.002170261803749539,
        0.0,
        -0.08572889980934197,
        -0.06345693152962573,
        0.0,
        0.060291063792807034,
        -0.062458047090198546,
        -0.15438580344084182,
        -0.11624246863788887,
        -0.01640556839517373,
        -0.01640556839517373,
        -0.04112980357871115,
        -0.03288666184393752,
        -0.01026425266957693,
        -0.0706403600200364,
        0.16763633640169726,
        -0.010888351880606145,
        -0.02038864887056635,
        -0.05069048582858679,
        -0.06256541301814592,
        -0.03336044878720972,
        -0.02038864887056635,
        -0.017322106625713308,
        -0.09738356192163695,
        -0.038001824242352024,
        -0.05575618566183709,
        -0.013320640299489615,
        -0.005407349826470557,
        -0.014325557840710688,
        -0.04962087585437799,
        -0.051803317040897294,
        -0.09464708319962441,
        -0.051410953302968326,
        -0.11395027223989895,
        -0.04182977823985368,
        -0.025696252411043553,
        -0.010888351880606145,
        -0.06345693152962573,
        -0.062458047090198546,
        -0.10256569649639025,
        -0.02354437275924771,
        -0.1178244919794234,
        -0.10059343929102821,
        -0.03675276542675139,
        -0.10737910168298048,
        -0.09661725168994825,
        -0.03494499119612669,
        -0.00668191267231224
      ]
    ]
  },
  "substrate": "research/datasets/20260628-m5-small-orchestrator-substrate-50task.jsonl",
  "target_balance_power": 0.0
}
