{
  "dataset": "research/datasets/20260627-acquisition-to-50-wave1-merged-32task-routing.jsonl",
  "epochs": 300,
  "l2": 0.0001,
  "learning_rate": 0.0005,
  "model_type": "linear-softmax-logits-router",
  "reward_temperature": 0.05,
  "router": {
    "feature_names": [
      "bias",
      "category_datasci",
      "category_filesystem",
      "category_general",
      "category_network",
      "category_plotting",
      "category_subprocess",
      "combo_archive_filesystem",
      "combo_dataframe_plotting",
      "combo_network_archive",
      "combo_network_filesystem",
      "combo_network_plotting",
      "environment_risk",
      "family_bigcodebench_hard",
      "family_code_data",
      "family_code_easy",
      "family_code_text",
      "kw_archive",
      "kw_base64",
      "kw_convert",
      "kw_count",
      "kw_csv",
      "kw_default",
      "kw_dict",
      "kw_directory",
      "kw_download",
      "kw_email",
      "kw_encoding",
      "kw_exception",
      "kw_file",
      "kw_flatten",
      "kw_frequent",
      "kw_ftp",
      "kw_group",
      "kw_hash",
      "kw_hex",
      "kw_http",
      "kw_https",
      "kw_key",
      "kw_list",
      "kw_lowercase",
      "kw_number",
      "kw_pair",
      "kw_parse",
      "kw_process",
      "kw_request",
      "kw_requests",
      "kw_socket",
      "kw_sorted",
      "kw_ssl",
      "kw_string",
      "kw_strip",
      "kw_subprocess",
      "kw_sum",
      "kw_title",
      "kw_unpack",
      "kw_url",
      "kw_urllib",
      "kw_window",
      "kw_word",
      "kw_zip",
      "length_chars",
      "length_tokens",
      "lib_base64",
      "lib_binascii",
      "lib_codecs",
      "lib_collections",
      "lib_csv",
      "lib_datetime",
      "lib_ftplib",
      "lib_functools",
      "lib_glob",
      "lib_itertools",
      "lib_json",
      "lib_math",
      "lib_matplotlib",
      "lib_numpy",
      "lib_os",
      "lib_pandas",
      "lib_pathlib",
      "lib_random",
      "lib_re",
      "lib_requests",
      "lib_shutil",
      "lib_statistics",
      "lib_string",
      "lib_subprocess",
      "lib_urllib",
      "lib_zipfile",
      "library_count",
      "missing_library_count",
      "plausibility_score",
      "signal_archive",
      "signal_dataframe",
      "signal_filesystem",
      "signal_network",
      "signal_plotting",
      "signal_subprocess"
    ],
    "policy": "logits-router",
    "weights": [
      [
        -0.012918215688594642,
        0.02779437052333472,
        -0.012955701043594106,
        0.0030055088324558304,
        -0.022852489560783354,
        0.08494420112344969,
        -0.014179188987509394,
        0.02995161487267043,
        0.06704571358845596,
        -0.023557420098779376,
        -0.026643308670399487,
        0.018444583730952493,
        0.011495095015373928,
        -0.012918215688594642,
        0.0,
        0.0,
        0.0,
        0.02195810456056334,
        -0.009075216633832534,
        -0.048536316859681426,
        0.019766600989163326,
        -0.026220260135948442,
        -0.022852489560783354,
        0.10059555172231671,
        -0.01830486127323701,
        -0.026643308670399487,
        -0.029390355508301935,
        -0.009075216633832534,
        -0.12404289286513519,
        0.041422032232773735,
        0.0,
        0.0,
        -0.022852489560783354,
        0.09991845889335281,
        0.0,
        -0.009075216633832534,
        0.0,
        0.0,
        0.07157529715284998,
        -0.07497450830720166,
        0.003036223821059354,
        0.02039448627406875,
        0.0,
        -0.009075216633832534,
        -0.05294777560708117,
        0.019766600989163326,
        -0.023557420098779376,
        0.0,
        -0.039461100225848915,
        0.0,
        -0.006038992812773182,
        0.0,
        -0.022852489560783354,
        -0.016359484939894964,
        0.06034637183625368,
        0.0,
        -0.012866035743448736,
        0.0106913843553307,
        0.0,
        0.02663561880215213,
        -0.058638744081180014,
        -0.059724990307214766,
        -0.0469117515280014,
        -0.009075216633832534,
        -0.009075216633832534,
        -0.038465572142134766,
        0.09326296691543401,
        0.04169410328058832,
        -0.06970509905606899,
        -0.022852489560783354,
        0.009044501645229025,
        -0.08370963993337172,
        0.007354879895727365,
        0.07094871094600587,
        0.009044501645229025,
        0.08494420112344969,
        0.09789142521195775,
        -0.06712419853387337,
        -0.037217127816316746,
        -0.027181950275363805,
        0.06789891356424012,
        -0.04920848049162883,
        -0.023557420098779376,
        0.11054846351441415,
        -0.0677933963589106,
        0.003036223821059354,
        -0.022852489560783354,
        0.0106913843553307,
        -0.058638744081180014,
        0.0019903234741805056,
        0.01260329437592192,
        -0.002627063583949362,
        0.02995161487267043,
        0.02779437052333472,
        -0.012955701043594106,
        -0.03571852530423216,
        0.08494420112344969,
        -0.014179188987509394
      ],
      [
        -0.07021630277065435,
        -0.03211722510001815,
        -0.009384958410190273,
        -0.004350944832573947,
        -0.0212870741920035,
        -0.028254229892614783,
        -0.04115647209507348,
        0.02092953154969342,
        -0.03035536979237542,
        -0.024555431290972686,
        -0.03328755034404467,
        0.0025206099632180366,
        0.018802346058210757,
        -0.07021630277065435,
        0.0,
        0.0,
        0.0,
        0.021157248281258947,
        -0.007964040079099002,
        0.10423314964257265,
        0.012554955138931387,
        -0.0086717672536335,
        -0.0212870741920035,
        -0.02121985245987893,
        -0.024030344903681885,
        -0.03328755034404467,
        -0.022969399521567,
        -0.007964040079099002,
        -0.006635499307787112,
        0.0437321922621541,
        0.0,
        0.0,
        -0.0212870741920035,
        -0.02319452082771305,
        0.0,
        -0.007964040079099002,
        0.0,
        0.0,
        0.07084948584757654,
        -0.029539185468927816,
        0.008402585105920577,
        -0.07732691993298065,
        0.0,
        -0.007964040079099002,
        -0.04752483081253962,
        0.012554955138931387,
        -0.024555431290972686,
        0.0,
        0.1121971897216718,
        0.0,
        0.00043854502682157934,
        0.0,
        -0.0212870741920035,
        -0.028462292120767296,
        -0.03926295548213201,
        0.0,
        -0.01996451623114013,
        0.004590915059832425,
        0.0,
        0.004702087382978542,
        0.08168844078769304,
        -0.05706962053926983,
        -0.04711095115379634,
        -0.007964040079099002,
        -0.007964040079099002,
        -0.03093343960066625,
        0.09482140955449264,
        -0.0715503221360644,
        -0.07522147652543386,
        -0.0212870741920035,
        -0.0047894898593955305,
        0.0624021193071611,
        -0.00020021948847862922,
        0.07613859768112068,
        -0.0047894898593955305,
        -0.028254229892614783,
        0.025885370101189763,
        -0.06557884550991537,
        0.028168290196179013,
        0.1150734481991369,
        -0.12496679806182441,
        -0.0648616548945479,
        -0.024555431290972686,
        -0.039601660956740226,
        -0.024819947762334135,
        0.008402585105920577,
        -0.0212870741920035,
        0.004590915059832425,
        0.08168844078769304,
        -0.012145405838786347,
        0.01578729528670646,
        -0.001563056607771163,
        0.02092953154969342,
        -0.03211722510001815,
        -0.009384958410190273,
        -0.04125159042314363,
        -0.028254229892614783,
        -0.04115647209507348
      ],
      [
        0.008875039703031414,
        -0.08848092036733321,
        0.07715566300418467,
        -0.004826892082969988,
        0.019290182255825416,
        -0.040780980172105956,
        0.004613880942688869,
        -0.09402976779141299,
        -0.06595079720815163,
        0.09215495875239453,
        0.09299583967201452,
        0.013653410384767589,
        -0.015003395252028472,
        0.008875039703031414,
        0.0,
        0.0,
        0.0,
        -0.03318942422416789,
        0.005038741395851354,
        -0.02368286372338557,
        -0.018449301336205304,
        0.12714372908938043,
        0.019290182255825416,
        -0.07051240671162001,
        -0.10448971029246462,
        0.09299583967201452,
        -0.03154132344595895,
        0.005038741395851354,
        0.05930979914257448,
        0.1523753252108198,
        0.0,
        0.0,
        0.019290182255825416,
        -0.025551586546072945,
        0.0,
        0.005038741395851354,
        0.0,
        0.0,
        -0.0801827359341136,
        -0.16019754294616334,
        -0.009681822186464396,
        -0.006332401622328966,
        0.0,
        0.005038741395851354,
        0.060613635306435536,
        -0.018449301336205304,
        0.09215495875239453,
        0.0,
        -0.02872160511923699,
        0.0,
        -0.004643080790613055,
        0.0,
        0.019290182255825416,
        -0.02993393604923327,
        -0.03665203421132369,
        0.0,
        0.07874439881204064,
        -0.013410559940353948,
        0.0,
        0.001988458194059523,
        -0.020724961209608993,
        0.025623236200411566,
        0.02123897737614179,
        0.005038741395851354,
        0.005038741395851354,
        -0.026502582050107675,
        -0.08108606619490571,
        0.11706805340433818,
        0.14868722355061795,
        0.019290182255825416,
        -0.0001838112923568923,
        -0.11031216970869201,
        -0.0012150725245161798,
        -0.06340617236777621,
        -0.0001838112923568923,
        -0.040780980172105956,
        -0.15613409562349587,
        0.02361169930121348,
        -0.028829762263965532,
        -0.03981971418486232,
        0.11221510847704239,
        0.024672964418458714,
        0.09215495875239453,
        -0.10649423080597292,
        0.10562153748958618,
        -0.009681822186464396,
        0.019290182255825416,
        -0.013410559940353948,
        -0.020724961209608993,
        -0.0026076419120535685,
        -0.013288752302761915,
        -0.007040573868157818,
        -0.09402976779141299,
        -0.08848092036733321,
        0.07715566300418467,
        0.09803458106786643,
        -0.040780980172105956,
        0.004613880942688869
      ],
      [
        0.07425947875621791,
        0.09280377494401712,
        -0.05481500355040072,
        0.006172328083088077,
        0.024849381496961375,
        -0.015908991058729442,
        0.05072178013989413,
        0.043148621369049726,
        0.02926045341207084,
        -0.04404210736264237,
        -0.033064980657570485,
        -0.03461860407893796,
        -0.015294045821556261,
        0.07425947875621791,
        0.0,
        0.0,
        0.0,
        -0.009925928617654118,
        0.012000515317080178,
        -0.03201396905950604,
        -0.013872254791889317,
        -0.09225170169979836,
        0.024849381496961375,
        -0.008863292550817173,
        0.14682491646938364,
        -0.033064980657570485,
        0.08390107847582794,
        0.012000515317080178,
        0.07136859303034701,
        -0.23752954970574847,
        0.0,
        0.0,
        0.024849381496961375,
        -0.05117235151956731,
        0.0,
        0.012000515317080178,
        0.0,
        0.0,
        -0.06224204706631267,
        0.26471123672229324,
        -0.0017569867405154826,
        0.06326483528124105,
        0.0,
        0.012000515317080178,
        0.039858971113185364,
        -0.013872254791889317,
        -0.04404210736264237,
        0.0,
        -0.044014484376585915,
        0.0,
        0.010243528576564706,
        0.0,
        0.024849381496961375,
        0.07475571310989589,
        0.015568617857202276,
        0.0,
        -0.04591384683745165,
        -0.001871739474809155,
        0.0,
        -0.033326164379190164,
        -0.0023247354969034946,
        0.0911713746460735,
        0.07278372530565558,
        0.012000515317080178,
        0.012000515317080178,
        0.09590159379290815,
        -0.10699831027502073,
        -0.08721183454886172,
        -0.0037606479691157635,
        0.024849381496961375,
        -0.0040712004934766,
        0.13161969033490262,
        -0.005939587882732566,
        -0.08368113625934986,
        -0.0040712004934766,
        -0.015908991058729442,
        0.03235730031034899,
        0.10909134474257577,
        0.037878599884103414,
        -0.04807178373891049,
        -0.05514722397945838,
        0.08939717096771815,
        -0.04404210736264237,
        0.0355474282482994,
        -0.013008193368341938,
        -0.0017569867405154826,
        0.024849381496961375,
        -0.001871739474809155,
        -0.0023247354969034946,
        0.012762724276659462,
        -0.015101837359866569,
        0.011230694059878376,
        0.043148621369049726,
        0.09280377494401712,
        -0.05481500355040072,
        -0.021064465340490238,
        -0.015908991058729442,
        0.05072178013989413
      ]
    ],
    "worker_ids": [
      "ollama-cloud-deepseek-v4-pro",
      "ollama-cloud-glm-5.2",
      "ollama-cloud-kimi-k2.7-code",
      "ollama-cloud-qwen3-coder-480b"
    ]
  },
  "target_mode": "reward"
}
