{
  "dataset": "research/datasets/20260628-contrast-aware-26task-routing.jsonl",
  "epochs": 300,
  "l2": 0.0001,
  "learning_rate": 0.0005,
  "model_type": "linear-softmax-logits-router",
  "reward_temperature": 0.1,
  "router": {
    "feature_names": [
      "bias",
      "category_algorithmic",
      "category_datasci",
      "category_filesystem",
      "category_general",
      "category_network",
      "category_plotting",
      "category_subprocess",
      "combo_archive_filesystem",
      "combo_filesystem_random",
      "combo_filesystem_tabular",
      "combo_network_archive",
      "combo_network_filesystem",
      "combo_network_plotting",
      "combo_random_math",
      "combo_random_statistics",
      "environment_risk",
      "family_bigcodebench_hard",
      "kw_archive",
      "kw_base64",
      "kw_count",
      "kw_dict",
      "kw_download",
      "kw_fetch",
      "kw_file",
      "kw_files",
      "kw_frequent",
      "kw_hex",
      "kw_http",
      "kw_key",
      "kw_list",
      "kw_lowercase",
      "kw_mean",
      "kw_median",
      "kw_number",
      "kw_plot",
      "kw_random",
      "kw_request",
      "kw_requests",
      "kw_scan",
      "kw_sorted",
      "kw_standard",
      "kw_statistics",
      "kw_string",
      "kw_strip",
      "kw_subprocess",
      "kw_sum",
      "kw_url",
      "kw_word",
      "kw_zip",
      "length_chars",
      "length_tokens",
      "lib_base64",
      "lib_binascii",
      "lib_codecs",
      "lib_collections",
      "lib_csv",
      "lib_datetime",
      "lib_ftplib",
      "lib_functools",
      "lib_glob",
      "lib_itertools",
      "lib_json",
      "lib_math",
      "lib_matplotlib",
      "lib_numpy",
      "lib_os",
      "lib_pandas",
      "lib_pathlib",
      "lib_random",
      "lib_re",
      "lib_requests",
      "lib_shutil",
      "lib_statistics",
      "lib_subprocess",
      "lib_urllib",
      "lib_zipfile",
      "library_count",
      "missing_library_count",
      "plausibility_score",
      "signal_algorithmic",
      "signal_archive",
      "signal_datasci",
      "signal_filesystem",
      "signal_general",
      "signal_math",
      "signal_network",
      "signal_plotting",
      "signal_random",
      "signal_statistics",
      "signal_subprocess",
      "signal_tabular_data"
    ],
    "policy": "logits-router",
    "weights": [
      [
        0.043928780415498865,
        0.010155473703931299,
        0.07457656808236761,
        0.053142695047610156,
        0.0042291426255263035,
        -0.0178385087416498,
        0.03767823751685477,
        -0.005871524178698178,
        0.019425703067607738,
        0.051549124045373346,
        0.007308410276023617,
        -0.01879593946626666,
        -0.009440431884836623,
        0.022420845540844753,
        0.0033943065861707904,
        -0.07913062403569768,
        -0.010703105244989816,
        0.043928780415498865,
        0.0,
        0.006547436723146061,
        0.027194016323079825,
        0.08132070193403672,
        -0.009440431884836623,
        0.0,
        0.12362831432304634,
        -0.07959514406483588,
        0.0,
        0.006547436723146061,
        0.0,
        0.11945525013095074,
        0.031026294770836047,
        0.0,
        0.023807663797203265,
        0.09521148375110446,
        -0.04393182173670066,
        0.014964648776766357,
        0.008546118695091491,
        0.027194016323079825,
        -0.01879593946626666,
        0.0,
        -0.028605695908619333,
        0.0033943065861707904,
        -0.07913062403569768,
        0.006547436723146061,
        0.0,
        -0.0178385087416498,
        -0.012115305750925771,
        0.014945513579959229,
        0.02890533073393118,
        -0.06806778632156991,
        -0.10440771829937584,
        -0.014363218822517601,
        0.006547436723146061,
        0.006547436723146061,
        -0.007837467630683354,
        0.12918272846651446,
        0.039685559382100895,
        -0.02341923368539497,
        -0.0178385087416498,
        0.012737621520897394,
        -0.0743371096620351,
        0.030619899306625616,
        0.09886327274054277,
        0.016131928107068202,
        0.03767823751685477,
        0.0950378686721586,
        -0.06448963424433875,
        -0.02711940086182325,
        -0.02547803389422209,
        0.02293102304892085,
        -0.0129810136826176,
        -0.01879593946626666,
        0.08749348938917795,
        -0.07913062403569768,
        -0.0178385087416498,
        0.03374145304622579,
        -0.06806778632156991,
        0.01798646936754296,
        0.0,
        -0.005013843295418841,
        0.010155473703931299,
        0.019425703067607738,
        0.07457656808236761,
        0.053142695047610156,
        0.0042291426255263035,
        0.016131928107068202,
        -0.0028929951616905644,
        0.03767823751685477,
        0.008546118695091491,
        0.023807663797203265,
        -0.005871524178698178,
        -0.04005599155692669
      ],
      [
        0.0028919678055909716,
        0.0074220915564466115,
        -0.0318596304464294,
        -0.06560501191312947,
        0.059594307279509026,
        -0.017658646025454378,
        0.015901245052665706,
        -0.017625265248199417,
        0.01969815349902907,
        -0.07680425032441496,
        0.03481110763308773,
        -0.019649948266791433,
        -0.012961178557892533,
        0.012348776727704042,
        0.011942431473439076,
        0.022967401967729027,
        -0.010595187615272655,
        0.0028919678055909716,
        0.0,
        0.0014190048993579796,
        0.02434741573435318,
        0.036468618792147564,
        -0.012961178557892533,
        0.0,
        0.004120657114788609,
        0.044369390453915615,
        0.0,
        0.0014190048993579796,
        0.0,
        -0.004769178600876426,
        -0.08916590278274594,
        0.0,
        0.004951009795666176,
        -0.02551884278248873,
        -0.045357565985425265,
        0.0019155283873725074,
        -0.021597609707325306,
        0.02434741573435318,
        -0.019649948266791433,
        0.0,
        0.03662738619518996,
        0.011942431473439076,
        0.022967401967729027,
        0.0014190048993579796,
        0.0,
        -0.017658646025454378,
        -0.021571663595779056,
        0.006116472366919915,
        0.012897327226886615,
        0.06824452935575337,
        -0.04835617868509163,
        -0.009737425042096525,
        0.0014190048993579796,
        0.0014190048993579796,
        -0.013393618376240495,
        0.0010140633886364392,
        -0.06362646717236863,
        -0.029843319968239534,
        -0.017658646025454378,
        0.0021833931550756113,
        0.06784268941798352,
        0.01710793532194801,
        -0.022758534006012143,
        0.014125824628514659,
        0.015901245052665706,
        -0.032280464948478915,
        -0.052434945858345204,
        -0.0068893381631233265,
        0.1120440949710202,
        -0.006784986431726652,
        -0.02859032236273186,
        -0.019649948266791433,
        -0.04854637585672393,
        0.022967401967729027,
        -0.017658646025454378,
        0.02576642063371135,
        0.06824452935575337,
        -0.0010080005769937817,
        0.0,
        -0.005745979010942979,
        0.0074220915564466115,
        0.01969815349902907,
        -0.0318596304464294,
        -0.06560501191312947,
        0.059594307279509026,
        0.014125824628514659,
        -0.011542173658534575,
        0.015901245052665706,
        -0.021597609707325306,
        0.004951009795666176,
        -0.017625265248199417,
        0.0901501343153247
      ],
      [
        -0.03513812601692814,
        -0.010755577329615872,
        -0.0940888884035455,
        0.03859388184445768,
        -0.05395294813302203,
        0.02170271827686999,
        0.005697657918113858,
        0.04419786416871807,
        -0.06800749632559934,
        0.12903221858223024,
        0.04203455506271831,
        0.08544076165877439,
        0.08753255361781873,
        0.005964941691137629,
        -0.0039513674699448754,
        0.05251941408404134,
        0.01302163096612203,
        -0.03513812601692814,
        0.0,
        0.0020291947752118077,
        -0.019610926317825485,
        -0.10216174077576222,
        0.08753255361781873,
        0.0,
        0.07861554845400755,
        -0.11778994802201921,
        0.0,
        0.0020291947752118077,
        0.0,
        -0.0440490295518259,
        -0.11106240125898403,
        0.0,
        0.025829147405411385,
        -0.03251328236556449,
        0.06123148830744097,
        -0.0029890221388315704,
        0.045573249688823675,
        -0.019610926317825485,
        0.08544076165877439,
        0.0,
        -0.04215041770650184,
        -0.0039513674699448754,
        0.05251941408404134,
        0.0020291947752118077,
        0.0,
        0.02170271827686999,
        -0.028589347971204597,
        0.06785903011616054,
        0.0042427342973751034,
        0.01229844274743733,
        0.0361395633222708,
        0.0020538300595659906,
        0.0020291947752118077,
        0.0020291947752118077,
        -0.031695254299113275,
        -0.05112467771134477,
        0.11801186026261083,
        0.04521599796772317,
        0.02170271827686999,
        0.0008752195978287298,
        -0.10358755029786444,
        -0.004057342044852562,
        -0.032509948248812204,
        -0.003076147872116133,
        0.005697657918113858,
        -0.06213692314671751,
        0.06514222251888452,
        -0.059853398644218625,
        -0.03690249725608326,
        0.07929769876314846,
        -0.05901979372852838,
        0.08544076165877439,
        -0.08030593907303632,
        0.05251941408404134,
        0.02170271827686999,
        -0.017581731542613634,
        0.01229844274743733,
        -0.0029888102242574947,
        0.0,
        0.005699377738141928,
        -0.010755577329615872,
        -0.06800749632559934,
        -0.0940888884035455,
        0.03859388184445768,
        -0.05395294813302203,
        -0.003076147872116133,
        0.0895617483930307,
        0.005697657918113858,
        0.045573249688823675,
        0.025829147405411385,
        0.04419786416871807,
        -0.021549811293856955
      ],
      [
        -0.011682622204161526,
        -0.006821987930762012,
        0.05137195076760748,
        -0.026131564978938072,
        -0.00987050177201338,
        0.013794436490234216,
        -0.05927714048763442,
        -0.02070107474182052,
        0.028883639758962045,
        -0.10377709230318895,
        -0.08415407297183006,
        -0.04699487392571643,
        -0.06513094317508979,
        -0.04073456395968646,
        -0.011385370589664974,
        0.003643807983927443,
        0.00827666189414046,
        -0.011682622204161526,
        0.0,
        -0.009995636397715866,
        -0.03193050573960769,
        -0.015627579950421976,
        -0.06513094317508979,
        0.0,
        -0.20636451989184307,
        0.15301570163293923,
        0.0,
        -0.009995636397715866,
        0.0,
        -0.07063704197824824,
        0.16920200927089382,
        0.0,
        -0.05458782099828087,
        -0.037179358603051174,
        0.028057899414684923,
        -0.013891155025307297,
        -0.03252175867658982,
        -0.03193050573960769,
        -0.04699487392571643,
        0.0,
        0.03412872741993134,
        -0.011385370589664974,
        0.003643807983927443,
        -0.009995636397715866,
        0.0,
        0.013794436490234216,
        0.06227631731790941,
        -0.0889210160630398,
        -0.04604539225819314,
        -0.012475185781620496,
        0.11662433366219786,
        0.02204681380504831,
        -0.009995636397715866,
        -0.009995636397715866,
        0.05292634030603724,
        -0.0790721141438056,
        -0.09407095247234296,
        0.008046555685911217,
        0.013794436490234216,
        -0.015796234273801817,
        0.11008197054191668,
        -0.043670492583720966,
        -0.04359479048571813,
        -0.02718160486346675,
        -0.05927714048763442,
        -0.0006204805769616328,
        0.051782357583799336,
        0.09386213766916497,
        -0.04966356382071445,
        -0.09544373538034231,
        0.10059112977387762,
        -0.04699487392571643,
        0.04135882554058249,
        0.003643807983927443,
        0.013794436490234216,
        -0.04192614213732361,
        -0.012475185781620496,
        -0.013989658566291661,
        0.0,
        0.005060444568219902,
        -0.006821987930762012,
        0.028883639758962045,
        0.05137195076760748,
        -0.026131564978938072,
        -0.00987050177201338,
        -0.02718160486346675,
        -0.07512657957280529,
        -0.05927714048763442,
        -0.03252175867658982,
        -0.05458782099828087,
        -0.02070107474182052,
        -0.0285443314645412
      ]
    ],
    "worker_ids": [
      "ollama-cloud-deepseek-v4-pro",
      "ollama-cloud-glm-5.2",
      "ollama-cloud-kimi-k2.7-code",
      "ollama-cloud-qwen3-coder-480b"
    ]
  },
  "target_mode": "reward"
}
