{
  "dataset": "research/datasets/20260628-contrast-aware-26task-routing.jsonl",
  "epochs": 300,
  "l2": 0.0001,
  "learning_rate": 0.0005,
  "model_type": "linear-softmax-logits-router",
  "reward_temperature": 0.1,
  "router": {
    "feature_names": [
      "bias",
      "category_algorithmic",
      "category_datasci",
      "category_filesystem",
      "category_general",
      "category_network",
      "category_plotting",
      "category_subprocess",
      "combo_network_archive",
      "combo_network_filesystem",
      "combo_network_plotting",
      "environment_risk",
      "family_bigcodebench_hard",
      "kw_archive",
      "kw_base64",
      "kw_count",
      "kw_dict",
      "kw_download",
      "kw_fetch",
      "kw_file",
      "kw_files",
      "kw_frequent",
      "kw_hex",
      "kw_http",
      "kw_key",
      "kw_list",
      "kw_lowercase",
      "kw_number",
      "kw_plot",
      "kw_request",
      "kw_requests",
      "kw_scan",
      "kw_sorted",
      "kw_string",
      "kw_strip",
      "kw_subprocess",
      "kw_sum",
      "kw_url",
      "kw_word",
      "kw_zip",
      "length_chars",
      "length_tokens",
      "lib_base64",
      "lib_binascii",
      "lib_codecs",
      "lib_collections",
      "lib_csv",
      "lib_datetime",
      "lib_ftplib",
      "lib_functools",
      "lib_glob",
      "lib_itertools",
      "lib_json",
      "lib_math",
      "lib_matplotlib",
      "lib_numpy",
      "lib_os",
      "lib_pandas",
      "lib_pathlib",
      "lib_random",
      "lib_re",
      "lib_requests",
      "lib_shutil",
      "lib_statistics",
      "lib_subprocess",
      "lib_urllib",
      "lib_zipfile",
      "library_count",
      "missing_library_count",
      "plausibility_score",
      "signal_algorithmic",
      "signal_archive",
      "signal_datasci",
      "signal_filesystem",
      "signal_general",
      "signal_network",
      "signal_plotting",
      "signal_subprocess"
    ],
    "policy": "logits-router",
    "weights": [
      [
        0.043921859608813216,
        0.010464470378758537,
        0.07643152378834389,
        0.055312291791709316,
        0.0028122653005572674,
        -0.017871231892951846,
        0.03792848306937577,
        -0.0060022844339924835,
        -0.01840716090736335,
        -0.009163784057778736,
        0.022528228933370423,
        -0.010722739135771084,
        0.043921859608813216,
        0.0,
        0.006222769203765547,
        0.027114608742536496,
        0.08213399808117533,
        -0.009163784057778736,
        0.0,
        0.12590097656759405,
        -0.07978695265461298,
        0.0,
        0.006222769203765547,
        0.0,
        0.12215223051844927,
        0.03508718914890477,
        0.0,
        -0.04372173127116691,
        0.01513428585845434,
        0.027114608742536496,
        -0.01840716090736335,
        0.0,
        -0.03046282432641741,
        0.006222769203765547,
        0.0,
        -0.017871231892951846,
        -0.01199172066472864,
        0.014930217038938664,
        0.02891066013577136,
        -0.06752700129242427,
        -0.10761956317062679,
        -0.014659992868211855,
        0.006222769203765547,
        0.006222769203765547,
        -0.008307818036314765,
        0.13193636432007858,
        0.04040291043676418,
        -0.023366955270442066,
        -0.017871231892951846,
        0.012973532747380159,
        -0.07438383708807468,
        0.03167317501430628,
        0.10172365504143438,
        0.016587850044450663,
        0.03792848306937577,
        0.0982603719480786,
        -0.06538929323925151,
        -0.02812426351164743,
        -0.025521137483595455,
        0.019806951184848636,
        -0.013106158297581952,
        -0.01840716090736335,
        0.08860285109903643,
        -0.0843971754575177,
        -0.017871231892951846,
        0.03333737794630192,
        -0.06752700129242427,
        0.018140579688947018,
        0.0,
        -0.005137884265386516,
        0.010464470378758537,
        0.021075849806612475,
        0.07643152378834389,
        0.055312291791709316,
        0.0028122653005572674,
        -0.0029410148540131922,
        0.03792848306937577,
        -0.0060022844339924835
      ],
      [
        0.0038853512243312892,
        0.006301943142527328,
        -0.028567345875326337,
        -0.06482192543597624,
        0.06061232512313338,
        -0.018203711462198995,
        0.013493279341186973,
        -0.016127027584588616,
        -0.019827888504279544,
        -0.013285359889068588,
        0.011832701386038655,
        -0.010922226877319375,
        0.0038853512243312892,
        0.0,
        0.0018375600286194796,
        0.02474624007740984,
        0.04046916564349374,
        -0.013285359889068588,
        0.0,
        0.004695487237548649,
        0.04727090171618338,
        0.0,
        0.0018375600286194796,
        0.0,
        -0.002060248694092578,
        -0.08901248586328829,
        0.0,
        -0.04549940075788546,
        0.00032575034177374014,
        0.02474624007740984,
        -0.019827888504279544,
        0.0,
        0.03782571650024977,
        0.0018375600286194796,
        0.0,
        -0.018203711462198995,
        -0.020884270499089246,
        0.006755911601749884,
        0.011910005135211777,
        0.06930918429175986,
        -0.041076118544876965,
        -0.008607520240486536,
        0.0018375600286194796,
        0.0018375600286194796,
        -0.013315663395347175,
        0.0012364813364306422,
        -0.06362460253079387,
        -0.03131006623612766,
        -0.018203711462198995,
        0.0018328649249564736,
        0.06992692185117758,
        0.016367330081705135,
        -0.020820175229114585,
        0.014647105451736704,
        0.013493279341186973,
        -0.03176528776409915,
        -0.05173273671848815,
        -0.0037227595209724544,
        0.11388770074350808,
        -0.009711165481795214,
        -0.030504956462660583,
        -0.019827888504279544,
        -0.04962820255077032,
        0.02417967063217861,
        -0.018203711462198995,
        0.026583800106029343,
        0.06930918429175986,
        -0.0007231468500938237,
        0.0,
        -0.0056926776547383704,
        0.006301943142527328,
        0.019680981740989475,
        -0.028567345875326337,
        -0.06482192543597624,
        0.06061232512313338,
        -0.011447799860449083,
        0.013493279341186973,
        -0.016127027584588616
      ],
      [
        -0.026829505644512797,
        -0.009831769773419954,
        -0.09234167492620754,
        0.04159610065647796,
        -0.05155055009075438,
        0.02045584935526068,
        0.0045914512392805544,
        0.037795701322592794,
        0.08265372870550372,
        0.08266505179326772,
        0.005463427128330142,
        0.012273509613156366,
        -0.026829505644512797,
        0.0,
        0.0005366932602276518,
        -0.020444526267496734,
        -0.10013727390817098,
        0.08266505179326772,
        0.0,
        0.08438925089939782,
        -0.12767991283139887,
        0.0,
        0.0005366932602276518,
        0.0,
        -0.0458450922871188,
        -0.11654802148194451,
        0.0,
        0.06494009195607928,
        -0.003094042941974224,
        -0.020444526267496734,
        0.08265372870550372,
        0.0,
        -0.038405453400185294,
        0.0005366932602276518,
        0.0,
        0.02045584935526068,
        -0.02963864087309316,
        0.06274589569823448,
        0.002996692506589442,
        0.004944484324782552,
        0.04102533966960415,
        0.0022931302644862857,
        0.0005366932602276518,
        0.0005366932602276518,
        -0.03323728661550381,
        -0.05339987949509063,
        0.13115508134245937,
        0.05015621945824782,
        0.02045584935526068,
        -0.0002001454637681251,
        -0.1086933145311906,
        -0.004260298989562702,
        -0.03378483107876092,
        -0.0038500201773768845,
        0.0045914512392805544,
        -0.06317978390862446,
        0.0688433591869256,
        -0.05716425464568868,
        -0.038050447291030735,
        0.1047258009364494,
        -0.062365724505072974,
        0.08265372870550372,
        -0.08096302091006999,
        0.06878881747462548,
        0.02045584935526068,
        -0.019907833007269025,
        0.004944484324782552,
        -0.00012128127197580626,
        0.0,
        0.006568044830180622,
        -0.009831769773419954,
        -0.07601853658528727,
        -0.09234167492620754,
        0.04159610065647796,
        -0.05155055009075438,
        0.08320174505349526,
        0.0045914512392805544,
        0.037795701322592794
      ],
      [
        -0.020977705188631773,
        -0.0069346437478658915,
        0.04447749701318939,
        -0.03208646701221121,
        -0.011874040332936136,
        0.015619093999890286,
        -0.05601321364984339,
        -0.015666389304011843,
        -0.044418679293861084,
        -0.06021590784642049,
        -0.0398243574477394,
        0.009371456399934136,
        -0.020977705188631773,
        0.0,
        -0.008597022492612644,
        -0.031416322552449576,
        -0.022465889816498448,
        -0.06021590784642049,
        0.0,
        -0.21498571470454056,
        0.16019596376982878,
        0.0,
        -0.008597022492612644,
        0.0,
        -0.07424688953723811,
        0.17047331819632744,
        0.0,
        0.02428104007297286,
        -0.012365993258253874,
        -0.031416322552449576,
        -0.044418679293861084,
        0.0,
        0.03104256122635307,
        -0.008597022492612644,
        0.0,
        0.015619093999890286,
        0.06251463203691074,
        -0.08443202433892347,
        -0.043817357777572466,
        -0.006726667324118578,
        0.1076703420458997,
        0.020974382844212002,
        -0.008597022492612644,
        -0.008597022492612644,
        0.0548607680471657,
        -0.07977296616141902,
        -0.10793338924842912,
        0.004520802048322028,
        0.015619093999890286,
        -0.014606252208568492,
        0.11315022976808815,
        -0.043780206106448664,
        -0.04711864873355855,
        -0.027384935318810606,
        -0.05601321364984339,
        -0.0033153002753553273,
        0.04827867077081438,
        0.08901127767830899,
        -0.05031611596888227,
        -0.11482158663950304,
        0.10597683926531529,
        -0.044418679293861084,
        0.04198837236180409,
        -0.008571312649286558,
        0.015619093999890286,
        -0.04001334504506243,
        -0.006726667324118578,
        -0.017296151566877402,
        0.0,
        0.004262517089944324,
        -0.0069346437478658915,
        0.03526170503768555,
        0.04447749701318939,
        -0.03208646701221121,
        -0.011874040332936136,
        -0.06881293033903274,
        -0.05601321364984339,
        -0.015666389304011843
      ]
    ],
    "worker_ids": [
      "ollama-cloud-deepseek-v4-pro",
      "ollama-cloud-glm-5.2",
      "ollama-cloud-kimi-k2.7-code",
      "ollama-cloud-qwen3-coder-480b"
    ]
  },
  "target_mode": "reward"
}
