{
  "dataset": "research/datasets/20260627-mixed-winner-16task-routing.jsonl",
  "epochs": 300,
  "l2": 0.0001,
  "learning_rate": 0.0005,
  "model_type": "linear-softmax-logits-router",
  "reward_temperature": 0.5,
  "router": {
    "feature_names": [
      "bias",
      "category_datasci",
      "category_filesystem",
      "category_general",
      "category_network",
      "category_plotting",
      "category_subprocess",
      "environment_risk",
      "family_bigcodebench_hard",
      "family_code_data",
      "family_code_easy",
      "family_code_text",
      "kw_base64",
      "kw_convert",
      "kw_count",
      "kw_csv",
      "kw_default",
      "kw_dict",
      "kw_directory",
      "kw_download",
      "kw_email",
      "kw_encoding",
      "kw_exception",
      "kw_file",
      "kw_flatten",
      "kw_frequent",
      "kw_ftp",
      "kw_group",
      "kw_hash",
      "kw_hex",
      "kw_key",
      "kw_list",
      "kw_lowercase",
      "kw_number",
      "kw_pair",
      "kw_parse",
      "kw_process",
      "kw_socket",
      "kw_sorted",
      "kw_ssl",
      "kw_string",
      "kw_strip",
      "kw_subprocess",
      "kw_sum",
      "kw_title",
      "kw_url",
      "kw_urllib",
      "kw_window",
      "kw_word",
      "kw_zip",
      "length_chars",
      "length_tokens",
      "lib_base64",
      "lib_binascii",
      "lib_codecs",
      "lib_collections",
      "lib_csv",
      "lib_datetime",
      "lib_ftplib",
      "lib_functools",
      "lib_glob",
      "lib_itertools",
      "lib_json",
      "lib_math",
      "lib_matplotlib",
      "lib_numpy",
      "lib_os",
      "lib_pandas",
      "lib_pathlib",
      "lib_random",
      "lib_re",
      "lib_shutil",
      "lib_statistics",
      "lib_subprocess",
      "lib_urllib",
      "lib_zipfile",
      "library_count",
      "missing_library_count",
      "plausibility_score"
    ],
    "policy": "logits-router",
    "weights": [
      [
        -0.016684336311574927,
        -0.019111329416207135,
        -0.007186133211177322,
        0.00423381795404114,
        -0.010492825726382538,
        0.0023156300546543487,
        -0.005323921236189168,
        -0.006295695435829494,
        -0.016684336311574927,
        0.0,
        0.0,
        0.0,
        0.00025988715335362026,
        0.00025988715335362026,
        0.003090286050149181,
        -0.03105160158646374,
        -0.010492825726382538,
        0.0033501732035027933,
        0.012202420162776213,
        -0.007402539676233311,
        0.0,
        0.00025988715335362026,
        -0.032616530075639256,
        0.029173662375841927,
        0.0,
        0.0,
        -0.010492825726382538,
        0.0,
        0.0,
        0.00025988715335362026,
        0.00025988715335362026,
        -0.04764913451560165,
        0.0,
        -0.02294091162298448,
        0.0,
        0.00025988715335362026,
        0.0,
        0.0,
        0.0,
        0.0,
        0.00025988715335362026,
        0.0,
        -0.010492825726382538,
        -0.001168365946470601,
        0.0,
        0.0033501732035027933,
        0.0033501732035027933,
        0.0,
        0.0,
        -0.02450294981295828,
        -0.01966318779961172,
        -0.014858906277864521,
        0.00025988715335362026,
        0.00025988715335362026,
        0.00025988715335362026,
        0.005405916104803521,
        -0.01938855337395352,
        -0.021772545676513922,
        -0.010492825726382538,
        0.003973930800687524,
        -0.029187921200093364,
        0.006662378770218342,
        0.0020786184400441686,
        0.003973930800687524,
        0.0023156300546543487,
        0.0026884479695308146,
        -0.007186133211177322,
        -0.019111329416207135,
        -0.0065207514653521205,
        0.029314283259959696,
        -0.018409043058824154,
        0.052340492449274974,
        -0.019442392826212764,
        -0.010492825726382538,
        0.0033501732035027933,
        -0.02450294981295828,
        -0.007362380818063272,
        0.0,
        -0.011231242423116664
      ],
      [
        -0.033988325004307936,
        0.00807512834427007,
        -0.04897148374259585,
        0.002631291664513091,
        -0.019982263049325023,
        0.002367880418973184,
        -0.01063714460506079,
        -0.011989357829595038,
        -0.033988325004307936,
        0.0,
        0.0,
        0.0,
        0.0005486052538474417,
        0.0005486052538474417,
        0.004924955451065159,
        0.01574555976590686,
        -0.019982263049325023,
        0.005473560704912603,
        -0.034120349978120135,
        -0.015057307598259913,
        0.0,
        0.0005486052538474417,
        0.005779911834893121,
        -0.002861989358457428,
        0.0,
        0.0,
        -0.019982263049325023,
        0.0,
        0.0,
        0.0005486052538474417,
        0.0005486052538474417,
        -0.055840084833265836,
        0.0,
        -0.003908315411151858,
        0.0,
        0.0005486052538474417,
        0.0,
        0.0,
        0.0,
        0.0,
        0.0005486052538474417,
        0.0,
        -0.019982263049325023,
        -0.0042463348930650464,
        0.0,
        0.005473560704912603,
        0.005473560704912603,
        0.0,
        0.0,
        0.021514949612999677,
        -0.01276952557183367,
        -0.010010842024842084,
        0.0005486052538474417,
        0.0005486052538474417,
        0.0005486052538474417,
        0.007292835870038352,
        -0.014851133764475784,
        0.00033801948191319615,
        -0.019982263049325023,
        0.002082686410665648,
        0.018754533022487346,
        0.00413113444976399,
        0.004420162993199145,
        0.002082686410665648,
        0.002367880418973184,
        0.0020484480390983396,
        -0.04897148374259585,
        0.00807512834427007,
        0.03692571483411327,
        -0.029355123513236457,
        -0.017430329612109576,
        -0.029324015238064067,
        -0.012178570081750833,
        -0.019982263049325023,
        0.005473560704912603,
        0.021514949612999677,
        -0.0074921625696239644,
        0.0,
        -0.014168180385931432
      ],
      [
        0.02571996147164089,
        -0.010624905629132216,
        0.024949973346405557,
        -0.001438175146107071,
        0.019445821535501364,
        -0.0006348476438056116,
        0.011487955945302273,
        0.011667492921300832,
        0.02571996147164089,
        0.0,
        0.0,
        0.0,
        -0.0004955808083052723,
        -0.0004955808083052723,
        -0.006615156048844692,
        0.058839965052766494,
        0.019445821535501364,
        -0.007110736857149987,
        -0.05852672468207091,
        0.012830665486656668,
        0.0,
        -0.0004955808083052723,
        -0.03533335224592431,
        0.02171548225412887,
        0.0,
        0.0,
        0.019445821535501364,
        0.0,
        0.0,
        -0.0004955808083052723,
        -0.0004955808083052723,
        -0.02141957711071713,
        0.0,
        0.0322657531636656,
        0.0,
        -0.0004955808083052723,
        0.0,
        0.0,
        0.0,
        0.0,
        -0.0004955808083052723,
        0.0,
        0.019445821535501364,
        -0.013067801340727494,
        0.0,
        -0.007110736857149987,
        -0.007110736857149987,
        0.0,
        0.0,
        -0.016797607416876924,
        0.012199331234541836,
        0.0077555342158680835,
        -0.0004955808083052723,
        -0.0004955808083052723,
        -0.0004955808083052723,
        -0.007250003692650331,
        0.08347669802847649,
        0.04533355450439316,
        0.019445821535501364,
        -0.0009425943378018014,
        -0.04722142339477914,
        -0.0016344881439129303,
        -0.001342709541354379,
        -0.0009425943378018014,
        -0.0006348476438056116,
        -0.0006918938061111236,
        0.024949973346405557,
        -0.010624905629132216,
        -0.012511525972784399,
        0.06830446895744059,
        -0.004720971084104482,
        -0.04904973179776977,
        0.048293204294187195,
        0.019445821535501364,
        -0.007110736857149987,
        -0.016797607416876924,
        0.014628676612095562,
        0.0,
        0.016310522752117446
      ],
      [
        0.02495269984424203,
        0.021661106701069223,
        0.031207643607367653,
        -0.005426934472447181,
        0.011029267240206217,
        -0.004048662829821927,
        0.004473109895947612,
        0.006617560344123683,
        0.02495269984424203,
        0.0,
        0.0,
        0.0,
        -0.000312911598895803,
        -0.000312911598895803,
        -0.0014000854523696358,
        -0.04353392323220974,
        0.011029267240206217,
        -0.0017129970512654382,
        0.08044465449741513,
        0.009629181787836547,
        0.0,
        -0.000312911598895803,
        0.06216997048667022,
        -0.04802715527151335,
        0.0,
        0.0,
        0.011029267240206217,
        0.0,
        0.0,
        -0.000312911598895803,
        -0.000312911598895803,
        0.12490879645958465,
        0.0,
        -0.005416526129529319,
        0.0,
        -0.000312911598895803,
        0.0,
        0.0,
        0.0,
        0.0,
        -0.000312911598895803,
        0.0,
        0.011029267240206217,
        0.018482502180263174,
        0.0,
        -0.0017129970512654382,
        -0.0017129970512654382,
        0.0,
        0.0,
        0.019785607616835562,
        0.020233382136903403,
        0.01711421408683852,
        -0.000312911598895803,
        -0.000312911598895803,
        -0.000312911598895803,
        -0.005448748282191561,
        -0.0492370108900475,
        -0.02389902830979255,
        0.011029267240206217,
        -0.005114022873551375,
        0.05765481157238505,
        -0.00915902507606939,
        -0.005156071891888902,
        -0.005114022873551375,
        -0.004048662829821927,
        -0.0040450022025180325,
        0.031207643607367653,
        0.021661106701069223,
        -0.017893437395976795,
        -0.06826362870416376,
        0.040560343755038086,
        0.02603325458655884,
        -0.01667224138622374,
        0.011029267240206217,
        -0.0017129970512654382,
        0.019785607616835562,
        0.00022586677559170915,
        0.0,
        0.009088900056930587
      ]
    ],
    "worker_ids": [
      "ollama-cloud-deepseek-v4-pro",
      "ollama-cloud-glm-5.2",
      "ollama-cloud-kimi-k2.7-code",
      "ollama-cloud-qwen3-coder-480b"
    ]
  },
  "target_mode": "reward"
}
