{
  "dataset": "research/datasets/20260628-contrast-aware-26task-routing.jsonl",
  "epochs": 300,
  "l2": 0.0001,
  "learning_rate": 0.0005,
  "model_type": "linear-softmax-logits-router",
  "reward_temperature": 0.05,
  "router": {
    "feature_names": [
      "bias",
      "category_algorithmic",
      "category_datasci",
      "category_filesystem",
      "category_general",
      "category_network",
      "category_plotting",
      "category_subprocess",
      "combo_archive_filesystem",
      "combo_filesystem_random",
      "combo_filesystem_tabular",
      "combo_network_archive",
      "combo_network_filesystem",
      "combo_network_plotting",
      "combo_random_math",
      "combo_random_statistics",
      "environment_risk",
      "family_bigcodebench_hard",
      "kw_archive",
      "kw_base64",
      "kw_count",
      "kw_dict",
      "kw_download",
      "kw_fetch",
      "kw_file",
      "kw_files",
      "kw_frequent",
      "kw_hex",
      "kw_http",
      "kw_key",
      "kw_list",
      "kw_lowercase",
      "kw_mean",
      "kw_median",
      "kw_number",
      "kw_plot",
      "kw_random",
      "kw_request",
      "kw_requests",
      "kw_scan",
      "kw_sorted",
      "kw_standard",
      "kw_statistics",
      "kw_string",
      "kw_strip",
      "kw_subprocess",
      "kw_sum",
      "kw_url",
      "kw_word",
      "kw_zip",
      "length_chars",
      "length_tokens",
      "lib_base64",
      "lib_binascii",
      "lib_codecs",
      "lib_collections",
      "lib_csv",
      "lib_datetime",
      "lib_ftplib",
      "lib_functools",
      "lib_glob",
      "lib_itertools",
      "lib_json",
      "lib_math",
      "lib_matplotlib",
      "lib_numpy",
      "lib_os",
      "lib_pandas",
      "lib_pathlib",
      "lib_random",
      "lib_re",
      "lib_requests",
      "lib_shutil",
      "lib_statistics",
      "lib_subprocess",
      "lib_urllib",
      "lib_zipfile",
      "library_count",
      "missing_library_count",
      "plausibility_score",
      "signal_algorithmic",
      "signal_archive",
      "signal_datasci",
      "signal_filesystem",
      "signal_general",
      "signal_math",
      "signal_network",
      "signal_plotting",
      "signal_random",
      "signal_statistics",
      "signal_subprocess",
      "signal_tabular_data"
    ],
    "policy": "logits-router",
    "weights": [
      [
        0.04492507888253417,
        0.013480232504372285,
        0.08369225536620896,
        0.054035547995342006,
        0.0033141194234320823,
        -0.017565072256138917,
        0.0443022047528818,
        -0.00012517714521063632,
        0.016262235007814263,
        0.05052564615412134,
        0.008942311389074881,
        -0.01885959042477037,
        -0.008581502383501501,
        0.025439503450956715,
        0.0015603201992709435,
        -0.07956385987392367,
        -0.010539043353683327,
        0.04492507888253417,
        0.0,
        0.0022721825428662886,
        0.027843160297407653,
        0.07418282243686454,
        -0.008581502383501501,
        0.0,
        0.12401233305466033,
        -0.0763016729531249,
        0.0,
        0.0022721825428662886,
        0.0,
        0.11770837756673126,
        0.03085901364109229,
        0.0,
        0.02143114965447377,
        0.09626750837266554,
        -0.042638868637456986,
        0.02111902377535052,
        0.010964033796640238,
        0.027843160297407653,
        -0.01885959042477037,
        0.0,
        -0.02832084552438914,
        0.0015603201992709435,
        -0.07956385987392367,
        0.0022721825428662886,
        0.0,
        -0.017565072256138917,
        -0.010732410664549677,
        0.011255752415503632,
        0.03682505576914474,
        -0.07336303686955567,
        -0.10548296402417924,
        -0.014528256676503402,
        0.0022721825428662886,
        0.0022721825428662886,
        -0.011919145641063092,
        0.1332398985148354,
        0.03734515570664282,
        -0.01875594824774523,
        -0.017565072256138917,
        0.014322229701311731,
        -0.07946668513284481,
        0.03252996336141621,
        0.10130679534295618,
        0.015882549900582684,
        0.0443022047528818,
        0.0981892336626557,
        -0.06767146382827935,
        -0.023960805324644226,
        -0.025995857373926734,
        0.02515536198056962,
        -0.006979667325527876,
        -0.01885959042477037,
        0.08962527187736964,
        -0.07956385987392367,
        -0.017565072256138917,
        0.030115342840273986,
        -0.07336303686955567,
        0.018489216817267017,
        0.0,
        -0.0045956533855376295,
        0.013480232504372285,
        0.016262235007814263,
        0.08369225536620896,
        0.054035547995342006,
        0.0033141194234320823,
        0.015882549900582684,
        -0.006309319840635241,
        0.0443022047528818,
        0.010964033796640238,
        0.02143114965447377,
        -0.00012517714521063632,
        -0.04683332123134262
      ],
      [
        -0.0011187986437814483,
        0.008920462914258048,
        -0.04705301230571236,
        -0.05988985213922422,
        0.06389854316095298,
        -0.015064238894855878,
        0.00098633149664458,
        -0.021510823502583248,
        0.025036181235635488,
        -0.07454129568871287,
        0.038784706900431315,
        -0.017644261983039602,
        -0.012791163010550484,
        0.006818556738001655,
        0.020127621944763464,
        0.019415993404491207,
        -0.00903854333691357,
        -0.0011187986437814483,
        0.0,
        -0.0009082044670502601,
        0.019917337867345012,
        0.04610452958578941,
        -0.012791163010550484,
        0.0,
        0.004016165609992469,
        0.042862246549817115,
        0.0,
        -0.0009082044670502601,
        0.0,
        -0.00015280184996699765,
        -0.07839287482881012,
        0.0,
        0.0009248907689917661,
        -0.023665322146631976,
        -0.04703844470617293,
        -0.005059894587274219,
        -0.014642638151936508,
        0.019917337867345012,
        -0.017644261983039602,
        0.0,
        0.03745165312536487,
        0.020127621944763464,
        0.019415993404491207,
        -0.0009082044670502601,
        0.0,
        -0.015064238894855878,
        -0.023501143896293684,
        0.0013648714172551767,
        0.0038902586630513874,
        0.0750747161639347,
        -0.06764484886797277,
        -0.012331269161375804,
        -0.0009082044670502601,
        -0.0009082044670502601,
        -0.012403487351340869,
        -0.007448613008320082,
        -0.059165300497046575,
        -0.03287107738754193,
        -0.015064238894855878,
        -0.0016929903563830035,
        0.07536593162886342,
        0.012401692069007679,
        -0.025182802573325978,
        0.018434631588380247,
        0.00098633149664458,
        -0.032914683594740236,
        -0.04304308673059372,
        -0.020459392084130206,
        0.11698253854513062,
        -0.0031473552676458665,
        -0.035410980189771867,
        -0.017644261983039602,
        -0.0500385349282991,
        0.019415993404491207,
        -0.015064238894855878,
        0.01900913340029469,
        0.0750747161639347,
        -0.0035696484379244024,
        0.0,
        -0.005341264835947292,
        0.008920462914258048,
        0.025036181235635488,
        -0.04705301230571236,
        -0.05988985213922422,
        0.06389854316095298,
        0.018434631588380247,
        -0.013699367477600746,
        0.00098633149664458,
        -0.014642638151936508,
        0.0009248907689917661,
        -0.021510823502583248,
        0.09616051307935591
      ],
      [
        -0.04230263847342722,
        -0.017237092172301842,
        -0.0988425632273909,
        0.03770743509784331,
        -0.06102823251493291,
        0.018670593283658193,
        0.008004025686046062,
        0.0435880443635987,
        -0.06861971182965501,
        0.13284821577548075,
        0.036268233719966604,
        0.08810180009691344,
        0.08997092120242933,
        0.012464069956586915,
        -0.0073531028665679505,
        0.05564741379451735,
        0.011202355970194967,
        -0.04230263847342722,
        0.0,
        0.005361267857670761,
        -0.016801472178142696,
        -0.10559388306408773,
        0.08997092120242933,
        0.0,
        0.07966498140806738,
        -0.12153232290481951,
        0.0,
        0.005361267857670761,
        0.0,
        -0.04829245396513639,
        -0.12165992316183638,
        0.0,
        0.02935199775120881,
        -0.032444715735001836,
        0.06304017585568478,
        -0.0074112649404325616,
        0.04535414801221931,
        -0.016801472178142696,
        0.08810180009691344,
        0.0,
        -0.041891790185459625,
        -0.0073531028665679505,
        0.05564741379451735,
        0.005361267857670761,
        0.0,
        0.018670593283658193,
        -0.02838877075880749,
        0.07666159577644115,
        0.005393791077596942,
        0.011760071009059944,
        0.038548836205211205,
        0.0027534748170966908,
        0.005361267857670761,
        0.005361267857670761,
        -0.0250380788255332,
        -0.05336524612224247,
        0.11752964251902374,
        0.04683271064860821,
        0.018670593283658193,
        9.248485172558305e-05,
        -0.1045365720060901,
        -0.010995307628883271,
        -0.034572342669390674,
        -0.007260618014842385,
        0.008004025686046062,
        -0.06376504160550286,
        0.05768808087625846,
        -0.05932756861339897,
        -0.036796623032897935,
        0.07575349469542318,
        -0.05420121891906398,
        0.08810180009691344,
        -0.08037978283871478,
        0.05564741379451735,
        0.018670593283658193,
        -0.011440204320471908,
        0.011760071009059944,
        -0.0032205158136798064,
        0.0,
        0.00376776580394948,
        -0.017237092172301842,
        -0.06861971182965501,
        -0.0988425632273909,
        0.03770743509784331,
        -0.06102823251493291,
        -0.007260618014842385,
        0.09533218906009991,
        0.008004025686046062,
        0.04535414801221931,
        0.02935199775120881,
        0.0435880443635987,
        -0.02213718826018698
      ],
      [
        -0.00150364176532525,
        -0.00516360324632845,
        0.062203320166894276,
        -0.03185313095396187,
        -0.006184430069452254,
        0.013958717867336582,
        -0.05329256193557251,
        -0.02195204371580471,
        0.027321295586205243,
        -0.10883256624088959,
        -0.0839952520094726,
        -0.0515979476891037,
        -0.06859825580837707,
        -0.044722130145545186,
        -0.014334839277466375,
        0.004500452674914924,
        0.008375230720401975,
        -0.00150364176532525,
        0.0,
        -0.006725245933486776,
        -0.030959025986610093,
        -0.014693468958565449,
        -0.06859825580837707,
        0.0,
        -0.20769348007271976,
        0.15497174930812763,
        0.0,
        -0.006725245933486776,
        0.0,
        -0.06926312175162791,
        0.1691937843495557,
        0.0,
        -0.051708038174674016,
        -0.040157470491031286,
        0.02663713748794519,
        -0.008647864247643654,
        -0.041675543656922866,
        -0.030959025986610093,
        -0.0515979476891037,
        0.0,
        0.03276098258448363,
        -0.014334839277466375,
        0.004500452674914924,
        -0.006725245933486776,
        0.0,
        0.013958717867336582,
        0.06262232531965069,
        -0.08928221960920042,
        -0.04610910550979294,
        -0.013471750303438869,
        0.13457897668694002,
        0.024106051020782487,
        -0.006725245933486776,
        -0.006725245933486776,
        0.04936071181793714,
        -0.0724260393842723,
        -0.09570949772862009,
        0.0047943149866790085,
        0.013958717867336582,
        -0.012721724196654365,
        0.10863732551007167,
        -0.033936347801540645,
        -0.041551650100239576,
        -0.027056563474120787,
        -0.05329256193557251,
        -0.001509508462412837,
        0.053026469682614784,
        0.10374776602217307,
        -0.054190058138306234,
        -0.09776150140834672,
        0.09659186643436354,
        -0.0515979476891037,
        0.040793045889644254,
        0.004500452674914924,
        0.013958717867336582,
        -0.03768427192009671,
        -0.013471750303438869,
        -0.01169905256566273,
        0.0,
        0.0061691524175354565,
        -0.00516360324632845,
        0.027321295586205243,
        0.062203320166894276,
        -0.03185313095396187,
        -0.006184430069452254,
        -0.027056563474120787,
        -0.07532350174186352,
        -0.05329256193557251,
        -0.041675543656922866,
        -0.051708038174674016,
        -0.02195204371580471,
        -0.02719000358782653
      ]
    ],
    "worker_ids": [
      "ollama-cloud-deepseek-v4-pro",
      "ollama-cloud-glm-5.2",
      "ollama-cloud-kimi-k2.7-code",
      "ollama-cloud-qwen3-coder-480b"
    ]
  },
  "target_mode": "reward"
}
