{
  "dataset": "research/datasets/20260627-mixed-winner-19task-routing.jsonl",
  "epochs": 300,
  "l2": 0.0001,
  "learning_rate": 0.0005,
  "model_type": "linear-softmax-logits-router",
  "reward_temperature": 0.1,
  "router": {
    "feature_names": [
      "bias",
      "category_datasci",
      "category_filesystem",
      "category_general",
      "category_network",
      "category_plotting",
      "category_subprocess",
      "combo_archive_filesystem",
      "combo_dataframe_plotting",
      "combo_network_archive",
      "combo_network_filesystem",
      "combo_network_plotting",
      "environment_risk",
      "family_bigcodebench_hard",
      "family_code_data",
      "family_code_easy",
      "family_code_text",
      "kw_archive",
      "kw_base64",
      "kw_convert",
      "kw_count",
      "kw_csv",
      "kw_default",
      "kw_dict",
      "kw_directory",
      "kw_download",
      "kw_email",
      "kw_encoding",
      "kw_exception",
      "kw_file",
      "kw_flatten",
      "kw_frequent",
      "kw_ftp",
      "kw_group",
      "kw_hash",
      "kw_hex",
      "kw_http",
      "kw_https",
      "kw_key",
      "kw_list",
      "kw_lowercase",
      "kw_number",
      "kw_pair",
      "kw_parse",
      "kw_process",
      "kw_request",
      "kw_requests",
      "kw_socket",
      "kw_sorted",
      "kw_ssl",
      "kw_string",
      "kw_strip",
      "kw_subprocess",
      "kw_sum",
      "kw_title",
      "kw_unpack",
      "kw_url",
      "kw_urllib",
      "kw_window",
      "kw_word",
      "kw_zip",
      "length_chars",
      "length_tokens",
      "lib_base64",
      "lib_binascii",
      "lib_codecs",
      "lib_collections",
      "lib_csv",
      "lib_datetime",
      "lib_ftplib",
      "lib_functools",
      "lib_glob",
      "lib_itertools",
      "lib_json",
      "lib_math",
      "lib_matplotlib",
      "lib_numpy",
      "lib_os",
      "lib_pandas",
      "lib_pathlib",
      "lib_random",
      "lib_re",
      "lib_requests",
      "lib_shutil",
      "lib_statistics",
      "lib_subprocess",
      "lib_urllib",
      "lib_zipfile",
      "library_count",
      "missing_library_count",
      "plausibility_score",
      "signal_archive",
      "signal_dataframe",
      "signal_filesystem",
      "signal_network",
      "signal_plotting",
      "signal_subprocess"
    ],
    "policy": "logits-router",
    "weights": [
      [
        -0.05457602170584272,
        -0.04970514143197635,
        -0.024257100993621918,
        0.009683874915837942,
        -0.020837761970273733,
        0.02493119849650337,
        -0.020887139286049426,
        0.03628057177746436,
        0.0,
        -0.021695041065776816,
        -0.011117133066378335,
        0.022054915701435383,
        -0.01250265718216425,
        -0.05457602170584272,
        0.0,
        0.0,
        0.0,
        0.0,
        -0.0007992852081360691,
        -0.0007992852081360691,
        0.0314156699696723,
        -0.08524257801627567,
        -0.020837761970273733,
        0.00856146906010088,
        -0.0035789124818086165,
        -0.011117133066378335,
        -0.021965665499820892,
        -0.0007992852081360691,
        -0.08680895760941454,
        0.04149858349674482,
        0.0,
        0.0,
        -0.020837761970273733,
        0.0,
        0.0,
        -0.0007992852081360691,
        0.0,
        0.0,
        -0.0007992852081360691,
        -0.07228807236421378,
        0.0,
        -0.03482709599648531,
        0.0,
        -0.0007992852081360691,
        -0.04366070656559779,
        0.0314156699696723,
        -0.021695041065776816,
        0.0,
        0.0,
        0.0,
        -0.0007992852081360691,
        0.0,
        -0.020837761970273733,
        -0.008538562165025217,
        0.0,
        0.0,
        0.008921343695759388,
        0.030616384761536292,
        0.0,
        0.022054915701435383,
        -0.06539588447776865,
        -0.0587944132724271,
        -0.04530223803590667,
        -0.0007992852081360691,
        -0.0007992852081360691,
        -0.02276495070795696,
        0.03429195276474035,
        -0.042733104213248545,
        -0.048254199331280806,
        -0.020837761970273733,
        0.010483160123974048,
        -0.06412006896557454,
        0.01788503282676182,
        0.012195659280149812,
        0.010483160123974048,
        0.02493119849650337,
        -0.014563792797032994,
        -0.046312016695057266,
        -0.04970514143197635,
        -0.023487751514027797,
        0.03636535636318092,
        -0.02293066723441115,
        -0.021695041065776816,
        0.10167645625523322,
        -0.054120610276119537,
        -0.020837761970273733,
        0.030616384761536292,
        -0.06539588447776865,
        -0.024042896207099877,
        0.0,
        -0.0295508892135936,
        0.03628057177746436,
        -0.04970514143197635,
        -0.024257100993621918,
        -0.011916418274514435,
        0.02493119849650337,
        -0.020887139286049426
      ],
      [
        -0.0634247845142079,
        -0.02551690239338878,
        -0.05408266073308892,
        -0.0008869995403141937,
        -0.020686464238829465,
        0.011093739611084426,
        -0.03960707742039006,
        0.018809971717036827,
        0.0,
        -0.023255678745501555,
        -0.022908560763083115,
        0.01052387009327518,
        -0.01241187854329765,
        -0.0634247845142079,
        0.0,
        0.0,
        0.0,
        0.0,
        -0.0012928508626860841,
        -0.0012928508626860841,
        0.021033582221247984,
        0.050152699251542886,
        -0.020686464238829465,
        0.00921686126528678,
        -0.02413598898028931,
        -0.022908560763083115,
        -0.02246610448102911,
        -0.0012928508626860841,
        0.03524083953629443,
        0.015995488185959264,
        0.0,
        0.0,
        -0.020686464238829465,
        0.0,
        0.0,
        -0.0012928508626860841,
        0.0,
        0.0,
        -0.0012928508626860841,
        -0.09178964564957139,
        0.0,
        -0.04637635804797715,
        0.0,
        -0.0012928508626860841,
        -0.04572178322653072,
        0.021033582221247984,
        -0.023255678745501555,
        0.0,
        0.0,
        0.0,
        -0.0012928508626860841,
        0.0,
        -0.020686464238829465,
        -0.021853645136124672,
        0.0,
        0.0,
        -0.0035149473869397255,
        0.019740731358561952,
        0.0,
        0.01052387009327518,
        0.06656919947582975,
        -0.040640664327445924,
        -0.032536359330521625,
        -0.0012928508626860841,
        -0.0012928508626860841,
        -0.023758955343715214,
        0.021603451739057245,
        -0.0404705418460749,
        -0.04698881739288161,
        -0.020686464238829465,
        0.0004058513223718968,
        0.06826741907028087,
        0.004148784665943883,
        0.00576758782372212,
        0.0004058513223718968,
        0.011093739611084426,
        -0.01872317113745718,
        -0.06460653082636407,
        -0.02551690239338878,
        0.11288273755611418,
        -0.06837874126344377,
        -0.03850455309166672,
        -0.023255678745501555,
        -0.04775922775879286,
        -0.016759363683352284,
        -0.020686464238829465,
        0.019740731358561952,
        0.06656919947582975,
        -0.01477957597403323,
        0.0,
        -0.022609893363874096,
        0.018809971717036827,
        -0.02551690239338878,
        -0.05408266073308892,
        -0.02420141162576917,
        0.011093739611084426,
        -0.03960707742039006
      ],
      [
        0.04147824946119692,
        -0.05439948953387362,
        0.06295449687512228,
        -0.0025614210026585547,
        0.019788350425428067,
        0.003195847695227136,
        0.04300749009481627,
        -0.07548570644427041,
        0.0,
        0.08760766316333785,
        0.08039863405199577,
        0.0023321612986718344,
        0.011873010255256932,
        0.04147824946119692,
        0.0,
        0.0,
        0.0,
        0.0,
        -0.0009681782476632062,
        -0.0009681782476632062,
        -0.026997379536770436,
        0.07655355844789324,
        0.019788350425428067,
        -0.03029771908310563,
        -0.08719192401798484,
        0.08039863405199577,
        -0.03426473523027025,
        -0.0009681782476632062,
        -0.03584825857183329,
        0.10954805669794603,
        0.0,
        0.0,
        0.019788350425428067,
        0.0,
        0.0,
        -0.0009681782476632062,
        0.0,
        0.0,
        -0.0009681782476632062,
        -0.07811482062384374,
        0.0,
        0.055621207023498466,
        0.0,
        -0.0009681782476632062,
        0.053342927933067524,
        -0.026997379536770436,
        0.08760766316333785,
        0.0,
        0.0,
        0.0,
        -0.0009681782476632062,
        0.0,
        0.019788350425428067,
        -0.0330878107541381,
        0.0,
        0.0,
        0.05964210537890423,
        -0.027965557784433707,
        0.0,
        0.0023321612986718344,
        0.007087615434886193,
        0.026829291022728727,
        0.018996571914885237,
        -0.0009681782476632062,
        -0.0009681782476632062,
        -0.03523291347793352,
        -0.026133693140215207,
        0.14781425959443498,
        0.05444428254736619,
        0.019788350425428067,
        -0.0015932427549953461,
        -0.1123214885701617,
        0.0028092678941014013,
        -0.0031264087269089486,
        -0.0015932427549953461,
        0.003195847695227136,
        -0.029862224581173644,
        0.060622335576450206,
        -0.05439948953387362,
        -0.03976613314739854,
        0.1429748141426579,
        -0.06595622978415261,
        0.08760766316333785,
        -0.08257332187915656,
        0.09851849442559282,
        0.019788350425428067,
        -0.027965557784433707,
        0.007087615434886193,
        0.016219097869418587,
        0.0,
        0.019947300150284963,
        -0.07548570644427041,
        -0.05439948953387362,
        0.06295449687512228,
        0.07943045580433232,
        0.003195847695227136,
        0.04300749009481627
      ],
      [
        0.07652255675885411,
        0.12962153335923846,
        0.015385264851588702,
        -0.006235454372865204,
        0.021735875783674967,
        -0.03922078580281485,
        0.017486726611623104,
        0.020395162949769185,
        0.0,
        -0.042656943352059294,
        -0.04637294022253415,
        -0.03491094709338233,
        0.013041525470205081,
        0.07652255675885411,
        0.0,
        0.0,
        0.0,
        0.0,
        0.0030603143184853698,
        0.0030603143184853698,
        -0.025451872654149818,
        -0.041463679683160864,
        0.021735875783674967,
        0.012519388757717976,
        0.11490682548008335,
        -0.04637294022253415,
        0.07869650521112037,
        0.0030603143184853698,
        0.08741637664495301,
        -0.16704212838065005,
        0.0,
        0.0,
        0.021735875783674967,
        0.0,
        0.0,
        0.0030603143184853698,
        0.0,
        0.0,
        0.0030603143184853698,
        0.24219253863762882,
        0.0,
        0.025582247020964097,
        0.0,
        0.0030603143184853698,
        0.036039561859061015,
        -0.025451872654149818,
        -0.042656943352059294,
        0.0,
        0.0,
        0.0,
        0.0030603143184853698,
        0.0,
        0.021735875783674967,
        0.06348001805528783,
        0.0,
        0.0,
        -0.06504850168772387,
        -0.022391558335664564,
        0.0,
        -0.03491094709338233,
        -0.008260930432947174,
        0.07260578657714481,
        0.05884202545154313,
        0.0030603143184853698,
        0.0030603143184853698,
        0.0817568195296055,
        -0.02976171136358237,
        -0.06461061353511177,
        0.040798734176796365,
        0.021735875783674967,
        -0.009295768691350582,
        0.1081741384654555,
        -0.024843085386807063,
        -0.014836838376963006,
        -0.009295768691350582,
        -0.03922078580281485,
        0.06314918851566398,
        0.05029621194497109,
        0.12962153335923846,
        -0.0496288528946878,
        -0.11096142924239516,
        0.12739145011023068,
        -0.042656943352059294,
        0.02865609338271639,
        -0.02763852046612107,
        0.021735875783674967,
        -0.022391558335664564,
        -0.008260930432947174,
        0.02260337431171438,
        0.0,
        0.032213482427182784,
        0.020395162949769185,
        0.12962153335923846,
        0.015385264851588702,
        -0.043312625904048885,
        -0.03922078580281485,
        0.017486726611623104
      ]
    ],
    "worker_ids": [
      "ollama-cloud-deepseek-v4-pro",
      "ollama-cloud-glm-5.2",
      "ollama-cloud-kimi-k2.7-code",
      "ollama-cloud-qwen3-coder-480b"
    ]
  },
  "target_mode": "reward"
}
