{
  "epochs": 300,
  "l2": 0.0001,
  "latency_regret_weight": 0.5,
  "learning_rate": 0.0005,
  "model_type": "linear-multi-head-orchestrator",
  "orchestrator": {
    "abstain_weights": [
      -0.5991491768769558,
      -0.12060622556342179,
      -0.2010986377130172,
      -0.1835108413374169,
      -0.04899022354126464,
      -0.08886318814278835,
      -0.04568079107402609,
      -0.13889276441640372,
      -0.02662880434746009,
      -0.012933103586568835,
      -0.07067351944765204,
      -0.013441875635965116,
      -0.08623799424649224,
      -0.5991491768769558,
      0.0,
      0.0,
      0.0,
      -0.018688823673237386,
      -0.021746033285888297,
      -0.056420122285678796,
      -0.10159150043819644,
      -0.037185071738610846,
      -0.04241909627004105,
      -0.13716528040514214,
      -0.1682475899576307,
      -0.05499978410228502,
      -0.019520681243625902,
      -0.021746033285888297,
      0.07050186928655042,
      -0.13456466863096803,
      0.0,
      0.0,
      -0.015044630614713561,
      -0.015806183416523404,
      0.0,
      -0.021746033285888297,
      -0.018271857581183343,
      -0.015673735345367874,
      0.0544861440950593,
      -0.33528151689990887,
      -0.029141568538381634,
      -0.18608893138957341,
      -0.0456612809878576,
      -0.07869909760197287,
      -0.05269483837222418,
      -0.04529390748218639,
      -0.06988616790265363,
      0.0,
      -0.06469073122958152,
      0.0,
      -0.08394129020272345,
      0.0,
      -0.015044630614713561,
      -0.06093192842529071,
      -0.02142571988592753,
      0.0,
      -0.11865425108954476,
      -0.08744928992179313,
      0.0,
      0.026879575982448115,
      -0.08728126712074116,
      -0.2705910762689117,
      -0.20549806342299948,
      -0.021746033285888297,
      -0.021746033285888297,
      -0.05695306431608484,
      -0.04126671452951417,
      -0.05867602901960597,
      -0.10808429590044528,
      0.15805963687968208,
      -0.015044630614713561,
      -0.024552742567092386,
      -0.06844652788087245,
      -0.10180919165091964,
      -0.043657000208534975,
      -0.05142169916891864,
      -0.06907695347470257,
      -0.1459001339029993,
      -0.01943809247245373,
      -0.09366799977043665,
      -0.11639553362527912,
      -0.017898740150436583,
      -0.11346805342509025,
      -0.04932492907990568,
      -0.06988616790265363,
      -0.06209719758703354,
      -0.11023142292055155,
      -0.0703003209688999,
      -0.13539480275135052,
      -0.07831074077382048,
      -0.029141568538381634,
      -0.015044630614713561,
      -0.08744928992179313,
      -0.08728126712074116,
      -0.18256521705500348,
      -0.028421930060866674,
      -0.1826945369079052,
      -0.13889276441640372,
      -0.12060622556342179,
      -0.2010986377130172,
      -0.13369888170425867,
      -0.08886318814278835,
      -0.04568079107402609
    ],
    "feature_names": [
      "bias",
      "category_datasci",
      "category_filesystem",
      "category_general",
      "category_network",
      "category_plotting",
      "category_subprocess",
      "combo_archive_filesystem",
      "combo_dataframe_plotting",
      "combo_network_archive",
      "combo_network_filesystem",
      "combo_network_plotting",
      "environment_risk",
      "family_bigcodebench_hard",
      "family_code_data",
      "family_code_easy",
      "family_code_text",
      "kw_archive",
      "kw_base64",
      "kw_convert",
      "kw_count",
      "kw_csv",
      "kw_default",
      "kw_dict",
      "kw_directory",
      "kw_download",
      "kw_email",
      "kw_encoding",
      "kw_exception",
      "kw_file",
      "kw_flatten",
      "kw_frequent",
      "kw_ftp",
      "kw_group",
      "kw_hash",
      "kw_hex",
      "kw_http",
      "kw_https",
      "kw_key",
      "kw_list",
      "kw_lowercase",
      "kw_number",
      "kw_pair",
      "kw_parse",
      "kw_process",
      "kw_request",
      "kw_requests",
      "kw_socket",
      "kw_sorted",
      "kw_ssl",
      "kw_string",
      "kw_strip",
      "kw_subprocess",
      "kw_sum",
      "kw_title",
      "kw_unpack",
      "kw_url",
      "kw_urllib",
      "kw_window",
      "kw_word",
      "kw_zip",
      "length_chars",
      "length_tokens",
      "lib_base64",
      "lib_binascii",
      "lib_bs4",
      "lib_codecs",
      "lib_collections",
      "lib_csv",
      "lib_datetime",
      "lib_ftplib",
      "lib_functools",
      "lib_glob",
      "lib_itertools",
      "lib_json",
      "lib_math",
      "lib_matplotlib",
      "lib_numpy",
      "lib_operator",
      "lib_os",
      "lib_pandas",
      "lib_pathlib",
      "lib_random",
      "lib_re",
      "lib_requests",
      "lib_scipy",
      "lib_seaborn",
      "lib_shutil",
      "lib_sklearn",
      "lib_statistics",
      "lib_string",
      "lib_subprocess",
      "lib_urllib",
      "lib_zipfile",
      "library_count",
      "missing_library_count",
      "plausibility_score",
      "signal_archive",
      "signal_dataframe",
      "signal_filesystem",
      "signal_network",
      "signal_plotting",
      "signal_subprocess"
    ],
    "policy": "linear-multi-head-orchestrator",
    "verifier_weights": [
      -0.025383271033243643,
      -0.0707341499984703,
      -0.2060784174565015,
      0.0873257707540684,
      -0.008690824397180207,
      0.040650462208875936,
      0.14209742110527124,
      -0.0879184034547288,
      -0.025233749543334922,
      -0.044049606837566736,
      0.04748654423803914,
      0.012040895456470838,
      -0.04206538622230398,
      -0.025383271033243643,
      0.0,
      0.0,
      0.0,
      0.044084338499194804,
      0.02095855105952674,
      -0.0054447229264159985,
      0.12319760339497512,
      -0.12732597356212447,
      0.034543758730793815,
      0.07848733245031674,
      -0.12809541629392893,
      0.004584358866271116,
      -0.06399249726627189,
      0.02095855105952674,
      0.16947359147568547,
      -0.1641093691791637,
      0.0,
      0.0,
      0.004631136470115023,
      -0.0591129648590967,
      0.0,
      0.02095855105952674,
      -0.056224146239063064,
      0.04290218537176794,
      0.05228994254347667,
      -0.1384376676236317,
      0.023915996873516362,
      -0.1276809712715525,
      0.06745765205182612,
      -0.054503746125586394,
      -0.08419203788387007,
      -0.012221317005340284,
      -0.1195119040226799,
      0.0,
      0.005158181264247196,
      0.0,
      -0.074496348082984,
      0.0,
      0.004631136470115023,
      0.006440490831093213,
      0.011657935028783819,
      0.0,
      -0.054550523729430034,
      0.04572322934719998,
      0.0,
      0.19961817023341696,
      -0.04667121482208273,
      -0.038519085705259096,
      -0.03863754662198818,
      0.02095855105952674,
      0.02095855105952674,
      -0.07546229718511331,
      -0.04303394620674553,
      0.14947420452751753,
      -0.025650383683258206,
      -0.011876910596453778,
      0.004631136470115023,
      0.02363617070756513,
      -0.09090371683647616,
      0.10385140678766805,
      -0.05133188733273241,
      0.05986747235036968,
      0.09993563093023623,
      -0.08051765959869861,
      0.040600056942364196,
      -0.09311078138310558,
      -0.013539632781248418,
      -0.04274726783967645,
      -0.19368783808775983,
      -0.021868250954022738,
      -0.1195119040226799,
      -0.04124659190385708,
      -0.07298649981630621,
      0.002837149866548085,
      0.08049874821319586,
      -0.014662770154719845,
      0.023915996873516362,
      0.004631136470115023,
      0.04572322934719998,
      -0.04667121482208273,
      -0.03572901115994706,
      -0.018425445791997886,
      -0.0517580107137617,
      -0.0879184034547288,
      -0.0707341499984703,
      -0.2060784174565015,
      -0.04991938725931539,
      0.040650462208875936,
      0.14209742110527124
    ],
    "worker_ids": [
      "ollama-cloud-deepseek-v4-pro",
      "ollama-cloud-glm-5.2",
      "ollama-cloud-kimi-k2.7-code",
      "ollama-cloud-qwen3-coder-480b"
    ],
    "worker_weights": [
      [
        -0.06843639149478746,
        0.07332807998973104,
        0.03272426260204205,
        -0.07001642953305763,
        0.08806276881047564,
        0.03775736666455203,
        0.045899614269455734,
        -3.844061379135365e-05,
        0.005260249910490121,
        -0.05839862247905116,
        -0.06135368340820077,
        0.021976951652138643,
        0.0981430120529592,
        -0.06843639149478746,
        0.0,
        0.0,
        0.0,
        0.027869980305249027,
        -0.015035388795370502,
        -0.05233389271743252,
        -0.02220639917534848,
        0.07144678258172629,
        -0.014115306494350267,
        0.08832733766693497,
        -0.07791075995239986,
        -0.08243039594861234,
        -0.020702432166936915,
        -0.015035388795370502,
        0.05094579738503776,
        0.10539427613709752,
        0.0,
        0.0,
        -0.04265155023193195,
        0.11727224313017759,
        0.0,
        -0.015035388795370502,
        0.10963760650199651,
        0.021076712540411217,
        0.07102051672177205,
        -0.04745441417742899,
        0.00968885525275606,
        0.011270840849623017,
        0.03649135864849319,
        0.030921536462327537,
        -0.07021983309063651,
        0.1282573832643676,
        -0.012441697221353002,
        0.0,
        -0.08907720644184285,
        0.0,
        0.01650408066824461,
        0.0,
        -0.04265155023193195,
        -0.028862825520710716,
        -0.005154077462772279,
        0.0,
        -0.008857309254352847,
        -0.06009629327729907,
        0.0,
        0.05854530608885878,
        -0.09094819856388402,
        -0.012773416671896824,
        -0.005865047153569193,
        -0.015035388795370502,
        -0.015035388795370502,
        0.04595692525769793,
        -0.03573782096230742,
        0.08719000907908754,
        0.05449922035977483,
        -0.09104404445823774,
        -0.04265155023193195,
        0.00944545495664217,
        -0.1055145865548298,
        0.02594976734885031,
        0.06987466274216093,
        0.017973787135545413,
        0.06980693758888208,
        0.07646425058382166,
        -0.016474947885569288,
        -0.1341564994303644,
        0.07391855078182723,
        -0.02817024469131388,
        0.003649044940091199,
        -0.07260235797500847,
        -0.012441697221353002,
        -0.0859757370183986,
        -0.16820360879983373,
        0.11877973825534079,
        0.12341639176991887,
        -0.09355274108940202,
        0.00968885525275606,
        -0.04265155023193195,
        -0.06009629327729907,
        -0.09094819856388402,
        -0.03236790599300075,
        0.022652675383336977,
        0.05972380860778992,
        -3.844061379135365e-05,
        0.07332807998973104,
        0.03272426260204205,
        -0.051508859486284676,
        0.03775736666455203,
        0.045899614269455734
      ],
      [
        -0.09855508417067384,
        -0.09785959183135612,
        -0.03490543565698383,
        -0.005478607095108998,
        -0.031555159562049934,
        -0.06644533630241435,
        -0.03838549765505514,
        0.028424713862190323,
        -0.07571280786367957,
        -0.030590313126547537,
        -0.027156389058170294,
        -0.0005615576699224689,
        0.02878488773444799,
        -0.09855508417067384,
        0.0,
        0.0,
        0.0,
        0.0284186308980089,
        -0.012911791198565153,
        0.13243096553325082,
        0.056555938989204135,
        -0.043164753117538326,
        -0.02723178515391745,
        -0.021842093423330496,
        -0.02281061977226035,
        -0.035056049209651656,
        -0.05048937517960745,
        -0.012911791198565153,
        -0.0508672330952425,
        0.025360918617835435,
        0.0,
        0.0,
        -0.020770549854435938,
        -0.031956463128118055,
        0.0,
        -0.012911791198565153,
        -0.01868426985909537,
        0.007899660151481304,
        0.06938806849945078,
        -0.01613556459411358,
        0.015587274838456238,
        -0.058546713069101454,
        0.020177378596334016,
        -0.03650328994856202,
        -0.05906997779569861,
        -0.002379456087763775,
        -0.05418181187654413,
        0.0,
        0.13918386790645615,
        0.0,
        -0.028852418741059878,
        0.0,
        -0.020770549854435938,
        -0.019868916778249802,
        -0.024029188327138778,
        0.0,
        -0.05078878930377831,
        -0.0015142063181349794,
        0.0,
        0.017223938528559562,
        0.084329224708703,
        -0.0873266634428877,
        -0.07492180477276711,
        -0.012911791198565153,
        -0.012911791198565153,
        -0.023591498749996827,
        -0.06340116637817292,
        0.07773202537436752,
        -0.0795566152799083,
        -0.1193463469563971,
        -0.020770549854435938,
        -0.009750586281083922,
        0.0701287488648214,
        -0.010031595486663014,
        0.05591495175467903,
        0.01247002267607864,
        -0.052767002729141574,
        0.020510218988027164,
        0.017206810754310718,
        -0.06623036465361853,
        0.011628307867616478,
        0.12216633509863703,
        -0.13530352927664022,
        -0.12202725639641933,
        -0.05418181187654413,
        0.02016634625382656,
        -0.015605703252995675,
        -0.027485879948503093,
        0.03986280202830746,
        -0.03856313170214447,
        0.015587274838456238,
        -0.020770549854435938,
        -0.0015142063181349794,
        0.084329224708703,
        -0.03390183081845371,
        0.02385899173583897,
        -0.00774230767420019,
        0.028424713862190323,
        -0.09785959183135612,
        -0.03490543565698383,
        -0.07155933915821411,
        -0.06644533630241435,
        -0.03838549765505514
      ],
      [
        -0.010936320860736402,
        -0.12538029544457716,
        0.1048515975954692,
        -0.04595095394041136,
        -0.000465847785186007,
        -0.04002539037703572,
        -0.01680646078855115,
        -0.07868312494670959,
        -0.08367537845375779,
        0.11723594504248044,
        0.1294928874160123,
        0.021076930975488153,
        -0.0045689384122703305,
        -0.010936320860736402,
        0.0,
        0.0,
        0.0,
        -0.03703349932121784,
        0.013098765815983338,
        0.023624770197503482,
        0.041346674972122265,
        0.12497168217571153,
        -0.0250076391337884,
        -0.03717762598439636,
        -0.09258456119903918,
        0.12078241716314349,
        -0.07386443571887487,
        0.013098765815983338,
        0.046454219898422765,
        0.1857282291835514,
        0.0,
        0.0,
        0.02153494129596093,
        -0.01820369472149568,
        0.0,
        0.013098765815983338,
        -0.030711259334016413,
        0.008710470252869432,
        -0.05625813630470758,
        -0.223343907462507,
        -0.012953874215132102,
        -0.010558286932682981,
        -0.02626146710357579,
        -0.03314615215971262,
        0.08034130905018193,
        -0.04869972850931482,
        0.07099102706678422,
        0.0,
        -0.008108662196465607,
        0.0,
        -0.05420314040733168,
        0.0,
        0.02153494129596093,
        -0.04427852392412804,
        0.0452634053639933,
        0.0,
        0.06610132370746966,
        -0.020423362000994667,
        0.0,
        0.024112975835162694,
        -0.008910304689110514,
        0.006668385853749683,
        0.0014997976149688885,
        0.013098765815983338,
        0.013098765815983338,
        -0.04624491797569604,
        -0.06076566990289166,
        -0.07115197036391853,
        0.1503178460604758,
        0.10393104087966921,
        0.02153494129596093,
        0.0021255495842757302,
        -0.12901747605223843,
        -0.044959290476782925,
        -0.05001907338285952,
        0.013734586388074541,
        -0.01386388364945267,
        -0.2043749108046371,
        0.00737885575362921,
        0.028766678541946523,
        -0.06174092907180682,
        -0.04239496344007409,
        0.059615041627395074,
        -0.006693019510164417,
        0.07099102706678422,
        -0.03482759003040252,
        0.007133875412488579,
        -0.10680631957881753,
        0.09105676839457098,
        0.12837573498858734,
        -0.012953874215132102,
        0.02153494129596093,
        -0.020423362000994667,
        -0.008910304689110514,
        -0.018245313622319504,
        -0.002144714870579376,
        -0.00847888640626457,
        -0.07868312494670959,
        -0.12538029544457716,
        0.1048515975954692,
        0.08763626500343094,
        -0.04002539037703572,
        -0.01680646078855115
      ],
      [
        0.17792779652619775,
        0.1499118072862023,
        -0.10267042454052798,
        0.12144599056857754,
        -0.05604176146323977,
        0.06871336001489807,
        0.009292344174150372,
        0.050296851698310635,
        0.15412793640694705,
        -0.028247009436882298,
        -0.040982814949640886,
        -0.042492324957704324,
        -0.12235896137513703,
        0.17792779652619775,
        0.0,
        0.0,
        0.0,
        -0.019255111882040155,
        0.014848414177952332,
        -0.10372184301332202,
        -0.07569621478597834,
        -0.15325371163990004,
        0.06635473078205634,
        -0.02930761825920829,
        0.1933059409237001,
        -0.0032959720048794895,
        0.14505624306541923,
        0.014848414177952332,
        -0.046532784188218324,
        -0.3164834239384876,
        0.0,
        0.0,
        0.041887158790406644,
        -0.06711208528056378,
        0.0,
        0.014848414177952332,
        -0.060242077308885394,
        -0.03768684294476157,
        -0.08415044891651441,
        0.28693388623404925,
        -0.012322255876080344,
        0.05783415915216149,
        -0.030407270141251275,
        0.03872790564594754,
        0.04894850183615317,
        -0.07717819866728867,
        -0.004367517968887062,
        0.0,
        -0.041997999268146985,
        0.0,
        0.06655147848014671,
        0.0,
        0.041887158790406644,
        0.09301026622308786,
        -0.016080139574082056,
        0.0,
        -0.0064552251493387456,
        0.08203386159642831,
        0.0,
        -0.09988222045258024,
        0.01552927854429147,
        0.09343169426103425,
        0.07928705431136757,
        0.014848414177952332,
        0.014848414177952332,
        0.02387949146799504,
        0.15990465724337316,
        -0.09377006408953646,
        -0.12526045114034143,
        0.10645935053496401,
        0.041887158790406644,
        -0.0018204182598339682,
        0.1644033137422488,
        0.029041118614595903,
        -0.07577054111398109,
        -0.04417839619969855,
        -0.0031760512102886355,
        0.10740044123278905,
        -0.008110718622370611,
        0.17162018554203634,
        -0.02380592957763703,
        -0.051601126967249396,
        0.0720394427091544,
        0.2013226338815929,
        -0.004367517968887062,
        0.10063698079497427,
        0.17667543664034013,
        0.015512461271979264,
        -0.2543359621927967,
        0.0037401378029588714,
        -0.012322255876080344,
        0.041887158790406644,
        0.08203386159642831,
        0.01552927854429147,
        0.08451505043377325,
        -0.044366952248596415,
        -0.04350261452732518,
        0.050296851698310635,
        0.1499118072862023,
        -0.10267042454052798,
        0.03543193364106803,
        0.06871336001489807,
        0.009292344174150372
      ]
    ],
    "workflow_labels": [
      "direct",
      "verify_then_fallback"
    ],
    "workflow_weights": [
      [
        0.361511530243545,
        0.020610866049080166,
        0.10404239886270068,
        0.13028186787960866,
        0.033389085358128935,
        0.02494418169357488,
        0.0023178832802120248,
        0.09551922475810255,
        -0.024202070116686646,
        0.008297731956401018,
        0.04654277420030205,
        0.00930724225809369,
        0.06514996189924063,
        0.361511530243545,
        0.0,
        0.0,
        0.0,
        0.012861597565067889,
        0.014375741063189848,
        0.04029621759242642,
        0.07650872311176406,
        -0.008119312815424497,
        0.029265010205203074,
        0.0976893265583782,
        0.1157323837247794,
        0.036762721462878116,
        0.016130810014688496,
        0.014375741063189848,
        -0.14017793335508816,
        0.05888875239953429,
        0.0,
        0.0,
        0.01001912090141928,
        0.012266562916512585,
        0.0,
        0.014375741063189848,
        0.013589911719285294,
        0.009780052737424242,
        -0.07873244418419602,
        0.24405372515408627,
        0.021613816744269255,
        0.14135686803669198,
        0.03389682138299949,
        0.05344896923237703,
        0.04029626755420288,
        0.03203578032434315,
        0.047370960125588106,
        0.0,
        0.046356872470860754,
        0.0,
        0.05911369392289712,
        0.0,
        0.01001912090141928,
        0.04618088508331794,
        -0.007543577866149901,
        0.0,
        0.08019256979383517,
        0.058304926118149435,
        0.0,
        -0.05235604273232617,
        0.059788099681268005,
        0.16297105871080642,
        0.12333495793475475,
        0.014375741063189848,
        0.014375741063189848,
        0.0390732281691869,
        0.030506551077878405,
        0.011750848927128124,
        0.07643679243182719,
        -0.17409022276675173,
        0.01001912090141928,
        0.01725230863969898,
        0.04820310412563525,
        0.0732283740272091,
        0.030555344532879274,
        0.036518648416943265,
        0.008230832583497659,
        0.08915958010623984,
        0.013479612885791381,
        0.025541646587109088,
        0.04330257976134986,
        0.01273662718561376,
        0.05374886120105707,
        0.007518622685396415,
        0.047370960125588106,
        0.05114856853919252,
        0.09223009663909366,
        0.04859272264190254,
        0.11195288413875173,
        0.05963118476867921,
        0.021613816744269255,
        0.01001912090141928,
        0.058304926118149435,
        0.059788099681268005,
        0.10425763239038037,
        0.02255825534218191,
        0.11794685450322513,
        0.09551922475810255,
        0.020610866049080166,
        0.10404239886270068,
        0.09021169069525499,
        0.02494418169357488,
        0.0023178832802120248
      ],
      [
        -0.3615115302435449,
        -0.020610866049080245,
        -0.10404239886270072,
        -0.1302818678796087,
        -0.03338908535812895,
        -0.024944181693574895,
        -0.002317883280212001,
        -0.09551922475810251,
        0.02420207011668663,
        -0.008297731956401018,
        -0.04654277420030204,
        -0.009307242258093689,
        -0.06514996189924059,
        -0.3615115302435449,
        0.0,
        0.0,
        0.0,
        -0.012861597565067885,
        -0.014375741063189847,
        -0.04029621759242643,
        -0.07650872311176408,
        0.008119312815424494,
        -0.029265010205203078,
        -0.0976893265583782,
        -0.11573238372477937,
        -0.03676272146287814,
        -0.016130810014688492,
        -0.014375741063189847,
        0.14017793335508819,
        -0.058888752399534325,
        0.0,
        0.0,
        -0.010019120901419279,
        -0.012266562916512588,
        0.0,
        -0.014375741063189847,
        -0.013589911719285298,
        -0.009780052737424244,
        0.078732444184196,
        -0.2440537251540863,
        -0.021613816744269255,
        -0.14135686803669195,
        -0.03389682138299948,
        -0.05344896923237703,
        -0.04029626755420288,
        -0.032035780324343135,
        -0.04737096012558811,
        0.0,
        -0.04635687247086075,
        0.0,
        -0.05911369392289712,
        0.0,
        -0.010019120901419279,
        -0.046180885083317955,
        0.007543577866149903,
        0.0,
        -0.08019256979383521,
        -0.058304926118149455,
        0.0,
        0.05235604273232618,
        -0.05978809968126801,
        -0.16297105871080653,
        -0.12333495793475477,
        -0.014375741063189847,
        -0.014375741063189847,
        -0.03907322816918693,
        -0.030506551077878405,
        -0.011750848927128127,
        -0.0764367924318272,
        0.17409022276675176,
        -0.010019120901419279,
        -0.01725230863969898,
        -0.04820310412563525,
        -0.07322837402720911,
        -0.030555344532879277,
        -0.03651864841694328,
        -0.008230832583497643,
        -0.08915958010623991,
        -0.013479612885791383,
        -0.025541646587109116,
        -0.04330257976134987,
        -0.012736627185613756,
        -0.053748861201057097,
        -0.0075186226853964115,
        -0.04737096012558811,
        -0.05114856853919252,
        -0.09223009663909369,
        -0.04859272264190251,
        -0.1119528841387517,
        -0.05963118476867922,
        -0.021613816744269255,
        -0.010019120901419279,
        -0.058304926118149455,
        -0.05978809968126801,
        -0.10425763239038034,
        -0.022558255342181907,
        -0.11794685450322519,
        -0.09551922475810251,
        -0.020610866049080245,
        -0.10404239886270072,
        -0.090211690695255,
        -0.024944181693574895,
        -0.002317883280212001
      ]
    ]
  },
  "substrate": "research/datasets/20260628-normal-offset76-guarded-54task-substrate.jsonl",
  "target_balance_power": 0.0
}
