{
  "dataset": "research/datasets/20260627-mixed-winner-11task-routing.jsonl",
  "epochs": 300,
  "l2": 0.0001,
  "learning_rate": 0.0005,
  "model_type": "linear-softmax-logits-router",
  "reward_temperature": 0.1,
  "router": {
    "feature_names": [
      "bias",
      "category_datasci",
      "category_filesystem",
      "category_general",
      "category_network",
      "category_plotting",
      "category_subprocess",
      "environment_risk",
      "family_bigcodebench_hard",
      "family_code_data",
      "family_code_easy",
      "family_code_text",
      "kw_base64",
      "kw_convert",
      "kw_count",
      "kw_csv",
      "kw_default",
      "kw_dict",
      "kw_directory",
      "kw_download",
      "kw_email",
      "kw_encoding",
      "kw_exception",
      "kw_file",
      "kw_flatten",
      "kw_frequent",
      "kw_ftp",
      "kw_group",
      "kw_hash",
      "kw_hex",
      "kw_key",
      "kw_list",
      "kw_lowercase",
      "kw_number",
      "kw_pair",
      "kw_parse",
      "kw_process",
      "kw_socket",
      "kw_sorted",
      "kw_ssl",
      "kw_string",
      "kw_strip",
      "kw_subprocess",
      "kw_sum",
      "kw_title",
      "kw_url",
      "kw_urllib",
      "kw_window",
      "kw_word",
      "kw_zip",
      "length_chars",
      "length_tokens",
      "lib_base64",
      "lib_binascii",
      "lib_codecs",
      "lib_collections",
      "lib_csv",
      "lib_datetime",
      "lib_ftplib",
      "lib_functools",
      "lib_glob",
      "lib_itertools",
      "lib_math",
      "lib_os",
      "lib_pathlib",
      "lib_random",
      "lib_re",
      "lib_shutil",
      "lib_statistics",
      "lib_subprocess",
      "lib_urllib",
      "lib_zipfile",
      "library_count",
      "missing_library_count",
      "plausibility_score"
    ],
    "policy": "logits-router",
    "weights": [
      [
        -0.03583118436877741,
        0.0,
        -0.041161819218423386,
        0.005330634849645812,
        -0.02482936776370747,
        0.0,
        -0.018033341915005552,
        -0.014897620658224482,
        -0.03583118436877741,
        0.0,
        0.0,
        0.0,
        -0.0022248558774121,
        -0.0022248558774121,
        0.006796025848701905,
        -0.07684138239596551,
        -0.02482936776370747,
        0.004571169971289796,
        0.009712314209414355,
        -0.018033341915005552,
        0.0,
        -0.0022248558774121,
        -0.0628076587368497,
        0.011997387870692173,
        0.0,
        0.0,
        -0.02482936776370747,
        0.0,
        0.0,
        -0.0022248558774121,
        -0.0022248558774121,
        -0.07526132497706144,
        0.0,
        -0.021502607152073173,
        0.0,
        -0.0022248558774121,
        0.0,
        0.0,
        0.0,
        0.0,
        -0.0022248558774121,
        0.0,
        -0.02482936776370747,
        0.0075554907270579145,
        0.0,
        0.004571169971289796,
        0.004571169971289796,
        0.0,
        0.0,
        -0.051002038259306506,
        -0.030956636828170257,
        -0.02340107562075189,
        -0.0022248558774121,
        -0.0022248558774121,
        -0.0022248558774121,
        0.006796025848701905,
        -0.050874133427837656,
        -0.029058097879131068,
        -0.02482936776370747,
        0.0075554907270579145,
        -0.05232980754890209,
        0.0075554907270579145,
        0.0075554907270579145,
        -0.041161819218423386,
        -0.02596724896812809,
        0.05753116957089235,
        -0.028329839325407977,
        0.08554372023242832,
        -0.0286120613974084,
        -0.02482936776370747,
        0.004571169971289796,
        -0.051002038259306506,
        -0.018655979137971068,
        0.0,
        -0.023894135557592382
      ],
      [
        -0.06186939454472422,
        0.0,
        -0.05689658726940124,
        -0.004972807275322942,
        -0.025609848705680432,
        0.0,
        -0.020098970376176768,
        -0.015365909223408261,
        -0.06186939454472422,
        0.0,
        0.0,
        0.0,
        -0.0027503568206892295,
        -0.0027503568206892295,
        0.005510878329503652,
        0.058110198849935304,
        -0.025609848705680432,
        0.002760521508814433,
        -0.00664954006779152,
        -0.020098970376176768,
        0.0,
        -0.0027503568206892295,
        0.0563787730896188,
        -0.000550657135517613,
        0.0,
        0.0,
        -0.025609848705680432,
        0.0,
        0.0,
        -0.0027503568206892295,
        -0.0027503568206892295,
        -0.08839762938958164,
        0.0,
        -0.029363485484382758,
        0.0,
        -0.0027503568206892295,
        0.0,
        0.0,
        0.0,
        0.0,
        -0.0027503568206892295,
        0.0,
        -0.025609848705680432,
        -0.0022224504546337126,
        0.0,
        0.002760521508814433,
        0.002760521508814433,
        0.0,
        0.0,
        0.07779336129329023,
        -0.024786048804837195,
        -0.019166003157679294,
        -0.0027503568206892295,
        -0.0027503568206892295,
        -0.0027503568206892295,
        0.005510878329503652,
        -0.05024704720160994,
        -0.027141035029749076,
        -0.025609848705680432,
        -0.0022224504546337126,
        0.07870019392042912,
        -0.0022224504546337126,
        -0.0022224504546337126,
        -0.05689658726940124,
        0.10835724605154526,
        -0.08476172938545048,
        -0.03073608142820328,
        -0.05883305265540099,
        -0.028616890501364477,
        -0.025609848705680432,
        0.002760521508814433,
        0.07779336129329023,
        -0.01302483416049275,
        0.0,
        -0.021040333634696092
      ],
      [
        0.04468961506472936,
        0.0,
        0.04703064369625213,
        -0.0023410286315228798,
        0.028969308431835143,
        0.0,
        0.013654973264240356,
        0.017381585059101076,
        0.04468961506472936,
        0.0,
        0.0,
        0.0,
        0.0012025720123429876,
        0.0012025720123429876,
        -0.015314335167594798,
        0.13030699862699183,
        0.028969308431835143,
        -0.014111763155251837,
        -0.11954841703005456,
        0.013654973264240356,
        0.0,
        0.0012025720123429876,
        -0.06259424685183808,
        0.05146711315302966,
        0.0,
        0.0,
        0.028969308431835143,
        0.0,
        0.0,
        0.0012025720123429876,
        0.0012025720123429876,
        -0.04309124415618809,
        0.0,
        0.08643182962906465,
        0.0,
        0.0012025720123429876,
        0.0,
        0.0,
        0.0,
        0.0,
        0.0012025720123429876,
        0.0,
        0.028969308431835143,
        -0.0035436006438658556,
        0.0,
        -0.014111763155251837,
        -0.014111763155251837,
        0.0,
        0.0,
        -0.07100022330527966,
        0.019439179853727756,
        0.011955425123748158,
        0.0012025720123429876,
        0.0012025720123429876,
        0.0012025720123429876,
        -0.015314335167594798,
        0.16657906072630638,
        0.08997543027293065,
        0.028969308431835143,
        -0.0035436006438658556,
        -0.07270561947221253,
        -0.0035436006438658556,
        -0.0035436006438658556,
        0.04703064369625213,
        -0.03627206209931525,
        0.1394870677928368,
        -0.03340577788861242,
        -0.07751750215661028,
        0.09191796562097106,
        0.028969308431835143,
        -0.014111763155251837,
        -0.07100022330527966,
        0.026557841583352254,
        0.0,
        0.02621926931924464
      ],
      [
        0.053010963848772595,
        0.0,
        0.051027762791572444,
        0.0019832010572000203,
        0.021469908037552794,
        0.0,
        0.024477339026941995,
        0.012881944822531646,
        0.053010963848772595,
        0.0,
        0.0,
        0.0,
        0.003772640685758343,
        0.003772640685758343,
        0.0030074309893892443,
        -0.11157581508096119,
        0.021469908037552794,
        0.006780071675147592,
        0.11648564288843212,
        0.024477339026941995,
        0.0,
        0.003772640685758343,
        0.06902313249906898,
        -0.06291384388820415,
        0.0,
        0.0,
        0.021469908037552794,
        0.0,
        0.0,
        0.003772640685758343,
        0.003772640685758343,
        0.20675019852283102,
        0.0,
        -0.03556573699260863,
        0.0,
        0.003772640685758343,
        0.0,
        0.0,
        0.0,
        0.0,
        0.003772640685758343,
        0.0,
        0.021469908037552794,
        -0.0017894396285583378,
        0.0,
        0.006780071675147592,
        0.006780071675147592,
        0.0,
        0.0,
        0.04420890027129608,
        0.03630350577927972,
        0.03061165365468291,
        0.003772640685758343,
        0.003772640685758343,
        0.003772640685758343,
        0.0030074309893892443,
        -0.06545788009685945,
        -0.03377629736405031,
        0.021469908037552794,
        -0.0017894396285583378,
        0.04633523310068544,
        -0.0017894396285583378,
        -0.0017894396285583378,
        0.051027762791572444,
        -0.04611793498410196,
        -0.11225650797827844,
        0.0924716986422237,
        0.050806834579583036,
        -0.034689013722198465,
        0.021469908037552794,
        0.006780071675147592,
        0.04420890027129608,
        0.0051229717151114315,
        0.0,
        0.018715199873043726
      ]
    ],
    "worker_ids": [
      "ollama-cloud-deepseek-v4-pro",
      "ollama-cloud-glm-5.2",
      "ollama-cloud-kimi-k2.7-code",
      "ollama-cloud-qwen3-coder-480b"
    ]
  },
  "target_mode": "reward"
}
