{
  "epochs": 300,
  "l2": 0.0001,
  "latency_regret_weight": 0.5,
  "learning_rate": 0.0005,
  "model_type": "linear-multi-head-orchestrator",
  "orchestrator": {
    "abstain_weights": [
      -0.4485920492603556,
      0.2384936845391069,
      -0.21453984512672625,
      -0.025940167892542464,
      0.051051955780247765,
      0.008239667272073885,
      -0.14621729020372273,
      -0.013043797544762257,
      0.04495247058993058,
      -0.01957869182869112,
      -0.032015851935100106,
      -0.01976917767348714,
      -0.07615406146543598,
      -0.4485920492603556,
      -0.026326993272475212,
      -0.07029457204919297,
      -0.17726237539407222,
      -0.08940660962784526,
      -0.08366579752173772,
      -0.031794868742992664,
      0.06064701598449014,
      -0.1555541794676379,
      0.0,
      -0.030198228190531425,
      -0.02105169831931075,
      -0.04764186444304984,
      -0.2897399062224931,
      -0.04350608460360971,
      -0.09336950269293416,
      0.0013962338483537004,
      0.014630379711741219,
      -0.09818591703320297,
      -0.03651958338852002,
      -0.021734647529100905,
      -0.08907183600841376,
      0.0,
      0.0960365711202505,
      -0.07631191311410129,
      -0.2041816573895741,
      0.1166039058989316,
      -0.12356705828923292,
      -0.24451381831821192,
      -0.1874257060190537,
      -0.07029457204919297,
      0.07586832124435477,
      -0.07860722520451155,
      -0.05293691064772965,
      0.13314075664466854,
      -0.07626265756083474,
      0.10606654943488521,
      0.12032424037830863,
      -0.02235857999525332,
      -0.034942051641437474,
      -0.12111841764830406,
      0.03190121910817873,
      -0.03406898646804527,
      0.0003447181362174348,
      0.12644862837163964,
      -0.034942051641437474,
      -0.12331926498234241,
      -0.19303824514369308,
      -0.30665918323969793,
      -0.18552798805887064,
      -0.025861537343071207,
      0.003609446449310166,
      0.04365305962408261,
      -0.09818591703320297,
      -0.06585586762822043,
      -0.12112210257093699,
      0.012117049399145275,
      -0.15035173854195252,
      -0.029677296853882013,
      -0.06123610240131364,
      -0.04350608460360971,
      0.0960365711202505,
      0.07630066669027952,
      -0.052071677044680596,
      -0.12356705828923292,
      -0.12797002899901375,
      -0.03432439386950506,
      -0.09157434500115856,
      0.2384936845391069,
      -0.08512301561761385,
      -0.21453984512672625,
      -0.025940167892542464,
      0.051051955780247765,
      -0.11506064718793597,
      -0.14621729020372273,
      -0.013043797544762257,
      0.04495247058993058
    ],
    "feature_names": [
      "bias",
      "category_algorithmic",
      "category_datasci",
      "category_filesystem",
      "category_general",
      "category_network",
      "category_plotting",
      "category_subprocess",
      "category_text",
      "combo_network_archive",
      "combo_network_filesystem",
      "combo_network_plotting",
      "environment_risk",
      "family_bigcodebench_hard",
      "kw_archive",
      "kw_base64",
      "kw_count",
      "kw_dict",
      "kw_download",
      "kw_fetch",
      "kw_file",
      "kw_files",
      "kw_frequent",
      "kw_hex",
      "kw_http",
      "kw_key",
      "kw_list",
      "kw_lowercase",
      "kw_number",
      "kw_plot",
      "kw_request",
      "kw_requests",
      "kw_scan",
      "kw_sorted",
      "kw_string",
      "kw_strip",
      "kw_subprocess",
      "kw_sum",
      "kw_url",
      "kw_word",
      "kw_zip",
      "length_chars",
      "length_tokens",
      "lib_base64",
      "lib_binascii",
      "lib_bs4",
      "lib_codecs",
      "lib_collections",
      "lib_csv",
      "lib_ctypes",
      "lib_datetime",
      "lib_ftplib",
      "lib_functools",
      "lib_glob",
      "lib_hashlib",
      "lib_hmac",
      "lib_itertools",
      "lib_json",
      "lib_math",
      "lib_matplotlib",
      "lib_numpy",
      "lib_os",
      "lib_pandas",
      "lib_pathlib",
      "lib_random",
      "lib_re",
      "lib_requests",
      "lib_scipy",
      "lib_seaborn",
      "lib_shutil",
      "lib_sklearn",
      "lib_sqlite3",
      "lib_statistics",
      "lib_string",
      "lib_subprocess",
      "lib_sys",
      "lib_urllib",
      "lib_zipfile",
      "library_count",
      "missing_library_count",
      "plausibility_score",
      "signal_algorithmic",
      "signal_archive",
      "signal_datasci",
      "signal_filesystem",
      "signal_general",
      "signal_network",
      "signal_plotting",
      "signal_subprocess",
      "signal_text"
    ],
    "policy": "linear-multi-head-orchestrator",
    "verifier_weights": [
      -0.002624377442504025,
      0.0964072327103739,
      -0.11776947530170721,
      -0.0822095257974857,
      0.2889949585281937,
      0.008710015637218543,
      0.02991331436546208,
      0.15391273113407486,
      0.12878519048538817,
      -0.05337398179691918,
      0.03601175058814597,
      0.0025337956963890234,
      -0.035213855146051805,
      -0.002624377442504025,
      0.03129095094749164,
      0.022220455975726448,
      -0.017016807208595146,
      -0.037655656104268756,
      -0.028539934272241618,
      -0.07301302581179157,
      0.05480384972769554,
      0.01598474159544055,
      0.0,
      0.012722776559539179,
      -0.05202556905634807,
      -0.10821835313486472,
      -0.20609841830867537,
      0.011746933135288228,
      -0.018610658447793107,
      0.06997684474767465,
      0.012193102157263007,
      -0.14942941532678325,
      -0.02051697467538683,
      -0.05791849941711712,
      -0.026284752295299484,
      0.0,
      0.06052345966750332,
      -0.007130847305481854,
      -0.14523195645119644,
      0.1996422088483283,
      -0.10350880433973918,
      -0.06556272851084705,
      -0.06045477632599895,
      0.022220455975726448,
      0.07634971199286157,
      -0.09605543352986558,
      -0.05406210612603454,
      0.16729699537164366,
      -0.05260439552458404,
      0.06362693543332246,
      -0.04804725196368289,
      -0.003816100166820983,
      0.013299507900544127,
      -0.11190779182304722,
      0.03594914947406065,
      -0.03717546537544938,
      0.11329033217290359,
      0.04389931101431441,
      0.013299507900544127,
      0.09120388596950313,
      -0.0881186246026125,
      -0.1749593307329332,
      -0.04804471973824219,
      -0.05614171561686756,
      -0.11941715377903614,
      0.056299737918342724,
      -0.14942941532678325,
      -0.04149720374722052,
      -0.06415705591813284,
      0.008207454821489121,
      0.08289724394669631,
      0.0248474435314213,
      -0.04484844708079754,
      0.011746933135288228,
      0.06052345966750332,
      0.07687927966092815,
      0.03291158329963383,
      -0.10350880433973918,
      -0.029904208620512202,
      -0.021846727764081815,
      0.004833783459548575,
      0.0964072327103739,
      -0.1265923004657409,
      -0.11776947530170721,
      -0.0822095257974857,
      0.2889949585281937,
      -0.07630406772045457,
      0.02991331436546208,
      0.15391273113407486,
      0.12878519048538817
    ],
    "worker_ids": [
      "ollama-cloud-deepseek-v4-pro",
      "ollama-cloud-glm-5.2",
      "ollama-cloud-kimi-k2.7-code",
      "ollama-cloud-qwen3-coder-480b"
    ],
    "worker_weights": [
      [
        -0.06801177097809674,
        -0.04116072058649118,
        0.04668469067504756,
        0.009538632175191205,
        -0.05926406505392471,
        0.061388959483308296,
        0.035253642942061215,
        0.06457489871095191,
        -0.017239764502123486,
        -0.03190675607234041,
        -0.055625063375635886,
        0.019413927558230737,
        0.08187486215731064,
        -0.06801177097809674,
        0.024301976404684806,
        -0.00023541515317736895,
        -0.047457759744598614,
        0.050120690929361486,
        -0.045527248664466835,
        -0.03339326890159445,
        0.13941442334305573,
        -0.12320771500542183,
        0.0,
        -0.00596842243509634,
        0.1001321162960678,
        -0.01739160283070207,
        -0.0018044290720225992,
        0.00799433988162845,
        -0.013298242218725003,
        0.07141480238356951,
        0.09142468997382948,
        0.04846655244266475,
        -0.024171805639247215,
        -0.04263788788929582,
        0.07920185889294874,
        0.0,
        -0.03185676588575444,
        -0.019293067513813045,
        0.02545348768809553,
        0.03523505863623501,
        -0.060317720162124014,
        -0.008600026971041041,
        -0.000523182319458048,
        -0.00023541515317736895,
        -0.003811014114291339,
        0.08037330851500515,
        -0.04081935115160643,
        0.0553161460719168,
        0.062113817533446115,
        0.002157408320804995,
        -0.1095979314283105,
        -0.028645342101590258,
        0.010148955617570263,
        -0.06636680383029067,
        -0.024179076226212588,
        -0.03206949182893666,
        0.01516613523414453,
        0.02138180970061079,
        0.010148955617570263,
        0.06727750649765112,
        0.03338134368313486,
        -0.15578971918113457,
        0.08204471641352239,
        -0.02715573857334506,
        0.0019755217717730947,
        -0.07602090913090179,
        0.04846655244266475,
        -0.08071418011688228,
        -0.11291242783277483,
        0.10830592776234613,
        0.07389613380799635,
        -0.02959260899482535,
        -0.0678826179988131,
        0.00799433988162845,
        -0.03185676588575444,
        0.008689562478436087,
        -0.03443465653839573,
        -0.060317720162124014,
        -0.029356362889914632,
        0.016174001670326673,
        0.03817351326965243,
        -0.04116072058649118,
        0.023686231195537377,
        0.04668469067504756,
        0.009538632175191205,
        -0.05926406505392471,
        0.005145361583741006,
        0.035253642942061215,
        0.06457489871095191,
        -0.017239764502123486
      ],
      [
        -0.072453784914824,
        -0.005295743683767103,
        -0.05207512064191773,
        0.01684732184345512,
        0.028709226959042437,
        0.013685131788136478,
        -0.07615539272531276,
        -0.05626795657321786,
        0.06053819359138549,
        -0.025301014199553717,
        0.022947873557123136,
        0.0030799915002493418,
        0.023618687318977514,
        -0.072453784914824,
        0.021534946675920076,
        -0.006464696472307088,
        0.010661628493337679,
        -0.01519895630848231,
        -0.038444860819549176,
        -0.02635529631610078,
        0.016394053163689873,
        -0.0015054321927021113,
        0.0,
        -0.007108638149441876,
        -0.024048885455900077,
        0.11012320269404885,
        -0.05367749218168654,
        0.008803248933664713,
        -0.06101013128727075,
        -0.05125078986007326,
        0.04216871900047437,
        -0.0700151955386161,
        0.029127805676342572,
        0.11545135000387445,
        -0.03899227216524441,
        0.0,
        -0.02309328629616331,
        -0.01309423446146889,
        -0.005910657522726977,
        0.03631462328823603,
        0.08265416023664976,
        -0.07395134818248715,
        -0.06309001024201161,
        -0.006464696472307088,
        -0.004631731885834085,
        -0.04471418133906235,
        -0.02904322063562121,
        0.09242381329712333,
        -0.06771113548214074,
        0.0024769062636078158,
        -0.08295844606542338,
        -0.023658717132635742,
        -0.004752740987676493,
        0.03637159434691457,
        0.06381915359343329,
        0.06069830565269049,
        -0.0022809011885000707,
        0.06950098654936773,
        -0.004752740987676493,
        -0.05730093452201686,
        0.07650514781657215,
        -0.07848392205201228,
        0.006531322362425421,
        0.11503953537657612,
        -0.14385386328871574,
        -0.05614856396969472,
        -0.0700151955386161,
        0.012679801043078183,
        -0.05496096741617002,
        -0.03565633558190756,
        0.0030802620934922463,
        0.021552874165524035,
        -0.02181537615011437,
        0.008803248933664713,
        -0.02309328629616331,
        -0.008993132405454707,
        0.03844367042376973,
        0.08265416023664976,
        -0.013070930724285446,
        0.021624955918748794,
        0.005645709247443904,
        -0.005295743683767103,
        0.02546287797882131,
        -0.05207512064191773,
        0.01684732184345512,
        0.028709226959042437,
        -0.034564946364319775,
        -0.07615539272531276,
        -0.05626795657321786,
        0.06053819359138549
      ],
      [
        -0.0140919107366101,
        -0.0660483639673803,
        -0.07370841439706287,
        0.05229190031941767,
        -0.024566075101046834,
        -0.006251142578423833,
        -0.02885432532614105,
        0.03629720120609119,
        -0.034103597427115016,
        0.09188767899505292,
        0.113999779189703,
        0.01975142871118576,
        -0.017959716093656892,
        -0.0140919107366101,
        -0.0329036316673086,
        -0.0043403990861533145,
        -0.023355957126630193,
        -0.10851721296500592,
        0.109733913224624,
        -0.03488838578815277,
        0.17932515576586158,
        -0.1405215861493998,
        0.0,
        0.011353590055057806,
        -0.031763195758525146,
        -0.05908472546991143,
        -0.15923294936200652,
        -0.005369484970957984,
        0.013820216323204447,
        -0.015278536664882028,
        -0.042128420608083195,
        0.03646723527756062,
        -0.026705603606269487,
        -0.02698823515141524,
        -0.07320982920414845,
        0.0,
        0.025504281448081825,
        -0.02881109794763393,
        0.053034566174528695,
        0.02763495597032411,
        -0.014618388480515066,
        0.022469965786789996,
        0.014669403841690722,
        -0.0043403990861533145,
        -0.006782524571172298,
        -0.05542044371749236,
        -0.018659678707387255,
        -0.09590729900042419,
        0.12480290214889365,
        -0.01813611462623007,
        0.14479309356119863,
        0.02124618721502252,
        0.0027791376317049025,
        -0.08702475249328158,
        -0.025216409940079232,
        0.008613693827361733,
        0.0006959480411076531,
        -0.06304874936690737,
        0.0027791376317049025,
        0.002112619955416093,
        -0.14400490464771873,
        0.06841232315413777,
        -0.041600302191731546,
        -0.03629027488233654,
        0.10832416324971002,
        -0.0030453680579328023,
        0.03646723527756062,
        -0.0191791718650598,
        0.014528818202353534,
        -0.10512758935968773,
        0.0530382462758694,
        0.010726143849625702,
        0.1128645715678696,
        -0.005369484970957984,
        0.025504281448081825,
        -0.01408836059275463,
        -0.022668882753467266,
        -0.014618388480515066,
        -0.004284059627367238,
        -0.01027646899152207,
        -0.016965520711795936,
        -0.0660483639673803,
        -0.0868423461728942,
        -0.07370841439706287,
        0.05229190031941767,
        -0.024566075101046834,
        0.05870178769808283,
        -0.02885432532614105,
        0.03629720120609119,
        -0.034103597427115016
      ],
      [
        0.1545574666295305,
        0.11250482823763905,
        0.0790988443639319,
        -0.07867785433806401,
        0.05512091319592931,
        -0.06882294869302154,
        0.06975607510939291,
        -0.04460414334382481,
        -0.009194831662146685,
        -0.034679908723159264,
        -0.08132258937119016,
        -0.04224534776966591,
        -0.0875338333826308,
        0.1545574666295305,
        -0.01293329141329653,
        0.011040510711637854,
        0.060152088377890864,
        0.07359547834412711,
        -0.025761803740607686,
        0.09463695100584728,
        -0.3351336322726084,
        0.2652347333475233,
        0.0,
        0.0017234705294804755,
        -0.04432003508164202,
        -0.033646874393435305,
        0.21471487061571523,
        -0.011428103844335222,
        0.060488157182791144,
        -0.004885475858614894,
        -0.09146498836622052,
        -0.014918592181609755,
        0.021749603569174204,
        -0.04582522696316378,
        0.033000242476443474,
        0.0,
        0.029445770733835884,
        0.06119839992291585,
        -0.07257739633989728,
        -0.09918463789479508,
        -0.007718051594009711,
        0.06008140936673875,
        0.04894378871977881,
        0.011040510711637854,
        0.015225270571297746,
        0.0197613165415495,
        0.08852225049461522,
        -0.0518326603686149,
        -0.11920558420019761,
        0.01350180004181725,
        0.04776328393253524,
        0.031057872019203684,
        -0.008175352261598745,
        0.11701996197665819,
        -0.014423667427141315,
        -0.03724250765111606,
        -0.01358118208675207,
        -0.02783404688307115,
        -0.008175352261598745,
        -0.012089191931049827,
        0.034118413148012165,
        0.16586131807901022,
        -0.04697573658421467,
        -0.05159352192089455,
        0.0335541782672335,
        0.13521484115853036,
        -0.014918592181609755,
        0.08721355093886286,
        0.15334457704659124,
        0.032477997179248576,
        -0.13001464217735836,
        -0.002686409020324592,
        -0.023166577418942232,
        -0.011428103844335222,
        0.029445770733835884,
        0.014391930519773137,
        0.018659868868093513,
        -0.007718051594009711,
        0.046711353241567714,
        -0.027522488597553508,
        -0.026853701805300195,
        0.11250482823763905,
        0.037693236998535495,
        0.0790988443639319,
        -0.07867785433806401,
        0.05512091319592931,
        -0.02928220291750444,
        0.06975607510939291,
        -0.04460414334382481,
        -0.009194831662146685
      ]
    ],
    "workflow_labels": [
      "direct",
      "verify_then_fallback"
    ],
    "workflow_weights": [
      [
        0.2719578368511115,
        -0.20408509389538815,
        0.0942296199892939,
        -0.016865701096801074,
        -0.05052659961982339,
        -0.02306951527359592,
        0.0663212170018736,
        -0.030503926005981483,
        -0.03655969275300489,
        0.014032527958189272,
        0.011462411333079726,
        0.01820725265886264,
        0.05393137748856949,
        0.2719578368511115,
        0.02182090328312741,
        0.06329743028257706,
        0.15864261395925475,
        0.08303823240233643,
        0.06740710238321335,
        0.025069001023298634,
        -0.08368856154581673,
        0.10611368365551488,
        0.0,
        0.02287043270351532,
        0.014989684812911613,
        0.03111277021662621,
        0.22470437800595647,
        0.041261757646195746,
        0.06815002125410244,
        -0.059550988761842366,
        -0.02588159632674998,
        0.07450688734532558,
        0.03685820602931523,
        0.019475078849609962,
        0.07929591586597647,
        0.0,
        -0.09827426960998276,
        0.05917375896506861,
        0.16650589100161178,
        -0.11814911609151309,
        0.09517882489550113,
        0.1533046321573496,
        0.11759987000496008,
        0.06329743028257706,
        -0.07857341505919856,
        0.060474359387136314,
        0.042480048133078596,
        -0.1296179105420328,
        0.0695131858723635,
        -0.10144384776271403,
        -0.13748704462059128,
        0.017885490963625704,
        0.028377383515220893,
        0.0958597498400922,
        -0.02737736269227959,
        0.033639487491373195,
        -0.0016384723009382441,
        -0.11257675384285161,
        0.028377383515220893,
        0.04735480163421874,
        0.12752471212813032,
        0.23620651771254106,
        0.09537836464686049,
        0.019881659695808036,
        -0.02225579946783667,
        -0.06774415408983879,
        0.07450688734532558,
        0.05284624118984831,
        0.09580862247981319,
        -0.024664863296753884,
        0.11871443556077811,
        0.026172628164757652,
        0.052172672162698046,
        0.041261757646195746,
        -0.09827426960998276,
        -0.07244941929252997,
        0.027483826138078794,
        0.09517882489550113,
        0.06762931578236929,
        0.027883853135573254,
        0.04098042239366759,
        -0.20408509389538815,
        0.0486930583156206,
        0.0942296199892939,
        -0.016865701096801074,
        -0.05052659961982339,
        0.07439152987280472,
        0.0663212170018736,
        -0.030503926005981483,
        -0.03655969275300489
      ],
      [
        -0.2719578368511116,
        0.20408509389538812,
        -0.0942296199892939,
        0.01686570109680102,
        0.05052659961982338,
        0.02306951527359591,
        -0.0663212170018736,
        0.030503926005981476,
        0.03655969275300492,
        -0.014032527958189276,
        -0.01146241133307971,
        -0.018207252658862652,
        -0.0539313774885695,
        -0.2719578368511116,
        -0.021820903283127406,
        -0.06329743028257706,
        -0.15864261395925472,
        -0.08303823240233642,
        -0.06740710238321335,
        -0.025069001023298634,
        0.08368856154581673,
        -0.10611368365551485,
        0.0,
        -0.022870432703515322,
        -0.014989684812911607,
        -0.031112770216626208,
        -0.22470437800595644,
        -0.04126175764619575,
        -0.06815002125410242,
        0.05955098876184235,
        0.02588159632674999,
        -0.07450688734532557,
        -0.03685820602931523,
        -0.019475078849609955,
        -0.07929591586597647,
        0.0,
        0.09827426960998277,
        -0.05917375896506861,
        -0.16650589100161176,
        0.11814911609151314,
        -0.09517882489550113,
        -0.15330463215734955,
        -0.11759987000496006,
        -0.06329743028257706,
        0.07857341505919856,
        -0.06047435938713632,
        -0.04248004813307859,
        0.12961791054203284,
        -0.0695131858723635,
        0.10144384776271402,
        0.1374870446205913,
        -0.017885490963625697,
        -0.028377383515220893,
        -0.09585974984009221,
        0.02737736269227959,
        -0.03363948749137319,
        0.0016384723009382446,
        0.1125767538428516,
        -0.028377383515220893,
        -0.04735480163421871,
        -0.12752471212813024,
        -0.23620651771254098,
        -0.09537836464686045,
        -0.019881659695808032,
        0.022255799467836637,
        0.06774415408983879,
        -0.07450688734532557,
        -0.052846241189848306,
        -0.09580862247981314,
        0.024664863296753877,
        -0.1187144355607781,
        -0.02617262816475765,
        -0.052172672162698046,
        -0.04126175764619575,
        0.09827426960998277,
        0.07244941929252997,
        -0.027483826138078808,
        -0.09517882489550113,
        -0.06762931578236928,
        -0.027883853135573258,
        -0.04098042239366761,
        0.20408509389538812,
        -0.04869305831562058,
        -0.0942296199892939,
        0.01686570109680102,
        0.05052659961982338,
        -0.07439152987280473,
        -0.0663212170018736,
        0.030503926005981476,
        0.03655969275300492
      ]
    ]
  },
  "substrate": "research/datasets/20260628-m5-current-task-66task-substrate.jsonl"
}
