{
  "dataset": "research/datasets/20260628-contrast-aware-26task-routing.jsonl",
  "epochs": 300,
  "l2": 0.0001,
  "learning_rate": 0.0005,
  "model_type": "linear-softmax-logits-router",
  "reward_temperature": 0.05,
  "router": {
    "feature_names": [
      "bias",
      "category_algorithmic",
      "category_datasci",
      "category_filesystem",
      "category_general",
      "category_network",
      "category_plotting",
      "category_subprocess",
      "combo_network_archive",
      "combo_network_filesystem",
      "combo_network_plotting",
      "environment_risk",
      "family_bigcodebench_hard",
      "kw_archive",
      "kw_base64",
      "kw_count",
      "kw_dict",
      "kw_download",
      "kw_fetch",
      "kw_file",
      "kw_files",
      "kw_frequent",
      "kw_hex",
      "kw_http",
      "kw_key",
      "kw_list",
      "kw_lowercase",
      "kw_number",
      "kw_plot",
      "kw_request",
      "kw_requests",
      "kw_scan",
      "kw_sorted",
      "kw_string",
      "kw_strip",
      "kw_subprocess",
      "kw_sum",
      "kw_url",
      "kw_word",
      "kw_zip",
      "length_chars",
      "length_tokens",
      "lib_base64",
      "lib_binascii",
      "lib_codecs",
      "lib_collections",
      "lib_csv",
      "lib_datetime",
      "lib_ftplib",
      "lib_functools",
      "lib_glob",
      "lib_itertools",
      "lib_json",
      "lib_math",
      "lib_matplotlib",
      "lib_numpy",
      "lib_os",
      "lib_pandas",
      "lib_pathlib",
      "lib_random",
      "lib_re",
      "lib_requests",
      "lib_shutil",
      "lib_statistics",
      "lib_subprocess",
      "lib_urllib",
      "lib_zipfile",
      "library_count",
      "missing_library_count",
      "plausibility_score",
      "signal_algorithmic",
      "signal_archive",
      "signal_datasci",
      "signal_filesystem",
      "signal_general",
      "signal_network",
      "signal_plotting",
      "signal_subprocess"
    ],
    "policy": "logits-router",
    "weights": [
      [
        0.04483189223852851,
        0.013922819595981314,
        0.08543508726583358,
        0.056034742281497324,
        0.0019484286957135223,
        -0.017605153642102578,
        0.04463258311967305,
        -0.00030349338969291254,
        -0.018509231860770824,
        -0.008317554486927259,
        0.025553441059305397,
        -0.010563092185261498,
        0.04483189223852851,
        0.0,
        0.0018897997981442583,
        0.027796831015946096,
        0.07491729145472226,
        -0.008317554486927259,
        0.0,
        0.12616996093344324,
        -0.0767880430132802,
        0.0,
        0.0018897997981442583,
        0.0,
        0.12030283190713217,
        0.034725081045388205,
        0.0,
        -0.04236973329884937,
        0.021368746782443607,
        0.027796831015946096,
        -0.018509231860770824,
        0.0,
        -0.03019222551120468,
        0.0018897997981442583,
        0.0,
        -0.017605153642102578,
        -0.010648411241157549,
        0.0111773989533196,
        0.03679749988591298,
        -0.07299417001639198,
        -0.1092562108741292,
        -0.014925825568243574,
        0.0018897997981442583,
        0.0018897997981442583,
        -0.01239301922986969,
        0.13593147236842468,
        0.03812905360844253,
        -0.018442748232022816,
        -0.017605153642102578,
        0.014531894849597856,
        -0.0796834516366434,
        0.033541543517623534,
        0.10404036247534847,
        0.016328034812792408,
        0.04463258311967305,
        0.10122825611858491,
        -0.06869888602575502,
        -0.02498915880872086,
        -0.02610000134252092,
        0.02252543111168795,
        -0.007124682783264935,
        -0.018509231860770824,
        0.09069517246515205,
        -0.08479985789273779,
        -0.017605153642102578,
        0.029686630814090308,
        -0.07299417001639198,
        0.018610451974480302,
        0.0,
        -0.00473780323955669,
        0.013922819595981314,
        0.017701002448760127,
        0.08543508726583358,
        0.056034742281497324,
        0.0019484286957135223,
        -0.006427754688782991,
        0.04463258311967305,
        -0.00030349338969291254
      ],
      [
        0.0005280371098688127,
        0.007996954974045817,
        -0.04401391045522573,
        -0.05882859188267785,
        0.065347280692026,
        -0.015625177047503967,
        -0.0012636119159551405,
        -0.020135120076957787,
        -0.017868586646449212,
        -0.01325908399077584,
        0.006286062543839608,
        -0.009375106228502347,
        0.0005280371098688127,
        0.0,
        -0.0006457898690055174,
        0.02023467970317726,
        0.05027638476624683,
        -0.01325908399077584,
        0.0,
        0.004977195976664338,
        0.045524272687009114,
        0.0,
        -0.0006457898690055174,
        0.0,
        0.002746599990353126,
        -0.07807110273168652,
        0.0,
        -0.047012276577342145,
        -0.006419342082511851,
        0.02023467970317726,
        -0.017868586646449212,
        0.0,
        0.03857847058409666,
        -0.0006457898690055174,
        0.0,
        -0.015625177047503967,
        -0.022940608628582836,
        0.0017203031877225513,
        0.0028610748405737464,
        0.07612681102869162,
        -0.05905574262468666,
        -0.011004358327218626,
        -0.0006457898690055174,
        -0.0006457898690055174,
        -0.012331401561812344,
        -0.0074295294886129876,
        -0.05888473544034126,
        -0.03375433105327153,
        -0.015625177047503967,
        -0.002086331000170368,
        0.07738014476747408,
        0.011557239075800375,
        -0.023296616472157205,
        0.019417645002889304,
        -0.0012636119159551405,
        -0.03257287340538921,
        -0.04200576531527606,
        -0.017480033640718172,
        0.11889342496569073,
        -0.00464093943818073,
        -0.03728120241294166,
        -0.017868586646449212,
        -0.05087457830649194,
        0.020523694395615175,
        -0.015625177047503967,
        0.019588889834171765,
        0.07612681102869162,
        -0.003082462086045341,
        0.0,
        -0.005168106482397107,
        0.007996954974045817,
        0.025252232722200008,
        -0.04401391045522573,
        -0.05882859188267785,
        0.065347280692026,
        -0.01390487385978135,
        -0.0012636119159551405,
        -0.020135120076957787
      ],
      [
        -0.033860634670903327,
        -0.016342534822183126,
        -0.0969824621746522,
        0.04069898601840281,
        -0.058675632686936985,
        0.017409523475457604,
        0.0067783050489835794,
        0.036919720840986596,
        0.08524073533854855,
        0.08490685632256469,
        0.011925205881328723,
        0.010445714085274586,
        -0.033860634670903327,
        0.0,
        0.00383677537438503,
        -0.017743402491441983,
        -0.10352522554286327,
        0.08490685632256469,
        0.0,
        0.08548560296794132,
        -0.13166777393002105,
        0.0,
        0.00383677537438503,
        0.0,
        -0.05026068650412345,
        -0.12727425521114058,
        0.0,
        0.06659190601443275,
        -0.007586286192422781,
        -0.017743402491441983,
        0.08524073533854855,
        0.0,
        -0.03793040595865112,
        0.00383677537438503,
        0.0,
        0.017409523475457604,
        -0.02955950626823872,
        0.07133410822149189,
        0.004082623243918596,
        0.004281291813116412,
        0.0434000150858193,
        0.002987078511789999,
        0.00383677537438503,
        0.00383677537438503,
        -0.026574296868564256,
        -0.055708110442392024,
        0.13093368169496267,
        0.05166216119202707,
        0.017409523475457604,
        -0.0010379913682791247,
        -0.10975181452314184,
        -0.011218555413065406,
        -0.03580309861956373,
        -0.008239467280487571,
        0.0067783050489835794,
        -0.06465319477657998,
        0.06133529081069152,
        -0.05657836886362439,
        -0.038028244570913944,
        0.1016500377037369,
        -0.057563689163989996,
        0.08524073533854855,
        -0.0809947266538219,
        0.0725939967955578,
        0.017409523475457604,
        -0.013906627117056976,
        0.004281291813116412,
        -0.00030900875641714354,
        0.0,
        0.004651069333470147,
        -0.016342534822183126,
        -0.07671343484070509,
        -0.0969824621746522,
        0.04069898601840281,
        -0.058675632686936985,
        0.08874363169694977,
        0.0067783050489835794,
        0.036919720840986596
      ],
      [
        -0.011499294677493947,
        -0.005577239747844002,
        0.05556128536404434,
        -0.03790513641722193,
        -0.008620076700802582,
        0.015820807214148882,
        -0.0501472762527017,
        -0.01648110737433582,
        -0.04886291683132864,
        -0.06333021784486123,
        -0.043764709484474154,
        0.009492484328489323,
        -0.011499294677493947,
        0.0,
        -0.005080785303523745,
        -0.03028810822768144,
        -0.0216684506781056,
        -0.06333021784486123,
        0.0,
        -0.2166327598780497,
        0.16293154425629286,
        0.0,
        -0.005080785303523745,
        0.0,
        -0.07278874539336204,
        0.17062027689743747,
        0.0,
        0.022790103861758837,
        -0.007363118507508875,
        -0.03028810822768144,
        -0.04886291683132864,
        0.0,
        0.02954416088575925,
        -0.005080785303523745,
        0.0,
        0.015820807214148882,
        0.06314852613797882,
        -0.08423181036253344,
        -0.043741197970405134,
        -0.007413932825416134,
        0.12491193841299782,
        0.022943105383672203,
        -0.005080785303523745,
        -0.005080785303523745,
        0.05129871766024595,
        -0.07279383243741962,
        -0.1101779998630644,
        0.0005349180932674108,
        0.015820807214148882,
        -0.01140757248114838,
        0.1120551213923114,
        -0.03388022718035854,
        -0.04494064738362724,
        -0.02750621253519398,
        -0.0501472762527017,
        -0.004002187936615353,
        0.04936936053033993,
        0.09904756131306315,
        -0.054765179052255406,
        -0.11953452937724356,
        0.1019695743601965,
        -0.04886291683132864,
        0.04117413249516147,
        -0.008317833298435303,
        0.015820807214148882,
        -0.03536889353120523,
        -0.007413932825416134,
        -0.015218981132017684,
        0.0,
        0.005254840388483669,
        -0.005577239747844002,
        0.033760199669745264,
        0.05556128536404434,
        -0.03790513641722193,
        -0.008620076700802582,
        -0.068411003148385,
        -0.0501472762527017,
        -0.01648110737433582
      ]
    ],
    "worker_ids": [
      "ollama-cloud-deepseek-v4-pro",
      "ollama-cloud-glm-5.2",
      "ollama-cloud-kimi-k2.7-code",
      "ollama-cloud-qwen3-coder-480b"
    ]
  },
  "target_mode": "reward"
}
