{
  "dataset": "research/datasets/20260628-contrast-aware-26task-routing.jsonl",
  "epochs": 300,
  "l2": 0.0001,
  "learning_rate": 0.0005,
  "model_type": "linear-softmax-logits-router",
  "reward_temperature": 0.5,
  "router": {
    "feature_names": [
      "bias",
      "category_algorithmic",
      "category_datasci",
      "category_filesystem",
      "category_general",
      "category_network",
      "category_plotting",
      "category_subprocess",
      "combo_network_archive",
      "combo_network_filesystem",
      "combo_network_plotting",
      "environment_risk",
      "family_bigcodebench_hard",
      "kw_archive",
      "kw_base64",
      "kw_count",
      "kw_dict",
      "kw_download",
      "kw_fetch",
      "kw_file",
      "kw_files",
      "kw_frequent",
      "kw_hex",
      "kw_http",
      "kw_key",
      "kw_list",
      "kw_lowercase",
      "kw_number",
      "kw_plot",
      "kw_request",
      "kw_requests",
      "kw_scan",
      "kw_sorted",
      "kw_string",
      "kw_strip",
      "kw_subprocess",
      "kw_sum",
      "kw_url",
      "kw_word",
      "kw_zip",
      "length_chars",
      "length_tokens",
      "lib_base64",
      "lib_binascii",
      "lib_codecs",
      "lib_collections",
      "lib_csv",
      "lib_datetime",
      "lib_ftplib",
      "lib_functools",
      "lib_glob",
      "lib_itertools",
      "lib_json",
      "lib_math",
      "lib_matplotlib",
      "lib_numpy",
      "lib_os",
      "lib_pandas",
      "lib_pathlib",
      "lib_random",
      "lib_re",
      "lib_requests",
      "lib_shutil",
      "lib_statistics",
      "lib_subprocess",
      "lib_urllib",
      "lib_zipfile",
      "library_count",
      "missing_library_count",
      "plausibility_score",
      "signal_algorithmic",
      "signal_archive",
      "signal_datasci",
      "signal_filesystem",
      "signal_general",
      "signal_network",
      "signal_plotting",
      "signal_subprocess"
    ],
    "policy": "logits-router",
    "weights": [
      [
        0.01546385372665121,
        0.0038490150296498246,
        0.03319703380550466,
        0.03535321419631596,
        -0.011221034679573494,
        -0.008865808567680135,
        0.014699384749803566,
        0.0015357769329589041,
        -0.0036828517101953505,
        -0.001251903166269092,
        0.011461688148197017,
        -0.005319485140608099,
        0.01546385372665121,
        0.0,
        0.0032969864937852423,
        0.011296757111606348,
        0.026944226589061353,
        -0.001251903166269092,
        0.0,
        0.07316738964020929,
        -0.050747729851129846,
        0.0,
        0.0032969864937852423,
        0.0,
        0.05609825232759042,
        0.003268243443904804,
        0.0,
        -0.026156514162967836,
        0.0029754391927103935,
        0.011296757111606348,
        -0.0036828517101953505,
        0.0,
        -0.025809008103098337,
        0.0032969864937852423,
        0.0,
        -0.008865808567680135,
        -0.002123233279862386,
        0.010910891895196263,
        0.011775971470785716,
        -0.03057764817856064,
        -0.04034028784928607,
        -0.004740806254414238,
        0.0032969864937852423,
        0.0032969864937852423,
        0.004013023643533903,
        0.059377137459342595,
        0.020845866737020772,
        -0.01747600126439499,
        -0.008865808567680135,
        0.0053246322813762376,
        -0.03391475106615126,
        0.012271572595458757,
        0.046395395966890796,
        0.007441971900089775,
        0.014699384749803566,
        0.05163208537302168,
        -0.023612313568132533,
        -0.014621089133335532,
        -0.007453650300139846,
        0.009543404767487546,
        -0.008746235285543932,
        -0.0036828517101953505,
        0.046756895019737635,
        -0.04398875388851245,
        -0.008865808567680135,
        0.01459374360539162,
        -0.03057764817856064,
        0.009768417555639876,
        0.0,
        -0.0028234691187230864,
        0.0038490150296498246,
        0.016179246841176803,
        0.03319703380550466,
        0.03535321419631596,
        -0.011221034679573494,
        0.0020450833275161484,
        0.014699384749803566,
        0.0015357769329589041
      ],
      [
        -0.006199360939600089,
        0.0024195739004358226,
        -0.004742751028753341,
        -0.04930150271904331,
        0.03143537082455448,
        -0.019493446868440845,
        0.013689516806589898,
        0.0036251377395229065,
        -0.001545892090305359,
        -0.0034207389477442546,
        0.011632629953465428,
        -0.011696068121064532,
        -0.006199360939600089,
        0.0,
        0.0006189282105768275,
        0.017618600011002006,
        0.01436963258249405,
        -0.0034207389477442546,
        0.0,
        -0.0040924261425997165,
        0.0026970229029744794,
        0.0,
        0.0006189282105768275,
        0.0,
        -0.0092838964696522,
        -0.06628329817538617,
        0.0,
        -0.0035077887803021215,
        0.0005507852255047234,
        0.017618600011002006,
        -0.001545892090305359,
        0.0,
        0.022892067131764657,
        0.0006189282105768275,
        0.0,
        -0.019493446868440845,
        -0.004291569038621731,
        0.01669163613127343,
        0.012179191503485315,
        0.02051013076123039,
        -0.008883322101441117,
        -0.0020533111012181493,
        0.0006189282105768275,
        0.0006189282105768275,
        -0.0023554781839169618,
        0.0006486478843435735,
        -0.03227808017374232,
        0.0030381056764657286,
        -0.019493446868440845,
        0.001609519094863212,
        0.020352098310706557,
        0.008164387572683516,
        -0.0142268403596922,
        0.005504801581777197,
        0.013689516806589898,
        -0.01731516557138746,
        -0.04191151736821043,
        0.013733302725524817,
        0.03740313469299705,
        0.0002441548285219205,
        -0.009103654837906285,
        -0.001545892090305359,
        -0.02899615639522587,
        0.011315847865337481,
        -0.019493446868440845,
        0.018237528221578755,
        0.02051013076123039,
        -0.003103064627349491,
        0.0,
        -0.008133508592876945,
        0.0024195739004358226,
        -0.00848602563399539,
        -0.004742751028753341,
        -0.04930150271904331,
        0.03143537082455448,
        -0.0028018107371674166,
        0.013689516806589898,
        0.0036251377395229065
      ],
      [
        0.0024188106301635394,
        -0.0024499728483490394,
        -0.036885536123088127,
        0.039814684326009535,
        -0.02087716851404911,
        0.014878725352612237,
        0.004927920710209335,
        0.010407093913982502,
        0.03258535680889252,
        0.040993426831266215,
        0.004632495676025449,
        0.008927235211567335,
        0.0024188106301635394,
        0.0,
        8.170710068511443e-05,
        -0.006470655330238565,
        -0.03396277721440818,
        0.040993426831266215,
        0.0,
        0.041062026724551746,
        -0.042547194215964264,
        0.0,
        8.170710068511443e-05,
        0.0,
        -0.009240832081013646,
        -0.030436572302346216,
        0.0,
        0.03549103996109968,
        2.9604224612107227e-05,
        -0.006470655330238565,
        0.03258535680889252,
        0.0,
        -0.01757409436246645,
        8.170710068511443e-05,
        0.0,
        0.014878725352612237,
        -0.011040759010412989,
        0.02619640857933905,
        0.004824340793883677,
        0.010160968248589993,
        0.003221765074135695,
        -0.002349101168186147,
        8.170710068511443e-05,
        8.170710068511443e-05,
        -0.025876805237736285,
        -0.010524519300253948,
        0.07651716000184516,
        0.016455745504509116,
        0.014878725352612237,
        -7.909935500115497e-05,
        -0.05226618656999708,
        -4.326531698771664e-05,
        -0.005184050240971665,
        -0.0009348084039186426,
        0.004927920710209335,
        -0.027792390231646147,
        0.03969371854742941,
        -0.03256585134350109,
        -0.014078028544144281,
        0.051007760719889744,
        -0.02603275883070856,
        0.03258535680889252,
        -0.051457705062315125,
        0.03468452280765339,
        0.014878725352612237,
        -0.006388948229553469,
        0.010160968248589993,
        0.004272960158887764,
        0.0,
        0.00685535071139041,
        -0.0024499728483490394,
        -0.041296736813725254,
        -0.036885536123088127,
        0.039814684326009535,
        -0.02087716851404911,
        0.04107513393195125,
        0.004927920710209335,
        0.010407093913982502
      ],
      [
        -0.011683303417214817,
        -0.0038186160817366135,
        0.008431253346336749,
        -0.025866395803282476,
        0.0006628323690678298,
        0.013480530083508828,
        -0.033316822266602784,
        -0.015568008586464349,
        -0.027356613008391855,
        -0.03632078471725281,
        -0.027726813777687882,
        0.008088318050105238,
        -0.011683303417214817,
        0.0,
        -0.003997621805047207,
        -0.0224447017923697,
        -0.007351081957147278,
        -0.03632078471725281,
        0.0,
        -0.11013699022216149,
        0.09059790116411959,
        0.0,
        -0.003997621805047207,
        0.0,
        -0.037573523776924724,
        0.09345162703382785,
        0.0,
        -0.005826737017829767,
        -0.0035558286428272147,
        -0.0224447017923697,
        -0.027356613008391855,
        0.0,
        0.020491035333799916,
        -0.003997621805047207,
        0.0,
        0.013480530083508828,
        0.017455561328897164,
        -0.05379893660580884,
        -0.02877950376815472,
        -9.345083125990304e-05,
        0.046001844876591085,
        0.009143218523818452,
        -0.003997621805047207,
        -0.003997621805047207,
        0.024219259778119385,
        -0.04950126604343252,
        -0.06508494656512331,
        -0.002017849916580004,
        0.013480530083508828,
        -0.00685505202123831,
        0.06582883932544228,
        -0.0203926948511546,
        -0.026984505366226853,
        -0.01201196507794831,
        -0.033316822266602784,
        -0.006524529569988109,
        0.02583011238891361,
        0.03345363775131187,
        -0.015871455848712846,
        -0.060795320315899314,
        0.04388264895415895,
        -0.027356613008391855,
        0.03369696643780387,
        -0.0020116167844785524,
        0.013480530083508828,
        -0.026442323597416967,
        -9.345083125990304e-05,
        -0.01093831308717817,
        0.0,
        0.004101627000209617,
        -0.0038186160817366135,
        0.03360351560654392,
        0.008431253346336749,
        -0.025866395803282476,
        0.0006628323690678298,
        -0.040318406522299934,
        -0.033316822266602784,
        -0.015568008586464349
      ]
    ],
    "worker_ids": [
      "ollama-cloud-deepseek-v4-pro",
      "ollama-cloud-glm-5.2",
      "ollama-cloud-kimi-k2.7-code",
      "ollama-cloud-qwen3-coder-480b"
    ]
  },
  "target_mode": "reward"
}
