{
  "dataset": "research/datasets/20260627-mixed-winner-11task-routing.jsonl",
  "epochs": 300,
  "l2": 0.0001,
  "learning_rate": 0.0005,
  "model_type": "linear-softmax-logits-router",
  "reward_temperature": 0.5,
  "router": {
    "feature_names": [
      "bias",
      "category_datasci",
      "category_filesystem",
      "category_general",
      "category_network",
      "category_plotting",
      "category_subprocess",
      "environment_risk",
      "family_bigcodebench_hard",
      "family_code_data",
      "family_code_easy",
      "family_code_text",
      "kw_base64",
      "kw_convert",
      "kw_count",
      "kw_csv",
      "kw_default",
      "kw_dict",
      "kw_directory",
      "kw_download",
      "kw_email",
      "kw_encoding",
      "kw_exception",
      "kw_file",
      "kw_flatten",
      "kw_frequent",
      "kw_ftp",
      "kw_group",
      "kw_hash",
      "kw_hex",
      "kw_key",
      "kw_list",
      "kw_lowercase",
      "kw_number",
      "kw_pair",
      "kw_parse",
      "kw_process",
      "kw_socket",
      "kw_sorted",
      "kw_ssl",
      "kw_string",
      "kw_strip",
      "kw_subprocess",
      "kw_sum",
      "kw_title",
      "kw_url",
      "kw_urllib",
      "kw_window",
      "kw_word",
      "kw_zip",
      "length_chars",
      "length_tokens",
      "lib_base64",
      "lib_binascii",
      "lib_codecs",
      "lib_collections",
      "lib_csv",
      "lib_datetime",
      "lib_ftplib",
      "lib_functools",
      "lib_glob",
      "lib_itertools",
      "lib_math",
      "lib_os",
      "lib_pathlib",
      "lib_random",
      "lib_re",
      "lib_shutil",
      "lib_statistics",
      "lib_subprocess",
      "lib_urllib",
      "lib_zipfile",
      "library_count",
      "missing_library_count",
      "plausibility_score"
    ],
    "policy": "logits-router",
    "weights": [
      [
        -0.0072177249960748,
        0.0,
        -0.010093885288944228,
        0.00287616029286943,
        -0.011114911482196633,
        0.0,
        -0.008405419178761912,
        -0.006668946889317968,
        -0.0072177249960748,
        0.0,
        0.0,
        0.0,
        -0.0002649377771779209,
        -0.0002649377771779209,
        0.002709492303434715,
        -0.028769821624733533,
        -0.011114911482196633,
        0.002444554526256791,
        0.011504977416380083,
        -0.008405419178761912,
        0.0,
        -0.0002649377771779209,
        -0.03124081525177483,
        0.02225152810291641,
        0.0,
        0.0,
        -0.011114911482196633,
        0.0,
        0.0,
        -0.0002649377771779209,
        -0.0002649377771779209,
        -0.05016427260278527,
        0.0,
        -0.01940578063721685,
        0.0,
        -0.0002649377771779209,
        0.0,
        0.0,
        0.0,
        0.0,
        -0.0002649377771779209,
        0.0,
        -0.011114911482196633,
        0.0031410980700473513,
        0.0,
        0.002444554526256791,
        0.002444554526256791,
        0.0,
        0.0,
        -0.026247038771752395,
        -0.012590992035671784,
        -0.0096560265698501,
        -0.0002649377771779209,
        -0.0002649377771779209,
        -0.0002649377771779209,
        0.002709492303434715,
        -0.021598862705324344,
        -0.022546878707264243,
        -0.011114911482196633,
        0.0031410980700473513,
        -0.02597649414306026,
        0.0031410980700473513,
        0.0031410980700473513,
        -0.010093885288944228,
        -0.0071709589194092005,
        0.04551852994254194,
        -0.021230501909664058,
        0.04886692767032908,
        -0.001761476301494833,
        -0.011114911482196633,
        0.002444554526256791,
        -0.026247038771752395,
        -0.00506879343901357,
        0.0,
        -0.009293986277777586
      ],
      [
        -0.043924753509040786,
        0.0,
        -0.04670717016440808,
        0.0027824166553671475,
        -0.020028454465988152,
        0.0,
        -0.014988180093146756,
        -0.012017072679592893,
        -0.043924753509040786,
        0.0,
        0.0,
        0.0,
        0.0008613030184415009,
        0.0008613030184415009,
        0.005040274372841429,
        0.022448974146315553,
        -0.020028454465988152,
        0.00590157739128292,
        -0.032449661098104356,
        -0.014988180093146756,
        0.0,
        0.0008613030184415009,
        0.011515885633835862,
        -0.006886182536363446,
        0.0,
        0.0,
        -0.020028454465988152,
        0.0,
        0.0,
        0.0008613030184415009,
        0.0008613030184415009,
        -0.05429856098332382,
        0.0,
        0.002397244063792234,
        0.0,
        0.0008613030184415009,
        0.0,
        0.0,
        0.0,
        0.0,
        0.0008613030184415009,
        0.0,
        -0.020028454465988152,
        0.0019211136369256536,
        0.0,
        0.00590157739128292,
        0.00590157739128292,
        0.0,
        0.0,
        0.021189105920205648,
        -0.018188872781561283,
        -0.01417277598004498,
        0.0008613030184415009,
        0.0008613030184415009,
        0.0008613030184415009,
        0.005040274372841429,
        -0.014257509066303554,
        0.0004761304268665798,
        -0.020028454465988152,
        0.0019211136369256536,
        0.02458295209005693,
        0.0019211136369256536,
        0.0019211136369256536,
        -0.04670717016440808,
        0.03670648321261907,
        -0.03650940899926184,
        -0.019792533162056303,
        -0.03361031255232184,
        -0.01977391386601159,
        -0.020028454465988152,
        0.00590157739128292,
        0.021189105920205648,
        -0.010846398336236537,
        0.0,
        -0.016446818483689694
      ],
      [
        0.028413253725126264,
        0.0,
        0.03093050684860502,
        -0.0025172531234788353,
        0.018391607488308117,
        0.0,
        0.011062598088992792,
        0.011034964492984864,
        0.028413253725126264,
        0.0,
        0.0,
        0.0,
        -0.0005730667102922715,
        -0.0005730667102922715,
        -0.007329009399315287,
        0.06795505248959272,
        0.018391607488308117,
        -0.007902076109607548,
        -0.05066503867190318,
        0.011062598088992792,
        0.0,
        -0.0005730667102922715,
        -0.029231796676447742,
        0.017445482397234896,
        0.0,
        0.0,
        0.018391607488308117,
        0.0,
        0.0,
        -0.0005730667102922715,
        -0.0005730667102922715,
        -0.012058320816428289,
        0.0,
        0.04262245453545018,
        0.0,
        -0.0005730667102922715,
        0.0,
        0.0,
        0.0,
        0.0,
        -0.0005730667102922715,
        0.0,
        0.018391607488308117,
        -0.001944186413186562,
        0.0,
        -0.007902076109607548,
        -0.007902076109607548,
        0.0,
        0.0,
        -0.019657632534580107,
        0.01218080988259462,
        0.007847015641774913,
        -0.0005730667102922715,
        -0.0005730667102922715,
        -0.0005730667102922715,
        -0.007329009399315287,
        0.08159554552050839,
        0.04456664094863655,
        0.018391607488308117,
        -0.001944186413186562,
        -0.03835020835225404,
        -0.001944186413186562,
        -0.001944186413186562,
        0.03093050684860502,
        -0.013640493030915668,
        0.06312470014880424,
        -0.0049065830369379474,
        -0.04939901362563141,
        0.044357913971186956,
        0.018391607488308117,
        -0.007902076109607548,
        -0.019657632534580107,
        0.015262174695467954,
        0.0,
        0.016054146489671288
      ],
      [
        0.022729224779989312,
        0.0,
        0.02587054860474703,
        -0.003141323824757758,
        0.012751758459876713,
        0.0,
        0.012331001182915816,
        0.007651055075926027,
        0.022729224779989312,
        0.0,
        0.0,
        0.0,
        -2.329853097132048e-05,
        -2.329853097132048e-05,
        -0.00042075727696086544,
        -0.06163420501117476,
        0.012751758459876713,
        -0.0004440558079321854,
        0.07160972235362742,
        0.012331001182915816,
        0.0,
        -2.329853097132048e-05,
        0.04895672629438671,
        -0.03281082796378793,
        0.0,
        0.0,
        0.012751758459876713,
        0.0,
        0.0,
        -2.329853097132048e-05,
        -2.329853097132048e-05,
        0.11652115440253744,
        0.0,
        -0.025613917962025442,
        0.0,
        -2.329853097132048e-05,
        0.0,
        0.0,
        0.0,
        0.0,
        -2.329853097132048e-05,
        0.0,
        0.012751758459876713,
        -0.0031180252937864435,
        0.0,
        -0.0004440558079321854,
        -0.0004440558079321854,
        0.0,
        0.0,
        0.02471556538612677,
        0.01859905493463848,
        0.01598178690812019,
        -2.329853097132048e-05,
        -2.329853097132048e-05,
        -2.329853097132048e-05,
        -0.00042075727696086544,
        -0.0457391737488806,
        -0.02249589266823896,
        0.012751758459876713,
        -0.0031180252937864435,
        0.03974375040525737,
        -0.0031180252937864435,
        -0.0031180252937864435,
        0.02587054860474703,
        -0.01589503126229424,
        -0.07213382109208442,
        0.045929618108658275,
        0.034142398507623996,
        -0.022822523803680602,
        0.012751758459876713,
        -0.0004440558079321854,
        0.02471556538612677,
        0.0006530170797822,
        0.0,
        0.009686658271795956
      ]
    ],
    "worker_ids": [
      "ollama-cloud-deepseek-v4-pro",
      "ollama-cloud-glm-5.2",
      "ollama-cloud-kimi-k2.7-code",
      "ollama-cloud-qwen3-coder-480b"
    ]
  },
  "target_mode": "reward"
}
