{
  "epochs": 300,
  "l2": 0.0001,
  "latency_regret_weight": 0.5,
  "learning_rate": 0.0005,
  "model_type": "linear-multi-head-orchestrator",
  "orchestrator": {
    "abstain_weights": [
      -0.6340889356312659,
      -0.10478651294274131,
      -0.19985760056850557,
      -0.21230598071641266,
      -0.06839167501232521,
      -0.077987898613886,
      -0.03766797340880376,
      -0.14830003621735965,
      -0.019884332328527446,
      -0.012268053630311748,
      -0.0664483750411606,
      -0.012716490552856567,
      -0.09575672765251163,
      -0.6340889356312659,
      0.0,
      0.0,
      0.0,
      -0.01731264367426237,
      -0.019949234218087683,
      -0.0528891490831652,
      -0.11775861774058037,
      -0.028697127128321006,
      -0.03872691070082362,
      -0.1496690129136937,
      -0.17553658991364618,
      -0.051501388909551686,
      -0.040927682677904885,
      -0.019949234218087683,
      0.08465074781483546,
      -0.12020916089230065,
      0.0,
      0.0,
      -0.013667273978215022,
      -0.015579490213112977,
      0.0,
      -0.019949234218087683,
      -0.017445015306394973,
      -0.01494698613160824,
      0.0606796163485112,
      -0.3974609544789361,
      -0.04724101406956682,
      -0.17850455772257304,
      -0.04318125686246612,
      -0.07329935155252397,
      -0.05023843005629581,
      -0.043011076607419985,
      -0.06561817096474748,
      -0.023462435443164842,
      -0.08087600345400478,
      0.0,
      -0.12009430186833339,
      0.0,
      -0.013667273978215022,
      -0.05816033736419452,
      -0.016001637219418576,
      0.0,
      -0.1111334664838609,
      -0.08142039754715454,
      0.0,
      0.03398754370086857,
      -0.08168498139036415,
      -0.28041375857858675,
      -0.21209446233043222,
      -0.019949234218087683,
      -0.019949234218087683,
      -0.05335011733443611,
      -0.03854451729988562,
      -0.06725778526066095,
      -0.10237079778375736,
      0.16245415694924403,
      -0.013667273978215022,
      -0.022730853247314203,
      -0.06452736776690611,
      -0.09377419941910217,
      -0.041342453409573,
      -0.04708951909149342,
      -0.05853538692342841,
      -0.13691007330339813,
      -0.01787143569163368,
      -0.09822505137871522,
      -0.10456174222315245,
      -0.017088148829137628,
      -0.12101638787907612,
      -0.08350416323472871,
      -0.06561817096474748,
      -0.06111734289148905,
      -0.10840532591846955,
      -0.08392769850125735,
      -0.13287892505576396,
      -0.022332399596107055,
      -0.023462435443164842,
      -0.07424275422119568,
      -0.04724101406956682,
      -0.013667273978215022,
      -0.08142039754715454,
      -0.08168498139036415,
      -0.18558103051190505,
      -0.027360861322557967,
      -0.19285365813426555,
      -0.14830003621735965,
      -0.10478651294274131,
      -0.19985760056850557,
      -0.17059557550134774,
      -0.077987898613886,
      -0.03766797340880376
    ],
    "feature_names": [
      "bias",
      "category_datasci",
      "category_filesystem",
      "category_general",
      "category_network",
      "category_plotting",
      "category_subprocess",
      "combo_archive_filesystem",
      "combo_dataframe_plotting",
      "combo_network_archive",
      "combo_network_filesystem",
      "combo_network_plotting",
      "environment_risk",
      "family_bigcodebench_hard",
      "family_code_data",
      "family_code_easy",
      "family_code_text",
      "kw_archive",
      "kw_base64",
      "kw_convert",
      "kw_count",
      "kw_csv",
      "kw_default",
      "kw_dict",
      "kw_directory",
      "kw_download",
      "kw_email",
      "kw_encoding",
      "kw_exception",
      "kw_file",
      "kw_flatten",
      "kw_frequent",
      "kw_ftp",
      "kw_group",
      "kw_hash",
      "kw_hex",
      "kw_http",
      "kw_https",
      "kw_key",
      "kw_list",
      "kw_lowercase",
      "kw_number",
      "kw_pair",
      "kw_parse",
      "kw_process",
      "kw_request",
      "kw_requests",
      "kw_socket",
      "kw_sorted",
      "kw_ssl",
      "kw_string",
      "kw_strip",
      "kw_subprocess",
      "kw_sum",
      "kw_title",
      "kw_unpack",
      "kw_url",
      "kw_urllib",
      "kw_window",
      "kw_word",
      "kw_zip",
      "length_chars",
      "length_tokens",
      "lib_base64",
      "lib_binascii",
      "lib_bs4",
      "lib_codecs",
      "lib_collections",
      "lib_csv",
      "lib_datetime",
      "lib_ftplib",
      "lib_functools",
      "lib_glob",
      "lib_itertools",
      "lib_json",
      "lib_math",
      "lib_matplotlib",
      "lib_numpy",
      "lib_operator",
      "lib_os",
      "lib_pandas",
      "lib_pathlib",
      "lib_random",
      "lib_re",
      "lib_requests",
      "lib_scipy",
      "lib_seaborn",
      "lib_shutil",
      "lib_sklearn",
      "lib_smtplib",
      "lib_socket",
      "lib_statistics",
      "lib_string",
      "lib_subprocess",
      "lib_urllib",
      "lib_zipfile",
      "library_count",
      "missing_library_count",
      "plausibility_score",
      "signal_archive",
      "signal_dataframe",
      "signal_filesystem",
      "signal_network",
      "signal_plotting",
      "signal_subprocess"
    ],
    "policy": "linear-multi-head-orchestrator",
    "verifier_weights": [
      -0.042444731137326844,
      -0.06358488074323376,
      -0.17148009684618473,
      0.07282796662866767,
      -0.05517662167932107,
      0.047593482863853585,
      0.14312411991002819,
      -0.05261665608653177,
      -0.022644659607061145,
      -0.04512637406433974,
      0.0514070366163518,
      0.013322676248735673,
      -0.0679046588292024,
      -0.042444731137326844,
      0.0,
      0.0,
      0.0,
      0.04242187202446739,
      0.024640738573320196,
      -0.000961030493259303,
      0.153203785301796,
      -0.1322680900026773,
      0.037648405139220624,
      0.02680619234176734,
      -0.09216690541687136,
      0.006895869985119131,
      -0.1135982762388562,
      0.024640738573320196,
      0.16884328985068522,
      -0.18038911131892074,
      0.0,
      0.0,
      0.006514992967488696,
      -0.059318148015954975,
      0.0,
      0.024640738573320196,
      -0.05322897222455573,
      0.0445111666312327,
      0.056340456594004516,
      -0.16151515744990078,
      0.055068809890572556,
      -0.1254109824603445,
      0.06867987312913412,
      -0.04185772909744685,
      -0.08013393868356743,
      -0.007721721142585324,
      -0.11162484173510662,
      -0.06025209367204311,
      0.03444148001808182,
      0.0,
      -0.08838156524341942,
      0.0,
      0.006514992967488696,
      0.007255784945344439,
      0.01699565471976327,
      0.0,
      -0.041476852079816724,
      0.05687849420907859,
      0.0,
      0.20567077438690862,
      -0.054033750520025396,
      -0.04346506014345516,
      -0.0408167194406745,
      0.024640738573320196,
      0.024640738573320196,
      -0.06649846767076703,
      -0.03598372861204971,
      0.18223191333305555,
      -0.027189020669890148,
      -0.010108403552650889,
      0.006514992967488696,
      0.025408106750970785,
      -0.09895810933708912,
      0.10866619721318488,
      -0.055557204981465484,
      0.06396585439769496,
      0.10722446606357365,
      -0.07256420004290565,
      0.03923359263449267,
      -0.06059836213900236,
      -0.009669692281147252,
      -0.04478565165952207,
      -0.1649742160145506,
      -0.11884220715067616,
      -0.11162484173510662,
      -0.04228487589969538,
      -0.07428777992191561,
      0.043838966457960565,
      0.08309191831784211,
      -0.05297380905348686,
      -0.06025209367204311,
      -0.014488575009156268,
      0.055068809890572556,
      0.006514992967488696,
      0.05687849420907859,
      -0.054033750520025396,
      -0.034775520757310274,
      -0.01739934291080496,
      -0.07179293841565162,
      -0.05261665608653177,
      -0.06358488074323376,
      -0.17148009684618473,
      -0.14818776183785862,
      0.047593482863853585,
      0.14312411991002819
    ],
    "worker_ids": [
      "ollama-cloud-deepseek-v4-pro",
      "ollama-cloud-glm-5.2",
      "ollama-cloud-kimi-k2.7-code",
      "ollama-cloud-qwen3-coder-480b"
    ],
    "worker_weights": [
      [
        -0.07634979294054936,
        0.07655660546565252,
        0.04613279202753093,
        -0.07037137522168554,
        0.06185510417431442,
        0.04064845247237662,
        0.04578429436752518,
        0.01339241714131967,
        0.0062504662495482125,
        -0.059049418065014465,
        -0.06038960141189689,
        0.022573004724253554,
        0.0830183785078489,
        -0.07634979294054936,
        0.0,
        0.0,
        0.0,
        0.02702800605996032,
        -0.013250972651653713,
        -0.04997953074744252,
        -0.009111695023310554,
        0.07009231922038395,
        -0.013600848523901317,
        0.07126340124565371,
        -0.06479597640613992,
        -0.0819939929403698,
        -0.04770119399888691,
        -0.013250972651653713,
        0.05020695601164792,
        0.09788104594163675,
        0.0,
        0.0,
        -0.04227659327741104,
        0.11717450538771734,
        0.0,
        -0.013250972651653713,
        0.1106625051277645,
        0.021604391528472672,
        0.07369527224467316,
        -0.0604100188632492,
        0.022802596301237897,
        0.011846911021918934,
        0.03663418244576049,
        0.037696418985366076,
        -0.06870058985334615,
        0.12999452352982013,
        -0.008102026427994968,
        -0.02170920186280835,
        -0.07672682301173495,
        0.0,
        0.006492731662628412,
        0.0,
        -0.04227659327741104,
        -0.028307517231387233,
        -0.0013556021572295872,
        0.0,
        -0.002020980677592564,
        -0.05363406774034183,
        0.0,
        0.061646445850077516,
        -0.09427700039058266,
        -0.016097863763195615,
        -0.007552921536788191,
        -0.013250972651653713,
        -0.013250972651653713,
        0.050947391637019765,
        -0.03281696744602966,
        0.10110469940452768,
        0.05435284508864897,
        -0.08970958066319201,
        -0.04227659327741104,
        0.010318532726707495,
        -0.10949573282036937,
        0.028223060220033222,
        0.06762309805355719,
        0.020270876047579378,
        0.07272118494935227,
        0.07953145018203378,
        -0.016825579082959393,
        -0.12185183151357454,
        0.07605564027542963,
        -0.02899502532081859,
        0.01572519941218423,
        -0.1139199751165222,
        -0.008102026427994968,
        -0.08629283013689058,
        -0.16835090198941066,
        0.13469742359186287,
        0.12503660278541168,
        -0.028135199204510932,
        -0.02170920186280835,
        -0.0931298143163325,
        0.022802596301237897,
        -0.04227659327741104,
        -0.05363406774034183,
        -0.09427700039058266,
        -0.0318890265214885,
        0.022952658001629777,
        0.047883051845726304,
        0.01339241714131967,
        0.07655660546565252,
        0.04613279202753093,
        -0.09414197502232373,
        0.04064845247237662,
        0.04578429436752518
      ],
      [
        -0.06888451053392336,
        -0.116193714242571,
        -0.04544823121300643,
        -0.06539450166929742,
        0.07665473222167593,
        -0.07604650976262123,
        -0.05156076180582484,
        0.03049278902346166,
        -0.08129911012189436,
        -0.03150587734444681,
        -0.03574052828257551,
        -0.0016031830133131399,
        0.0907800286548631,
        -0.06888451053392336,
        0.0,
        0.0,
        0.0,
        0.02676690786639894,
        -0.01481821910891047,
        0.1293336938124689,
        0.03848035047831395,
        -0.05057984638326891,
        -0.032122720237806546,
        -0.060977533675327725,
        -0.025628135155726404,
        -0.040703763834830445,
        0.06205811668842167,
        -0.01481821910891047,
        -0.0667167755217605,
        0.012238278105695678,
        0.0,
        0.0,
        -0.02464464914268948,
        -0.0326031486161253,
        0.0,
        -0.01481821910891047,
        -0.021203903372232526,
        0.00496323555225546,
        0.06752863126577748,
        0.03695556133028354,
        -0.0012921722629527133,
        -0.06675567818890303,
        0.01908164801217717,
        -0.045734200880356346,
        -0.06530040864120235,
        -0.005757140719927055,
        -0.062421859115892084,
        -0.03894708284130223,
        0.12232863015773283,
        0.0,
        0.06679741637166121,
        0.0,
        -0.02464464914268948,
        -0.02152952483436274,
        -0.02866254798383036,
        0.0,
        -0.06179331557249771,
        -0.009083534855818328,
        0.0,
        0.013069115890193658,
        0.07652469735881114,
        -0.06743841009043783,
        -0.06368317222202809,
        -0.01481821910891047,
        -0.01481821910891047,
        -0.030915981771445784,
        -0.07030015160483133,
        0.055300520406000156,
        -0.08330124974183542,
        -0.12608009190967934,
        -0.02464464914268948,
        -0.010530684804454857,
        0.06607557791712983,
        -0.013720480484327646,
        0.055100346026821345,
        0.011884915040519204,
        -0.062402820990897764,
        0.008510605797693685,
        0.016581244085836336,
        -0.06907589428227114,
        -0.00425444556027058,
        0.12157785341941016,
        -0.1548858661524111,
        -0.06255982417650843,
        -0.062421859115892084,
        0.020174412090138483,
        -0.015411716094240246,
        -0.01926500046895057,
        0.03806209387800512,
        0.1175400491843425,
        -0.03894708284130223,
        -0.03826645021188073,
        -0.0012921722629527133,
        -0.02464464914268948,
        -0.009083534855818328,
        0.07652469735881114,
        -0.03643087286284588,
        0.022393594660928818,
        0.0418465339710637,
        0.03049278902346166,
        -0.116193714242571,
        -0.04544823121300643,
        -0.007844998372146458,
        -0.07604650976262123,
        -0.05156076180582484
      ],
      [
        -0.02226187650125376,
        -0.12039593748231676,
        0.11882397663371967,
        -0.05444927306486149,
        -0.022768782697505225,
        -0.03593182164361403,
        -0.014708726474083238,
        -0.06637398943508005,
        -0.08171612737655232,
        0.11729770437058606,
        0.13293431432525782,
        0.02197768042027874,
        -0.017421957414838516,
        -0.02226187650125376,
        0.0,
        0.0,
        0.0,
        -0.03799518779787755,
        0.014938462398042376,
        0.02585620311492593,
        0.05362127110892918,
        0.12407658000744967,
        -0.022380618595217908,
        -0.05976209801922355,
        -0.08019838634272616,
        0.1229655987463721,
        -0.09645687845888185,
        0.014938462398042376,
        0.04768608564595017,
        0.18038204473340477,
        0.0,
        0.0,
        0.02218141805158528,
        -0.018269977498784205,
        0.0,
        0.014938462398042376,
        -0.029827247460715092,
        0.009968715578886143,
        -0.053418614858473955,
        -0.24126599527616208,
        -0.0010738810434843687,
        -0.0089069075206866,
        -0.024265721864132776,
        -0.028183552911580066,
        0.08343892993971849,
        -0.046340771136513595,
        0.07417568906096299,
        -0.029361617285247662,
        0.0038394813548307837,
        0.0,
        -0.06479190153531465,
        0.0,
        0.02218141805158528,
        -0.043471800876536446,
        0.04667453052020498,
        0.0,
        0.07260062778320646,
        -0.014869829126663337,
        0.0,
        0.028390733635587653,
        -0.011799494915197904,
        0.003952851179147428,
        0.00022745477430009725,
        0.014938462398042376,
        0.014938462398042376,
        -0.04312201530962256,
        -0.05642674719357821,
        -0.0556673452531242,
        0.15124510943425845,
        0.10607750034928744,
        0.02218141805158528,
        0.0032891123970910916,
        -0.13304953724849708,
        -0.040340691800587955,
        -0.05142685357335376,
        0.01650437859857883,
        -0.009736380226304955,
        -0.19909259448884833,
        0.007258145643595389,
        0.03995001829997974,
        -0.058874964967905445,
        -0.0435509820333562,
        0.07257327113971111,
        -0.053277487546372175,
        0.07417568906096299,
        -0.034938583177910876,
        0.007271075536335385,
        -0.09256968231776033,
        0.0919765327187414,
        -0.02509166886726125,
        -0.029361617285247662,
        0.12948522126820125,
        -0.0010738810434843687,
        0.02218141805158528,
        -0.014869829126663337,
        -0.011799494915197904,
        -0.018022454102907717,
        -0.0018803438981677353,
        -0.01858375676131708,
        -0.06637398943508005,
        -0.12039593748231676,
        0.11882397663371967,
        0.04032875968228335,
        -0.03593182164361403,
        -0.014708726474083238
      ],
      [
        0.167496179975728,
        0.16003304625923637,
        -0.11950853744824225,
        0.19021514995584504,
        -0.11574105369848584,
        0.07132987893385825,
        0.020485193912383074,
        0.02248878327029917,
        0.1567647712488987,
        -0.026742408961123745,
        -0.03680418463078568,
        -0.04294750213121933,
        -0.15637644974787301,
        0.167496179975728,
        0.0,
        0.0,
        0.0,
        -0.01579972612848154,
        0.013130729362521867,
        -0.10521036617995126,
        -0.08298992656393282,
        -0.1435890528445635,
        0.06810418735692568,
        0.0494762304488973,
        0.17062249790459114,
        -0.0002678419711715587,
        0.0820999557693472,
        0.013130729362521867,
        -0.031176266135837617,
        -0.29050136878073674,
        0.0,
        0.0,
        0.044739824368515264,
        -0.06630137927280866,
        0.0,
        0.013130729362521867,
        -0.05963135429481612,
        -0.0365363426596143,
        -0.0878052886519778,
        0.2647204528091252,
        -0.020436542994800865,
        0.06381567468767066,
        -0.0314501085938048,
        0.036221334806570415,
        0.05056206855482987,
        -0.07789661167337926,
        -0.003651803517075021,
        0.09001790198935802,
        -0.049441288500829295,
        0.0,
        -0.00849824649897457,
        0.0,
        0.044739824368515264,
        0.0933088429422868,
        -0.016656380379145,
        0.0,
        -0.008786331533116523,
        0.0775874317228233,
        0.0,
        -0.10310629537585883,
        0.029551797946969837,
        0.07958342267448712,
        0.07100863898451612,
        0.013130729362521867,
        0.013130729362521867,
        0.02309060544404868,
        0.1595438662444389,
        -0.1007378745574024,
        -0.12229670478107289,
        0.10971217222358545,
        0.044739824368515264,
        -0.003076960319343733,
        0.1764696921517362,
        0.02583811206488245,
        -0.07129659050702479,
        -0.048660169686677426,
        -0.0005819837321502199,
        0.11105053850911896,
        -0.00701381064647236,
        0.15097770749586606,
        -0.01292622974725263,
        -0.04903184606523506,
        0.06658739560051669,
        0.22975728683940339,
        -0.003651803517075021,
        0.10105700122466245,
        0.17649154254731642,
        -0.02286274080515202,
        -0.25507522938215726,
        -0.06431318111257038,
        0.09001790198935802,
        0.001911043260011863,
        -0.020436542994800865,
        0.044739824368515264,
        0.0775874317228233,
        0.029551797946969837,
        0.08634235348724227,
        -0.04346590876439105,
        -0.07114582905547294,
        0.02248878327029917,
        0.16003304625923637,
        -0.11950853744824225,
        0.061658213712186404,
        0.07132987893385825,
        0.020485193912383074
      ]
    ],
    "workflow_labels": [
      "direct",
      "verify_then_fallback"
    ],
    "workflow_weights": [
      [
        0.3803317878673639,
        0.011014585839766998,
        0.10180466667822702,
        0.14651611690297922,
        0.046159578063173216,
        0.01801573599304145,
        -0.0028470991344684764,
        0.10079867498660683,
        -0.027314246248486353,
        0.007870654632673143,
        0.043547899976966134,
        0.008788746193810964,
        0.07121470798413271,
        0.3803317878673639,
        0.0,
        0.0,
        0.0,
        0.011767924236702094,
        0.012985962324878742,
        0.037520148066354335,
        0.08672046270936316,
        -0.013927848115251041,
        0.026222077820869556,
        0.10423681078785543,
        0.1193736174547337,
        0.03422993568606562,
        0.03027734426662043,
        0.012985962324878742,
        -0.14933617924045597,
        0.048720459136793896,
        0.0,
        0.0,
        0.00892962433321509,
        0.01223781246060786,
        0.0,
        0.012985962324878742,
        0.012925330849896794,
        0.00931796429090045,
        -0.08334985711492852,
        0.281628332961444,
        0.03276997074721014,
        0.13577300835403414,
        0.03197967286457162,
        0.04924905215958603,
        0.03830246513594856,
        0.030354987570074068,
        0.04413374446738028,
        0.015836014549481213,
        0.05609236557662339,
        0.0,
        0.08188600425848058,
        0.0,
        0.00892962433321509,
        0.04416968832618563,
        -0.010932257449990074,
        0.0,
        0.07454936351243646,
        0.053753378029866634,
        0.0,
        -0.05825318698855301,
        0.05562003048214522,
        0.1677291672470506,
        0.12634843729713202,
        0.012985962324878742,
        0.012985962324878742,
        0.0362630898347075,
        0.028276648002338183,
        0.015210221205108879,
        0.07223435645967691,
        -0.17692870223552373,
        0.00892962433321509,
        0.015749605591552522,
        0.0452845372655892,
        0.06631763927431986,
        0.028871272401228554,
        0.03282449514886501,
        0.0014247881608152092,
        0.08304263788925066,
        0.012213856463828367,
        0.02759306449133525,
        0.03621905948790831,
        0.012177591635814462,
        0.05704243128280761,
        0.028747713170548347,
        0.04413374446738028,
        0.050760094385113995,
        0.09170119238436768,
        0.056946568741163564,
        0.11082441677487552,
        0.014986658589160835,
        0.015836014549481213,
        0.056214799757687776,
        0.03276997074721014,
        0.00892962433321509,
        0.053753378029866634,
        0.05562003048214522,
        0.10499423477548177,
        0.021759480573114172,
        0.12370484660892762,
        0.10079867498660683,
        0.011014585839766998,
        0.10180466667822702,
        0.11430166098429391,
        0.01801573599304145,
        -0.0028470991344684764
      ],
      [
        -0.380331787867364,
        -0.011014585839766996,
        -0.10180466667822703,
        -0.14651611690297922,
        -0.04615957806317321,
        -0.018015735993041453,
        0.002847099134468457,
        -0.10079867498660691,
        0.027314246248486343,
        -0.00787065463267314,
        -0.043547899976966106,
        -0.008788746193810964,
        -0.0712147079841327,
        -0.380331787867364,
        0.0,
        0.0,
        0.0,
        -0.011767924236702094,
        -0.012985962324878739,
        -0.03752014806635433,
        -0.08672046270936318,
        0.013927848115251044,
        -0.02622207782086954,
        -0.10423681078785542,
        -0.11937361745473364,
        -0.03422993568606561,
        -0.03027734426662042,
        -0.012985962324878739,
        0.14933617924045606,
        -0.04872045913679392,
        0.0,
        0.0,
        -0.00892962433321509,
        -0.012237812460607858,
        0.0,
        -0.012985962324878739,
        -0.012925330849896794,
        -0.009317964290900448,
        0.08334985711492852,
        -0.281628332961444,
        -0.03276997074721015,
        -0.13577300835403416,
        -0.03197967286457161,
        -0.04924905215958604,
        -0.03830246513594856,
        -0.03035498757007406,
        -0.04413374446738027,
        -0.015836014549481216,
        -0.05609236557662341,
        0.0,
        -0.0818860042584806,
        0.0,
        -0.00892962433321509,
        -0.04416968832618565,
        0.01093225744999009,
        0.0,
        -0.07454936351243643,
        -0.053753378029866634,
        0.0,
        0.058253186988552974,
        -0.05562003048214519,
        -0.1677291672470505,
        -0.12634843729713205,
        -0.012985962324878739,
        -0.012985962324878739,
        -0.0362630898347075,
        -0.028276648002338187,
        -0.015210221205108827,
        -0.07223435645967688,
        0.17692870223552376,
        -0.00892962433321509,
        -0.015749605591552526,
        -0.04528453726558922,
        -0.06631763927431984,
        -0.028871272401228554,
        -0.03282449514886502,
        -0.001424788160815249,
        -0.08304263788925063,
        -0.012213856463828377,
        -0.027593064491335223,
        -0.03621905948790832,
        -0.012177591635814467,
        -0.05704243128280761,
        -0.028747713170548323,
        -0.04413374446738027,
        -0.05076009438511399,
        -0.09170119238436765,
        -0.05694656874116356,
        -0.11082441677487552,
        -0.014986658589160838,
        -0.015836014549481216,
        -0.056214799757687776,
        -0.03276997074721015,
        -0.00892962433321509,
        -0.053753378029866634,
        -0.05562003048214519,
        -0.10499423477548171,
        -0.021759480573114172,
        -0.12370484660892765,
        -0.10079867498660691,
        -0.011014585839766996,
        -0.10180466667822703,
        -0.11430166098429388,
        -0.018015735993041453,
        0.002847099134468457
      ]
    ]
  },
  "substrate": "research/datasets/20260628-normal-offset156-guarded-58task-substrate.jsonl",
  "target_balance_power": 0.0
}
