{
  "dataset": "research/datasets/20260628-contrast-aware-26task-routing.jsonl",
  "epochs": 300,
  "l2": 0.0001,
  "learning_rate": 0.0005,
  "model_type": "linear-softmax-logits-router",
  "reward_temperature": 0.5,
  "router": {
    "feature_names": [
      "bias",
      "category_algorithmic",
      "category_datasci",
      "category_filesystem",
      "category_general",
      "category_network",
      "category_plotting",
      "category_subprocess",
      "combo_archive_filesystem",
      "combo_filesystem_random",
      "combo_filesystem_tabular",
      "combo_network_archive",
      "combo_network_filesystem",
      "combo_network_plotting",
      "combo_random_math",
      "combo_random_statistics",
      "environment_risk",
      "family_bigcodebench_hard",
      "kw_archive",
      "kw_base64",
      "kw_count",
      "kw_dict",
      "kw_download",
      "kw_fetch",
      "kw_file",
      "kw_files",
      "kw_frequent",
      "kw_hex",
      "kw_http",
      "kw_key",
      "kw_list",
      "kw_lowercase",
      "kw_mean",
      "kw_median",
      "kw_number",
      "kw_plot",
      "kw_random",
      "kw_request",
      "kw_requests",
      "kw_scan",
      "kw_sorted",
      "kw_standard",
      "kw_statistics",
      "kw_string",
      "kw_strip",
      "kw_subprocess",
      "kw_sum",
      "kw_url",
      "kw_word",
      "kw_zip",
      "length_chars",
      "length_tokens",
      "lib_base64",
      "lib_binascii",
      "lib_codecs",
      "lib_collections",
      "lib_csv",
      "lib_datetime",
      "lib_ftplib",
      "lib_functools",
      "lib_glob",
      "lib_itertools",
      "lib_json",
      "lib_math",
      "lib_matplotlib",
      "lib_numpy",
      "lib_os",
      "lib_pandas",
      "lib_pathlib",
      "lib_random",
      "lib_re",
      "lib_requests",
      "lib_shutil",
      "lib_statistics",
      "lib_subprocess",
      "lib_urllib",
      "lib_zipfile",
      "library_count",
      "missing_library_count",
      "plausibility_score",
      "signal_algorithmic",
      "signal_archive",
      "signal_datasci",
      "signal_filesystem",
      "signal_general",
      "signal_math",
      "signal_network",
      "signal_plotting",
      "signal_random",
      "signal_statistics",
      "signal_subprocess",
      "signal_tabular_data"
    ],
    "policy": "logits-router",
    "weights": [
      [
        0.014794258569038295,
        0.0035026176793628663,
        0.03310574854914508,
        0.03335456938379325,
        -0.010513257856313758,
        -0.008818907896521323,
        0.014378768672796785,
        0.0017296461995760957,
        0.014443050186015256,
        0.04131634976006621,
        0.00772914296442438,
        -0.003940119722329854,
        -0.0012328865042823024,
        0.011452772863896614,
        0.001914720686561674,
        -0.04108513012703333,
        -0.005291344737912786,
        0.014794258569038295,
        0.0,
        0.003557041455247111,
        0.011526141114568922,
        0.02730289464235344,
        -0.0012328865042823024,
        0.0,
        0.07105506125693867,
        -0.05056206800746559,
        0.0,
        0.003557041455247111,
        0.0,
        0.055310607994622916,
        0.0016638083184656938,
        0.0,
        0.008443382505786733,
        0.04646703910285045,
        -0.02675127123011064,
        0.0026352556510359313,
        0.010288956945765777,
        0.011526141114568922,
        -0.003940119722329854,
        0.0,
        -0.024709274852978098,
        0.001914720686561674,
        -0.04108513012703333,
        0.003557041455247111,
        0.0,
        -0.008818907896521323,
        -0.0020847114565015253,
        0.011143062847486182,
        0.011788962544868362,
        -0.031018627119280284,
        -0.039028180707094726,
        -0.004599275231204448,
        0.003557041455247111,
        0.003557041455247111,
        0.004236722964511189,
        0.058620110056255295,
        0.020212196112433464,
        -0.018316005544317317,
        -0.008818907896521323,
        0.005221637175492702,
        -0.033903548824805584,
        0.011785728384825176,
        0.04537808354748135,
        0.007136357862054387,
        0.014378768672796785,
        0.05054438382305603,
        -0.024565242582953756,
        -0.013697480234677019,
        -0.0074595557106090695,
        0.009609275436501722,
        -0.008815851132632946,
        -0.003940119722329854,
        0.045461677305295635,
        -0.04108513012703333,
        -0.008818907896521323,
        0.015083182569815976,
        -0.031018627119280284,
        0.00943428300293314,
        0.0,
        -0.0028477445813059653,
        0.0035026176793628663,
        0.014443050186015256,
        0.03310574854914508,
        0.03335456938379325,
        -0.010513257856313758,
        0.007136357862054387,
        0.0023241549509648036,
        0.014378768672796785,
        0.010288956945765777,
        0.008443382505786733,
        0.0017296461995760957,
        -0.022481418514086342
      ],
      [
        -0.0063278676431916935,
        0.0026905947635445563,
        -0.00625620261615479,
        -0.048323200148045996,
        0.030389116765210174,
        -0.01922443665535405,
        0.014558023806421965,
        0.003101026667829064,
        -0.007093368481504906,
        -0.03595497821233822,
        0.0075229927633589525,
        -0.0012115541467405636,
        -0.0030778338006444924,
        0.011817156409282374,
        0.0032752973452212686,
        0.010448590434785963,
        -0.011534661993212498,
        -0.0063278676431916935,
        0.0,
        0.0003548408369962388,
        0.01735815700145021,
        0.012448828948449195,
        -0.0030778338006444924,
        0.0,
        -0.0031303955024124573,
        0.002284073271938431,
        0.0,
        0.0003548408369962388,
        0.0,
        -0.010561374286043477,
        -0.06607983623984853,
        0.0,
        -0.004609736629684766,
        -0.018981741653073435,
        -0.0035889592538969214,
        0.0011057301171435415,
        -0.0024466261292179804,
        0.01735815700145021,
        -0.0012115541467405636,
        0.0,
        0.022259431827137247,
        0.0032752973452212686,
        0.010448590434785963,
        0.0003548408369962388,
        0.0,
        -0.01922443665535405,
        -0.004636801050807547,
        0.016501443691705885,
        0.012581792133110628,
        0.02096402470481621,
        -0.012256163788437444,
        -0.0025619637544631478,
        0.0003548408369962388,
        0.0003548408369962388,
        -0.002666512314919066,
        0.0007761883522011024,
        -0.03216702756216324,
        0.003157812223123076,
        -0.01922443665535405,
        0.0018089519923107406,
        0.020013754844782333,
        0.008422961344457996,
        -0.014571757217496954,
        0.0050842493375320074,
        0.014558023806421965,
        -0.017315044492557753,
        -0.041158614904254695,
        0.011960903313090378,
        0.03693555974825186,
        0.0005747270226973231,
        -0.008327038685969665,
        -0.0012115541467405636,
        -0.028057393186321236,
        0.010448590434785963,
        -0.01922443665535405,
        0.01771299783844642,
        0.02096402470481621,
        -0.003079538918422177,
        0.0,
        -0.008126710051015958,
        0.0026905947635445563,
        -0.007093368481504906,
        -0.00625620261615479,
        -0.048323200148045996,
        0.030389116765210174,
        0.0050842493375320074,
        -0.002722992963648263,
        0.014558023806421965,
        -0.0024466261292179804,
        -0.004609736629684766,
        0.003101026667829064,
        0.04227791111521818
      ],
      [
        -0.0019145609098920543,
        -0.0025398558165262734,
        -0.039303115786908364,
        0.03737626985329152,
        -0.021771799246910167,
        0.015598800729883578,
        0.006166149533341376,
        0.013163844943540275,
        -0.036527493345184195,
        0.05813459324500889,
        0.0389416190538589,
        0.034066252380762455,
        0.04335640881585454,
        0.005025818399136952,
        -0.000833172356300563,
        0.026234115303500644,
        0.009359280437930153,
        -0.0019145609098920543,
        0.0,
        0.0007149222911046641,
        -0.006308644294791624,
        -0.036494015151266254,
        0.04335640881585454,
        0.0,
        0.037269382126469956,
        -0.038092993292225534,
        0.0,
        0.0007149222911046641,
        0.0,
        -0.009607522225409384,
        -0.02811758858930237,
        0.0,
        0.023031503896009903,
        -0.005397119786326024,
        0.03359402576670972,
        0.0005775626110697375,
        0.01418089031253792,
        -0.006308644294791624,
        0.034066252380762455,
        0.0,
        -0.019644182605815675,
        -0.000833172356300563,
        0.026234115303500644,
        0.0007149222911046641,
        0.0,
        0.015598800729883578,
        -0.01079396938934687,
        0.028472530377075513,
        0.005686002134722061,
        0.013914930420259751,
        7.534661926098581e-06,
        -0.002584649759090645,
        0.0007149222911046641,
        0.0007149222911046641,
        -0.0249779042500096,
        -0.010482811822397776,
        0.0686957550733174,
        0.014520395116539412,
        0.015598800729883578,
        0.0005304892406276612,
        -0.05005042071695841,
        0.000185141802936771,
        -0.005804704743638548,
        -0.0003026831156729067,
        0.006166149533341376,
        -0.028235254213019718,
        0.03774757124048046,
        -0.03456617973616754,
        -0.013929940058283744,
        0.03987371685365226,
        -0.023611510256345072,
        0.034066252380762455,
        -0.05044242376544403,
        0.026234115303500644,
        0.015598800729883578,
        -0.005593722003686955,
        0.013914930420259751,
        0.0026564408325769856,
        0.0,
        0.006402191276672261,
        -0.0025398558165262734,
        -0.036527493345184195,
        -0.039303115786908364,
        0.03737626985329152,
        -0.021771799246910167,
        -0.0003026831156729067,
        0.044071331106959134,
        0.006166149533341376,
        0.01418089031253792,
        0.023031503896009903,
        0.013163844943540275,
        0.0005198237323694369
      ],
      [
        -0.006551830015954647,
        -0.003653356626381196,
        0.012453569853918201,
        -0.0224076390890388,
        0.0018959403380138151,
        0.012444543821991812,
        -0.03510294201256019,
        -0.017994517810945403,
        0.029177811640673873,
        -0.0634959647927367,
        -0.054193754781642,
        -0.028914578511692237,
        -0.0390456885109277,
        -0.028295747672315925,
        -0.004356845675482393,
        0.00440242438874674,
        0.007466726293195109,
        -0.006551830015954647,
        0.0,
        -0.004626804583348025,
        -0.022575653821227518,
        -0.0032577084395364925,
        -0.0390456885109277,
        0.0,
        -0.10519404788099639,
        0.08637098802775274,
        0.0,
        -0.004626804583348025,
        0.0,
        -0.03514171148316998,
        0.09253361651068515,
        0.0,
        -0.026865149772111997,
        -0.02208817766345098,
        -0.003253795282702025,
        -0.004318548379249203,
        -0.022023221129085772,
        -0.022575653821227518,
        -0.028914578511692237,
        0.0,
        0.022094025631656484,
        -0.004356845675482393,
        0.00440242438874674,
        -0.004626804583348025,
        0.0,
        0.012444543821991812,
        0.017515481896656027,
        -0.05611703691626748,
        -0.0300567568127009,
        -0.0038603280057956284,
        0.051276809833605455,
        0.009745888744758239,
        -0.004626804583348025,
        -0.004626804583348025,
        0.02340769360041748,
        -0.048913486586058465,
        -0.05674092362358724,
        0.0006377982046548039,
        0.012444543821991812,
        -0.007561078408431096,
        0.06394021469698175,
        -0.020393831532219842,
        -0.02500162158634567,
        -0.01191792408391346,
        -0.03510294201256019,
        -0.004994085117478268,
        0.02797628624672819,
        0.03630275665775427,
        -0.015546063979358845,
        -0.050057719312851245,
        0.04075440007494778,
        -0.028914578511692237,
        0.03303813964646944,
        0.00440242438874674,
        0.012444543821991812,
        -0.027202458404575466,
        -0.0038603280057956284,
        -0.009011184917087977,
        0.0,
        0.004572263355649654,
        -0.003653356626381196,
        0.029177811640673873,
        0.012453569853918201,
        -0.0224076390890388,
        0.0018959403380138151,
        -0.01191792408391346,
        -0.04367249309427575,
        -0.03510294201256019,
        -0.022023221129085772,
        -0.026865149772111997,
        -0.017994517810945403,
        -0.02031631633350149
      ]
    ],
    "worker_ids": [
      "ollama-cloud-deepseek-v4-pro",
      "ollama-cloud-glm-5.2",
      "ollama-cloud-kimi-k2.7-code",
      "ollama-cloud-qwen3-coder-480b"
    ]
  },
  "target_mode": "reward"
}
