{
  "dataset": "research/datasets/20260628-router-miss-repeat-24task-routing.jsonl",
  "epochs": 300,
  "l2": 0.0001,
  "learning_rate": 0.0005,
  "model_type": "linear-softmax-logits-router",
  "reward_temperature": 0.2,
  "router": {
    "feature_names": [
      "bias",
      "category_datasci",
      "category_filesystem",
      "category_general",
      "category_network",
      "category_plotting",
      "category_subprocess",
      "combo_network_archive",
      "combo_network_filesystem",
      "combo_network_plotting",
      "environment_risk",
      "family_bigcodebench_hard",
      "kw_archive",
      "kw_base64",
      "kw_count",
      "kw_dict",
      "kw_download",
      "kw_fetch",
      "kw_file",
      "kw_files",
      "kw_frequent",
      "kw_hex",
      "kw_http",
      "kw_key",
      "kw_list",
      "kw_lowercase",
      "kw_number",
      "kw_plot",
      "kw_request",
      "kw_requests",
      "kw_scan",
      "kw_sorted",
      "kw_string",
      "kw_strip",
      "kw_subprocess",
      "kw_sum",
      "kw_url",
      "kw_word",
      "kw_zip",
      "length_chars",
      "length_tokens",
      "lib_base64",
      "lib_binascii",
      "lib_codecs",
      "lib_collections",
      "lib_csv",
      "lib_datetime",
      "lib_ftplib",
      "lib_functools",
      "lib_glob",
      "lib_itertools",
      "lib_json",
      "lib_math",
      "lib_matplotlib",
      "lib_numpy",
      "lib_os",
      "lib_pandas",
      "lib_pathlib",
      "lib_random",
      "lib_re",
      "lib_requests",
      "lib_shutil",
      "lib_statistics",
      "lib_subprocess",
      "lib_urllib",
      "lib_zipfile",
      "library_count",
      "missing_library_count",
      "plausibility_score",
      "signal_archive",
      "signal_datasci",
      "signal_filesystem",
      "signal_general",
      "signal_network",
      "signal_plotting",
      "signal_subprocess"
    ],
    "policy": "logits-router",
    "weights": [
      [
        0.04771524538188984,
        0.05973491370690623,
        0.048817325802172185,
        0.016766263748109755,
        -0.016438784199601833,
        0.026861649220624187,
        -0.008148927540670897,
        -0.01404451550666393,
        -0.009112135028911445,
        0.01851624530569109,
        -0.00986327051976113,
        0.04771524538188984,
        0.0,
        0.0047988160102712,
        0.021371164677354365,
        0.096931296574146,
        -0.009112135028911445,
        0.0,
        0.11310316436006879,
        -0.07934977941457219,
        0.0,
        0.0047988160102712,
        0.0,
        0.10354447573201904,
        0.011976292815753173,
        0.0,
        -0.04276726773081765,
        0.00788138798719341,
        0.021371164677354365,
        -0.01404451550666393,
        0.0,
        0.0,
        0.0047988160102712,
        0.0,
        -0.016438784199601833,
        -0.009808153380595583,
        0.01212546518096163,
        0.02084804505913328,
        -0.057241957661796024,
        -0.08552639634531511,
        -0.011259945216625857,
        0.0047988160102712,
        0.0047988160102712,
        -0.004803290230748546,
        0.1107187346598922,
        0.033642221645921226,
        -0.02754353382795414,
        -0.016438784199601833,
        0.009241640846983024,
        -0.0631952941192059,
        0.016265872120909214,
        0.08764896950108043,
        0.011967447737838562,
        0.026861649220624187,
        0.08630567908770452,
        -0.05625067380487489,
        -0.029148640347892392,
        -0.01899895942485083,
        0.037444469058763766,
        -0.017087305384862722,
        -0.01404451550666393,
        0.07992129640999993,
        -0.046441210793107916,
        -0.016438784199601833,
        0.026169980687625567,
        -0.057241957661796024,
        0.016815264349672433,
        0.0,
        -0.003099159242186029,
        0.02267933874820407,
        0.05973491370690623,
        0.048817325802172185,
        0.016766263748109755,
        -0.004313319018640322,
        0.026861649220624187,
        -0.008148927540670897
      ],
      [
        -0.017318280020557745,
        -0.00777406548067376,
        -0.060657006450757237,
        0.021299641098592573,
        -0.01971502981828679,
        0.022450606306608032,
        -0.0021483206045170597,
        -0.013287728449516426,
        -0.0064009105214378175,
        0.014627894645498168,
        -0.011829017890972054,
        -0.017318280020557745,
        0.0,
        0.005104995253581339,
        0.0266018477463653,
        0.002953197426733093,
        -0.0064009105214378175,
        0.0,
        0.003899794529026405,
        0.03428017795303302,
        0.0,
        0.005104995253581339,
        0.0,
        0.00011469331420902546,
        -0.08554652187584272,
        0.0,
        -0.027780820509691367,
        0.004672464208618855,
        0.0266018477463653,
        -0.013287728449516426,
        0.0,
        0.0,
        0.005104995253581339,
        0.0,
        -0.01971502981828679,
        -0.011823509738239035,
        0.01841911455043028,
        0.01671180926240409,
        0.05225169428759513,
        -0.031277056689970856,
        -0.006432274455669033,
        0.005104995253581339,
        0.005104995253581339,
        -0.006123417980673815,
        0.006877407919011984,
        -0.054476512220477676,
        -0.01546172542565147,
        -0.01971502981828679,
        0.005361794875976151,
        0.051542776521927416,
        0.014453590727415864,
        -0.018613047733917542,
        0.016194645845011058,
        0.022450606306608032,
        -0.025011304662660033,
        -0.050326299199505126,
        0.01510062179917073,
        0.0873885711292955,
        -0.03889041554433024,
        -0.019022823066641603,
        -0.013287728449516426,
        -0.04529519771921406,
        -0.009181561599829594,
        -0.01971502981828679,
        0.03170684299994681,
        0.05225169428759513,
        -0.00215815503198696,
        0.0,
        -0.009761930664326627,
        0.006956496568381196,
        -0.00777406548067376,
        -0.060657006450757237,
        0.021299641098592573,
        -0.0012959152678564609,
        0.022450606306608032,
        -0.0021483206045170597
      ],
      [
        0.001801682997967965,
        -0.0843846216549291,
        0.03812947318681414,
        -0.00906845250587782,
        0.020011839186954403,
        0.0015714652656916863,
        0.02599622000486284,
        0.06812114279281656,
        0.06978100924924938,
        0.003626881129379184,
        0.012007103512172636,
        0.001801682997967965,
        0.0,
        -0.003819793398701608,
        -0.018351972730521457,
        -0.0530808580547813,
        0.06978100924924938,
        0.0,
        0.06797966808147445,
        -0.10537784198433789,
        0.0,
        -0.003819793398701608,
        0.0,
        -0.03849671999943058,
        -0.09153714456723645,
        0.0,
        0.05721355965549647,
        -0.0028051665553333995,
        -0.018351972730521457,
        0.06812114279281656,
        0.0,
        0.0,
        -0.003819793398701608,
        0.0,
        0.020011839186954403,
        -0.026731196293845627,
        0.045949376663593194,
        0.0030320701575914473,
        0.0067381256362129185,
        0.03052996826810459,
        0.00042942874024841723,
        -0.003819793398701608,
        -0.003819793398701608,
        -0.03999379734562137,
        -0.04299483112764373,
        0.11945010792089679,
        0.03816568061432686,
        0.020011839186954403,
        -0.002764246427977564,
        -0.0955106927874578,
        0.000901320412690246,
        -0.025013867609897624,
        -0.00524865910717625,
        0.0015714652656916863,
        -0.05790104619502,
        0.05930039017441545,
        -0.058992012566161295,
        -0.030639498139954684,
        0.12477257137944343,
        -0.05828726731342889,
        0.06812114279281656,
        -0.08033581501621134,
        0.08958651923540688,
        0.020011839186954403,
        -0.022171766129222927,
        0.0067381256362129185,
        0.002113791524263235,
        0.0,
        0.010243210138615967,
        -0.0735976893799983,
        -0.0843846216549291,
        0.03812947318681414,
        -0.00906845250587782,
        0.06596121585054757,
        0.0015714652656916863,
        0.02599622000486284
      ],
      [
        -0.032198648359300044,
        0.032423773428697324,
        -0.026289792538229176,
        -0.028997452340824362,
        0.016141974830934366,
        -0.05088372079292392,
        -0.015698971859674837,
        -0.04078889883663621,
        -0.054267963698900315,
        -0.03677102108056856,
        0.009685184898560593,
        -0.032198648359300044,
        0.0,
        -0.006084017865150925,
        -0.02962103969319816,
        -0.04680363594609773,
        -0.054267963698900315,
        0.0,
        -0.18498262697056922,
        0.15044744344587702,
        0.0,
        -0.006084017865150925,
        0.0,
        -0.0651624490467975,
        0.1651073736273264,
        0.0,
        0.01333452858501253,
        -0.009748685640478899,
        -0.02962103969319816,
        -0.04078889883663621,
        0.0,
        0.0,
        -0.006084017865150925,
        0.0,
        0.016141974830934366,
        0.04836285941268006,
        -0.07649395639498557,
        -0.04059192447912908,
        -0.0017478622620120726,
        0.0862734847671813,
        0.01726279093204651,
        -0.006084017865150925,
        -0.006084017865150925,
        0.05092050555704376,
        -0.07460131145126048,
        -0.09861581734634013,
        0.004839578639278767,
        0.016141974830934366,
        -0.011839189294981583,
        0.10716321038473617,
        -0.031620783261015355,
        -0.044022054157264796,
        -0.0229134344756733,
        -0.05088372079292392,
        -0.0033933282300248357,
        0.04727658282996442,
        0.073040031114883,
        -0.0377501135644897,
        -0.12332662489387679,
        0.09439739576493297,
        -0.04078889883663621,
        0.04570971632542534,
        -0.03396374684246929,
        0.016141974830934366,
        -0.03570505755834917,
        -0.0017478622620120726,
        -0.01677090084194875,
        0.0,
        0.0026178797678966985,
        0.04396185406341316,
        0.032423773428697324,
        -0.026289792538229176,
        -0.028997452340824362,
        -0.06035198156405072,
        -0.05088372079292392,
        -0.015698971859674837
      ]
    ],
    "worker_ids": [
      "ollama-cloud-deepseek-v4-pro",
      "ollama-cloud-glm-5.2",
      "ollama-cloud-kimi-k2.7-code",
      "ollama-cloud-qwen3-coder-480b"
    ]
  },
  "target_mode": "reward"
}
