{
  "dataset": "research/datasets/20260628-mixed-winner-26task-next3-917-neighborhood-routing.jsonl",
  "epochs": 300,
  "l2": 0.0001,
  "learning_rate": 0.0005,
  "model_type": "linear-softmax-logits-router",
  "reward_temperature": 0.1,
  "router": {
    "feature_names": [
      "bias",
      "category_datasci",
      "category_filesystem",
      "category_general",
      "category_network",
      "category_plotting",
      "category_subprocess",
      "combo_archive_filesystem",
      "combo_dataframe_plotting",
      "combo_network_archive",
      "combo_network_filesystem",
      "combo_network_plotting",
      "environment_risk",
      "family_bigcodebench_hard",
      "family_code_data",
      "family_code_easy",
      "family_code_text",
      "kw_archive",
      "kw_base64",
      "kw_convert",
      "kw_count",
      "kw_csv",
      "kw_default",
      "kw_dict",
      "kw_directory",
      "kw_download",
      "kw_email",
      "kw_encoding",
      "kw_exception",
      "kw_file",
      "kw_flatten",
      "kw_frequent",
      "kw_ftp",
      "kw_group",
      "kw_hash",
      "kw_hex",
      "kw_http",
      "kw_https",
      "kw_key",
      "kw_list",
      "kw_lowercase",
      "kw_number",
      "kw_pair",
      "kw_parse",
      "kw_process",
      "kw_request",
      "kw_requests",
      "kw_socket",
      "kw_sorted",
      "kw_ssl",
      "kw_string",
      "kw_strip",
      "kw_subprocess",
      "kw_sum",
      "kw_title",
      "kw_unpack",
      "kw_url",
      "kw_urllib",
      "kw_window",
      "kw_word",
      "kw_zip",
      "length_chars",
      "length_tokens",
      "lib_base64",
      "lib_binascii",
      "lib_codecs",
      "lib_collections",
      "lib_csv",
      "lib_datetime",
      "lib_ftplib",
      "lib_functools",
      "lib_glob",
      "lib_itertools",
      "lib_json",
      "lib_math",
      "lib_matplotlib",
      "lib_numpy",
      "lib_os",
      "lib_pandas",
      "lib_pathlib",
      "lib_random",
      "lib_re",
      "lib_requests",
      "lib_shutil",
      "lib_sklearn",
      "lib_statistics",
      "lib_statsmodels",
      "lib_subprocess",
      "lib_typing",
      "lib_urllib",
      "lib_zipfile",
      "library_count",
      "missing_library_count",
      "plausibility_score",
      "signal_archive",
      "signal_dataframe",
      "signal_filesystem",
      "signal_network",
      "signal_plotting",
      "signal_subprocess"
    ],
    "policy": "logits-router",
    "weights": [
      [
        -0.02826116064729408,
        0.03072497809029425,
        0.028714836983282747,
        0.00376159606980511,
        -0.02273069266416782,
        0.007228936649699537,
        -0.03034680479233354,
        0.012398811489599978,
        -0.009878752898548846,
        -0.023186295949417367,
        -0.027132754345857418,
        0.017909141076385866,
        -0.02454011647318198,
        -0.02826116064729408,
        0.0,
        0.0,
        0.0,
        0.0,
        -0.004704845930280452,
        0.0039953792768130545,
        0.027484459474821206,
        -0.005953370370865717,
        -0.02273069266416782,
        0.09622596087175628,
        -0.03485433399728592,
        -0.027132754345857418,
        -0.027042135128131643,
        -0.004704845930280452,
        -0.08369726151436281,
        0.10423458755524623,
        0.0,
        0.0,
        -0.02273069266416782,
        0.0,
        0.0,
        -0.004704845930280452,
        0.0,
        0.0,
        0.105583197099379,
        -0.029915489938638604,
        0.0,
        -0.04903739411601957,
        0.0,
        -0.004704845930280452,
        -0.041528205870455574,
        0.018784234267727667,
        -0.023186295949417367,
        0.0,
        0.0,
        0.0,
        -0.004704845930280452,
        0.0,
        -0.02273069266416782,
        -0.01605601082263268,
        0.007954085474794282,
        0.0,
        -0.009106907611970111,
        0.014079388337447225,
        0.0,
        0.032746179506000596,
        -0.0752963570206726,
        -0.056232172994265764,
        -0.0434685771656418,
        -0.004704845930280452,
        -0.004704845930280452,
        -0.031746981058412185,
        0.12417530957280669,
        0.03542770048521848,
        -0.041837103527760044,
        -0.02273069266416782,
        0.008466442000085549,
        -0.07924349256868844,
        0.008995690266627707,
        0.10495124366629231,
        0.008466442000085549,
        0.007228936649699537,
        0.0796796399716268,
        -0.08925001770379781,
        -0.0754675487429221,
        -0.02709094745233025,
        0.023883473753243473,
        -0.02336401223534607,
        -0.023186295949417367,
        0.08769516851027247,
        0.016498681567296784,
        -0.06476645064263109,
        -0.03176810795606766,
        -0.02273069266416782,
        -0.03176810795606766,
        0.014079388337447225,
        -0.0752963570206726,
        -0.013010838322230702,
        -0.005450850437340618,
        -0.034205315366520384,
        0.012398811489599978,
        0.03072497809029425,
        0.028714836983282747,
        -0.031837600276137884,
        0.007228936649699537,
        -0.03034680479233354
      ],
      [
        -0.06029404653635694,
        -0.02529599552346838,
        -0.06982535062556164,
        -0.000797898658444642,
        -0.0209861422272553,
        0.032608581721999035,
        -0.03361040714215617,
        0.0203339729627636,
        0.022253852115834676,
        -0.023120823278558807,
        -0.021896072212025833,
        0.010721252043802212,
        0.004322188099392731,
        -0.06029404653635694,
        0.0,
        0.0,
        0.0,
        0.0,
        -0.0009102971202150321,
        -0.0008708511977559844,
        0.022250339216247462,
        0.03354953820324277,
        -0.0209861422272553,
        -0.01377366674708255,
        -0.02385125131353686,
        -0.021896072212025833,
        -0.02331415306973277,
        -0.0009102971202150321,
        0.030894822985603258,
        0.0015510698035355098,
        0.0,
        0.0,
        -0.0209861422272553,
        0.0,
        0.0,
        -0.0009102971202150321,
        0.0,
        0.0,
        -0.01933185060381002,
        -0.08623230877580841,
        0.0,
        -0.04705659045215061,
        0.0,
        -0.0009102971202150321,
        -0.04639553042583243,
        0.022210893293788253,
        -0.023120823278558807,
        0.0,
        0.0,
        0.0,
        -0.0009102971202150321,
        0.0,
        -0.0209861422272553,
        -0.023086683587274694,
        -0.0026986110092742954,
        0.0,
        -0.0018202271049854875,
        0.02130059617357326,
        0.0,
        0.007549669313433108,
        0.06762368395617843,
        -0.038485025566595686,
        -0.0314315016578441,
        -0.0009102971202150321,
        -0.0009102971202150321,
        -0.024224450189947955,
        -0.005719668673531599,
        -0.0626268087490859,
        -0.044051213550624434,
        -0.0209861422272553,
        0.00011239846177039551,
        0.06846534590350356,
        0.002884013769830073,
        -0.01872409605296927,
        0.00011239846177039551,
        0.032608581721999035,
        -0.04810657729135502,
        -0.05619359179251032,
        0.0022680440062134636,
        0.11344397160811548,
        -0.07016443560513949,
        -0.04332220234673472,
        -0.023120823278558807,
        -0.047289710993414946,
        -0.005047968932540033,
        -0.016848567348675868,
        0.03325090663293632,
        -0.0209861422272553,
        0.03325090663293632,
        0.02130059617357326,
        0.06762368395617843,
        -0.013391214617120286,
        0.008456936717872957,
        -0.009142289154766677,
        0.0203339729627636,
        -0.02529599552346838,
        -0.06982535062556164,
        -0.022806369332240863,
        0.032608581721999035,
        -0.03361040714215617
      ],
      [
        0.044014503357625835,
        -0.07041339451975169,
        0.03446079477341828,
        -0.0020705837172521656,
        0.01960188153580394,
        0.034792745744844915,
        0.038964880098526423,
        -0.0676619064961899,
        0.03282272787310123,
        0.08892537541816004,
        0.08718662241401967,
        0.0027669132498484125,
        0.037758676936561535,
        0.044014503357625835,
        0.0,
        0.0,
        0.0,
        0.0,
        -0.00017234138766016185,
        0.0013214915187563798,
        -0.019846801633527127,
        0.04172845693656706,
        0.01960188153580394,
        -0.06030397672124661,
        -0.0799120296852356,
        0.08718662241401967,
        -0.034757085291238436,
        -0.00017234138766016185,
        -0.0502187507225036,
        0.08145587859098465,
        0.0,
        0.0,
        0.01960188153580394,
        0.0,
        0.0,
        -0.00017234138766016185,
        0.0,
        0.0,
        -0.04918215662376128,
        -0.07267938965612027,
        0.0,
        0.058846474756448074,
        0.0,
        -0.00017234138766016185,
        0.055662123033337965,
        -0.02134063453994362,
        0.08892537541816004,
        0.0,
        0.0,
        0.0,
        -0.00017234138766016185,
        0.0,
        0.01960188153580394,
        -0.03375024705444164,
        -0.004886031971894456,
        0.0,
        0.06741239949055611,
        -0.021512975927603793,
        0.0,
        -0.0003638520862602655,
        0.011516162692220479,
        0.027410335130489447,
        0.018583082523046694,
        -0.00017234138766016185,
        -0.00017234138766016185,
        -0.03492942667889844,
        -0.0627862157043681,
        0.12459163890111255,
        0.039967876855450175,
        0.01960188153580394,
        -0.0018982423295920042,
        -0.10886624054884064,
        0.0017756836208799418,
        -0.0379968497821595,
        -0.0018982423295920042,
        0.034792745744844915,
        -0.07173184512708615,
        0.06771796906736399,
        -0.02976470873343193,
        -0.03802544954738881,
        0.14616970528014445,
        -0.0706627933841235,
        0.08892537541816004,
        -0.07917806918841022,
        0.00011621380490036136,
        0.10131433866462261,
        0.043710977189037145,
        0.01960188153580394,
        0.043710977189037145,
        -0.021512975927603793,
        0.011516162692220479,
        0.018391768544256566,
        0.012998774007539625,
        0.04023819371900896,
        -0.0676619064961899,
        -0.07041339451975169,
        0.03446079477341828,
        0.08701428102635989,
        0.034792745744844915,
        0.038964880098526423
      ],
      [
        0.04454070382602527,
        0.06498441195292552,
        0.006649718868860634,
        -0.0008931136941082814,
        0.024114953355619202,
        -0.07463026411654317,
        0.02499233183596371,
        0.03492912204382606,
        -0.04519782709038704,
        -0.042618256190183605,
        -0.038157795856136704,
        -0.03139730637003646,
        -0.017540748562772445,
        0.04454070382602527,
        0.0,
        0.0,
        0.0,
        0.0,
        0.0057874844381556705,
        -0.004446019597813444,
        -0.029887997057541405,
        -0.06932462476894427,
        0.024114953355619202,
        -0.022148317403427063,
        0.13861761499605793,
        -0.038157795856136704,
        0.08511337348910286,
        0.0057874844381556705,
        0.1030211892512626,
        -0.1872415359497668,
        0.0,
        0.0,
        0.024114953355619202,
        0.0,
        0.0,
        0.0057874844381556705,
        0.0,
        0.0,
        -0.037069189871807635,
        0.18882718837056683,
        0.0,
        0.03724750981172226,
        0.0,
        0.0057874844381556705,
        0.032261613262950205,
        -0.01965449302157233,
        -0.042618256190183605,
        0.0,
        0.0,
        0.0,
        0.0057874844381556705,
        0.0,
        0.024114953355619202,
        0.07289294146434898,
        -0.00036944249362552527,
        0.0,
        -0.05648526477360025,
        -0.013867008583416596,
        0.0,
        -0.039931996733173714,
        -0.003843489627726646,
        0.06730686343037191,
        0.056316996300439424,
        0.0057874844381556705,
        0.0057874844381556705,
        0.09090085792725837,
        -0.05566942519490685,
        -0.09739253063724487,
        0.0459204402229338,
        0.024114953355619202,
        -0.006680598132263944,
        0.11964438721402484,
        -0.01365538765733775,
        -0.048230297831163595,
        -0.006680598132263944,
        -0.07463026411654317,
        0.04015878244681422,
        0.07772564042894402,
        0.10296421347014048,
        -0.04832757460839597,
        -0.0998887434282486,
        0.13734900796620408,
        -0.042618256190183605,
        0.03877261167155299,
        -0.011566926439657186,
        -0.019699320673315437,
        -0.04519377586590569,
        0.024114953355619202,
        -0.04519377586590569,
        -0.013867008583416596,
        -0.003843489627726646,
        0.008010284395094398,
        -0.016004860288071916,
        0.003109410802278159,
        0.03492912204382606,
        0.06498441195292552,
        0.006649718868860634,
        -0.032370311417981114,
        -0.07463026411654317,
        0.02499233183596371
      ]
    ],
    "worker_ids": [
      "ollama-cloud-deepseek-v4-pro",
      "ollama-cloud-glm-5.2",
      "ollama-cloud-kimi-k2.7-code",
      "ollama-cloud-qwen3-coder-480b"
    ]
  },
  "target_mode": "reward"
}
