{
  "dataset": "research/datasets/20260628-live-augmented-30task-routing.jsonl",
  "epochs": 300,
  "initial_model": "research/models/20260627-mixed-winner-23task-heldout-hard-reward-t0p05-logits-router.json",
  "l2": 0.0001,
  "learning_rate": 0.0005,
  "model_type": "linear-softmax-logits-router",
  "reward_temperature": 0.5,
  "router": {
    "feature_names": [
      "bias",
      "category_algorithmic",
      "category_datasci",
      "category_filesystem",
      "category_general",
      "category_network",
      "category_plotting",
      "category_subprocess",
      "category_text",
      "combo_network_archive",
      "combo_network_filesystem",
      "combo_network_plotting",
      "environment_risk",
      "family_bigcodebench_hard",
      "kw_archive",
      "kw_base64",
      "kw_count",
      "kw_dict",
      "kw_download",
      "kw_fetch",
      "kw_file",
      "kw_files",
      "kw_frequent",
      "kw_hex",
      "kw_http",
      "kw_key",
      "kw_list",
      "kw_lowercase",
      "kw_number",
      "kw_plot",
      "kw_request",
      "kw_requests",
      "kw_scan",
      "kw_sorted",
      "kw_string",
      "kw_strip",
      "kw_subprocess",
      "kw_sum",
      "kw_url",
      "kw_word",
      "kw_zip",
      "length_chars",
      "length_tokens",
      "lib_base64",
      "lib_binascii",
      "lib_codecs",
      "lib_collections",
      "lib_csv",
      "lib_datetime",
      "lib_ftplib",
      "lib_functools",
      "lib_glob",
      "lib_itertools",
      "lib_json",
      "lib_math",
      "lib_matplotlib",
      "lib_numpy",
      "lib_operator",
      "lib_os",
      "lib_pandas",
      "lib_pathlib",
      "lib_random",
      "lib_re",
      "lib_requests",
      "lib_shutil",
      "lib_statistics",
      "lib_subprocess",
      "lib_urllib",
      "lib_zipfile",
      "library_count",
      "missing_library_count",
      "plausibility_score",
      "signal_algorithmic",
      "signal_archive",
      "signal_datasci",
      "signal_filesystem",
      "signal_general",
      "signal_network",
      "signal_plotting",
      "signal_subprocess",
      "signal_text"
    ],
    "policy": "logits-router",
    "weights": [
      [
        -0.01683889816493331,
        -0.043542764441014695,
        0.06671163013834866,
        0.03526390620673738,
        0.003339451938984371,
        -0.02256809098498698,
        0.031891772356198,
        -0.021971060449051047,
        -0.0068563548852708005,
        -0.016653244767941364,
        -0.015341000910171045,
        0.026519429905471598,
        -0.014400908528510083,
        -0.01683889816493331,
        0.0,
        -0.007263941636065463,
        0.023880334842757128,
        0.11560646184325488,
        -0.015341000910171045,
        0.0,
        0.12080595111632969,
        -0.021090679229297613,
        0.0,
        -0.007263941636065463,
        0.0,
        0.12286825147618151,
        -0.003964158260148326,
        0.0,
        -0.06071844509353899,
        -0.005315749787966291,
        0.023880334842757128,
        -0.016653244767941364,
        0.0,
        0.0,
        -0.010672781951749475,
        0.0,
        -0.02686836067257711,
        -0.0047818984555196,
        -3.6851561249536446e-05,
        0.028585721503636464,
        -0.07931679196127989,
        -0.01784799191385669,
        -0.037858730724977245,
        -0.007263941636065463,
        -0.007263941636065463,
        -0.02877600645580411,
        0.10135324580230898,
        -0.0012825826659453319,
        -0.047243625029514805,
        -0.02256809098498698,
        0.01745974846032064,
        -0.0947724805311429,
        0.01796671050714727,
        0.1108264129249747,
        0.01745974846032064,
        0.031891772356198,
        0.10657068736728756,
        -0.003408840315684009,
        -0.109908667355498,
        -0.060864160001850603,
        -0.028239382721224556,
        0.05276516045522774,
        -0.040218765064500325,
        -0.016653244767941364,
        0.12953089425910666,
        -0.07944232202858163,
        -0.02686836067257711,
        0.016616393206691744,
        -0.07931679196127989,
        -0.0051650430029078764,
        0.0,
        -0.03062748929458961,
        -0.043542764441014695,
        0.05021410229782585,
        0.01826591235334131,
        0.03526390620673738,
        0.002735716918556066,
        -0.02260494254623634,
        0.031891772356198,
        -0.021971060449051047,
        -0.0068563548852708005
      ],
      [
        -0.06899003770256239,
        -0.016566562189803836,
        -0.032531649596778345,
        -0.0705329592769346,
        -0.03310694522857793,
        -0.03271282013534907,
        0.020809868016665553,
        -0.017101805259418262,
        -0.034034641112868344,
        -0.024740912285609568,
        -0.01929127744849419,
        0.017739561418005128,
        -0.018933942043369872,
        -0.06899003770256239,
        0.0,
        -0.0030125070118861065,
        0.03816245497246467,
        -0.013545119390024417,
        -0.01929127744849419,
        0.0,
        0.022720338958463215,
        0.018657072170144146,
        0.0,
        -0.0030125070118861065,
        0.0,
        -0.02763658761507929,
        -0.14169880174383528,
        0.0,
        -0.037815572713960036,
        0.005963199125998628,
        0.03816245497246467,
        -0.024740912285609568,
        0.0,
        0.0,
        -0.017150709687784486,
        0.0,
        -0.029244069946151766,
        -0.014883145733638397,
        0.010409035674968892,
        0.015726739399262765,
        0.07686128421122895,
        0.03557661463808257,
        -0.029992859533946398,
        -0.0030125070118861065,
        -0.0030125070118861065,
        -0.026338244130174097,
        -0.005957955326064732,
        -0.05535441719664344,
        -0.027771948980273506,
        -0.03271282013534907,
        0.003940202896176749,
        0.09174610546576001,
        0.012047093365104882,
        -0.012888870764046812,
        0.003940202896176749,
        0.020809868016665553,
        -0.04818717460069996,
        -0.01413820267589827,
        -0.023282373649473657,
        0.0004366783545618432,
        0.1430111307918445,
        -0.09711619918912592,
        -0.04390164734664476,
        -0.024740912285609568,
        -0.0645746442737663,
        -0.024572766470993743,
        -0.029244069946151766,
        0.03514994796057839,
        0.07686128421122895,
        -0.01488647470365922,
        0.0,
        -0.026692237507368353,
        -0.016566562189803836,
        0.012286639937463206,
        0.028334686627766233,
        -0.0705329592769346,
        -0.02524262393424876,
        -0.022303784460380168,
        0.020809868016665553,
        -0.017101805259418262,
        -0.034034641112868344
      ],
      [
        0.01803856201480468,
        -0.042829039955913584,
        -0.08125247074881546,
        0.013287670215046964,
        -0.007826757702179117,
        0.029957463080950417,
        0.019427132501030394,
        0.02116259960566677,
        -0.01590957722894525,
        0.10347175397687582,
        0.09877946153819255,
        0.0109974509543342,
        0.01435185377635191,
        0.01803856201480468,
        0.0,
        0.005715060391813802,
        -0.03464975551963283,
        -0.06655057178104948,
        0.09877946153819255,
        0.0,
        0.042122189329540365,
        -0.016338968525241034,
        0.0,
        0.005715060391813802,
        0.0,
        -0.023736833749147077,
        -0.08810264707400485,
        0.0,
        0.07435173862727824,
        0.00308733693143904,
        -0.03464975551963283,
        0.10347175397687582,
        0.0,
        0.0,
        -0.020672880079395096,
        0.0,
        0.01184434271985804,
        -0.02557970396070294,
        0.07453705884905697,
        0.012291751989662513,
        0.020403860138823195,
        -0.01621236995681942,
        0.009986297564433002,
        0.005715060391813802,
        0.005715060391813802,
        -0.040482049299034074,
        -0.09275489779244646,
        0.09487211905509622,
        0.05977422706574355,
        0.029957463080950417,
        0.0023677591349523497,
        -0.12525512197036354,
        0.020875241104202295,
        -0.016942153594144575,
        0.0023677591349523497,
        0.019427132501030394,
        -0.05301375238516546,
        -0.02638794047120893,
        0.04481822218855458,
        -0.05592834608524676,
        -0.04579186024763428,
        0.20327212157765115,
        -0.054701854454305636,
        0.10347175397687582,
        -0.11216229147643782,
        0.14021823582425302,
        0.01184434271985804,
        -0.028934695127819092,
        0.020403860138823195,
        0.01127453953827619,
        0.0,
        0.010486378845682398,
        -0.042829039955913584,
        -0.09175843133761512,
        0.015698564473314698,
        0.013287670215046964,
        -0.008270228871863626,
        0.10449452193000718,
        0.019427132501030394,
        0.02116259960566677,
        -0.01590957722894525
      ],
      [
        0.06779037385269145,
        0.10293836658673211,
        0.04707249020724492,
        0.02198138285515024,
        0.0375942509917727,
        0.025323448039385615,
        -0.07212877287389383,
        0.01791026610280289,
        0.056800573227084296,
        -0.06207759692332467,
        -0.06414718317952801,
        -0.055256442277810604,
        0.018982996795528406,
        0.06779037385269145,
        0.0,
        0.0045613882561379,
        -0.0273930342955888,
        -0.03551077067218049,
        -0.06414718317952801,
        0.0,
        -0.18564847940433518,
        0.018772575584394314,
        0.0,
        0.0045613882561379,
        0.0,
        -0.07149483011195581,
        0.23376560707798932,
        0.0,
        0.02418227918022008,
        -0.0037347862694714017,
        -0.0273930342955888,
        -0.06207759692332467,
        0.0,
        0.0,
        0.048496371718928837,
        0.0,
        0.044268087898870725,
        0.04524474814986116,
        -0.0849092429627755,
        -0.056604212892561394,
        -0.017948352388772272,
        -0.0015162527674069794,
        0.057865292694490505,
        0.0045613882561379,
        0.0045613882561379,
        0.09559629988501225,
        -0.0026403926837981224,
        -0.0382351191925089,
        0.015241346944045157,
        0.025323448039385615,
        -0.023767710491449795,
        0.12828149703574537,
        -0.050889044976454405,
        -0.08099538856678287,
        -0.023767710491449795,
        -0.07212877287389383,
        -0.00536976038142154,
        0.04393498346279129,
        0.08837281881641719,
        0.11635582773253614,
        -0.0689798878229852,
        -0.15892108284375006,
        0.13882226686545113,
        -0.06207759692332467,
        0.04720604149109859,
        -0.03620314732467687,
        0.044268087898870725,
        -0.022831646039450957,
        -0.017948352388772272,
        0.008776978168291046,
        0.0,
        0.04683334795627555,
        0.10293836658673211,
        0.029257689102326137,
        -0.06229916345442228,
        0.02198138285515024,
        0.030777135887556355,
        -0.05958579492339067,
        -0.07212877287389383,
        0.01791026610280289,
        0.056800573227084296
      ]
    ],
    "worker_ids": [
      "ollama-cloud-deepseek-v4-pro",
      "ollama-cloud-glm-5.2",
      "ollama-cloud-kimi-k2.7-code",
      "ollama-cloud-qwen3-coder-480b"
    ]
  },
  "target_mode": "reward"
}
