{
  "dataset": "research/datasets/20260627-mixed-winner-16task-routing.jsonl",
  "epochs": 300,
  "l2": 0.0001,
  "learning_rate": 0.0005,
  "model_type": "linear-softmax-logits-router",
  "reward_temperature": 0.2,
  "router": {
    "feature_names": [
      "bias",
      "category_datasci",
      "category_filesystem",
      "category_general",
      "category_network",
      "category_plotting",
      "category_subprocess",
      "environment_risk",
      "family_bigcodebench_hard",
      "family_code_data",
      "family_code_easy",
      "family_code_text",
      "kw_base64",
      "kw_convert",
      "kw_count",
      "kw_csv",
      "kw_default",
      "kw_dict",
      "kw_directory",
      "kw_download",
      "kw_email",
      "kw_encoding",
      "kw_exception",
      "kw_file",
      "kw_flatten",
      "kw_frequent",
      "kw_ftp",
      "kw_group",
      "kw_hash",
      "kw_hex",
      "kw_key",
      "kw_list",
      "kw_lowercase",
      "kw_number",
      "kw_pair",
      "kw_parse",
      "kw_process",
      "kw_socket",
      "kw_sorted",
      "kw_ssl",
      "kw_string",
      "kw_strip",
      "kw_subprocess",
      "kw_sum",
      "kw_title",
      "kw_url",
      "kw_urllib",
      "kw_window",
      "kw_word",
      "kw_zip",
      "length_chars",
      "length_tokens",
      "lib_base64",
      "lib_binascii",
      "lib_codecs",
      "lib_collections",
      "lib_csv",
      "lib_datetime",
      "lib_ftplib",
      "lib_functools",
      "lib_glob",
      "lib_itertools",
      "lib_json",
      "lib_math",
      "lib_matplotlib",
      "lib_numpy",
      "lib_os",
      "lib_pandas",
      "lib_pathlib",
      "lib_random",
      "lib_re",
      "lib_shutil",
      "lib_statistics",
      "lib_subprocess",
      "lib_urllib",
      "lib_zipfile",
      "library_count",
      "missing_library_count",
      "plausibility_score"
    ],
    "policy": "logits-router",
    "weights": [
      [
        -0.03830296728671902,
        -0.03324976899701762,
        -0.026821297727365495,
        0.008039968672747614,
        -0.02056928540014733,
        0.004088327646523944,
        -0.007720111876644015,
        -0.012341571240088474,
        -0.03830296728671902,
        0.0,
        0.0,
        0.0,
        0.00020479782047472562,
        0.00020479782047472562,
        0.006868075630408178,
        -0.07344242450887495,
        -0.02056928540014733,
        0.007072873450882926,
        0.013514231678034424,
        -0.0137012097697392,
        0.0,
        0.00020479782047472562,
        -0.062132872488295576,
        0.037149577965521666,
        0.0,
        0.0,
        -0.02056928540014733,
        0.0,
        0.0,
        0.00020479782047472562,
        0.00020479782047472562,
        -0.07608045955623545,
        0.0,
        -0.03646000715836056,
        0.0,
        0.00020479782047472562,
        0.0,
        0.0,
        0.0,
        0.0,
        0.00020479782047472562,
        0.0,
        -0.02056928540014733,
        -0.007785730159214914,
        0.0,
        0.007072873450882926,
        0.007072873450882926,
        0.0,
        0.0,
        -0.039688566796093824,
        -0.035938555512865546,
        -0.027070892891782477,
        0.00020479782047472562,
        0.00020479782047472562,
        0.00020479782047472562,
        0.010956403276932116,
        -0.04033552940539974,
        -0.028674276999145668,
        -0.02056928540014733,
        0.007835170852272862,
        -0.05626683357082903,
        0.012540143534627126,
        0.0059810978930952274,
        0.007835170852272862,
        0.004088327646523944,
        0.0047049726823542885,
        -0.026821297727365495,
        -0.03324976899701762,
        -0.01748599409198743,
        0.03663139844038021,
        -0.023692361634728227,
        0.08939298488576333,
        -0.04684426659764169,
        -0.02056928540014733,
        0.007072873450882926,
        -0.039688566796093824,
        -0.016654452964397437,
        0.0,
        -0.022272948070178513
      ],
      [
        -0.0521513495797018,
        -0.0006284932883343117,
        -0.07020121966196681,
        0.0020575099833122046,
        -0.024077258420527745,
        0.0026378868310690832,
        -0.01230098169533741,
        -0.014446355052316685,
        -0.0521513495797018,
        0.0,
        0.0,
        0.0,
        -0.0002710432173285218,
        -0.0002710432173285218,
        0.006846214538577148,
        0.027208804341677297,
        -0.024077258420527745,
        0.006575171321248638,
        -0.03131783610160712,
        -0.01723104388195058,
        0.0,
        -0.0002710432173285218,
        0.02892042954903487,
        0.0011518727691305754,
        0.0,
        0.0,
        -0.024077258420527745,
        0.0,
        0.0,
        -0.0002710432173285218,
        -0.0002710432173285218,
        -0.09048974814012485,
        0.0,
        -0.03459863105606413,
        0.0,
        -0.0002710432173285218,
        0.0,
        0.0,
        0.0,
        0.0,
        -0.0002710432173285218,
        0.0,
        -0.024077258420527745,
        -0.016584475542190235,
        0.0,
        0.006575171321248638,
        0.006575171321248638,
        0.0,
        0.0,
        0.06102066017939118,
        -0.01774763792196816,
        -0.01384599801713165,
        -0.0002710432173285218,
        -0.0002710432173285218,
        -0.0002710432173285218,
        0.009484101369646206,
        -0.03888338356035967,
        -0.018014155513873815,
        -0.024077258420527745,
        0.002328553200640725,
        0.043822920230344856,
        0.004872973933857406,
        0.0049300621866131475,
        0.002328553200640725,
        0.0026378868310690832,
        0.0025444207332166726,
        -0.07020121966196681,
        -0.0006284932883343117,
        0.08500521664486799,
        -0.06255030039456855,
        -0.025724918436669453,
        -0.049348209117639236,
        -0.016905390050396176,
        -0.024077258420527745,
        0.006575171321248638,
        0.06102066017939118,
        -0.010567319668531333,
        0.0,
        -0.0180828557576171
      ],
      [
        0.04042743466238074,
        -0.021478135304987926,
        0.0355545053798932,
        -0.0007516361362779062,
        0.03067025176812032,
        0.0001238249805202781,
        0.017574251144950065,
        0.018402151060872233,
        0.04042743466238074,
        0.0,
        0.0,
        0.0,
        -0.00011923865273704669,
        -0.00011923865273704669,
        -0.011592946090996932,
        0.1013306597414156,
        0.03067025176812032,
        -0.011712184743733962,
        -0.11791977401425865,
        0.019077305677123433,
        0.0,
        -0.00011923865273704669,
        -0.06493247407278141,
        0.053850988852719814,
        0.0,
        0.0,
        0.03067025176812032,
        0.0,
        0.0,
        -0.00011923865273704669,
        -0.00011923865273704669,
        -0.051351059306280665,
        0.0,
        0.056647210631832236,
        0.0,
        -0.00011923865273704669,
        0.0,
        0.0,
        0.0,
        0.0,
        -0.00011923865273704669,
        0.0,
        0.03067025176812032,
        -0.026108218694600754,
        0.0,
        -0.011712184743733962,
        -0.011712184743733962,
        0.0,
        0.0,
        -0.04889821943444401,
        0.0197412036732281,
        0.012320468342579716,
        -0.00011923865273704669,
        -0.00011923865273704669,
        -0.00011923865273704669,
        -0.011469121110476653,
        0.15347427939415148,
        0.08275542932643298,
        0.03067025176812032,
        -0.0006323974835408608,
        -0.08337738226636401,
        -0.0006841451632270553,
        -0.0015030545321733008,
        -0.0006323974835408608,
        0.0001238249805202781,
        -5.174767968619279e-05,
        0.0355545053798932,
        -0.021478135304987926,
        -0.02666779844167646,
        0.13040103864912528,
        -0.0233670890493668,
        -0.07421598513687534,
        0.08786428427664682,
        0.03067025176812032,
        -0.011712184743733962,
        -0.04889821943444401,
        0.024646649175470783,
        0.0,
        0.026376181241714473
      ],
      [
        0.05002688220404022,
        0.05535639759033977,
        0.061468012009439146,
        -0.00934584251978186,
        0.013976292052554832,
        -0.006850039458113308,
        0.002446842427031369,
        0.008385775231532925,
        0.05002688220404022,
        0.0,
        0.0,
        0.0,
        0.00018548404959084887,
        0.00018548404959084887,
        -0.0021213440779884146,
        -0.05509703957421771,
        0.013976292052554832,
        -0.0019358600283975653,
        0.13572337843783147,
        0.011854947974566375,
        0.0,
        0.00018548404959084887,
        0.09814491701204178,
        -0.09215243958737204,
        0.0,
        0.0,
        0.013976292052554832,
        0.0,
        0.0,
        0.00018548404959084887,
        0.00018548404959084887,
        0.2179212670026412,
        0.0,
        0.014411427582592215,
        0.0,
        0.00018548404959084887,
        0.0,
        0.0,
        0.0,
        0.0,
        0.00018548404959084887,
        0.0,
        0.013976292052554832,
        0.05047842439600583,
        0.0,
        -0.0019358600283975653,
        -0.0019358600283975653,
        0.0,
        0.0,
        0.027566126051146757,
        0.033944989761605475,
        0.02859642256633445,
        0.00018548404959084887,
        0.00018548404959084887,
        0.00018548404959084887,
        -0.008971383536101721,
        -0.07425536642839235,
        -0.03606699681341375,
        0.013976292052554832,
        -0.009531326569372712,
        0.09582129560684852,
        -0.01672897230525747,
        -0.00940810554753502,
        -0.009531326569372712,
        -0.006850039458113308,
        -0.007197645735884765,
        0.061468012009439146,
        0.05535639759033977,
        -0.0408514241112042,
        -0.10448213669493697,
        0.0727843691207645,
        0.0341712093687511,
        -0.02411462762860915,
        0.013976292052554832,
        -0.0019358600283975653,
        0.027566126051146757,
        0.002575123457457988,
        0.0,
        0.013979622586081115
      ]
    ],
    "worker_ids": [
      "ollama-cloud-deepseek-v4-pro",
      "ollama-cloud-glm-5.2",
      "ollama-cloud-kimi-k2.7-code",
      "ollama-cloud-qwen3-coder-480b"
    ]
  },
  "target_mode": "reward"
}
