{
  "dataset": "research/datasets/20260628-normal-offset16-contrast-29task-routing.jsonl",
  "epochs": 300,
  "l2": 0.0001,
  "learning_rate": 0.0005,
  "model_type": "linear-softmax-logits-router",
  "reward_temperature": 0.1,
  "router": {
    "feature_names": [
      "bias",
      "category_datasci",
      "category_filesystem",
      "category_general",
      "category_network",
      "category_plotting",
      "category_subprocess",
      "combo_network_archive",
      "combo_network_filesystem",
      "combo_network_plotting",
      "environment_risk",
      "family_bigcodebench_hard",
      "kw_archive",
      "kw_base64",
      "kw_count",
      "kw_dict",
      "kw_download",
      "kw_fetch",
      "kw_file",
      "kw_files",
      "kw_frequent",
      "kw_hex",
      "kw_http",
      "kw_key",
      "kw_list",
      "kw_lowercase",
      "kw_number",
      "kw_plot",
      "kw_request",
      "kw_requests",
      "kw_scan",
      "kw_sorted",
      "kw_string",
      "kw_strip",
      "kw_subprocess",
      "kw_sum",
      "kw_url",
      "kw_word",
      "kw_zip",
      "length_chars",
      "length_tokens",
      "lib_base64",
      "lib_binascii",
      "lib_codecs",
      "lib_collections",
      "lib_csv",
      "lib_datetime",
      "lib_ftplib",
      "lib_functools",
      "lib_glob",
      "lib_hashlib",
      "lib_itertools",
      "lib_json",
      "lib_math",
      "lib_matplotlib",
      "lib_numpy",
      "lib_os",
      "lib_pandas",
      "lib_pathlib",
      "lib_random",
      "lib_re",
      "lib_requests",
      "lib_shutil",
      "lib_statistics",
      "lib_subprocess",
      "lib_urllib",
      "lib_zipfile",
      "lib_zlib",
      "library_count",
      "missing_library_count",
      "plausibility_score",
      "signal_archive",
      "signal_datasci",
      "signal_filesystem",
      "signal_general",
      "signal_network",
      "signal_plotting",
      "signal_subprocess"
    ],
    "policy": "logits-router",
    "weights": [
      [
        0.05547370173141736,
        0.06444855894435071,
        0.05656705368936638,
        0.019739354546606018,
        -0.019830097960619124,
        0.03394674938025043,
        0.00034484361164928233,
        -0.019906990799775523,
        -0.016401053764236853,
        0.020997027510428187,
        -0.011898058776371399,
        0.05547370173141736,
        0.0,
        0.008192768879932224,
        0.02333603499615756,
        0.10301326336114719,
        -0.016401053764236853,
        0.0,
        0.13357764232893363,
        -0.07564783635236662,
        0.0,
        0.003997709568329328,
        0.0,
        0.11299277985184455,
        0.01848502467151479,
        0.0,
        -0.048307895424058035,
        0.013481996238050251,
        0.02333603499615756,
        -0.019906990799775523,
        0.0,
        0.0,
        0.002802604811809498,
        0.0,
        -0.0010540820313934274,
        -0.01445818428170746,
        0.007426753764711386,
        0.026590166966963272,
        -0.07349916720122115,
        -0.10040573675284581,
        -0.014004646040312018,
        0.008192768879932224,
        0.003997709568329328,
        -0.012109623706979624,
        0.1227642882213104,
        0.04233484252425844,
        -0.029749663659718366,
        -0.019830097960619124,
        0.011546585666673695,
        -0.0620254180638219,
        0.0053901640681227455,
        0.016702288410484857,
        0.10860172799005752,
        0.011546585666673695,
        0.03394674938025043,
        0.09362721340236951,
        -0.05340719788978544,
        -0.03782112681927316,
        -0.027205980139780112,
        0.03490457711817565,
        -0.007554407542952727,
        -0.019906990799775523,
        0.08283318633058492,
        -0.05838190113436908,
        -0.0010540820313934274,
        0.02733374456448678,
        -0.07349916720122115,
        -0.0011951047565198327,
        0.019998167008550054,
        0.0,
        -0.00393230036434294,
        0.00933401912936338,
        0.06444855894435071,
        0.05656705368936638,
        0.019739354546606018,
        -0.012403344195907618,
        0.03394674938025043,
        0.00034484361164928233
      ],
      [
        -0.0026817830093951124,
        -0.030056890040849257,
        -0.04316612667951704,
        0.030647293867381506,
        -0.01936567431133498,
        0.013348283926670089,
        -0.010143056640219077,
        -0.020663793775126418,
        -0.016820812644293595,
        0.010863207765042805,
        -0.01161940458680092,
        -0.0026817830093951124,
        0.0,
        0.027788410552174837,
        0.023208655442167714,
        -0.00977186967166584,
        -0.016820812644293595,
        0.0,
        0.016044406711137896,
        0.04885159113718124,
        0.0,
        0.0029406455172824933,
        0.0,
        -0.014833392635210293,
        -0.08506799775143159,
        0.0,
        -0.04602736870898079,
        0.0012156226584079442,
        0.023208655442167714,
        -0.020663793775126418,
        0.0,
        0.0,
        0.012561246303006177,
        0.0,
        -0.0073316371441428645,
        -0.020728419514685008,
        0.005485507184323818,
        0.010982920419231833,
        0.06457986194258236,
        -0.04231692717822885,
        -0.009498081611927873,
        0.027788410552174837,
        0.0029406455172824933,
        -0.012436415001429857,
        0.01292507685272836,
        -0.05209292862777031,
        -0.03229617499520883,
        -0.01936567431133498,
        0.002858883315206641,
        0.07697605269653227,
        0.015227164249168808,
        0.024616173442587142,
        -0.0031997783138335264,
        0.002858883315206641,
        0.013348283926670089,
        -0.03194323872244146,
        -0.027129425448543104,
        -0.005118639828965139,
        0.11243507523579692,
        -0.039632064415390196,
        -0.023266731840413328,
        -0.020663793775126418,
        -0.05270999833679892,
        -0.012781703498702,
        -0.0073316371441428645,
        0.0261493009594501,
        0.06457986194258236,
        0.009620600785723646,
        0.0052356208531009266,
        0.0,
        -0.00772842468507996,
        0.011869863605783496,
        -0.030056890040849257,
        -0.04316612667951704,
        0.030647293867381506,
        -0.013880167127011091,
        0.013348283926670089,
        -0.010143056640219077
      ],
      [
        -0.012085588638605973,
        -0.09410180702183553,
        0.025069559494676673,
        -0.014556280471080265,
        0.021292731835912973,
        0.004055771775010312,
        0.02652355177599638,
        0.08344741606689485,
        0.08661272085225213,
        0.006759952896231083,
        0.012775639101547678,
        -0.012085588638605973,
        0.0,
        -0.011952044936471758,
        -0.018127427050555957,
        -0.059925902145953114,
        0.08661272085225213,
        0.0,
        0.06954751368975227,
        -0.13604552389089422,
        0.0,
        -0.0025917381467447493,
        0.0,
        -0.04381927037572448,
        -0.12461286219213917,
        0.0,
        0.06395994122830201,
        -0.004540152062107591,
        -0.018127427050555957,
        0.08344741606689485,
        0.0,
        0.0,
        -0.0019918774234642064,
        0.0,
        0.00432274056826411,
        -0.0313434324711411,
        0.06272825086959458,
        0.0039704552275208254,
        0.008145064057147476,
        0.04047026903464884,
        0.0019885831083101026,
        -0.011952044936471758,
        -0.0025917381467447493,
        -0.037229928525559466,
        -0.055284971894057205,
        0.11558984922126879,
        0.05013378075067288,
        0.021292731835912973,
        -0.002604235534608466,
        -0.12234296616204662,
        -0.009960167513007549,
        -0.0012011904884435183,
        -0.03891757480957837,
        -0.002604235534608466,
        0.004055771775010312,
        -0.0647141929905253,
        0.04455345720111593,
        -0.05886552530070347,
        -0.03714295085455071,
        0.13273035639907937,
        -0.06947643146881123,
        0.08344741606689485,
        -0.07857491332570717,
        0.10467832173046991,
        0.00432274056826411,
        -0.020719165197300674,
        0.008145064057147476,
        0.0005998607232805359,
        -0.004463288235360831,
        0.0,
        0.0088289838244775,
        -0.07042984926855976,
        -0.09410180702183553,
        0.025069559494676673,
        -0.014556280471080265,
        0.08402098270550719,
        0.004055771775010312,
        0.02652355177599638
      ],
      [
        -0.040706330083416065,
        0.05971013811833386,
        -0.03847048650452594,
        -0.035830367942907455,
        0.017903040436041018,
        -0.05135080508193058,
        -0.016725338747426387,
        -0.04287663149199314,
        -0.053390854443721256,
        -0.03862018817170215,
        0.010741824261624674,
        -0.040706330083416065,
        0.0,
        -0.024029134495635533,
        -0.028417263387769332,
        -0.03331549154352856,
        -0.053390854443721256,
        0.0,
        -0.21916956272982435,
        0.16284176910608028,
        0.0,
        -0.004346616938867081,
        0.0,
        -0.05434011684090958,
        0.19119583527205514,
        0.0,
        0.03037532290473683,
        -0.010157466834350592,
        -0.028417263387769332,
        -0.04287663149199314,
        0.0,
        0.0,
        -0.013371973691351385,
        0.0,
        0.004062978607272183,
        0.0665300362675333,
        -0.07564051181862935,
        -0.041543542613715866,
        0.0007742412014913174,
        0.10225239489642593,
        0.02151414454392975,
        -0.024029134495635533,
        -0.004346616938867081,
        0.06177596723396922,
        -0.08040439317998198,
        -0.10583176311775692,
        0.011912057904254295,
        0.017903040436041018,
        -0.011801233447271868,
        0.10739233152933614,
        -0.01065716080428398,
        -0.040117271364628566,
        -0.06648437486664562,
        -0.011801233447271868,
        -0.05135080508193058,
        0.0030302183105976334,
        0.035983166137212634,
        0.1018052919489414,
        -0.048086144241465734,
        -0.12800286910186484,
        0.10029757085217732,
        -0.04287663149199314,
        0.0484517253319216,
        -0.033514717097398644,
        0.004062978607272183,
        -0.03276388032663636,
        0.0007742412014913174,
        -0.00902535675248434,
        -0.020770499626290205,
        0.0,
        0.0028317412249454247,
        0.04922596653341299,
        0.05971013811833386,
        -0.03847048650452594,
        -0.035830367942907455,
        -0.057737471382588376,
        -0.05135080508193058,
        -0.016725338747426387
      ]
    ],
    "worker_ids": [
      "ollama-cloud-deepseek-v4-pro",
      "ollama-cloud-glm-5.2",
      "ollama-cloud-kimi-k2.7-code",
      "ollama-cloud-qwen3-coder-480b"
    ]
  },
  "target_mode": "reward"
}
