{
  "dataset": "research/datasets/20260628-normal-offset16-contrast-29task-weight0p1-routing.jsonl",
  "epochs": 50,
  "initial_model": "research/models/20260627-mixed-winner-23task-heldout-hard-reward-t0p05-logits-router.json",
  "l2": 0.0001,
  "learning_rate": 0.0001,
  "model_type": "linear-softmax-logits-router",
  "reward_temperature": 0.05,
  "router": {
    "feature_names": [
      "bias",
      "category_datasci",
      "category_filesystem",
      "category_general",
      "category_network",
      "category_plotting",
      "category_subprocess",
      "combo_network_archive",
      "combo_network_filesystem",
      "combo_network_plotting",
      "environment_risk",
      "family_bigcodebench_hard",
      "kw_archive",
      "kw_base64",
      "kw_count",
      "kw_dict",
      "kw_download",
      "kw_fetch",
      "kw_file",
      "kw_files",
      "kw_frequent",
      "kw_hex",
      "kw_http",
      "kw_key",
      "kw_list",
      "kw_lowercase",
      "kw_number",
      "kw_plot",
      "kw_request",
      "kw_requests",
      "kw_scan",
      "kw_sorted",
      "kw_string",
      "kw_strip",
      "kw_subprocess",
      "kw_sum",
      "kw_url",
      "kw_word",
      "kw_zip",
      "length_chars",
      "length_tokens",
      "lib_base64",
      "lib_binascii",
      "lib_codecs",
      "lib_collections",
      "lib_csv",
      "lib_datetime",
      "lib_ftplib",
      "lib_functools",
      "lib_glob",
      "lib_hashlib",
      "lib_itertools",
      "lib_json",
      "lib_math",
      "lib_matplotlib",
      "lib_numpy",
      "lib_os",
      "lib_pandas",
      "lib_pathlib",
      "lib_random",
      "lib_re",
      "lib_requests",
      "lib_shutil",
      "lib_statistics",
      "lib_subprocess",
      "lib_urllib",
      "lib_zipfile",
      "lib_zlib",
      "library_count",
      "missing_library_count",
      "plausibility_score",
      "signal_archive",
      "signal_datasci",
      "signal_filesystem",
      "signal_general",
      "signal_network",
      "signal_plotting",
      "signal_subprocess"
    ],
    "policy": "logits-router",
    "weights": [
      [
        -0.017900063700329004,
        0.05230780119021929,
        0.031912133947103856,
        0.0013645951049227791,
        -0.02319121942301094,
        0.03446161562894671,
        -0.03297584247760828,
        -0.0235077567418509,
        -0.02635057770518421,
        0.021131746983723602,
        -0.013914731653806441,
        -0.017900063700329004,
        0.0,
        -0.008788530985970086,
        0.02034839845967761,
        0.09374418055949496,
        -0.02635057770518421,
        0.0,
        0.1091772494725991,
        -0.0010446040989122998,
        0.0,
        -0.008820493696987453,
        0.0,
        0.10845177242551801,
        -0.0031339808262458037,
        0.0,
        -0.049155736387532796,
        0.0009041421910111423,
        0.02034839845967761,
        -0.0235077567418509,
        0.0,
        0.0,
        -0.008820685181496191,
        0.0,
        -0.023054433395586358,
        -0.01530196710009427,
        -0.011979851979160759,
        0.031285369536421914,
        -0.08220732245781875,
        -0.047279492556748605,
        -0.043255084464211134,
        -0.008788530985970086,
        -0.008820493696987453,
        -0.03634421509553834,
        0.12900918179593301,
        0.03434562350355961,
        -0.039447007497154504,
        -0.02319121942301094,
        0.010153126090892844,
        -0.08676126618782674,
        3.2154195526110755e-05,
        0.006873669528720377,
        0.110249291927129,
        0.010153126090892844,
        0.03446161562894671,
        0.08270933561514154,
        -0.09252461337898324,
        -0.0611938441430071,
        -0.028362402241380535,
        0.023829969801571455,
        -0.02961224691093456,
        -0.0235077567418509,
        0.09325409990933843,
        -0.06815952902382807,
        -0.023054433395586358,
        0.011527904762690151,
        -0.08220732245781875,
        -1.9148450873528356e-07,
        -0.006537597381404453,
        0.0,
        -0.0243986117705343,
        0.011046777451519664,
        0.0038409806997944983,
        0.031912133947103856,
        0.0007605971006257431,
        -0.035171071402171614,
        0.03446161562894671,
        -0.03297584247760828
      ],
      [
        -0.09260187579781819,
        -0.06039381906980765,
        -0.061139830624360805,
        -0.007209983443642742,
        -0.01923949927209706,
        -0.0034214198798209945,
        -0.0381346891136198,
        -0.022666113386056796,
        -0.023489279652720147,
        0.005630788877063244,
        -0.011543699563258262,
        -0.09260187579781819,
        0.0,
        -0.003767416403283792,
        0.01841633300543376,
        -0.013120404711159646,
        -0.023489279652720147,
        0.0,
        0.004703005214693057,
        0.003502624939026306,
        0.0,
        -0.0039815911875610965,
        0.0,
        -0.022696552599462683,
        -0.11552948912272705,
        0.0,
        -0.048042607714256814,
        0.00017735812653065856,
        0.01841633300543376,
        -0.022666113386056796,
        0.0,
        0.0,
        -0.0038897983579197705,
        0.0,
        -0.019141368673575302,
        -0.02413140986404497,
        -0.008231371568184083,
        0.0010749905908980497,
        0.07636655579144747,
        -0.03729185721942981,
        -0.03999548957909245,
        -0.003767416403283792,
        -0.0039815911875610965,
        -0.024277998517845414,
        -0.008891966830715706,
        -0.057970910381943706,
        -0.044576043546349337,
        -0.01923949927209706,
        -0.0034425670403589073,
        0.07949550564799299,
        0.00012238195463598714,
        -0.0018913262475463838,
        -0.019437401018890174,
        -0.0034425670403589073,
        -0.0034214198798209945,
        -0.04531575444238932,
        -0.044814311861602577,
        -0.03391366313167335,
        0.1219786250231088,
        -0.0746740069138851,
        -0.04609322554159745,
        -0.022666113386056796,
        -0.04859815893133376,
        -0.02137456893863372,
        -0.019141368673575302,
        0.014434741817872642,
        0.07636655579144747,
        9.179282964132285e-05,
        -0.025844227612282077,
        0.0,
        -0.027996658271589658,
        0.027768396860113672,
        0.0004990302176437523,
        -0.061139830624360805,
        0.0006577635085807323,
        -0.02747087084028112,
        -0.0034214198798209945,
        -0.0381346891136198
      ],
      [
        0.026514402685766516,
        -0.10038889647298102,
        0.04094724854431987,
        0.0003793027255516113,
        0.017933342314154818,
        0.00834204380478746,
        0.0417430928028227,
        0.09313022390472882,
        0.09209713375322688,
        0.010857672241611827,
        0.010760005388492875,
        0.026514402685766516,
        0.0,
        0.00256280361528659,
        -0.01896643246565633,
        -0.0623985313952989,
        0.09209713375322688,
        0.0,
        0.0874015036854537,
        -0.005711687828132152,
        0.0,
        0.0026205494387135965,
        0.0,
        -0.048717989128164066,
        -0.10854322149381612,
        0.0,
        0.06503273168619557,
        -0.0004058830125769819,
        -0.01896643246565633,
        0.09313022390472882,
        0.0,
        0.0,
        0.002620937955157843,
        0.0,
        0.017797960733071966,
        -0.03146163694955683,
        0.0767843408777862,
        0.00460736212240446,
        0.010012092550933585,
        0.01699050513036567,
        0.017214159021957765,
        0.00256280361528659,
        0.0026205494387135965,
        -0.029092456304471534,
        -0.05783061014433356,
        0.12775158274207354,
        0.04977450005864463,
        0.017933342314154818,
        -0.0021835008897349707,
        -0.11118669718498132,
        -5.8134339871261915e-05,
        0.004363824982910006,
        -0.03758602512804693,
        -0.0021835008897349707,
        0.00834204380478746,
        -0.06659409260759354,
        0.06524329159847939,
        -0.058943610227029,
        -0.03948460153002456,
        0.1627233270507712,
        -0.05962959576291982,
        0.09313022390472882,
        -0.08012917609984292,
        0.10925361587176403,
        0.017797960733071966,
        -0.01634588302694283,
        0.010012092550933585,
        3.885164442461218e-07,
        0.011026166304723486,
        0.0,
        0.01705773717665893,
        -0.07011708354890965,
        -0.0033956298787140163,
        0.04094724854431987,
        -6.436161789281817e-05,
        0.09471768319194075,
        0.00834204380478746,
        0.0417430928028227
      ],
      [
        0.08398753681238037,
        0.10847491435256931,
        -0.011719551867062713,
        0.00546608561316833,
        0.02449737638095327,
        -0.03938223955391299,
        0.029367438788405517,
        -0.04695635377682095,
        -0.04225727639532297,
        -0.037620208102398585,
        0.014698425828571974,
        0.08398753681238037,
        0.0,
        0.009993143773967404,
        -0.01979829899945502,
        -0.018225244453035763,
        -0.04225727639532297,
        0.0,
        -0.2012817583727467,
        0.0032536669880181396,
        0.0,
        0.01018153544583506,
        0.0,
        -0.03703723069789137,
        0.22720669144278963,
        0.0,
        0.03216561241559375,
        -0.0006756173049648194,
        -0.01979829899945502,
        -0.04695635377682095,
        0.0,
        0.0,
        0.010089545584258246,
        0.0,
        0.024397841336089722,
        0.070895013913696,
        -0.05657311733044112,
        -0.03696772224972433,
        -0.004171325884562489,
        0.06758084464581277,
        0.06603641502134551,
        0.009993143773967404,
        0.01018153544583506,
        0.08971466991785519,
        -0.062286604820883724,
        -0.10412629586368966,
        0.03424855098485933,
        0.02449737638095327,
        -0.004527058160799009,
        0.11845245772481493,
        -9.6401810290836e-05,
        -0.009346168264084014,
        -0.053225865780191825,
        -0.004527058160799009,
        -0.03938223955391299,
        0.02920051143484185,
        0.07209563364210693,
        0.15405111750170922,
        -0.05413162125170375,
        -0.11187928993845667,
        0.13533506821545163,
        -0.04695635377682095,
        0.0354732351218387,
        -0.019719517909301966,
        0.024397841336089722,
        -0.009616763553620001,
        -0.004171325884562489,
        -9.198986157683371e-05,
        0.021355658688963,
        0.0,
        0.03533753286546497,
        0.03130190923727619,
        -0.0009443810387242302,
        -0.011719551867062713,
        -0.0013539989913136574,
        -0.03207574094948799,
        -0.03938223955391299,
        0.029367438788405517
      ]
    ],
    "worker_ids": [
      "ollama-cloud-deepseek-v4-pro",
      "ollama-cloud-glm-5.2",
      "ollama-cloud-kimi-k2.7-code",
      "ollama-cloud-qwen3-coder-480b"
    ]
  },
  "target_mode": "reward"
}
