{
  "dataset": "research/datasets/20260628-mixed-winner-25task-qwen-fail-contrast-routing.jsonl",
  "epochs": 300,
  "l2": 0.0001,
  "learning_rate": 0.0005,
  "model_type": "linear-softmax-logits-router",
  "reward_temperature": 0.05,
  "router": {
    "feature_names": [
      "bias",
      "category_datasci",
      "category_filesystem",
      "category_general",
      "category_network",
      "category_plotting",
      "category_subprocess",
      "combo_archive_filesystem",
      "combo_dataframe_plotting",
      "combo_network_archive",
      "combo_network_filesystem",
      "combo_network_plotting",
      "environment_risk",
      "family_bigcodebench_hard",
      "family_code_data",
      "family_code_easy",
      "family_code_text",
      "kw_archive",
      "kw_base64",
      "kw_convert",
      "kw_count",
      "kw_csv",
      "kw_default",
      "kw_dict",
      "kw_directory",
      "kw_download",
      "kw_email",
      "kw_encoding",
      "kw_exception",
      "kw_file",
      "kw_flatten",
      "kw_frequent",
      "kw_ftp",
      "kw_group",
      "kw_hash",
      "kw_hex",
      "kw_http",
      "kw_https",
      "kw_key",
      "kw_list",
      "kw_lowercase",
      "kw_number",
      "kw_pair",
      "kw_parse",
      "kw_process",
      "kw_request",
      "kw_requests",
      "kw_socket",
      "kw_sorted",
      "kw_ssl",
      "kw_string",
      "kw_strip",
      "kw_subprocess",
      "kw_sum",
      "kw_title",
      "kw_unpack",
      "kw_url",
      "kw_urllib",
      "kw_window",
      "kw_word",
      "kw_zip",
      "length_chars",
      "length_tokens",
      "lib_base64",
      "lib_binascii",
      "lib_bs4",
      "lib_codecs",
      "lib_collections",
      "lib_csv",
      "lib_datetime",
      "lib_ftplib",
      "lib_functools",
      "lib_glob",
      "lib_io",
      "lib_itertools",
      "lib_json",
      "lib_math",
      "lib_matplotlib",
      "lib_numpy",
      "lib_os",
      "lib_pandas",
      "lib_pathlib",
      "lib_random",
      "lib_re",
      "lib_requests",
      "lib_shutil",
      "lib_statistics",
      "lib_statsmodels",
      "lib_subprocess",
      "lib_typing",
      "lib_urllib",
      "lib_zipfile",
      "library_count",
      "missing_library_count",
      "plausibility_score",
      "signal_archive",
      "signal_dataframe",
      "signal_filesystem",
      "signal_network",
      "signal_plotting",
      "signal_subprocess"
    ],
    "policy": "logits-router",
    "weights": [
      [
        -0.02160497965130758,
        0.05734882390872686,
        0.018951771754840425,
        -0.0022926209434209793,
        0.026579088154789442,
        -0.0002805956124427699,
        -0.044549310189334994,
        0.006842867085722351,
        -0.017199124241438418,
        -0.02560162557797508,
        -0.0336154681563468,
        0.02007775845208644,
        0.026112717554206872,
        -0.02160497965130758,
        0.0,
        0.0,
        0.0,
        0.0,
        -0.01101844084088282,
        -0.01101844084088282,
        0.01650166221717819,
        -0.011382964879731382,
        -0.024515504795550216,
        0.08595071986905342,
        -0.04375861330588054,
        -0.0336154681563468,
        -0.028928285232559765,
        -0.01101844084088282,
        -0.051727452908157764,
        0.09683631959079332,
        0.0,
        0.0,
        -0.024515504795550216,
        0.0,
        0.0,
        -0.01101844084088282,
        0.051094592950339586,
        0.051094592950339586,
        0.101452487305479,
        -0.04180969693788955,
        0.0,
        -0.05019624433265702,
        0.0,
        -0.01101844084088282,
        -0.054529910810534696,
        0.06759625516751763,
        0.02549296737236444,
        0.0,
        0.0,
        0.0,
        -0.01101844084088282,
        0.0,
        -0.024515504795550216,
        -0.01736015569859109,
        0.007304659320761518,
        0.0,
        0.030976188748660014,
        0.005483221376295421,
        0.0,
        0.02972646007133711,
        -0.08298122438500354,
        -0.033515493089355045,
        -0.024083512693269495,
        -0.01101844084088282,
        -0.01101844084088282,
        0.051094592950339586,
        -0.03994672607344264,
        0.12353639095818253,
        0.030706955407117115,
        -0.04253404334434635,
        -0.024515504795550216,
        0.008725819897461854,
        -0.08673367128905618,
        0.051094592950339586,
        0.0033924732880852345,
        0.10661402894289816,
        0.008725819897461854,
        -0.0002805956124427699,
        0.07593232672215827,
        -0.1016712436420904,
        -0.05284513465536816,
        -0.02792961589231329,
        0.02061020031433781,
        -0.029644122428663402,
        0.02549296737236444,
        0.08982409147072615,
        -0.06816485417535384,
        -0.03415248518145052,
        -0.024515504795550216,
        -0.03415248518145052,
        0.005483221376295421,
        -0.08298122438500354,
        -0.007087061158607953,
        0.005082632330666682,
        0.010400968142271476,
        0.006842867085722351,
        0.05734882390872686,
        0.018951771754840425,
        0.00646068395310979,
        -0.0002805956124427699,
        -0.044549310189334994
      ],
      [
        -0.09189100114827385,
        -0.05769551312576422,
        -0.06208810866006985,
        -0.007447465370860404,
        -0.03980918981255569,
        0.02104876905924039,
        -0.03759709123063246,
        0.026270368440924976,
        0.018522087391302948,
        -0.021339886621225667,
        -0.021903067164275498,
        0.005220150635162318,
        -0.01880000074944985,
        -0.09189100114827385,
        0.0,
        0.0,
        0.0,
        0.0,
        -0.003645779145360736,
        -0.003645779145360736,
        0.018155466517097155,
        0.043396978898972,
        -0.01871864706014697,
        -0.012526149254212837,
        -0.013333795529561232,
        -0.021903067164275498,
        -0.020361671991837728,
        -0.003645779145360736,
        0.01582276489290094,
        0.0032182249947418115,
        0.0,
        0.0,
        -0.01871864706014697,
        0.0,
        0.0,
        -0.003645779145360736,
        -0.021090542752408632,
        -0.021090542752408632,
        -0.0225946976405357,
        -0.08829046706983885,
        0.0,
        -0.04814040725037717,
        0.0,
        -0.003645779145360736,
        -0.04170155861306337,
        -0.002935076235311586,
        -0.0424304293736344,
        0.0,
        0.0,
        0.0,
        -0.003645779145360736,
        0.0,
        -0.01871864706014697,
        -0.024687203135838883,
        -0.005017399703556616,
        0.0,
        -0.027920742001898126,
        0.014509687371736345,
        0.0,
        -0.0008067602525258849,
        0.07434441955675583,
        -0.06392113327531879,
        -0.05132420075229788,
        -0.003645779145360736,
        -0.003645779145360736,
        -0.021090542752408632,
        -0.02400745113719846,
        -0.012380599328602911,
        -0.05684123126128286,
        -0.04596550831432079,
        -0.01871864706014697,
        -0.0038016862254996587,
        0.07601575476587995,
        -0.021090542752408632,
        -0.0035561722534760937,
        -0.02001480556091811,
        -0.0038016862254996587,
        0.02104876905924039,
        -0.047958754898289206,
        -0.0454925733044452,
        -0.02985291624728916,
        0.11825695957498217,
        -0.07534533298479867,
        -0.049564070895913956,
        -0.0424304293736344,
        -0.04807405111583082,
        -0.021485001807091404,
        0.029566397982547815,
        -0.01871864706014697,
        0.029566397982547815,
        0.014509687371736345,
        0.07434441955675583,
        -0.025417382255623365,
        0.002542756569041744,
        -0.035780311006619374,
        0.026270368440924976,
        -0.05769551312576422,
        -0.06208810866006985,
        -0.046639389062044914,
        0.02104876905924039,
        -0.03759709123063246
      ],
      [
        0.0464121879363881,
        -0.06891914173990886,
        0.030220084411794655,
        -0.002608302128377609,
        0.023852168015953922,
        0.0418327866233247,
        0.031035885758452588,
        -0.06873364869834821,
        0.03482058365591001,
        0.09059529173988301,
        0.08671240020580542,
        0.008496131424824277,
        0.05033263962213775,
        0.0464121879363881,
        0.0,
        0.0,
        0.0,
        0.0,
        0.0012641413352655214,
        0.0012641413352655214,
        -0.01906425359939692,
        0.037512646615979764,
        0.015181362065319661,
        -0.062362659223622975,
        -0.08497638168191395,
        0.08671240020580542,
        -0.033963549180616635,
        0.0012641413352655214,
        -0.06137143989593927,
        0.08094607912215326,
        0.0,
        0.0,
        0.015181362065319661,
        0.0,
        0.0,
        0.0012641413352655214,
        0.008670805950634256,
        0.008670805950634256,
        -0.05245446775569907,
        -0.07175231332729619,
        0.0,
        0.058876349247739664,
        0.0,
        0.0012641413352655214,
        0.05663174255926599,
        -0.010393447648762662,
        0.0992660976905174,
        0.0,
        0.0,
        0.0,
        0.0012641413352655214,
        0.0,
        0.015181362065319661,
        -0.03529653851252852,
        -0.0057020462714155425,
        0.0,
        0.08146598542638564,
        -0.017800112264131408,
        0.0,
        -0.002345997384825217,
        0.01052260986847561,
        0.031551559172339025,
        0.022099560747926825,
        0.0012641413352655214,
        0.0012641413352655214,
        0.008670805950634256,
        -0.03269940784535112,
        -0.0674567264011233,
        0.12435252822518117,
        0.036855098751938944,
        0.015181362065319661,
        -0.0038724434636431527,
        -0.11018970252654987,
        0.008670805950634256,
        -0.0016645460287853923,
        -0.0401271872451069,
        -0.0038724434636431527,
        0.0418327866233247,
        -0.07866419609007576,
        0.05779036852163813,
        -0.022010597395591962,
        -0.037763593004019484,
        0.14880657923891555,
        -0.0722767367496443,
        0.0992660976905174,
        -0.07925625856682399,
        0.10235503727339741,
        0.05136475873697485,
        0.015181362065319661,
        0.05136475873697485,
        -0.017800112264131408,
        0.01052260986847561,
        0.020708929132528833,
        0.018010669406282702,
        0.05130791674745635,
        -0.06873364869834821,
        -0.06891914173990886,
        0.030220084411794655,
        0.09664734749170481,
        0.0418327866233247,
        0.031035885758452588
      ],
      [
        0.06708379286319342,
        0.06926583095694665,
        0.012916252493434649,
        0.012348388442659,
        -0.01062206635818764,
        -0.06260096007012245,
        0.051110515661515005,
        0.035620413171700956,
        -0.036143546805774335,
        -0.043653779540682135,
        -0.03119386488518302,
        -0.033794040512073124,
        -0.05764535642689465,
        0.06708379286319342,
        0.0,
        0.0,
        0.0,
        0.0,
        0.013400078650978028,
        0.013400078650978028,
        -0.015592875134878403,
        -0.06952666063522027,
        0.028052789790377463,
        -0.011061911391217101,
        0.14206879051735638,
        -0.03119386488518302,
        0.08325350640501432,
        0.013400078650978028,
        0.09727612791119628,
        -0.1810006237076885,
        0.0,
        0.0,
        0.028052789790377463,
        0.0,
        0.0,
        0.013400078650978028,
        -0.03867485614856522,
        -0.03867485614856522,
        -0.026403321909244385,
        0.20185247733502532,
        0.0,
        0.03946030233529441,
        0.0,
        0.013400078650978028,
        0.0395997268643319,
        -0.05426773128344346,
        -0.08232863568924707,
        0.0,
        0.0,
        0.0,
        0.013400078650978028,
        0.0,
        0.028052789790377463,
        0.07734389734695833,
        0.003414786654210642,
        0.0,
        -0.08452143217314774,
        -0.002192796483900346,
        0.0,
        -0.026573702433986,
        -0.001885805040227934,
        0.06588506719233468,
        0.05330815269764045,
        0.013400078650978028,
        0.013400078650978028,
        -0.03867485614856522,
        0.09665358505599238,
        -0.04369906522845619,
        -0.09821825237101564,
        0.05164445290672808,
        0.028052789790377463,
        -0.0010516902083190383,
        0.12090761904972591,
        -0.03867485614856522,
        0.001828244994176254,
        -0.04647203613687312,
        -0.0010516902083190383,
        -0.06260096007012245,
        0.050690624266206914,
        0.08937344842489751,
        0.10470864829824976,
        -0.052563750678649636,
        -0.09407144656845497,
        0.1514849300742214,
        -0.08232863568924707,
        0.03750621821192903,
        -0.012705181290951937,
        -0.04677867153807184,
        0.028052789790377463,
        -0.04677867153807184,
        -0.002192796483900346,
        -0.001885805040227934,
        0.011795514281702581,
        -0.025636058305991097,
        -0.02592857388310816,
        0.035620413171700956,
        0.06926583095694665,
        0.012916252493434649,
        -0.0564686423827701,
        -0.06260096007012245,
        0.051110515661515005
      ]
    ],
    "worker_ids": [
      "ollama-cloud-deepseek-v4-pro",
      "ollama-cloud-glm-5.2",
      "ollama-cloud-kimi-k2.7-code",
      "ollama-cloud-qwen3-coder-480b"
    ]
  },
  "target_mode": "reward"
}
