{
  "dataset": "research/datasets/20260628-router-miss-repeat-24task-routing.jsonl",
  "epochs": 300,
  "l2": 0.0001,
  "learning_rate": 0.0005,
  "model_type": "linear-softmax-logits-router",
  "reward_temperature": 0.1,
  "router": {
    "feature_names": [
      "bias",
      "category_datasci",
      "category_filesystem",
      "category_general",
      "category_network",
      "category_plotting",
      "category_subprocess",
      "combo_network_archive",
      "combo_network_filesystem",
      "combo_network_plotting",
      "environment_risk",
      "family_bigcodebench_hard",
      "kw_archive",
      "kw_base64",
      "kw_count",
      "kw_dict",
      "kw_download",
      "kw_fetch",
      "kw_file",
      "kw_files",
      "kw_frequent",
      "kw_hex",
      "kw_http",
      "kw_key",
      "kw_list",
      "kw_lowercase",
      "kw_number",
      "kw_plot",
      "kw_request",
      "kw_requests",
      "kw_scan",
      "kw_sorted",
      "kw_string",
      "kw_strip",
      "kw_subprocess",
      "kw_sum",
      "kw_url",
      "kw_word",
      "kw_zip",
      "length_chars",
      "length_tokens",
      "lib_base64",
      "lib_binascii",
      "lib_codecs",
      "lib_collections",
      "lib_csv",
      "lib_datetime",
      "lib_ftplib",
      "lib_functools",
      "lib_glob",
      "lib_itertools",
      "lib_json",
      "lib_math",
      "lib_matplotlib",
      "lib_numpy",
      "lib_os",
      "lib_pandas",
      "lib_pathlib",
      "lib_random",
      "lib_re",
      "lib_requests",
      "lib_shutil",
      "lib_statistics",
      "lib_subprocess",
      "lib_urllib",
      "lib_zipfile",
      "library_count",
      "missing_library_count",
      "plausibility_score",
      "signal_archive",
      "signal_datasci",
      "signal_filesystem",
      "signal_general",
      "signal_network",
      "signal_plotting",
      "signal_subprocess"
    ],
    "policy": "logits-router",
    "weights": [
      [
        0.053393055444555235,
        0.07214881645739263,
        0.0504762195659323,
        0.020905210733642127,
        -0.01808480061591449,
        0.03606265914437478,
        -0.00812808528675776,
        -0.018686509237760086,
        -0.010507140833298102,
        0.02230270057524347,
        -0.010850880369548739,
        0.053393055444555235,
        0.0,
        0.0045959951667318266,
        0.02626416902037666,
        0.11041496075098375,
        -0.010507140833298102,
        0.0,
        0.12138437209203244,
        -0.08133532305734208,
        0.0,
        0.0045959951667318266,
        0.0,
        0.12037540979396036,
        0.022477287029509723,
        0.0,
        -0.04511645557759146,
        0.013856049137917497,
        0.02626416902037666,
        -0.018686509237760086,
        0.0,
        0.0,
        0.0045959951667318266,
        0.0,
        -0.01808480061591449,
        -0.012970001152784773,
        0.012173654949348326,
        0.028164478389998575,
        -0.06846108141767301,
        -0.10444902774030763,
        -0.014066180653733114,
        0.0045959951667318266,
        0.0045959951667318266,
        -0.010487769610929563,
        0.1295757436968304,
        0.0379348440391954,
        -0.025314030391196295,
        -0.01808480061591449,
        0.01199760585827614,
        -0.07516029844174736,
        0.01989789713517737,
        0.10108679026657656,
        0.016309215566910257,
        0.03606265914437478,
        0.09622419174447938,
        -0.06937236843979551,
        -0.03125884878784676,
        -0.025823039505415986,
        0.036731717093823904,
        -0.01487112185557439,
        -0.018686509237760086,
        0.08783024650803235,
        -0.055990917335005164,
        -0.01808480061591449,
        0.030860164187108415,
        -0.06846108141767301,
        0.01821074793194744,
        0.0,
        -0.0036580631359850006,
        0.01936916509035943,
        0.07214881645739263,
        0.0504762195659323,
        0.020905210733642127,
        -0.005911145666566254,
        0.03606265914437478,
        -0.00812808528675776
      ],
      [
        -0.013994979386807157,
        -0.020117728908713137,
        -0.05418369302400906,
        0.024231935698394554,
        -0.017384439913019502,
        0.017224404667767416,
        -0.011571339276195178,
        -0.01904540076921308,
        -0.0103282277076881,
        0.012220072682458269,
        -0.010430663947811659,
        -0.013994979386807157,
        0.0,
        0.004899849796478492,
        0.02610161297454462,
        0.009675006909968038,
        -0.0103282277076881,
        0.0,
        0.013689720840215375,
        0.0514931109881327,
        0.0,
        0.004899849796478492,
        0.0,
        0.00443590995098676,
        -0.08537804526948653,
        0.0,
        -0.04163117766820141,
        0.0026639293272103454,
        0.02610161297454462,
        -0.01904540076921308,
        0.0,
        0.0,
        0.004899849796478492,
        0.0,
        -0.017384439913019502,
        -0.018086953691150976,
        0.011956062001809882,
        0.01315719211223701,
        0.07157088364292628,
        -0.04744475279713417,
        -0.009386987000673513,
        0.004899849796478492,
        0.004899849796478492,
        -0.009134580354271274,
        0.0051851046515186275,
        -0.05906078608050996,
        -0.027209400897263685,
        -0.017384439913019502,
        0.0042444386696093095,
        0.07202374122689581,
        0.0136800815301639,
        -0.020045155161765797,
        0.019332085901916107,
        0.017224404667767416,
        -0.02785569827131977,
        -0.04220973529556366,
        0.0031391820724116573,
        0.11445260056058848,
        -0.043953222750679775,
        -0.02669441697085829,
        -0.01904540076921308,
        -0.047840474328208905,
        -0.009652838740949255,
        -0.017384439913019502,
        0.03100146277102304,
        0.07157088364292628,
        -0.0005816904158864234,
        0.0,
        -0.008292014242738201,
        0.02373040931471758,
        -0.020117728908713137,
        -0.05418369302400906,
        0.024231935698394554,
        -0.0054283779112095755,
        0.017224404667767416,
        -0.011571339276195178
      ],
      [
        -0.006576732881633315,
        -0.10209909498662131,
        0.03064273254856884,
        -0.01020314373729488,
        0.019347230378704137,
        0.0009791710014319108,
        0.03326009630615287,
        0.08186890737409769,
        0.07972556013129982,
        0.005418316332074442,
        0.011608338227222466,
        -0.006576732881633315,
        0.0,
        -0.0038027985120276052,
        -0.021490577621502447,
        -0.06678252950984488,
        0.07972556013129982,
        0.0,
        0.07516886580487485,
        -0.1308947675306584,
        0.0,
        -0.0038027985120276052,
        0.0,
        -0.050017387642669484,
        -0.11495573454858339,
        0.0,
        0.059754713757689704,
        -0.0055392396959832385,
        -0.021490577621502447,
        0.08186890737409769,
        0.0,
        0.0,
        -0.0038027985120276052,
        0.0,
        0.019347230378704137,
        -0.03338120348672716,
        0.05657553124056747,
        0.0022394992889584425,
        0.002831982168786821,
        0.04544523053012708,
        0.002915134522818051,
        -0.0038027985120276052,
        -0.0038027985120276052,
        -0.03933727871450091,
        -0.05701117538106466,
        0.12551270368750822,
        0.0450972623026747,
        0.019347230378704137,
        -0.003771383262813719,
        -0.11046578720766721,
        0.0006237265761625157,
        -0.034229106618058724,
        -0.00640034522526723,
        0.0009791710014319108,
        -0.06776006248840015,
        0.05866629129828134,
        -0.06547840286171855,
        -0.03853246165862624,
        0.1435921711264053,
        -0.06645842995927093,
        0.08186890737409769,
        -0.08271392770818947,
        0.10128974947968712,
        0.019347230378704137,
        -0.025293376133530113,
        0.002831982168786821,
        -0.0005900908470719203,
        0.0,
        0.009289534507645088,
        -0.07988194553940296,
        -0.10209909498662131,
        0.03064273254856884,
        -0.01020314373729488,
        0.07592276161927161,
        0.0009791710014319108,
        0.03326009630615287
      ],
      [
        -0.03282134317611495,
        0.05006800743794201,
        -0.02693525909049201,
        -0.03493400269474196,
        0.016122010150229925,
        -0.054266234813574114,
        -0.013560671743199831,
        -0.044136997367124335,
        -0.05889019159031312,
        -0.03994108958977604,
        0.009673206090137925,
        -0.03282134317611495,
        0.0,
        -0.005693046451182696,
        -0.030875204373418553,
        -0.05330743815110653,
        -0.05889019159031312,
        0.0,
        -0.21024295873712331,
        0.1607369795998689,
        0.0,
        -0.005693046451182696,
        0.0,
        -0.0747939321022769,
        0.17785649278856028,
        0.0,
        0.026992919488103184,
        -0.010980738769144628,
        -0.030875204373418553,
        -0.044136997367124335,
        0.0,
        0.0,
        -0.005693046451182696,
        0.0,
        0.016122010150229925,
        0.06443815833066284,
        -0.08070524819172557,
        -0.043561169791193885,
        -0.005941784394040409,
        0.10644855000731528,
        0.0205380331315886,
        -0.005693046451182696,
        -0.005693046451182696,
        0.058959628679701705,
        -0.07774967296728352,
        -0.10438676164619311,
        0.007426168985785238,
        0.016122010150229925,
        -0.012470661265071693,
        0.11360234442251957,
        -0.03420170524150367,
        -0.04681252848675232,
        -0.029240956243559414,
        -0.054266234813574114,
        -0.0006084309847591805,
        0.052915812437077804,
        0.09359806957715312,
        -0.05009709939654667,
        -0.1363706654695493,
        0.10802396878570357,
        -0.044136997367124335,
        0.042724155528366246,
        -0.035645993403733006,
        0.016122010150229925,
        -0.036568250824601446,
        -0.005941784394040409,
        -0.017038966668989058,
        0.0,
        0.0026605428710781273,
        0.03678237113432574,
        0.05006800743794201,
        -0.02693525909049201,
        -0.03493400269474196,
        -0.06458323804149597,
        -0.054266234813574114,
        -0.013560671743199831
      ]
    ],
    "worker_ids": [
      "ollama-cloud-deepseek-v4-pro",
      "ollama-cloud-glm-5.2",
      "ollama-cloud-kimi-k2.7-code",
      "ollama-cloud-qwen3-coder-480b"
    ]
  },
  "target_mode": "reward"
}
