{
  "dataset": "research/datasets/20260627-mixed-winner-19task-routing.jsonl",
  "epochs": 300,
  "l2": 0.0001,
  "learning_rate": 0.0005,
  "model_type": "linear-softmax-logits-router",
  "reward_temperature": 0.2,
  "router": {
    "feature_names": [
      "bias",
      "category_datasci",
      "category_filesystem",
      "category_general",
      "category_network",
      "category_plotting",
      "category_subprocess",
      "environment_risk",
      "family_bigcodebench_hard",
      "family_code_data",
      "family_code_easy",
      "family_code_text",
      "kw_base64",
      "kw_convert",
      "kw_count",
      "kw_csv",
      "kw_default",
      "kw_dict",
      "kw_directory",
      "kw_download",
      "kw_email",
      "kw_encoding",
      "kw_exception",
      "kw_file",
      "kw_flatten",
      "kw_frequent",
      "kw_ftp",
      "kw_group",
      "kw_hash",
      "kw_hex",
      "kw_key",
      "kw_list",
      "kw_lowercase",
      "kw_number",
      "kw_pair",
      "kw_parse",
      "kw_process",
      "kw_socket",
      "kw_sorted",
      "kw_ssl",
      "kw_string",
      "kw_strip",
      "kw_subprocess",
      "kw_sum",
      "kw_title",
      "kw_url",
      "kw_urllib",
      "kw_window",
      "kw_word",
      "kw_zip",
      "length_chars",
      "length_tokens",
      "lib_base64",
      "lib_binascii",
      "lib_codecs",
      "lib_collections",
      "lib_csv",
      "lib_datetime",
      "lib_ftplib",
      "lib_functools",
      "lib_glob",
      "lib_itertools",
      "lib_json",
      "lib_math",
      "lib_matplotlib",
      "lib_numpy",
      "lib_os",
      "lib_pandas",
      "lib_pathlib",
      "lib_random",
      "lib_re",
      "lib_requests",
      "lib_shutil",
      "lib_statistics",
      "lib_subprocess",
      "lib_urllib",
      "lib_zipfile",
      "library_count",
      "missing_library_count",
      "plausibility_score"
    ],
    "policy": "logits-router",
    "weights": [
      [
        -0.041936310801312875,
        -0.04413092000526856,
        -0.017266489683675973,
        0.008938199164762028,
        -0.019554483436956725,
        0.021329545339010703,
        -0.02103281234670535,
        -0.011732690062174063,
        -0.041936310801312875,
        0.0,
        0.0,
        0.0,
        0.0005085557270070528,
        0.0005085557270070528,
        0.025014536203058872,
        -0.06963815371216922,
        -0.019554483436956725,
        0.007753637027386461,
        0.0036546443959617554,
        -0.012139459753181871,
        -0.01641650874117245,
        0.0005085557270070528,
        -0.07414095350909265,
        0.043639796465065786,
        0.0,
        0.0,
        -0.019554483436956725,
        0.0,
        0.0,
        0.0005085557270070528,
        0.0005085557270070528,
        -0.07077548192710789,
        0.0,
        -0.03401458765461811,
        0.0,
        0.0005085557270070528,
        -0.03401602126045653,
        0.0,
        0.0,
        0.0,
        0.0005085557270070528,
        0.0,
        -0.019554483436956725,
        -0.006056321996432031,
        0.0,
        0.007923579410781931,
        0.02552309193006585,
        0.0,
        0.017769454902679453,
        -0.05433897899810887,
        -0.049418068089341086,
        -0.03806557315561865,
        0.0005085557270070528,
        0.0005085557270070528,
        -0.015907953014165376,
        0.028574626639390158,
        -0.03869058898231697,
        -0.04437477439935848,
        -0.019554483436956725,
        0.008429643437754963,
        -0.05266168229098627,
        0.014872801440874456,
        0.0075231561476489725,
        0.008429643437754963,
        0.021329545339010703,
        -0.009973350738052935,
        -0.035035944586355325,
        -0.04413092000526856,
        -0.016461599295665322,
        0.03968257350976379,
        -0.021952800679759788,
        -0.017599512519283947,
        0.09203407226521469,
        -0.045172164605187755,
        -0.019554483436956725,
        0.02552309193006585,
        -0.05433897899810887,
        -0.018799297138693046,
        0.0,
        -0.025262885163041378
      ],
      [
        -0.05898258958017264,
        -0.012686173603166088,
        -0.06346312802225455,
        0.003528725377957182,
        -0.02286235805081223,
        0.01509067304571572,
        -0.03216324087205603,
        -0.013717414830487412,
        -0.05898258958017264,
        0.0,
        0.0,
        0.0,
        0.00047961484268948406,
        0.00047961484268948406,
        0.020416799364994014,
        0.03278491333877958,
        -0.02286235805081223,
        0.0084767144486693,
        -0.03974893257787984,
        -0.02034034882090523,
        -0.018399960957479117,
        0.00047961484268948406,
        0.018830979640206986,
        0.004158711955809344,
        0.0,
        0.0,
        -0.02286235805081223,
        0.0,
        0.0,
        0.00047961484268948406,
        0.00047961484268948406,
        -0.08343328225617702,
        0.0,
        -0.03163118095434805,
        0.0,
        0.00047961484268948406,
        -0.036294751092565775,
        0.0,
        0.0,
        0.0,
        0.00047961484268948406,
        0.0,
        -0.02286235805081223,
        -0.014494971751649505,
        0.0,
        0.0030016240725966913,
        0.02089641420768349,
        0.0,
        0.012419699759014191,
        0.047048032394538336,
        -0.034376755229967984,
        -0.027387013634414006,
        0.00047961484268948406,
        0.00047961484268948406,
        -0.017920346114789695,
        0.023087772651695506,
        -0.036133895203388874,
        -0.03553617016017753,
        -0.02286235805081223,
        0.0030491105352676955,
        0.04854191768485848,
        0.0075898066333689364,
        0.00657706890632819,
        0.0030491105352676955,
        0.01509067304571572,
        -0.013859264859377855,
        -0.07588282778126867,
        -0.012686173603166088,
        0.08646289082908562,
        -0.05888626151540093,
        -0.030524687552097706,
        -0.017894790135086866,
        -0.04639052463468845,
        -0.014854680969869498,
        -0.02286235805081223,
        0.02089641420768349,
        0.047048032394538336,
        -0.014394231152174843,
        0.0,
        -0.022201393072120223
      ],
      [
        0.03930261590530026,
        -0.05674288679130249,
        0.06760236116792048,
        -0.0026091581427586936,
        0.024730548917314518,
        0.005479661455890355,
        0.0475649586662187,
        0.014838329350388719,
        0.03930261590530026,
        0.0,
        0.0,
        0.0,
        -0.0010740208983443843,
        -0.0010740208983443843,
        -0.015359901266644074,
        0.07933491662316718,
        0.024730548917314518,
        -0.021702888301608957,
        -0.07728783156075553,
        0.08744244750967727,
        -0.035472675949251437,
        -0.0010740208983443843,
        -0.022701004268492753,
        0.09725356809848176,
        0.0,
        0.0,
        0.024730548917314518,
        0.0,
        0.0,
        -0.0010740208983443843,
        -0.0010740208983443843,
        -0.06533515318434761,
        0.0,
        0.052918219552471515,
        0.0,
        -0.0010740208983443843,
        0.042599123909755496,
        0.0,
        0.0,
        0.0,
        -0.0010740208983443843,
        0.0,
        0.024730548917314518,
        -0.02797192870237828,
        0.0,
        0.06163787769401841,
        -0.01643392216498845,
        0.0,
        0.005268966136620413,
        0.01002388156812693,
        0.025010502121135602,
        0.017442299206707007,
        -0.0010740208983443843,
        -0.0010740208983443843,
        -0.036546696847595685,
        -0.015149205947374154,
        0.13962122659205567,
        0.04541747230559837,
        0.024730548917314518,
        -0.0015351372444143176,
        -0.10333934839713547,
        0.0009049614651474426,
        -0.004404812894207154,
        -0.0015351372444143176,
        0.005479661455890355,
        -0.03303257723968981,
        0.06233339503129999,
        -0.05674288679130249,
        -0.03384951851092441,
        0.12298033414005585,
        -0.05793797888327313,
        0.07807179985900713,
        -0.08560547058823273,
        0.08649124054102889,
        0.024730548917314518,
        -0.01643392216498845,
        0.01002388156812693,
        0.01525243362425978,
        0.0,
        0.021469199205509607
      ],
      [
        0.06161628447618541,
        0.11355998039973696,
        0.013127256538009766,
        -0.009857766399960475,
        0.017686292570454537,
        -0.04189987984061695,
        0.0056310945525426875,
        0.010611775542272665,
        0.06161628447618541,
        0.0,
        0.0,
        0.0,
        8.585032864785234e-05,
        8.585032864785234e-05,
        -0.030071434301408677,
        -0.04248167624977747,
        0.017686292570454537,
        0.005472536825553152,
        0.11338211974267311,
        -0.054962638935590426,
        0.07028914564790299,
        8.585032864785234e-05,
        0.07801097813737824,
        -0.14505207651935678,
        0.0,
        0.0,
        0.017686292570454537,
        0.0,
        0.0,
        8.585032864785234e-05,
        8.585032864785234e-05,
        0.21954391736763237,
        0.0,
        0.012727549056494635,
        0.0,
        8.585032864785234e-05,
        0.027711648443266956,
        0.0,
        0.0,
        0.0,
        8.585032864785234e-05,
        0.0,
        0.017686292570454537,
        0.04852322245045991,
        0.0,
        -0.0725630811773972,
        -0.029985583972760792,
        0.0,
        -0.03545812079831399,
        -0.0027329349645562467,
        0.058784321198173735,
        0.04801028758332592,
        8.585032864785234e-05,
        8.585032864785234e-05,
        0.07037499597655093,
        -0.03651319334371181,
        -0.06479674240634914,
        0.03449347225393783,
        0.017686292570454537,
        -0.00994361672860834,
        0.10745911300326293,
        -0.023367569539390832,
        -0.009695412159770024,
        -0.00994361672860834,
        -0.04189987984061695,
        0.056865192837120306,
        0.048585377336323794,
        0.11355998039973696,
        -0.03615177302249618,
        -0.1037766461344184,
        0.11041546711513046,
        -0.042577497204636036,
        0.039961922957706814,
        -0.02646439496597126,
        0.017686292570454537,
        -0.029985583972760792,
        -0.0027329349645562467,
        0.017941094666608082,
        0.0,
        0.025995079029652084
      ]
    ],
    "worker_ids": [
      "ollama-cloud-deepseek-v4-pro",
      "ollama-cloud-glm-5.2",
      "ollama-cloud-kimi-k2.7-code",
      "ollama-cloud-qwen3-coder-480b"
    ]
  },
  "target_mode": "reward"
}
