{
  "dataset": "research/datasets/20260627-mixed-winner-14task-routing.jsonl",
  "epochs": 300,
  "l2": 0.0001,
  "learning_rate": 0.0005,
  "model_type": "linear-softmax-logits-router",
  "reward_temperature": 0.1,
  "router": {
    "feature_names": [
      "bias",
      "category_datasci",
      "category_filesystem",
      "category_general",
      "category_network",
      "category_plotting",
      "category_subprocess",
      "environment_risk",
      "family_bigcodebench_hard",
      "family_code_data",
      "family_code_easy",
      "family_code_text",
      "kw_base64",
      "kw_convert",
      "kw_count",
      "kw_csv",
      "kw_default",
      "kw_dict",
      "kw_directory",
      "kw_download",
      "kw_email",
      "kw_encoding",
      "kw_exception",
      "kw_file",
      "kw_flatten",
      "kw_frequent",
      "kw_ftp",
      "kw_group",
      "kw_hash",
      "kw_hex",
      "kw_key",
      "kw_list",
      "kw_lowercase",
      "kw_number",
      "kw_pair",
      "kw_parse",
      "kw_process",
      "kw_socket",
      "kw_sorted",
      "kw_ssl",
      "kw_string",
      "kw_strip",
      "kw_subprocess",
      "kw_sum",
      "kw_title",
      "kw_url",
      "kw_urllib",
      "kw_window",
      "kw_word",
      "kw_zip",
      "length_chars",
      "length_tokens",
      "lib_base64",
      "lib_binascii",
      "lib_codecs",
      "lib_collections",
      "lib_csv",
      "lib_datetime",
      "lib_ftplib",
      "lib_functools",
      "lib_glob",
      "lib_itertools",
      "lib_json",
      "lib_math",
      "lib_os",
      "lib_pandas",
      "lib_pathlib",
      "lib_random",
      "lib_re",
      "lib_shutil",
      "lib_statistics",
      "lib_subprocess",
      "lib_urllib",
      "lib_zipfile",
      "library_count",
      "missing_library_count",
      "plausibility_score"
    ],
    "policy": "logits-router",
    "weights": [
      [
        -0.05825691411855389,
        -0.042246270774530796,
        -0.03719660052592021,
        0.009233705336266095,
        -0.02289477903562079,
        0.0,
        -0.005794573054924014,
        -0.013736867421372444,
        -0.05825691411855389,
        0.0,
        0.0,
        0.0,
        -0.001099916969858001,
        -0.001099916969858001,
        0.007903864216514529,
        -0.09154473443598624,
        -0.02289477903562079,
        0.006803947246656551,
        0.009089890011164628,
        -0.014990914819106246,
        0.0,
        -0.001099916969858001,
        -0.07207172793315342,
        0.033363101392182945,
        0.0,
        0.0,
        -0.02289477903562079,
        0.0,
        0.0,
        -0.001099916969858001,
        -0.001099916969858001,
        -0.08741303423312015,
        0.0,
        -0.038263384785167776,
        0.0,
        -0.001099916969858001,
        0.0,
        0.0,
        0.0,
        0.0,
        -0.001099916969858001,
        0.0,
        -0.02289477903562079,
        -0.010814971303689044,
        0.0,
        0.006803947246656551,
        0.006803947246656551,
        0.0,
        0.0,
        -0.04559521646188604,
        -0.045652548953531,
        -0.03458189578985699,
        -0.001099916969858001,
        -0.001099916969858001,
        -0.001099916969858001,
        0.007903864216514529,
        -0.04628649053708483,
        -0.027448413481478758,
        -0.02289477903562079,
        0.01033362230612407,
        -0.06741443542017159,
        0.01033362230612407,
        0.009196341764182192,
        0.01033362230612407,
        -0.03719660052592021,
        -0.042246270774530796,
        -0.024109650289088878,
        0.03223471829294482,
        -0.02651632927266927,
        0.09872847911848462,
        -0.057035960201020364,
        -0.02289477903562079,
        0.006803947246656551,
        -0.04559521646188604,
        -0.02370704583875115,
        0.0,
        -0.02773062640029849
      ],
      [
        -0.06098757593694735,
        -0.015416154981008385,
        -0.06593411574068064,
        -0.0026658721076807984,
        -0.02384664211262733,
        0.0,
        -0.015338004169749425,
        -0.014307985267576345,
        -0.06098757593694735,
        0.0,
        0.0,
        0.0,
        -0.0025914943457588787,
        -0.0025914943457588787,
        0.006554834893195642,
        0.03832188296901807,
        -0.02384664211262733,
        0.003963340547436766,
        -0.018256901804356806,
        -0.01729180721943161,
        0.0,
        -0.0025914943457588787,
        0.043529092616820614,
        0.011894312113730746,
        0.0,
        0.0,
        -0.02384664211262733,
        0.0,
        0.0,
        -0.0025914943457588787,
        -0.0025914943457588787,
        -0.10524146737811585,
        0.0,
        -0.05128752694216576,
        0.0,
        -0.0025914943457588787,
        0.0,
        0.0,
        0.0,
        0.0,
        -0.0025914943457588787,
        0.0,
        -0.02384664211262733,
        -0.025056747704026747,
        0.0,
        0.003963340547436766,
        0.003963340547436766,
        0.0,
        0.0,
        0.0842168935023822,
        -0.022425751662769278,
        -0.01751491370182789,
        -0.0025914943457588787,
        -0.0025914943457588787,
        -0.0025914943457588787,
        0.006554834893195642,
        -0.04767721393632431,
        -0.02623077923813889,
        -0.02384664211262733,
        -7.437776192191764e-05,
        0.060895277598174306,
        -7.437776192191764e-05,
        0.001953803049682218,
        -7.437776192191764e-05,
        -0.06593411574068064,
        -0.015416154981008385,
        0.11098146684744718,
        -0.07487956145801193,
        -0.028999415799679514,
        -0.05364478325200686,
        -0.02038885767996666,
        -0.02384664211262733,
        0.003963340547436766,
        0.0842168935023822,
        -0.012029616619579622,
        0.0,
        -0.01942650510008899
      ],
      [
        0.04216591206533112,
        -0.025924482231914767,
        0.034525246452266234,
        0.0007355272953922696,
        0.03208281922163067,
        0.0,
        0.016593421162824997,
        0.019249691532978404,
        0.04216591206533112,
        0.0,
        0.0,
        0.0,
        0.0013353754040677152,
        0.0013353754040677152,
        -0.0134726499841087,
        0.10763343165859471,
        0.03208281922163067,
        -0.012137274580040979,
        -0.1373266043002532,
        0.01861016923752199,
        0.0,
        0.0013353754040677152,
        -0.07701318249918118,
        0.06449782828278046,
        0.0,
        0.0,
        0.03208281922163067,
        0.0,
        0.0,
        0.0013353754040677152,
        0.0013353754040677152,
        -0.06235903238826367,
        0.0,
        0.06077796928048323,
        0.0,
        0.0013353754040677152,
        0.0,
        0.0,
        0.0,
        0.0,
        0.0013353754040677152,
        0.0,
        0.03208281922163067,
        -0.03141272058356571,
        0.0,
        -0.012137274580040979,
        -0.012137274580040979,
        0.0,
        0.0,
        -0.06366655728131887,
        0.020990210053363795,
        0.01296084608991179,
        0.0013353754040677152,
        0.0013353754040677152,
        0.0013353754040677152,
        -0.0134726499841087,
        0.17185185075251985,
        0.09219068986404856,
        0.03208281922163067,
        -0.0005998481086754461,
        -0.0950235036280277,
        -0.0005998481086754461,
        -0.002016748074697091,
        -0.0005998481086754461,
        0.034525246452266234,
        -0.025924482231914767,
        -0.0334055466190344,
        0.15110299581239717,
        -0.031242528577254947,
        -0.07492999376567484,
        0.10003894919025179,
        0.03208281922163067,
        -0.012137274580040979,
        -0.06366655728131887,
        0.02642626676588492,
        0.0,
        0.027884504028466373
      ],
      [
        0.07707857799017061,
        0.08358690798745398,
        0.06860546981433463,
        -0.007303360523977538,
        0.014658601926617314,
        0.0,
        0.004539156061848559,
        0.008795161155970422,
        0.07707857799017061,
        0.0,
        0.0,
        0.0,
        0.0023560359115491693,
        0.0023560359115491693,
        -0.0009860491256014664,
        -0.05441058019162594,
        0.014658601926617314,
        0.0013699867859476938,
        0.1464936160934449,
        0.013672552801015826,
        0.0,
        0.0023560359115491693,
        0.1055558178155137,
        -0.10975524178869432,
        0.0,
        0.0,
        0.014658601926617314,
        0.0,
        0.0,
        0.0023560359115491693,
        0.0023560359115491693,
        0.25501353399950055,
        0.0,
        0.028772942446850597,
        0.0,
        0.0023560359115491693,
        0.0,
        0.0,
        0.0,
        0.0,
        0.0023560359115491693,
        0.0,
        0.014658601926617314,
        0.06728443959128162,
        0.0,
        0.0013699867859476938,
        0.0013699867859476938,
        0.0,
        0.0,
        0.025044880240822416,
        0.047088090562936204,
        0.03913596340177323,
        0.0023560359115491693,
        0.0023560359115491693,
        0.0023560359115491693,
        -0.0009860491256014664,
        -0.07788814627911018,
        -0.03851149714443108,
        0.014658601926617314,
        -0.009659396435526704,
        0.10154266145002536,
        -0.009659396435526704,
        -0.009133396739167295,
        -0.009659396435526704,
        0.06860546981433463,
        0.08358690798745398,
        -0.053466269939324,
        -0.10845815264732954,
        0.08675827364960358,
        0.029846297899197256,
        -0.022614131309264974,
        0.014658601926617314,
        0.0013699867859476938,
        0.025044880240822416,
        0.00931039569244579,
        0.0,
        0.019272627471921166
      ]
    ],
    "worker_ids": [
      "ollama-cloud-deepseek-v4-pro",
      "ollama-cloud-glm-5.2",
      "ollama-cloud-kimi-k2.7-code",
      "ollama-cloud-qwen3-coder-480b"
    ]
  },
  "target_mode": "reward"
}
