{
  "dataset": "research/datasets/20260627-mixed-winner-8task-routing.jsonl",
  "epochs": 300,
  "l2": 0.0001,
  "learning_rate": 0.0005,
  "model_type": "linear-softmax-logits-router",
  "router": {
    "feature_names": [
      "bias",
      "category_datasci",
      "category_filesystem",
      "category_general",
      "category_network",
      "category_plotting",
      "category_subprocess",
      "environment_risk",
      "family_bigcodebench_hard",
      "family_code_data",
      "family_code_easy",
      "family_code_text",
      "kw_base64",
      "kw_convert",
      "kw_count",
      "kw_csv",
      "kw_default",
      "kw_dict",
      "kw_directory",
      "kw_download",
      "kw_email",
      "kw_encoding",
      "kw_exception",
      "kw_file",
      "kw_flatten",
      "kw_frequent",
      "kw_ftp",
      "kw_group",
      "kw_hash",
      "kw_hex",
      "kw_key",
      "kw_list",
      "kw_lowercase",
      "kw_number",
      "kw_pair",
      "kw_parse",
      "kw_process",
      "kw_socket",
      "kw_sorted",
      "kw_ssl",
      "kw_string",
      "kw_strip",
      "kw_subprocess",
      "kw_sum",
      "kw_title",
      "kw_url",
      "kw_urllib",
      "kw_window",
      "kw_word",
      "kw_zip",
      "length_chars",
      "length_tokens",
      "lib_csv",
      "lib_datetime",
      "lib_ftplib",
      "lib_functools",
      "lib_glob",
      "lib_itertools",
      "lib_math",
      "lib_os",
      "lib_pathlib",
      "lib_random",
      "lib_re",
      "lib_shutil",
      "lib_statistics",
      "lib_subprocess",
      "lib_zipfile",
      "library_count",
      "missing_library_count",
      "plausibility_score"
    ],
    "policy": "logits-router",
    "weights": [
      [
        -0.08331157348050632,
        0.0,
        -0.09060467640688097,
        0.007293102926374621,
        -0.014997892368903257,
        0.0,
        -0.014997892368903257,
        -0.008998735421341985,
        -0.08331157348050632,
        0.0,
        0.0,
        0.0,
        0.0,
        0.0,
        0.0,
        -0.04028558099740179,
        -0.014997892368903257,
        0.0,
        -0.05997412992252486,
        -0.014997892368903257,
        0.0,
        0.0,
        -0.02936832008456306,
        -0.052294077126390504,
        0.0,
        0.0,
        -0.014997892368903257,
        0.0,
        0.0,
        0.0,
        0.0,
        -0.05304599410957536,
        0.0,
        -0.015381802709429135,
        0.0,
        0.0,
        0.0,
        0.0,
        0.0,
        0.0,
        0.0,
        0.0,
        -0.014997892368903257,
        0.007293102926374621,
        0.0,
        0.0,
        0.0,
        0.0,
        0.0,
        -0.02294773979816219,
        -0.033589344387773556,
        -0.025164259181419676,
        -0.030630546484356057,
        -0.02267490563580382,
        -0.014997892368903257,
        0.007293102926374621,
        -0.02166353064203438,
        0.007293102926374621,
        0.007293102926374621,
        -0.09060467640688097,
        -0.009655034513045684,
        -0.030630546484356057,
        -0.02331270691158728,
        -0.022028497755459436,
        -0.007955640848552329,
        -0.014997892368903257,
        -0.02294773979816219,
        -0.029022030143892066,
        0.0,
        -0.023624630993923406
      ],
      [
        -0.04716308875018764,
        0.0,
        -0.04856928484076588,
        0.0014061960905784679,
        -0.02470235612432693,
        0.0,
        -0.02470235612432693,
        -0.014821413674596232,
        -0.04716308875018764,
        0.0,
        0.0,
        0.0,
        0.0,
        0.0,
        0.0,
        0.028877597042699855,
        -0.02470235612432693,
        0.0,
        -0.007355912130334597,
        -0.02470235612432693,
        0.0,
        0.0,
        0.022644297085290175,
        0.004727084408607326,
        0.0,
        0.0,
        -0.02470235612432693,
        0.0,
        0.0,
        0.0,
        0.0,
        -0.07926552293657074,
        0.0,
        -0.012316158871322426,
        0.0,
        0.0,
        0.0,
        0.0,
        0.0,
        0.0,
        0.0,
        0.0,
        -0.02470235612432693,
        0.0014061960905784679,
        0.0,
        0.0,
        0.0,
        0.0,
        0.0,
        0.04472179377176831,
        -0.023259231424785295,
        -0.01813422317416103,
        -0.04121337271043143,
        -0.013722354961900897,
        -0.02470235612432693,
        0.0014061960905784679,
        0.045940457119038616,
        0.0014061960905784679,
        0.0014061960905784679,
        -0.04856928484076588,
        0.0700909697531313,
        -0.04121337271043143,
        -0.028594013125046308,
        -0.027375349777775806,
        -0.02749101774853051,
        -0.02470235612432693,
        0.04472179377176831,
        -0.011261166920786268,
        0.0,
        -0.019709314963179448
      ],
      [
        0.06966373750089645,
        0.0,
        0.07340046578579652,
        -0.003736728284900064,
        0.024185358649674745,
        0.0,
        0.024185358649674745,
        0.014511215189804832,
        0.06966373750089645,
        0.0,
        0.0,
        0.0,
        0.0,
        0.0,
        0.0,
        0.11140752156188985,
        0.024185358649674745,
        0.0,
        -0.06577047366195227,
        0.024185358649674745,
        0.0,
        0.0,
        -0.047681591413089065,
        0.07104071766988516,
        0.0,
        0.0,
        0.024185358649674745,
        0.0,
        0.0,
        0.0,
        0.0,
        -0.03841854218777073,
        0.0,
        0.0659050258161478,
        0.0,
        0.0,
        0.0,
        0.0,
        0.0,
        0.0,
        0.0,
        0.0,
        0.024185358649674745,
        -0.003736728284900064,
        0.0,
        0.0,
        0.0,
        0.0,
        0.0,
        -0.05291427029284455,
        0.025747464251242892,
        0.01707586879417644,
        0.13917093944774908,
        0.06964175410104775,
        0.024185358649674745,
        -0.003736728284900064,
        -0.0681302217778638,
        -0.003736728284900064,
        -0.003736728284900064,
        0.07340046578579652,
        -0.027763417885859048,
        0.13917093944774908,
        -0.02182561053376316,
        -0.03704156201878234,
        0.06952918534670106,
        0.024185358649674745,
        -0.05291427029284455,
        0.03203987340645798,
        0.0,
        0.0272468599348625
      ],
      [
        0.06081092472979715,
        0.0,
        0.06577349546185025,
        -0.004962570732053045,
        0.015514889843555504,
        0.0,
        0.015514889843555504,
        0.009308933906133318,
        0.06081092472979715,
        0.0,
        0.0,
        0.0,
        0.0,
        0.0,
        0.0,
        -0.09999953760718758,
        0.015514889843555504,
        0.0,
        0.1331005157148114,
        0.015514889843555504,
        0.0,
        0.0,
        0.054405614412361865,
        -0.023473724952101878,
        0.0,
        0.0,
        0.015514889843555504,
        0.0,
        0.0,
        0.0,
        0.0,
        0.1707300592339168,
        0.0,
        -0.038207064235396035,
        0.0,
        0.0,
        0.0,
        0.0,
        0.0,
        0.0,
        0.0,
        0.0,
        0.015514889843555504,
        -0.004962570732053045,
        0.0,
        0.0,
        0.0,
        0.0,
        0.0,
        0.031140216319238415,
        0.03110111156131593,
        0.02622261356140427,
        -0.06732702025296135,
        -0.03324449350334304,
        0.015514889843555504,
        -0.004962570732053045,
        0.04385329530085933,
        -0.004962570732053045,
        -0.004962570732053045,
        0.06577349546185025,
        -0.03267251735422642,
        -0.06732702025296135,
        0.07373233057039658,
        0.0864454095520176,
        -0.034082526749618196,
        0.015514889843555504,
        0.031140216319238415,
        0.008243323658220404,
        0.0,
        0.016087086022240255
      ]
    ],
    "worker_ids": [
      "ollama-cloud-deepseek-v4-pro",
      "ollama-cloud-glm-5.2",
      "ollama-cloud-kimi-k2.7-code",
      "ollama-cloud-qwen3-coder-480b"
    ]
  }
}
