{
  "dataset": "research/datasets/20260627-acquisition-to-50-wave2-merged-33task-routing.jsonl",
  "epochs": 300,
  "l2": 0.0001,
  "learning_rate": 0.0005,
  "model_type": "linear-softmax-logits-router",
  "reward_temperature": 0.05,
  "router": {
    "feature_names": [
      "bias",
      "category_datasci",
      "category_filesystem",
      "category_general",
      "category_network",
      "category_plotting",
      "category_subprocess",
      "combo_archive_filesystem",
      "combo_dataframe_plotting",
      "combo_network_archive",
      "combo_network_filesystem",
      "combo_network_plotting",
      "environment_risk",
      "family_bigcodebench_hard",
      "family_code_data",
      "family_code_easy",
      "family_code_text",
      "kw_archive",
      "kw_base64",
      "kw_convert",
      "kw_count",
      "kw_csv",
      "kw_default",
      "kw_dict",
      "kw_directory",
      "kw_download",
      "kw_email",
      "kw_encoding",
      "kw_exception",
      "kw_file",
      "kw_flatten",
      "kw_frequent",
      "kw_ftp",
      "kw_group",
      "kw_hash",
      "kw_hex",
      "kw_http",
      "kw_https",
      "kw_key",
      "kw_list",
      "kw_lowercase",
      "kw_number",
      "kw_pair",
      "kw_parse",
      "kw_process",
      "kw_request",
      "kw_requests",
      "kw_socket",
      "kw_sorted",
      "kw_ssl",
      "kw_string",
      "kw_strip",
      "kw_subprocess",
      "kw_sum",
      "kw_title",
      "kw_unpack",
      "kw_url",
      "kw_urllib",
      "kw_window",
      "kw_word",
      "kw_zip",
      "length_chars",
      "length_tokens",
      "lib_base64",
      "lib_binascii",
      "lib_codecs",
      "lib_collections",
      "lib_csv",
      "lib_datetime",
      "lib_ftplib",
      "lib_functools",
      "lib_glob",
      "lib_itertools",
      "lib_json",
      "lib_math",
      "lib_matplotlib",
      "lib_numpy",
      "lib_os",
      "lib_pandas",
      "lib_pathlib",
      "lib_random",
      "lib_re",
      "lib_requests",
      "lib_shutil",
      "lib_statistics",
      "lib_string",
      "lib_subprocess",
      "lib_urllib",
      "lib_zipfile",
      "library_count",
      "missing_library_count",
      "plausibility_score",
      "signal_archive",
      "signal_dataframe",
      "signal_filesystem",
      "signal_network",
      "signal_plotting",
      "signal_subprocess"
    ],
    "policy": "logits-router",
    "weights": [
      [
        -0.014319371249002809,
        0.025899303131644354,
        -0.012407358877564386,
        0.0030904797597557246,
        -0.022842779261038247,
        0.08288890106414655,
        -0.013886108000130981,
        0.030085586373649786,
        0.06472281449730802,
        -0.02355132887662445,
        -0.02649608034060655,
        0.01857308783236768,
        0.010580765458506067,
        -0.014319371249002809,
        0.0,
        0.0,
        0.0,
        0.02198248036615076,
        -0.009051114955386994,
        -0.04844814086311296,
        0.019898027797056086,
        -0.02599757747465717,
        -0.022842779261038247,
        0.100740254084679,
        -0.018144439189489405,
        -0.02649608034060655,
        -0.029338698290200613,
        -0.009051114955386994,
        -0.1234414343102603,
        0.04189918940458553,
        0.0,
        0.0,
        -0.022842779261038247,
        0.10006336425470415,
        0.0,
        -0.009051114955386994,
        0.0,
        0.0,
        0.0717684920554366,
        -0.07425781365165547,
        0.0030819106281786686,
        0.02087069335762854,
        0.0,
        -0.009051114955386994,
        -0.05289002716682497,
        0.019898027797056086,
        -0.02355132887662445,
        0.0,
        -0.03939702590772572,
        0.0,
        -0.005969204327208353,
        0.0,
        -0.022842779261038247,
        -0.01632756221513666,
        0.06087760426869725,
        0.0,
        -0.012704416034955307,
        0.010846912841669169,
        0.0,
        0.023908873542572644,
        -0.05856626849156828,
        -0.060117391258207684,
        -0.04723944251677022,
        -0.009051114955386994,
        -0.009051114955386994,
        -0.03838981324558742,
        0.09387851177586827,
        0.041800546420520134,
        -0.06938050934846476,
        -0.022842779261038247,
        0.00905968408696412,
        -0.08366145077304729,
        0.007462745285336914,
        0.07112156833264716,
        0.00905968408696412,
        0.08288890106414655,
        0.09569286079675274,
        -0.066896296744817,
        -0.03640238390622864,
        -0.027171349559839592,
        0.06837045329609613,
        -0.05174934607281124,
        -0.02355132887662445,
        0.1106343352313689,
        -0.06772504388140932,
        0.0030819106281786686,
        -0.022842779261038247,
        0.010846912841669169,
        -0.05856626849156828,
        0.0016616534513265518,
        0.012143216507564478,
        -0.0035063254497977045,
        0.030085586373649786,
        0.025899303131644354,
        -0.012407358877564386,
        -0.035547195295993615,
        0.08288890106414655,
        -0.013886108000130981
      ],
      [
        -0.06992299454837718,
        -0.031825602229792006,
        -0.009429555988786162,
        -0.004347606622880479,
        -0.021296051379229453,
        -0.02791807790399249,
        -0.041117320329493674,
        0.020876196533102347,
        -0.030114631636466285,
        -0.024571380341635994,
        -0.033280622844214985,
        0.002579430160636281,
        0.018869667799685266,
        -0.06992299454837718,
        0.0,
        0.0,
        0.0,
        0.02116672888040685,
        -0.007964865102240733,
        0.10421815992747313,
        0.012586808876650655,
        -0.008711831132886823,
        -0.021296051379229453,
        -0.021228941343628273,
        -0.024104011885103346,
        -0.033280622844214985,
        -0.022937032625864707,
        -0.007964865102240733,
        -0.006584087653206598,
        0.043691412551048386,
        0.0,
        0.0,
        -0.021296051379229453,
        -0.023158438227554777,
        0.0,
        -0.007964865102240733,
        0.0,
        0.0,
        0.0708318003399818,
        -0.029440361767704974,
        0.008419531305281171,
        -0.0772474999645172,
        0.0,
        -0.007964865102240733,
        -0.04750841296750064,
        0.012586808876650655,
        -0.024571380341635994,
        0.0,
        0.11218302502971426,
        0.0,
        0.0004546662030404574,
        0.0,
        -0.021296051379229453,
        -0.02848642986489719,
        -0.03911979315306811,
        0.0,
        -0.019949436567226083,
        0.004621943774409961,
        0.0,
        0.00483968110223439,
        0.08166528246417079,
        -0.05692870947870547,
        -0.04699898631127253,
        -0.007964865102240733,
        -0.007964865102240733,
        -0.030901897728105403,
        0.09497170311541524,
        -0.07158849125974756,
        -0.07513992498363181,
        -0.021296051379229453,
        -0.0048022728259209495,
        0.062349318350933346,
        -0.0001854940814701636,
        0.07612101835201796,
        -0.0048022728259209495,
        -0.02791807790399249,
        0.026121681227042958,
        -0.06569689020697614,
        0.02835824658839,
        0.11506032520012249,
        -0.12486362007953988,
        -0.06463048756795436,
        -0.024571380341635994,
        -0.039622357050661396,
        -0.024808263878383224,
        0.008419531305281171,
        -0.021296051379229453,
        0.004621943774409961,
        0.08166528246417079,
        -0.012036421331909639,
        0.015823649313611493,
        -0.0014462385121455368,
        0.020876196533102347,
        -0.031825602229792006,
        -0.009429555988786162,
        -0.04124548794645571,
        -0.02791807790399249,
        -0.041117320329493674
      ],
      [
        0.010555192072358846,
        -0.0860799818556154,
        0.07636232977137693,
        -0.004961613765819076,
        0.019266371249747605,
        -0.0380744979929703,
        0.004135463868792142,
        -0.09418837196964212,
        -0.06282428574105232,
        0.09215473861504392,
        0.09278450218577425,
        0.013456098124355945,
        -0.013773476265776192,
        0.010555192072358846,
        0.0,
        0.0,
        0.0,
        -0.033224415654115116,
        0.005000420353705987,
        -0.02379323198184282,
        -0.018636607679016655,
        0.12679586204856344,
        0.019266371249747605,
        -0.07068964817290851,
        -0.10471712373262254,
        0.09278450218577425,
        -0.0316623769140325,
        0.005000420353705987,
        0.058409673276142784,
        0.1517209131709125,
        0.0,
        0.0,
        0.019266371249747605,
        -0.025713836854945847,
        0.0,
        0.005000420353705987,
        0.0,
        0.0,
        -0.08043992339975856,
        -0.1611935549604831,
        -0.009746870037114672,
        -0.006959941751326573,
        0.0,
        0.005000420353705987,
        0.06049236170101107,
        -0.018636607679016655,
        0.09215473861504392,
        0.0,
        -0.02879365233554881,
        0.0,
        -0.0047464496834087,
        0.0,
        0.019266371249747605,
        -0.03001028709513858,
        -0.037361022797452494,
        0.0,
        0.07851855128973288,
        -0.013636187325310595,
        0.0,
        0.005586320777167735,
        -0.020811189260260772,
        0.02602403118568096,
        0.02157889957339071,
        0.005000420353705987,
        0.005000420353705987,
        -0.026661956560326525,
        -0.08191427260807146,
        0.11695246096243239,
        0.1480866805915746,
        0.019266371249747605,
        -0.00021516408241039733,
        -0.11038191820216779,
        -0.0013908851215108163,
        -0.0636101920387223,
        -0.00021516408241039733,
        -0.0380744979929703,
        -0.15318633488473982,
        0.023289631184148347,
        -0.0300652516763747,
        -0.03982602265390059,
        0.11158303197844104,
        0.027907383903498936,
        0.09215473861504392,
        -0.10660159836349614,
        0.10550215847369548,
        -0.009746870037114672,
        0.019266371249747605,
        -0.013636187325310595,
        -0.020811189260260772,
        -0.0022327835974046448,
        -0.012666649507812364,
        -0.005906775221287567,
        -0.09418837196964212,
        -0.0860799818556154,
        0.07636232977137693,
        0.09778492253948048,
        -0.0380744979929703,
        0.004135463868792142
      ],
      [
        0.073687173725022,
        0.0920062809537626,
        -0.054525414905025875,
        0.006218740628943833,
        0.024872459390520095,
        -0.016896325167183993,
        0.05086796446083261,
        0.04322658906288999,
        0.028216102880210345,
        -0.044032029396783114,
        -0.03300779900095329,
        -0.034608616117359894,
        -0.015676956992415055,
        0.073687173725022,
        0.0,
        0.0,
        0.0,
        -0.009924793592442424,
        0.012015559703921815,
        -0.03197678708251765,
        -0.013848228994690221,
        -0.09208645344101903,
        0.024872459390520095,
        -0.008821664568142226,
        0.14696557480721553,
        -0.03300779900095329,
        0.0839381078300976,
        0.012015559703921815,
        0.07161584868732433,
        -0.2373115151265453,
        0.0,
        0.0,
        0.024872459390520095,
        -0.05119108917220349,
        0.0,
        0.012015559703921815,
        0.0,
        0.0,
        -0.062160368995660235,
        0.26489173037984487,
        -0.0017545718963451918,
        0.06333674835821494,
        0.0,
        0.012015559703921815,
        0.03990607843331468,
        -0.013848228994690221,
        -0.044032029396783114,
        0.0,
        -0.04399234678643942,
        0.0,
        0.010260987807576581,
        0.0,
        0.024872459390520095,
        0.0748242791751724,
        0.015603211681823523,
        0.0,
        -0.04586469868755143,
        -0.0018326692907684786,
        0.0,
        -0.0343348754219747,
        -0.002287824712341554,
        0.09102206955123265,
        0.0726595292546525,
        0.012015559703921815,
        0.012015559703921815,
        0.09595366753401965,
        -0.10693594228321184,
        -0.08716451612320514,
        -0.0035662462594781355,
        0.024872459390520095,
        -0.004042247178632734,
        0.13169405062428205,
        -0.005886366082355926,
        -0.08363239464594337,
        -0.004042247178632734,
        -0.016896325167183993,
        0.03137179286094427,
        0.10930355576764474,
        0.03810938899421337,
        -0.048062952986382766,
        -0.055089865194999005,
        0.08847244973726659,
        -0.044032029396783114,
        0.035589620182789244,
        -0.012968850713902545,
        -0.0017545718963451918,
        0.024872459390520095,
        -0.0018326692907684786,
        -0.002287824712341554,
        0.012607551477987674,
        -0.015300216313363552,
        0.010859339183230917,
        0.04322658906288999,
        0.0920062809537626,
        -0.054525414905025875,
        -0.02099223929703149,
        -0.016896325167183993,
        0.05086796446083261
      ]
    ],
    "worker_ids": [
      "ollama-cloud-deepseek-v4-pro",
      "ollama-cloud-glm-5.2",
      "ollama-cloud-kimi-k2.7-code",
      "ollama-cloud-qwen3-coder-480b"
    ]
  },
  "target_mode": "reward"
}
