{
  "dataset": "research/datasets/20260627-mixed-winner-10task-routing.jsonl",
  "epochs": 300,
  "l2": 0.0001,
  "learning_rate": 0.0005,
  "model_type": "linear-softmax-logits-router",
  "reward_temperature": 0.5,
  "router": {
    "feature_names": [
      "bias",
      "category_datasci",
      "category_filesystem",
      "category_general",
      "category_network",
      "category_plotting",
      "category_subprocess",
      "environment_risk",
      "family_bigcodebench_hard",
      "family_code_data",
      "family_code_easy",
      "family_code_text",
      "kw_base64",
      "kw_convert",
      "kw_count",
      "kw_csv",
      "kw_default",
      "kw_dict",
      "kw_directory",
      "kw_download",
      "kw_email",
      "kw_encoding",
      "kw_exception",
      "kw_file",
      "kw_flatten",
      "kw_frequent",
      "kw_ftp",
      "kw_group",
      "kw_hash",
      "kw_hex",
      "kw_key",
      "kw_list",
      "kw_lowercase",
      "kw_number",
      "kw_pair",
      "kw_parse",
      "kw_process",
      "kw_socket",
      "kw_sorted",
      "kw_ssl",
      "kw_string",
      "kw_strip",
      "kw_subprocess",
      "kw_sum",
      "kw_title",
      "kw_url",
      "kw_urllib",
      "kw_window",
      "kw_word",
      "kw_zip",
      "length_chars",
      "length_tokens",
      "lib_base64",
      "lib_binascii",
      "lib_codecs",
      "lib_collections",
      "lib_csv",
      "lib_datetime",
      "lib_ftplib",
      "lib_functools",
      "lib_glob",
      "lib_itertools",
      "lib_math",
      "lib_os",
      "lib_pathlib",
      "lib_random",
      "lib_re",
      "lib_shutil",
      "lib_statistics",
      "lib_subprocess",
      "lib_urllib",
      "lib_zipfile",
      "library_count",
      "missing_library_count",
      "plausibility_score"
    ],
    "policy": "logits-router",
    "weights": [
      [
        -0.04273913108745013,
        0.0,
        -0.04799333314425021,
        0.005254202056800151,
        -0.008062997590034931,
        0.0,
        -0.0024084513823486326,
        -0.004837798554020957,
        -0.04273913108745013,
        0.0,
        0.0,
        0.0,
        0.0010614202584146274,
        0.0010614202584146274,
        0.0056545462076863,
        -0.01275859871435184,
        -0.008062997590034931,
        0.006715966466100932,
        -0.038582686279488874,
        -0.0024084513823486326,
        0.0,
        0.0010614202584146274,
        -0.010945410162924205,
        -0.022140387443722362,
        0.0,
        0.0,
        -0.008062997590034931,
        0.0,
        0.0,
        0.0010614202584146274,
        0.0010614202584146274,
        -0.03726657463168007,
        0.0,
        -0.01379457014013764,
        0.0,
        0.0010614202584146274,
        0.0,
        0.0,
        0.0,
        0.0,
        0.0010614202584146274,
        0.0,
        -0.008062997590034931,
        0.004192781798385527,
        0.0,
        0.006715966466100932,
        0.006715966466100932,
        0.0,
        0.0,
        -0.014913277959916055,
        -0.015760674947871336,
        -0.01183869603519321,
        0.0010614202584146274,
        0.0010614202584146274,
        0.0010614202584146274,
        0.0056545462076863,
        -0.009410646864761353,
        -0.017987351938523192,
        -0.008062997590034931,
        0.004192781798385527,
        -0.012729740578961054,
        0.004192781798385527,
        0.004192781798385527,
        -0.04799333314425021,
        -0.0033479518495904753,
        -0.01506519307244767,
        -0.017789948110492792,
        -0.015606410729537857,
        0.002922158866075557,
        -0.008062997590034931,
        0.006715966466100932,
        -0.014913277959916055,
        -0.013991457171828758,
        0.0,
        -0.011677493915230042
      ],
      [
        -0.03431572896378669,
        0.0,
        -0.03645651923478008,
        0.0021407902709935558,
        -0.020607727397281353,
        0.0,
        -0.016268229075843178,
        -0.012364636438368803,
        -0.03431572896378669,
        0.0,
        0.0,
        0.0,
        0.0005045899572712667,
        0.0005045899572712667,
        0.004339498321438106,
        0.018828307066265936,
        -0.020607727397281353,
        0.004844088278709378,
        -0.019492185678773987,
        -0.016268229075843178,
        0.0,
        0.0005045899572712667,
        0.00700880747264082,
        0.004676502678755523,
        0.0,
        0.0,
        -0.020607727397281353,
        0.0,
        0.0,
        0.0005045899572712667,
        0.0005045899572712667,
        -0.056988233032523546,
        0.0,
        0.001123075753732913,
        0.0,
        0.0005045899572712667,
        0.0,
        0.0,
        0.0,
        0.0,
        0.0005045899572712667,
        0.0,
        -0.020607727397281353,
        0.0016362003137222873,
        0.0,
        0.004844088278709378,
        0.004844088278709378,
        0.0,
        0.0,
        0.01860695315121765,
        -0.01704936798771372,
        -0.013363149917814466,
        0.0005045899572712667,
        0.0005045899572712667,
        0.0005045899572712667,
        0.004339498321438106,
        -0.01696433355600622,
        -0.0005131245599893731,
        -0.020607727397281353,
        0.0016362003137222873,
        0.02164083623476173,
        0.0016362003137222873,
        0.0016362003137222873,
        -0.03645651923478008,
        0.03579264062227213,
        -0.021303831877444338,
        -0.020525294516254365,
        -0.017491411432710283,
        -0.02079070731745498,
        -0.020607727397281353,
        0.004844088278709378,
        0.01860695315121765,
        -0.00836142898678229,
        0.0,
        -0.015609851071693149
      ],
      [
        0.04117086900389161,
        0.0,
        0.04453217397987388,
        -0.003361304975982311,
        0.01726491138690106,
        0.0,
        0.008777576955084803,
        0.010358946832140664,
        0.04117086900389161,
        0.0,
        0.0,
        0.0,
        -0.0010447514672970552,
        -0.0010447514672970552,
        -0.008487334431816247,
        0.06128976262902496,
        0.01726491138690106,
        -0.009532085899113306,
        -0.03176030491679447,
        0.008777576955084803,
        0.0,
        -0.0010447514672970552,
        -0.03647113955968953,
        0.03336031589057905,
        0.0,
        0.0,
        0.01726491138690106,
        0.0,
        0.0,
        -0.0010447514672970552,
        -0.0010447514672970552,
        -0.016558838604629082,
        0.0,
        0.04018968489066896,
        0.0,
        -0.0010447514672970552,
        0.0,
        0.0,
        0.0,
        0.0,
        -0.0010447514672970552,
        0.0,
        0.01726491138690106,
        -0.002316553508685255,
        0.0,
        -0.009532085899113306,
        -0.009532085899113306,
        0.0,
        0.0,
        -0.023611073118456987,
        0.013248468172628059,
        0.008587829649409576,
        -0.0010447514672970552,
        -0.0010447514672970552,
        -0.0010447514672970552,
        -0.008487334431816247,
        0.07629247889666833,
        0.042506238399354294,
        0.01726491138690106,
        -0.002316553508685255,
        -0.04293216300608912,
        -0.002316553508685255,
        -0.002316553508685255,
        0.04453217397987388,
        -0.015002716267643426,
        0.08477981332848464,
        -0.0060930532976063165,
        -0.025414143185238592,
        0.042273574929130274,
        0.01726491138690106,
        -0.009532085899113306,
        -0.023611073118456987,
        0.018375761817340235,
        0.0,
        0.016850420394700135
      ],
      [
        0.03588399104734516,
        0.0,
        0.03991767839915654,
        -0.004033687351811418,
        0.01140581360041516,
        0.0,
        0.009899103503106953,
        0.0068434881602491,
        0.03588399104734516,
        0.0,
        0.0,
        0.0,
        -0.0005212587483888472,
        -0.0005212587483888472,
        -0.0015067100973081915,
        -0.06735947098093875,
        0.01140581360041516,
        -0.002027968845697045,
        0.08983517687505732,
        0.009899103503106953,
        0.0,
        -0.0005212587483888472,
        0.04040774224997301,
        -0.015896431125612183,
        0.0,
        0.0,
        0.01140581360041516,
        0.0,
        0.0,
        -0.0005212587483888472,
        -0.0005212587483888472,
        0.11081364626883282,
        0.0,
        -0.027518190504264198,
        0.0,
        -0.0005212587483888472,
        0.0,
        0.0,
        0.0,
        0.0,
        -0.0005212587483888472,
        0.0,
        0.01140581360041516,
        -0.0035124286034225677,
        0.0,
        -0.002027968845697045,
        -0.002027968845697045,
        0.0,
        0.0,
        0.019917397927155304,
        0.01956157476295696,
        0.016614016303598128,
        -0.0005212587483888472,
        -0.0005212587483888472,
        -0.0005212587483888472,
        -0.0015067100973081915,
        -0.04991749847590061,
        -0.024005761900841655,
        0.01140581360041516,
        -0.0035124286034225677,
        0.0340210673502885,
        -0.0035124286034225677,
        -0.0035124286034225677,
        0.03991767839915654,
        -0.01744197250503821,
        -0.048410788378592494,
        0.04440829592435362,
        0.058511965347486754,
        -0.024405026477750856,
        0.01140581360041516,
        -0.002027968845697045,
        0.019917397927155304,
        0.003977124341270765,
        0.0,
        0.010436924592222955
      ]
    ],
    "worker_ids": [
      "ollama-cloud-deepseek-v4-pro",
      "ollama-cloud-glm-5.2",
      "ollama-cloud-kimi-k2.7-code",
      "ollama-cloud-qwen3-coder-480b"
    ]
  },
  "target_mode": "reward"
}
