{
  "epochs": 300,
  "l2": 0.0001,
  "learning_rate": 0.0005,
  "model_type": "linear-multi-head-orchestrator",
  "orchestrator": {
    "abstain_weights": [
      -0.5693059248165919,
      -0.18131512065537841,
      -0.2510881481637683,
      -0.09350436184192355,
      -0.052242404563476286,
      -0.11853640971560479,
      -0.06299965847306942,
      -0.1431051046413311,
      -0.05468632802582815,
      -0.015768358206248872,
      -0.07193952584266275,
      -0.01682367479930104,
      -0.08706821507291977,
      -0.5693059248165919,
      0.0,
      0.0,
      0.0,
      -0.022388897631926055,
      -0.016863313594210557,
      -0.07216908406789314,
      -0.07414966819561991,
      -0.08576225884877782,
      -0.0104893010236576,
      -0.0840657160492666,
      -0.16284996130058482,
      -0.05186890655549825,
      -0.012789968555183192,
      -0.016863313594210557,
      -0.02349190475394589,
      -0.19613974867404488,
      0.0,
      0.0,
      -0.0104893010236576,
      -0.019157507591128775,
      0.0,
      -0.016863313594210557,
      -0.021682484252654666,
      -0.020070619287164308,
      0.030400125619524546,
      -0.22800879659247075,
      -0.040221874688444584,
      -0.17247381860458913,
      -0.037059318164585596,
      -0.07556084205165713,
      -0.05414925842953427,
      -0.047293731578246234,
      -0.07446588666369476,
      0.0,
      -0.029714838805580655,
      0.0,
      -0.08528615005845992,
      0.0,
      -0.0104893010236576,
      -0.0429388076492689,
      -0.05569730922497446,
      0.0,
      -0.11694044758349609,
      -0.07948960512459369,
      0.0,
      -0.0037898389623462997,
      -0.09792474485327506,
      -0.2615132556030091,
      -0.19706402226259692,
      -0.016863313594210557,
      -0.016863313594210557,
      -0.05869752845744552,
      -0.029653282149393716,
      -0.09118237081688865,
      -0.10395547972342772,
      0.0835875417662223,
      -0.0104893010236576,
      -0.019474748641641254,
      -0.06755008253588383,
      -0.07461655614069582,
      -0.05662836356448524,
      -0.019474748641641254,
      -0.10542930366672837,
      -0.14120732579257977,
      -0.13337063323688916,
      -0.1755837015328709,
      -0.03480702995488226,
      -0.06235159015587197,
      -0.06863145504867361,
      -0.07446588666369476,
      -0.04182759218610837,
      -0.09714806080924188,
      -0.06756925741998311,
      -0.15399443199667417,
      -0.04675542647403628,
      -0.040221874688444584,
      -0.0104893010236576,
      -0.07948960512459369,
      -0.09792474485327506,
      -0.19131287677455544,
      -0.02786138616741683,
      -0.18456331929638561,
      -0.1431051046413311,
      -0.18131512065537841,
      -0.2510881481637683,
      -0.1274297486071549,
      -0.11853640971560479,
      -0.06299965847306942
    ],
    "feature_names": [
      "bias",
      "category_datasci",
      "category_filesystem",
      "category_general",
      "category_network",
      "category_plotting",
      "category_subprocess",
      "combo_archive_filesystem",
      "combo_dataframe_plotting",
      "combo_network_archive",
      "combo_network_filesystem",
      "combo_network_plotting",
      "environment_risk",
      "family_bigcodebench_hard",
      "family_code_data",
      "family_code_easy",
      "family_code_text",
      "kw_archive",
      "kw_base64",
      "kw_convert",
      "kw_count",
      "kw_csv",
      "kw_default",
      "kw_dict",
      "kw_directory",
      "kw_download",
      "kw_email",
      "kw_encoding",
      "kw_exception",
      "kw_file",
      "kw_flatten",
      "kw_frequent",
      "kw_ftp",
      "kw_group",
      "kw_hash",
      "kw_hex",
      "kw_http",
      "kw_https",
      "kw_key",
      "kw_list",
      "kw_lowercase",
      "kw_number",
      "kw_pair",
      "kw_parse",
      "kw_process",
      "kw_request",
      "kw_requests",
      "kw_socket",
      "kw_sorted",
      "kw_ssl",
      "kw_string",
      "kw_strip",
      "kw_subprocess",
      "kw_sum",
      "kw_title",
      "kw_unpack",
      "kw_url",
      "kw_urllib",
      "kw_window",
      "kw_word",
      "kw_zip",
      "length_chars",
      "length_tokens",
      "lib_base64",
      "lib_binascii",
      "lib_bs4",
      "lib_codecs",
      "lib_collections",
      "lib_csv",
      "lib_datetime",
      "lib_ftplib",
      "lib_functools",
      "lib_glob",
      "lib_itertools",
      "lib_json",
      "lib_math",
      "lib_matplotlib",
      "lib_numpy",
      "lib_os",
      "lib_pandas",
      "lib_pathlib",
      "lib_random",
      "lib_re",
      "lib_requests",
      "lib_scipy",
      "lib_seaborn",
      "lib_shutil",
      "lib_sklearn",
      "lib_statistics",
      "lib_string",
      "lib_subprocess",
      "lib_urllib",
      "lib_zipfile",
      "library_count",
      "missing_library_count",
      "plausibility_score",
      "signal_archive",
      "signal_dataframe",
      "signal_filesystem",
      "signal_network",
      "signal_plotting",
      "signal_subprocess"
    ],
    "policy": "linear-multi-head-orchestrator",
    "verifier_weights": [
      -0.07242601771296181,
      -0.06567748625140739,
      -0.25857975115337406,
      0.032303652825159464,
      0.00427737512522055,
      0.0830931516418282,
      0.15096346298754793,
      -0.08752936912961176,
      0.00021722679742456998,
      -0.050452180348994013,
      0.0748998716395445,
      0.021934945254190753,
      -0.058623143515813964,
      -0.07242601771296181,
      0.0,
      0.0,
      0.0,
      0.06202269537616081,
      0.017577759691662684,
      -0.028651047079273087,
      0.10126595386826275,
      -0.19367941546402093,
      0.00864135219333039,
      0.04118018160606098,
      -0.10507556445391096,
      0.010894990264763253,
      -0.043530250220883214,
      0.017577759691662684,
      0.10007307336081968,
      -0.2749043790165885,
      0.0,
      0.0,
      0.00864135219333039,
      -0.0741671364657621,
      0.0,
      0.017577759691662684,
      -0.0683688584428912,
      0.06400488137478155,
      -0.03398562279238961,
      -0.1938271690827538,
      0.03843278128708591,
      -0.07209857888488562,
      0.07498335017003234,
      -0.031866602061790573,
      -0.059179194187840636,
      -0.01566304002246481,
      -0.0998965421024466,
      0.0,
      -0.08103204315297072,
      0.0,
      -0.052058052838802334,
      0.0,
      0.00864135219333039,
      0.017167427355674687,
      0.04637316244754941,
      0.0,
      -0.029612963990357635,
      0.08920807480152729,
      0.0,
      0.16686215105895452,
      -0.05418848437926682,
      -0.04558999552344806,
      -0.04632011298290909,
      0.017577759691662684,
      0.017577759691662684,
      -0.04944436175345333,
      -0.02595249052922008,
      0.09165076737734386,
      -0.049452519739920466,
      -0.01293852376861082,
      0.00864135219333039,
      0.021373496531754587,
      -0.08934919006660566,
      0.08203383307788469,
      -0.08744447069805558,
      0.021373496531754587,
      0.12470313668271978,
      -0.10465910521395855,
      -0.0978618398218483,
      -0.016497261658020606,
      -0.07308477914570875,
      -0.26841903130272776,
      0.03373799293553696,
      -0.0998965421024466,
      -0.027845005904300862,
      -0.002784940660237658,
      0.02868181062581584,
      0.1406595726938301,
      -0.03431451921237628,
      0.03843278128708591,
      0.00864135219333039,
      0.08920807480152729,
      -0.05418848437926682,
      -0.03698398796415249,
      -0.030594784295473167,
      -0.06602975252900348,
      -0.08752936912961176,
      -0.06567748625140739,
      -0.25857975115337406,
      -0.020971611797027213,
      0.0830931516418282,
      0.15096346298754793
    ],
    "worker_ids": [
      "ollama-cloud-deepseek-v4-pro",
      "ollama-cloud-glm-5.2",
      "ollama-cloud-kimi-k2.7-code",
      "ollama-cloud-qwen3-coder-480b"
    ],
    "worker_weights": [
      [
        -0.04554952546196237,
        0.056162082663159855,
        0.014659902810016206,
        -0.03352623970435727,
        0.1010827351503918,
        0.0557619543603119,
        0.053720059797604115,
        0.016681448820375245,
        0.036038077904131924,
        -0.0423802674586442,
        -0.04396434729672478,
        0.01695092471836487,
        0.07616211934061337,
        -0.04554952546196237,
        0.0,
        0.0,
        0.0,
        0.025634252432907793,
        -0.010097178968968105,
        -0.1007800962144812,
        -0.007432242870746349,
        0.032746778478674236,
        -0.024570887801573262,
        0.11802206223914323,
        -0.03257654043771906,
        -0.055448089140461385,
        -0.02506932371600978,
        -0.010097178968968105,
        0.0002094563864812601,
        0.058029107044589995,
        0.0,
        0.0,
        -0.024570887801573262,
        0.12584795910502555,
        0.0,
        -0.010097178968968105,
        0.11416988110822861,
        0.011483741843736656,
        0.035471881905265096,
        0.0018787178374293542,
        0.002980362581650185,
        -0.00489084238001806,
        -0.01022513631479694,
        0.08538745395220257,
        -0.06972206760380334,
        0.12567294722798392,
        0.05310436546252588,
        0.0,
        -0.08841044081636332,
        0.0,
        0.08191074839539669,
        0.0,
        -0.024570887801573262,
        -0.0247268432515082,
        0.017241006576360355,
        0.0,
        0.05451025261331385,
        -0.017279361036270327,
        0.0,
        0.01960940819211363,
        -0.09948619719331213,
        0.011039839845105474,
        0.01545643707137353,
        -0.010097178968968105,
        -0.010097178968968105,
        0.09548463292117014,
        -0.03516650268497819,
        0.04623487564870251,
        0.04801877794739299,
        -0.1377510336164393,
        -0.024570887801573262,
        0.0037595667137553922,
        -0.11216230045786425,
        -0.0007608810149375831,
        0.03962814302677628,
        0.0037595667137553922,
        0.08250481571806506,
        0.028889099543476748,
        -0.12323547709360726,
        0.05349495018877079,
        -0.0612620794105384,
        0.06321314741369231,
        -0.08898540285679898,
        0.05310436546252588,
        -0.06774085321310888,
        -0.11028293108388822,
        0.14180189844659455,
        0.08265984545382213,
        -0.07364051220112301,
        0.002980362581650185,
        -0.024570887801573262,
        -0.017279361036270327,
        -0.09948619719331213,
        -0.025155561762379798,
        0.0077562391251892356,
        0.05052511085764834,
        0.016681448820375245,
        0.056162082663159855,
        0.014659902810016206,
        0.02993936481174064,
        0.0557619543603119,
        0.053720059797604115
      ],
      [
        -0.0541008706511575,
        -0.041585814191018984,
        0.042604449444806576,
        -0.017732663682198172,
        -0.035405378916554445,
        -0.08767947803409754,
        -0.06974971295495556,
        0.061139553184141576,
        -0.09650285376053054,
        -0.040258200085856004,
        -0.0349378645719735,
        0.00566887717850668,
        0.04290289489749712,
        -0.0541008706511575,
        0.0,
        0.0,
        0.0,
        0.014840091362543521,
        -0.00582494509971324,
        0.20925930393710665,
        0.011360603970981247,
        0.002079418507620306,
        -0.01825566178517674,
        -0.044959088600117166,
        0.01960965735386184,
        -0.04610544539058688,
        -0.01715815862837293,
        -0.00582494509971324,
        -0.02789422595580721,
        0.09870772715037926,
        0.0,
        0.0,
        -0.01825566178517674,
        -0.02643173372650695,
        0.0,
        -0.00582494509971324,
        -0.02831729794999078,
        0.011167580818613163,
        0.13777392987829007,
        0.0034056561283621603,
        0.009248001721910778,
        -0.07173125582241505,
        0.04086169188003057,
        -0.039515777699828655,
        -0.0456485699127014,
        -0.015908881469544663,
        -0.07394903268597149,
        0.0,
        0.20331646023529254,
        0.0,
        -0.04174499103436365,
        0.0,
        -0.01825566178517674,
        -0.020431159140339373,
        -0.018628472033973695,
        0.0,
        -0.067365561305239,
        0.001209936730608243,
        0.0,
        0.025086166046204478,
        0.14454987444977735,
        -0.07067083849898873,
        -0.06195939383325148,
        -0.00582494509971324,
        -0.00582494509971324,
        -0.03369083260011575,
        -0.022983103728086138,
        0.157050303930947,
        -0.11103176771511479,
        -0.1066231408433213,
        -0.01825566178517674,
        -0.004614604835657923,
        0.14734482785279365,
        -0.0004780557941108603,
        0.13877435242351613,
        -0.004614604835657923,
        -0.07387150897157323,
        0.11220096232260125,
        -0.05206390738864716,
        0.0405106885478259,
        0.211344197875579,
        -0.18544353102666244,
        -0.07574224481577448,
        -0.07394903268597149,
        0.004236336323708573,
        -0.01849236954825958,
        -0.06857022990309282,
        0.0008431917485806593,
        -0.03751922126917711,
        0.009248001721910778,
        -0.01825566178517674,
        0.001209936730608243,
        0.14454987444977735,
        0.004946330419684309,
        0.03207306112371493,
        0.01977421912021475,
        0.061139553184141576,
        -0.041585814191018984,
        0.042604449444806576,
        -0.08562122309041512,
        -0.08767947803409754,
        -0.06974971295495556
      ],
      [
        0.015232494537412149,
        -0.09120164905745747,
        0.08300767376124024,
        -0.030514096119625602,
        -0.02400518484471039,
        -0.03140698302947889,
        0.00860509678409515,
        -0.11277146354211202,
        -0.05666677069432505,
        0.1203734728106701,
        0.12780500785601553,
        0.015122426970070367,
        -0.038589406987094836,
        0.015232494537412149,
        0.0,
        0.0,
        0.0,
        -0.044354582971706774,
        0.0066522294468942715,
        -0.0308087515941787,
        0.01673161131482098,
        0.13852327422213864,
        0.011427735558711283,
        -0.06860808824780508,
        -0.12401685499526019,
        0.1224596770836522,
        -0.02395289957485618,
        0.0066522294468942715,
        0.058608046721647794,
        0.16111526108947596,
        0.0,
        0.0,
        0.011427735558711283,
        -0.03144236103959103,
        0.0,
        0.0066522294468942715,
        -0.040778251175784146,
        0.005345330772362588,
        -0.10551161714517505,
        -0.22212346479398343,
        -0.010163735616758852,
        0.019164947053363534,
        0.02451627412168246,
        -0.055855158013183345,
        0.11262644363184689,
        -0.05011978246151408,
        0.05786608535059303,
        0.0,
        -0.053666851437106144,
        0.0,
        -0.07416477264531601,
        0.0,
        0.011427735558711283,
        -0.02791802980116432,
        -0.007954472653804966,
        0.0,
        0.05517678351175733,
        -0.02441843812312858,
        0.0,
        0.023322542375135827,
        -0.03645993298688556,
        0.023745596855958975,
        0.017017883561299973,
        0.0066522294468942715,
        0.0066522294468942715,
        -0.06250738746007763,
        -0.017300670127961795,
        -0.0949016315159548,
        0.171793121364081,
        0.19315492832399248,
        0.011427735558711283,
        7.187710689495734e-05,
        -0.13573562063971412,
        -0.003004921243297659,
        -0.09490591010607491,
        7.187710689495734e-05,
        -0.008564455109722311,
        -0.17591063579450678,
        0.06519918808577563,
        -0.04653730765852825,
        -0.08437255198953826,
        0.10507364523739629,
        0.05602198715231586,
        0.05786608535059303,
        -0.014548927659755883,
        0.02335953511099447,
        -0.1206661135269334,
        0.04942191608111902,
        0.12759571592937888,
        -0.010163735616758852,
        0.011427735558711283,
        -0.02441843812312858,
        -0.03645993298688556,
        -0.0044208432698190124,
        -0.012093148040134312,
        -0.025740231013565817,
        -0.11277146354211202,
        -0.09120164905745747,
        0.08300767376124024,
        0.06660451907046919,
        -0.03140698302947889,
        0.00860509678409515
      ],
      [
        0.0844179015757066,
        0.07662538058531618,
        -0.14027202601606392,
        0.08177299950618126,
        -0.041672171389127086,
        0.06332450670326589,
        0.007424556373256491,
        0.03495046153759537,
        0.11713154655072391,
        -0.03773500526617015,
        -0.04890279598731611,
        -0.03774222886694202,
        -0.08047560725101627,
        0.0844179015757066,
        0.0,
        0.0,
        0.0,
        0.0038802391762555446,
        0.009269894621787213,
        -0.07767045612844815,
        -0.020659972415055995,
        -0.1733494712084323,
        0.03139881402803864,
        -0.004454885391221847,
        0.13698373807911685,
        -0.020906142552604152,
        0.06618038191923858,
        0.009269894621787213,
        -0.03092327715232198,
        -0.3178520952844462,
        0.0,
        0.0,
        0.03139881402803864,
        -0.0679738643389271,
        0.0,
        0.009269894621787213,
        -0.045074331982453156,
        -0.02799665343471244,
        -0.06773419463838001,
        0.21683909082819197,
        -0.0020646286868021024,
        0.05745715114906986,
        -0.05515282968691645,
        0.009983481760809959,
        0.002744193884657213,
        -0.059644283296925886,
        -0.03702141812714762,
        0.0,
        -0.06123916798182396,
        0.0,
        0.03399901528428372,
        0.0,
        0.03139881402803864,
        0.07307603219301176,
        0.009341938111418422,
        0.0,
        -0.042321474819832824,
        0.0404878624287907,
        0.0,
        -0.06801811661345412,
        -0.008603744269580087,
        0.035885401797923884,
        0.029485073200577843,
        0.009269894621787213,
        0.009269894621787213,
        0.0007135871390227463,
        0.07545027654102615,
        -0.10838354806369353,
        -0.10878013159635937,
        0.05121924613576734,
        0.03139881402803864,
        0.0007831610150075514,
        0.10055309324478438,
        0.004243858052346159,
        -0.08349658534421771,
        0.0007831610150075514,
        -6.885163676982545e-05,
        0.03482057392842822,
        0.11010019639647983,
        -0.047468331078068325,
        -0.06570956647550157,
        0.017156738375574198,
        0.10870566052025872,
        -0.03702141812714762,
        0.07805344454915679,
        0.10541576552115348,
        0.04743444498343115,
        -0.13292495328352172,
        -0.016435982459079155,
        -0.0020646286868021024,
        0.03139881402803864,
        0.0404878624287907,
        -0.008603744269580087,
        0.024630074612514596,
        -0.02773615220876984,
        -0.04455909896429728,
        0.03495046153759537,
        0.07662538058531618,
        -0.14027202601606392,
        -0.010922660791794157,
        0.06332450670326589,
        0.007424556373256491
      ]
    ],
    "workflow_labels": [
      "direct",
      "verify_then_fallback"
    ],
    "workflow_weights": [
      [
        0.33462862725589526,
        0.061633338498151016,
        0.13822052337959403,
        0.06854711392424137,
        0.034653869803453155,
        0.04409484781980498,
        0.01395858272916591,
        0.09514926707871765,
        -0.0044717158252970835,
        0.009705076539929991,
        0.04566453251721171,
        0.011025328606435422,
        0.06191684275137084,
        0.33462862725589526,
        0.0,
        0.0,
        0.0,
        0.015022835981115047,
        0.0116391754416965,
        0.0505225636499829,
        0.05334444138636506,
        0.028529228731162228,
        0.006938568145295857,
        0.06011672369766799,
        0.10831524327294305,
        0.03329254124919538,
        0.009925534021123264,
        0.0116391754416965,
        -0.062399919926317035,
        0.10162139192202381,
        0.0,
        0.0,
        0.006938568145295857,
        0.014065954147770246,
        0.0,
        0.0116391754416965,
        0.015343310390141513,
        0.012371991268016101,
        -0.053453414393512304,
        0.16348326981034086,
        0.030621070007962225,
        0.12679604864806135,
        0.02772146133156843,
        0.05119047097784865,
        0.038698521840538624,
        0.031992206954111056,
        0.04925637207608186,
        0.0,
        0.01981547692880103,
        0.0,
        0.06148928476363539,
        0.0,
        0.006938568145295857,
        0.03195343624175168,
        0.018726776074555224,
        0.0,
        0.0775444440817475,
        0.05249605715167676,
        0.0,
        -0.02266097782858761,
        0.06465651510035787,
        0.15323208843319447,
        0.11486469837601418,
        0.0116391754416965,
        0.0116391754416965,
        0.03955129553615175,
        0.021564709462819773,
        0.04000686168285455,
        0.07174225030226852,
        -0.11000627934559824,
        0.006938568145295857,
        0.014450874596588628,
        0.04524725946189743,
        0.05603410480474558,
        0.03776395126668925,
        0.014450874596588628,
        0.03367678398026712,
        0.08029320153769924,
        0.05831161496223526,
        0.08134099224766123,
        0.0232373461108187,
        0.020398472477138985,
        0.02351872507919601,
        0.04925637207608186,
        0.033006175053734065,
        0.07475939831271199,
        0.04551558795947474,
        0.11783332945219417,
        0.0351947869168512,
        0.030621070007962225,
        0.006938568145295857,
        0.05249605715167676,
        0.06465651510035787,
        0.10920778179650545,
        0.020562260434649277,
        0.11530677337894371,
        0.09514926707871765,
        0.061633338498151016,
        0.13822052337959403,
        0.08448301222704374,
        0.04409484781980498,
        0.01395858272916591
      ],
      [
        -0.33462862725589515,
        -0.0616333384981511,
        -0.138220523379594,
        -0.06854711392424137,
        -0.034653869803453155,
        -0.044094847819804966,
        -0.013958582729165924,
        -0.09514926707871764,
        0.0044717158252970905,
        -0.009705076539929981,
        -0.04566453251721169,
        -0.011025328606435417,
        -0.061916842751370896,
        -0.33462862725589515,
        0.0,
        0.0,
        0.0,
        -0.015022835981115036,
        -0.0116391754416965,
        -0.050522563649982935,
        -0.053344441386365044,
        -0.028529228731162214,
        -0.0069385681452958595,
        -0.06011672369766798,
        -0.10831524327294301,
        -0.03329254124919538,
        -0.009925534021123266,
        -0.0116391754416965,
        0.06239991992631706,
        -0.10162139192202382,
        0.0,
        0.0,
        -0.0069385681452958595,
        -0.014065954147770244,
        0.0,
        -0.0116391754416965,
        -0.015343310390141508,
        -0.012371991268016105,
        0.053453414393512304,
        -0.16348326981034092,
        -0.030621070007962225,
        -0.12679604864806135,
        -0.027721461331568435,
        -0.051190470977848644,
        -0.038698521840538624,
        -0.03199220695411106,
        -0.04925637207608183,
        0.0,
        -0.019815476928801035,
        0.0,
        -0.06148928476363539,
        0.0,
        -0.0069385681452958595,
        -0.031953436241751676,
        -0.018726776074555196,
        0.0,
        -0.07754444408174752,
        -0.0524960571516768,
        0.0,
        0.022660977828587607,
        -0.06465651510035787,
        -0.15323208843319455,
        -0.11486469837601422,
        -0.0116391754416965,
        -0.0116391754416965,
        -0.03955129553615174,
        -0.021564709462819777,
        -0.040006861682854535,
        -0.07174225030226854,
        0.11000627934559824,
        -0.0069385681452958595,
        -0.014450874596588626,
        -0.045247259461897435,
        -0.05603410480474555,
        -0.03776395126668925,
        -0.014450874596588626,
        -0.03367678398026709,
        -0.0802932015376992,
        -0.05831161496223528,
        -0.08134099224766131,
        -0.023237346110818707,
        -0.02039847247713898,
        -0.023518725079196022,
        -0.04925637207608183,
        -0.033006175053734065,
        -0.074759398312712,
        -0.04551558795947475,
        -0.1178333294521941,
        -0.035194786916851205,
        -0.030621070007962225,
        -0.0069385681452958595,
        -0.0524960571516768,
        -0.06465651510035787,
        -0.10920778179650535,
        -0.02056226043464928,
        -0.11530677337894371,
        -0.09514926707871764,
        -0.0616333384981511,
        -0.138220523379594,
        -0.08448301222704374,
        -0.044094847819804966,
        -0.013958582729165924
      ]
    ]
  },
  "substrate": "research/datasets/20260628-m5-small-orchestrator-substrate-50task.jsonl",
  "target_balance_power": 0.5
}
