{
  "epochs": 300,
  "l2": 0.0001,
  "learning_rate": 0.0005,
  "model_type": "linear-multi-head-orchestrator",
  "orchestrator": {
    "abstain_weights": [
      -0.5901975011095818,
      -0.23005405585553923,
      -0.2940445458843101,
      -0.07460972041790573,
      -0.04952634601065594,
      -0.14135781474949172,
      -0.07189641166807612,
      -0.1430199210167709,
      -0.08448447524014427,
      -0.01636468436712206,
      -0.06644670187734883,
      -0.01776577216235336,
      -0.08230552799594644,
      -0.5901975011095818,
      0.0,
      0.0,
      0.0,
      -0.02239208034183423,
      -0.010189486999848113,
      -0.08470397706103534,
      -0.06168922289398003,
      -0.13519439217065135,
      -0.005914922117876601,
      -0.07452859054876698,
      -0.15382816982654213,
      -0.04474093833554944,
      -0.00702280972891116,
      -0.010189486999848113,
      -0.09988624889270677,
      -0.25373862295743344,
      0.0,
      0.0,
      -0.005914922117876601,
      -0.01902397164585936,
      0.0,
      -0.010189486999848113,
      -0.021905660350979576,
      -0.02170576354179963,
      -0.017269662574174886,
      -0.18267810812829768,
      -0.0425262195858502,
      -0.14075218256130698,
      -0.06134838986321738,
      -0.06398754942327198,
      -0.05019139301843854,
      -0.04436699220152994,
      -0.07016274679054581,
      0.0,
      -0.047710591138782434,
      0.0,
      -0.07346386104628232,
      0.0,
      -0.005914922117876601,
      -0.024288106211217537,
      -0.08803075480492142,
      0.0,
      -0.10281356564094536,
      -0.0645432209228431,
      0.0,
      -0.0386427611940774,
      -0.1077204705239604,
      -0.2669997103475813,
      -0.2008682965709273,
      -0.010189486999848113,
      -0.010189486999848113,
      -0.05379806242342387,
      -0.017212296728759152,
      -0.12543003622792476,
      -0.10136250440442388,
      0.02248478329093801,
      -0.005914922117876601,
      -0.011707375301563067,
      -0.072830953846856,
      -0.06270556629448758,
      -0.06934755335106074,
      -0.011707375301563067,
      -0.13430849559047162,
      -0.1316470729794176,
      -0.15861984657496855,
      -0.22462164772226434,
      -0.05556105272212359,
      -0.07493191654369925,
      -0.07394748952753386,
      -0.07016274679054581,
      -0.023290519192795324,
      -0.09350065310693467,
      -0.057691530834645094,
      -0.16572216760581104,
      -0.03945430165124218,
      -0.0425262195858502,
      -0.005914922117876601,
      -0.0645432209228431,
      -0.1077204705239604,
      -0.2054075110699696,
      -0.026294860194776382,
      -0.18702171694096548,
      -0.1430199210167709,
      -0.23005405585553923,
      -0.2940445458843101,
      -0.10872848775882088,
      -0.14135781474949172,
      -0.07189641166807612
    ],
    "feature_names": [
      "bias",
      "category_datasci",
      "category_filesystem",
      "category_general",
      "category_network",
      "category_plotting",
      "category_subprocess",
      "combo_archive_filesystem",
      "combo_dataframe_plotting",
      "combo_network_archive",
      "combo_network_filesystem",
      "combo_network_plotting",
      "environment_risk",
      "family_bigcodebench_hard",
      "family_code_data",
      "family_code_easy",
      "family_code_text",
      "kw_archive",
      "kw_base64",
      "kw_convert",
      "kw_count",
      "kw_csv",
      "kw_default",
      "kw_dict",
      "kw_directory",
      "kw_download",
      "kw_email",
      "kw_encoding",
      "kw_exception",
      "kw_file",
      "kw_flatten",
      "kw_frequent",
      "kw_ftp",
      "kw_group",
      "kw_hash",
      "kw_hex",
      "kw_http",
      "kw_https",
      "kw_key",
      "kw_list",
      "kw_lowercase",
      "kw_number",
      "kw_pair",
      "kw_parse",
      "kw_process",
      "kw_request",
      "kw_requests",
      "kw_socket",
      "kw_sorted",
      "kw_ssl",
      "kw_string",
      "kw_strip",
      "kw_subprocess",
      "kw_sum",
      "kw_title",
      "kw_unpack",
      "kw_url",
      "kw_urllib",
      "kw_window",
      "kw_word",
      "kw_zip",
      "length_chars",
      "length_tokens",
      "lib_base64",
      "lib_binascii",
      "lib_bs4",
      "lib_codecs",
      "lib_collections",
      "lib_csv",
      "lib_datetime",
      "lib_ftplib",
      "lib_functools",
      "lib_glob",
      "lib_itertools",
      "lib_json",
      "lib_math",
      "lib_matplotlib",
      "lib_numpy",
      "lib_os",
      "lib_pandas",
      "lib_pathlib",
      "lib_random",
      "lib_re",
      "lib_requests",
      "lib_scipy",
      "lib_seaborn",
      "lib_shutil",
      "lib_sklearn",
      "lib_statistics",
      "lib_string",
      "lib_subprocess",
      "lib_urllib",
      "lib_zipfile",
      "library_count",
      "missing_library_count",
      "plausibility_score",
      "signal_archive",
      "signal_dataframe",
      "signal_filesystem",
      "signal_network",
      "signal_plotting",
      "signal_subprocess"
    ],
    "policy": "linear-multi-head-orchestrator",
    "verifier_weights": [
      -0.07639802878919726,
      -0.08307827817016836,
      -0.30327464646508157,
      0.04004995964029109,
      0.012532835015193023,
      0.11462599575677902,
      0.13748249280369887,
      -0.10221350258235914,
      0.026366506682706285,
      -0.048629535168546636,
      0.08706783339576704,
      0.029521788885344513,
      -0.07872906852126818,
      -0.07639802878919726,
      0.0,
      0.0,
      0.0,
      0.07436793294079101,
      0.010945706780530038,
      -0.0649666179622303,
      0.10226709090981458,
      -0.22738428593931773,
      0.007725947579570364,
      0.03770783719320712,
      -0.10763108774793716,
      0.01049525500951953,
      -0.02511530469386034,
      0.010945706780530038,
      -0.004531100506115898,
      -0.3572806086915269,
      0.0,
      0.0,
      0.007725947579570364,
      -0.08191612999069363,
      0.0,
      0.010945706780530038,
      -0.07176569095062454,
      0.07657257838624691,
      -0.09709789582813827,
      -0.1870505534202494,
      0.04411609050434848,
      -0.03834508381164615,
      0.11727612483876411,
      -0.013063054090941988,
      -0.03227091750270866,
      -0.02036684835212862,
      -0.0726382960400188,
      0.0,
      -0.11738624710245901,
      0.0,
      -0.03508421283271791,
      0.0,
      0.007725947579570364,
      0.0156397557848013,
      0.08120829482248383,
      0.0,
      -0.01029374666099273,
      0.11010147945817846,
      0.0,
      0.15857552778156767,
      -0.07147852985389112,
      -0.03650327954748067,
      -0.039077374186417546,
      0.010945706780530038,
      0.010945706780530038,
      -0.024008760871472194,
      -0.014169597913330126,
      0.03930557647635274,
      -0.04012796627204952,
      -0.02231004271962247,
      0.007725947579570364,
      0.013803810662507701,
      -0.10792575448539361,
      0.07239270999626647,
      -0.13037256904390548,
      0.013803810662507701,
      0.1404604530692605,
      -0.14754028719815773,
      -0.13652696030279862,
      -0.03928256009922406,
      -0.10646165269413677,
      -0.25669118002372615,
      0.0748409300124748,
      -0.0726382960400188,
      -0.01696965311463372,
      0.06733391533622753,
      0.043632960212322616,
      0.1996206122085396,
      -0.040119811286191284,
      0.04411609050434848,
      0.007725947579570364,
      0.11010147945817846,
      -0.07147852985389112,
      -0.036986796459936605,
      -0.04312438476519182,
      -0.07929283606142484,
      -0.10221350258235914,
      -0.08307827817016836,
      -0.30327464646508157,
      -0.0025677990814225488,
      0.11462599575677902,
      0.13748249280369887
    ],
    "worker_ids": [
      "ollama-cloud-deepseek-v4-pro",
      "ollama-cloud-glm-5.2",
      "ollama-cloud-kimi-k2.7-code",
      "ollama-cloud-qwen3-coder-480b"
    ],
    "worker_weights": [
      [
        -0.024257949490387683,
        0.07383208629546985,
        0.0031872450222485403,
        -0.025668412458797633,
        0.11282185279557566,
        0.06722514651446244,
        0.07144988168717972,
        0.01715301971197523,
        0.05215703243714094,
        -0.047422412955932795,
        -0.03828135665608672,
        0.01625972903711,
        0.06606655357286105,
        -0.024257949490387683,
        0.0,
        0.0,
        0.0,
        0.026867208948605226,
        -0.007606218889318343,
        -0.14065572057101497,
        -0.00646743704408888,
        0.021434557054210376,
        -0.01620299850197763,
        0.13824624101534563,
        -0.014201181746659406,
        -0.050422591474615766,
        -0.016834436135761837,
        -0.007606218889318343,
        -0.018262863767410917,
        0.019130042504391428,
        0.0,
        0.0,
        -0.01620299850197763,
        0.12600947848366392,
        0.0,
        -0.007606218889318343,
        0.11688361647902401,
        0.012141234818528971,
        0.015312404205785375,
        0.030603907309455634,
        0.001198746941397357,
        0.015258980404320268,
        -0.038606814698927044,
        0.10110579798469221,
        -0.06972043411283835,
        0.13008643646231843,
        0.06128960391807762,
        0.0,
        -0.1275859166605524,
        0.0,
        0.09818522410662799,
        0.0,
        -0.01620299850197763,
        -0.017490381030522723,
        0.01117573420861113,
        0.0,
        0.0668862050120531,
        -0.002574998511037701,
        0.0,
        0.008670522787966513,
        -0.1234566798790846,
        0.027592893791098593,
        0.02908253295954733,
        -0.007606218889318343,
        -0.007606218889318343,
        0.10871201687401061,
        -0.024440655025080426,
        0.01917837454234654,
        0.05806464935321451,
        -0.13816309286662395,
        -0.01620299850197763,
        0.00105189391266612,
        -0.12048528069290584,
        -0.0035745128264513004,
        0.01891849130704111,
        0.00105189391266612,
        0.08577061130360453,
        0.035940751276513035,
        -0.11319447149048097,
        0.0210245812980514,
        -0.09212885438148358,
        0.09954763891067915,
        -0.07537342519693492,
        0.06128960391807762,
        -0.04826492970351459,
        -0.11097027940536608,
        0.1674769085396643,
        0.05970823643503176,
        -0.06866534444717003,
        0.001198746941397357,
        -0.01620299850197763,
        -0.002574998511037701,
        -0.1234566798790846,
        -0.022997656068376077,
        -0.0008132790522422096,
        0.04701931431393358,
        0.01715301971197523,
        0.07383208629546985,
        0.0031872450222485403,
        0.05068320651007612,
        0.06722514651446244,
        0.07144988168717972
      ],
      [
        -0.030076817620081464,
        -0.03306162167375407,
        0.08074430910085945,
        -0.013648223037700557,
        -0.036634264015906436,
        -0.09999092021536067,
        -0.11785660288442432,
        0.09920453644007993,
        -0.10254897972986213,
        -0.05793473315027953,
        -0.05300456004985711,
        0.004842236154432048,
        0.057654151498686475,
        -0.030076817620081464,
        0.0,
        0.0,
        0.0,
        0.0007652968343769329,
        -0.005327040240455398,
        0.2827236041994471,
        0.00502118924746057,
        0.00702160066349925,
        -0.013352892157971676,
        -0.07689840165904506,
        0.06574741814370033,
        -0.0633008178170884,
        -0.011523433565972505,
        -0.005327040240455398,
        -0.02060599101863315,
        0.1382780376876262,
        0.0,
        0.0,
        -0.013352892157971676,
        -0.032828781638840177,
        0.0,
        -0.005327040240455398,
        -0.03357762962516664,
        0.010296257767231809,
        0.1866723205056959,
        0.04981668128048422,
        0.006209223264280381,
        -0.09704810199232251,
        0.0615411219667664,
        -0.03862873809409342,
        -0.060476629186753304,
        -0.02559082213400382,
        -0.09123643100391797,
        0.0,
        0.2790691069104031,
        0.0,
        -0.047835781989935745,
        0.0,
        -0.013352892157971676,
        -0.021713578999946227,
        -0.0009238127986255614,
        0.0,
        -0.08857666375321034,
        0.0029356990222359465,
        0.0,
        0.016186353117818516,
        0.19801685388966445,
        -0.06900301424516785,
        -0.061981385540705904,
        -0.005327040240455398,
        -0.005327040240455398,
        -0.03330169785363805,
        -0.016850473806427825,
        0.19455373362485373,
        -0.16379394971821473,
        -0.13276386187379788,
        -0.013352892157971676,
        -0.004510080065822382,
        0.23535440185777237,
        -0.004536282367958308,
        0.18705183389742286,
        -0.004510080065822382,
        -0.09074036364126341,
        0.13735197979045763,
        -0.03356222346679732,
        0.07359139142009641,
        0.29604027890958184,
        -0.22265854870765955,
        -0.09834290664269,
        -0.09123643100391797,
        -0.0016996915162344394,
        0.01885911568474787,
        -0.09804702061520786,
        -0.006896936862316087,
        -0.05165707124132566,
        0.006209223264280381,
        -0.013352892157971676,
        0.0029356990222359465,
        0.19801685388966445,
        0.02574970271151615,
        0.03981735495411548,
        0.03845240672401211,
        0.09920453644007993,
        -0.03306162167375407,
        0.08074430910085945,
        -0.10192955591118236,
        -0.09999092021536067,
        -0.11785660288442432
      ],
      [
        0.02517910911162599,
        -0.08614501118366431,
        0.0872568153450725,
        -0.025772319227017424,
        -0.03840890128487273,
        -0.033162302126487346,
        0.02359570321214691,
        -0.1273904967391107,
        -0.05082749633252106,
        0.13508814190207677,
        0.1389713997504228,
        0.012479108929306435,
        -0.05465438222481222,
        0.02517910911162599,
        0.0,
        0.0,
        0.0,
        -0.04889828483532665,
        0.0036555986599546672,
        -0.06220902734750299,
        0.016212196074012187,
        0.14792506192792476,
        0.005845871955170383,
        -0.06388854661423701,
        -0.13561492006749445,
        0.13738069555947127,
        -0.01633168667529035,
        0.0036555986599546672,
        0.05388247746714294,
        0.15738226376509235,
        0.0,
        0.0,
        0.005845871955170383,
        -0.03663295562334277,
        0.0,
        0.0036555986599546672,
        -0.045845477430995096,
        0.00159070419095184,
        -0.12894498335836618,
        -0.22661061288650244,
        -0.01102784508224893,
        0.04195559854100812,
        0.03663028165196098,
        -0.05824081713149194,
        0.13344822757121888,
        -0.049398795728770734,
        0.07319172611063005,
        0.0,
        -0.0805563983518901,
        0.0,
        -0.07501364676654788,
        0.0,
        0.005845871955170383,
        -0.018581953728911565,
        -0.007301784574687864,
        0.0,
        0.07329400647280897,
        -0.015948657998272647,
        0.0,
        0.01626387956059061,
        -0.057080676165268386,
        0.030429957163800137,
        0.023515781534400954,
        0.0036555986599546672,
        0.0036555986599546672,
        -0.061896415791446356,
        -0.01267608801533567,
        -0.1264960329352016,
        0.20031947581607265,
        0.23590994546387095,
        0.005845871955170383,
        -0.0007584302533197578,
        -0.1572902444443154,
        -0.007894692606624672,
        -0.12121279263603241,
        -0.0007584302533197578,
        -0.017483180665481466,
        -0.19558113320074946,
        0.0920374138209168,
        -0.03864782143484732,
        -0.12895366762367122,
        0.12957362810225154,
        0.08622540244767671,
        0.07319172611063005,
        -0.010402587507009542,
        0.030349604408482167,
        -0.11920810540916882,
        0.04613370634401265,
        0.13616803307758163,
        -0.01102784508224893,
        0.005845871955170383,
        -0.015948657998272647,
        -0.057080676165268386,
        -0.003440492520056723,
        -0.015804520726944354,
        -0.03610896761786913,
        -0.1273904967391107,
        -0.08614501118366431,
        0.0872568153450725,
        0.07913987842797865,
        -0.033162302126487346,
        0.02359570321214691
      ],
      [
        0.029155657998843214,
        0.045374546561948406,
        -0.17118836946818033,
        0.06508895472351557,
        -0.03777868749479636,
        0.06592807582738551,
        0.0228110179850973,
        0.011032940587055132,
        0.10121944362524128,
        -0.02973099579586414,
        -0.047685483044479705,
        -0.03358107412084844,
        -0.06906632284673458,
        0.029155657998843214,
        0.0,
        0.0,
        0.0,
        0.021265779052344808,
        0.009277660469819,
        -0.07985885628092837,
        -0.014765948277383999,
        -0.176381219645634,
        0.023710018704778724,
        0.0025407072579368747,
        0.08406868367045325,
        -0.023657286267766576,
        0.04468955637702455,
        0.009277660469819,
        -0.01501362268109895,
        -0.31479034395711025,
        0.0,
        0.0,
        0.023710018704778724,
        -0.05654774122148035,
        0.0,
        0.009277660469819,
        -0.03746050942286249,
        -0.024028196776712925,
        -0.07303974135311665,
        0.1461900242965637,
        0.0036198748765711836,
        0.039833523046993696,
        -0.05956458891980066,
        -0.004236242759106662,
        -0.0032511642716267957,
        -0.05509681859954407,
        -0.04324489902478987,
        0.0,
        -0.07092679189795993,
        0.0,
        0.024664204649855956,
        0.0,
        0.023710018704778724,
        0.05778591375938052,
        -0.0029501368352979175,
        0.0,
        -0.05160354773165226,
        0.015587957487074375,
        0.0,
        -0.04112075546637549,
        -0.017479497845311553,
        0.01098016329026913,
        0.009383071046757382,
        0.009277660469819,
        0.009277660469819,
        -0.013513903228925747,
        0.0539672168468437,
        -0.08723607523199868,
        -0.0945901754510707,
        0.035017009276551124,
        0.023710018704778724,
        0.004216616406476017,
        0.04242112327945095,
        0.01600548780103419,
        -0.08475753256843199,
        0.004216616406476017,
        0.022452933003140788,
        0.0222884021337797,
        0.054719281136360924,
        -0.05596815128330113,
        -0.07495775690442755,
        -0.006462718305271849,
        0.0874909293919482,
        -0.04324489902478987,
        0.06036720872675809,
        0.061761559312136304,
        0.04977821748471191,
        -0.09894500591672843,
        -0.015845617389086002,
        0.0036198748765711836,
        0.023710018704778724,
        0.015587957487074375,
        -0.017479497845311553,
        0.0006884458769165405,
        -0.023199555174928537,
        -0.0493627534200767,
        0.011032940587055132,
        0.045374546561948406,
        -0.17118836946818033,
        -0.027893529026873358,
        0.06592807582738551,
        0.0228110179850973
      ]
    ],
    "workflow_labels": [
      "direct",
      "verify_then_fallback"
    ],
    "workflow_weights": [
      [
        0.34343228766390593,
        0.10006220768199617,
        0.16649218027327534,
        0.05493826718485755,
        0.03187115534632382,
        0.06212301571137381,
        0.025492611394867644,
        0.09105267707661363,
        0.02170066829168325,
        0.00974479863984052,
        0.04075587604049105,
        0.011062429648904125,
        0.054384936969173826,
        0.34343228766390593,
        0.0,
        0.0,
        0.0,
        0.01460545892368607,
        0.0071282543953335165,
        0.05558005752264813,
        0.04137384201616928,
        0.06573926100425759,
        0.003807568326924541,
        0.0526482398042649,
        0.09795321207133628,
        0.02746423157694389,
        0.005042749284554191,
        0.0071282543953335165,
        0.008232246035222334,
        0.14037550753163847,
        0.0,
        0.0,
        0.003807568326924541,
        0.012918122278269916,
        0.0,
        0.0071282543953335165,
        0.014771942555852215,
        0.01329164446354679,
        -0.011657613402879984,
        0.12282802852221113,
        0.031891238472158,
        0.09755795499121885,
        0.041982763852236066,
        0.04237310018802934,
        0.033504657181360135,
        0.028683807166031243,
        0.044989644432536446,
        0.0,
        0.02973469387034929,
        0.0,
        0.05248266295733398,
        0.0,
        0.003807568326924541,
        0.017463703386592328,
        0.04334496596868615,
        0.0,
        0.06602976343804934,
        0.041513022242356167,
        0.0,
        0.00956901143937345,
        0.06794679072099673,
        0.15441746032622905,
        0.11564431620232823,
        0.0071282543953335165,
        0.0071282543953335165,
        0.03524484579269591,
        0.012171003679887622,
        0.06678085711090166,
        0.06670526546687358,
        -0.05209285466482048,
        0.003807568326924541,
        0.008737515544069041,
        0.045961229230183365,
        0.046682876748187996,
        0.043290739363397245,
        0.008737515544069041,
        0.0570115381166501,
        0.07052995145649295,
        0.08128764745510303,
        0.11471164648385006,
        0.034904449653775156,
        0.03272127480909493,
        0.0312252740197871,
        0.044989644432536446,
        0.017214398810712447,
        0.06484326086479711,
        0.03771134527930406,
        0.11576393988470372,
        0.02782880510436915,
        0.031891238472158,
        0.003807568326924541,
        0.041513022242356167,
        0.06794679072099673,
        0.11761848670666425,
        0.01763112188068944,
        0.11283866513945849,
        0.09105267707661363,
        0.10006220768199617,
        0.16649218027327534,
        0.0698373317649736,
        0.06212301571137381,
        0.025492611394867644
      ],
      [
        -0.3434322876639058,
        -0.10006220768199624,
        -0.1664921802732752,
        -0.05493826718485754,
        -0.031871155346323815,
        -0.06212301571137387,
        -0.02549261139486759,
        -0.09105267707661366,
        -0.02170066829168324,
        -0.009744798639840522,
        -0.04075587604049108,
        -0.011062429648904124,
        -0.05438493696917382,
        -0.3434322876639058,
        0.0,
        0.0,
        0.0,
        -0.014605458923686072,
        -0.0071282543953335165,
        -0.05558005752264813,
        -0.041373842016169275,
        -0.06573926100425756,
        -0.003807568326924541,
        -0.052648239804264904,
        -0.09795321207133625,
        -0.0274642315769439,
        -0.005042749284554191,
        -0.0071282543953335165,
        -0.008232246035222289,
        -0.14037550753163855,
        0.0,
        0.0,
        -0.003807568326924541,
        -0.012918122278269916,
        0.0,
        -0.0071282543953335165,
        -0.014771942555852216,
        -0.013291644463546793,
        0.01165761340287998,
        -0.1228280285222111,
        -0.03189123847215801,
        -0.09755795499121876,
        -0.04198276385223607,
        -0.04237310018802936,
        -0.033504657181360135,
        -0.02868380716603125,
        -0.04498964443253643,
        0.0,
        -0.02973469387034929,
        0.0,
        -0.05248266295733399,
        0.0,
        -0.003807568326924541,
        -0.017463703386592335,
        -0.04334496596868608,
        0.0,
        -0.06602976343804937,
        -0.041513022242356194,
        0.0,
        -0.009569011439373451,
        -0.06794679072099673,
        -0.15441746032622908,
        -0.11564431620232817,
        -0.0071282543953335165,
        -0.0071282543953335165,
        -0.03524484579269593,
        -0.012171003679887625,
        -0.06678085711090165,
        -0.0667052654668736,
        0.05209285466482047,
        -0.003807568326924541,
        -0.008737515544069041,
        -0.04596122923018337,
        -0.046682876748187996,
        -0.04329073936339726,
        -0.008737515544069041,
        -0.05701153811665004,
        -0.07052995145649296,
        -0.08128764745510302,
        -0.11471164648385003,
        -0.03490444965377513,
        -0.03272127480909493,
        -0.031225274019787128,
        -0.04498964443253643,
        -0.01721439881071245,
        -0.06484326086479712,
        -0.037711345279304066,
        -0.11576393988470378,
        -0.02782880510436915,
        -0.03189123847215801,
        -0.003807568326924541,
        -0.041513022242356194,
        -0.06794679072099673,
        -0.11761848670666429,
        -0.01763112188068943,
        -0.11283866513945848,
        -0.09105267707661366,
        -0.10006220768199624,
        -0.1664921802732752,
        -0.06983733176497361,
        -0.06212301571137387,
        -0.02549261139486759
      ]
    ]
  },
  "substrate": "research/datasets/20260628-m5-small-orchestrator-substrate-50task.jsonl",
  "target_balance_power": 1.0
}
