{
  "dataset": "research/datasets/20260627-mixed-winner-10task-routing.jsonl",
  "epochs": 300,
  "l2": 0.0001,
  "learning_rate": 0.0005,
  "model_type": "linear-softmax-logits-router",
  "router": {
    "feature_names": [
      "bias",
      "category_datasci",
      "category_filesystem",
      "category_general",
      "category_network",
      "category_plotting",
      "category_subprocess",
      "environment_risk",
      "family_bigcodebench_hard",
      "family_code_data",
      "family_code_easy",
      "family_code_text",
      "kw_base64",
      "kw_convert",
      "kw_count",
      "kw_csv",
      "kw_default",
      "kw_dict",
      "kw_directory",
      "kw_download",
      "kw_email",
      "kw_encoding",
      "kw_exception",
      "kw_file",
      "kw_flatten",
      "kw_frequent",
      "kw_ftp",
      "kw_group",
      "kw_hash",
      "kw_hex",
      "kw_key",
      "kw_list",
      "kw_lowercase",
      "kw_number",
      "kw_pair",
      "kw_parse",
      "kw_process",
      "kw_socket",
      "kw_sorted",
      "kw_ssl",
      "kw_string",
      "kw_strip",
      "kw_subprocess",
      "kw_sum",
      "kw_title",
      "kw_url",
      "kw_urllib",
      "kw_window",
      "kw_word",
      "kw_zip",
      "length_chars",
      "length_tokens",
      "lib_base64",
      "lib_binascii",
      "lib_codecs",
      "lib_collections",
      "lib_csv",
      "lib_datetime",
      "lib_ftplib",
      "lib_functools",
      "lib_glob",
      "lib_itertools",
      "lib_math",
      "lib_os",
      "lib_pathlib",
      "lib_random",
      "lib_re",
      "lib_shutil",
      "lib_statistics",
      "lib_subprocess",
      "lib_urllib",
      "lib_zipfile",
      "library_count",
      "missing_library_count",
      "plausibility_score"
    ],
    "policy": "logits-router",
    "weights": [
      [
        -0.0759613636578073,
        0.0,
        -0.08453038520039677,
        0.008569021542589364,
        -0.015548116877164422,
        0.0,
        -0.005967586367398185,
        -0.009328870126298659,
        -0.0759613636578073,
        0.0,
        0.0,
        0.0,
        0.0016117096346638892,
        0.0016117096346638892,
        0.009580530509766266,
        -0.032511400581076655,
        -0.015548116877164422,
        0.01119224014443014,
        -0.06217824767724311,
        -0.005967586367398185,
        0.0,
        0.0016117096346638892,
        -0.022048499643459053,
        -0.04539036270714014,
        0.0,
        0.0,
        -0.015548116877164422,
        0.0,
        0.0,
        0.0016117096346638892,
        0.0016117096346638892,
        -0.054646078592644504,
        0.0,
        -0.016357173316121024,
        0.0,
        0.0016117096346638892,
        0.0,
        0.0,
        0.0,
        0.0,
        0.0016117096346638892,
        0.0,
        -0.015548116877164422,
        0.006957311907925485,
        0.0,
        0.01119224014443014,
        0.01119224014443014,
        0.0,
        0.0,
        -0.02416676279276543,
        -0.028621055288161636,
        -0.021460919972800148,
        0.0016117096346638892,
        0.0016117096346638892,
        0.0016117096346638892,
        0.009580530509766266,
        -0.02235213752315356,
        -0.023314485224046406,
        -0.015548116877164422,
        0.006957311907925485,
        -0.023038225183986277,
        0.006957311907925485,
        0.006957311907925485,
        -0.08453038520039677,
        -0.01015926305792303,
        -0.03193266803291988,
        -0.023591905616092337,
        -0.022463368007313203,
        -0.008618182808873345,
        -0.015548116877164422,
        0.01119224014443014,
        -0.02416676279276543,
        -0.025878378191983468,
        0.0,
        -0.0217782960195506
      ],
      [
        -0.044477303679969084,
        0.0,
        -0.04562407710954774,
        0.001146773429578499,
        -0.025068089716567474,
        0.0,
        -0.019510004549156773,
        -0.015040853829940528,
        -0.044477303679969084,
        0.0,
        0.0,
        0.0,
        -0.000112238428771823,
        -0.000112238428771823,
        0.005558085167410717,
        0.033000040918761436,
        -0.025068089716567474,
        0.005445846738638879,
        -0.008983577603307298,
        -0.019510004549156773,
        0.0,
        -0.000112238428771823,
        0.026595587879488566,
        0.008206081064054516,
        0.0,
        0.0,
        -0.025068089716567474,
        0.0,
        0.0,
        -0.000112238428771823,
        -0.000112238428771823,
        -0.0802534544660333,
        0.0,
        -0.012954803345004574,
        0.0,
        -0.000112238428771823,
        0.0,
        0.0,
        0.0,
        0.0,
        -0.000112238428771823,
        0.0,
        -0.025068089716567474,
        0.001259011858350324,
        0.0,
        0.005445846738638879,
        0.005445846738638879,
        0.0,
        0.0,
        0.043766820264041405,
        -0.021278849412145653,
        -0.01663881161941624,
        -0.000112238428771823,
        -0.000112238428771823,
        -0.000112238428771823,
        0.005558085167410717,
        -0.03664049950624043,
        -0.014213815203354898,
        -0.025068089716567474,
        0.001259011858350324,
        0.044846580570294864,
        0.001259011858350324,
        0.001259011858350324,
        -0.04562407710954774,
        0.06964054042500199,
        -0.04219858467365127,
        -0.028762068457034808,
        -0.027682308150781102,
        -0.027984769470296326,
        -0.025068089716567474,
        0.005445846738638879,
        0.043766820264041405,
        -0.010054410854991846,
        0.0,
        -0.019055454054131678
      ],
      [
        0.06152123150699507,
        0.0,
        0.06598172113031428,
        -0.0044604896233188425,
        0.02517444305610586,
        0.0,
        0.011524085311599553,
        0.015104665833663497,
        0.06152123150699507,
        0.0,
        0.0,
        0.0,
        -0.0011778201445579904,
        -0.0011778201445579904,
        -0.013650357744506235,
        0.10118894740841718,
        0.02517444305610586,
        -0.014828177889064206,
        -0.06206850014166432,
        0.011524085311599553,
        0.0,
        -0.0011778201445579904,
        -0.0575752606630029,
        0.062233544776137,
        0.0,
        0.0,
        0.02517444305610586,
        0.0,
        0.0,
        -0.0011778201445579904,
        -0.0011778201445579904,
        -0.03587188295753727,
        0.0,
        0.06761482821180978,
        0.0,
        -0.0011778201445579904,
        0.0,
        0.0,
        0.0,
        0.0,
        -0.0011778201445579904,
        0.0,
        0.02517444305610586,
        -0.003282669478760861,
        0.0,
        -0.014828177889064206,
        -0.014828177889064206,
        0.0,
        0.0,
        -0.05090555336481655,
        0.01990563607029604,
        0.012698475054382746,
        -0.0011778201445579904,
        -0.0011778201445579904,
        -0.0011778201445579904,
        -0.013650357744506235,
        0.12805022127197857,
        0.07089749769057062,
        0.02517444305610586,
        -0.003282669478760861,
        -0.06581667649584162,
        -0.003282669478760861,
        -0.003282669478760861,
        0.06598172113031428,
        -0.0268612738635614,
        0.14170057901648447,
        -0.02142626670192859,
        -0.03633738983295374,
        0.07080308132591404,
        0.02517444305610586,
        -0.014828177889064206,
        -0.05090555336481655,
        0.02845748217848456,
        0.0,
        0.02526974535177641
      ],
      [
        0.05891743583078131,
        0.0,
        0.06417274117963047,
        -0.005255305348849031,
        0.01544176353762618,
        0.0,
        0.013953505604955417,
        0.009265058122575685,
        0.05891743583078131,
        0.0,
        0.0,
        0.0,
        -0.00032165106133408365,
        -0.00032165106133408365,
        -0.0014882579326707505,
        -0.10167758774610185,
        0.01544176353762618,
        -0.0018099089940048314,
        0.13323032542221525,
        0.013953505604955417,
        0.0,
        -0.00032165106133408365,
        0.05302817242697329,
        -0.025049263133051492,
        0.0,
        0.0,
        0.01544176353762618,
        0.0,
        0.0,
        -0.00032165106133408365,
        -0.00032165106133408365,
        0.17077141601621512,
        0.0,
        -0.03830285155068413,
        0.0,
        -0.00032165106133408365,
        0.0,
        0.0,
        0.0,
        0.0,
        -0.00032165106133408365,
        0.0,
        0.01544176353762618,
        -0.004933654287514962,
        0.0,
        -0.0018099089940048314,
        -0.0018099089940048314,
        0.0,
        0.0,
        0.03130549589354063,
        0.029994268630011298,
        0.025401256537833587,
        -0.00032165106133408365,
        -0.00032165106133408365,
        -0.00032165106133408365,
        -0.0014882579326707505,
        -0.06905758424258462,
        -0.03336919726316918,
        0.01544176353762618,
        -0.004933654287514962,
        0.04400832110953284,
        -0.004933654287514962,
        -0.004933654287514962,
        0.06417274117963047,
        -0.0326200035035175,
        -0.06756932630991372,
        0.07378024077505584,
        0.08648306599104803,
        -0.034200129046744424,
        0.01544176353762618,
        -0.0018099089940048314,
        0.03130549589354063,
        0.007475306868490805,
        0.0,
        0.01556400472190585
      ]
    ],
    "worker_ids": [
      "ollama-cloud-deepseek-v4-pro",
      "ollama-cloud-glm-5.2",
      "ollama-cloud-kimi-k2.7-code",
      "ollama-cloud-qwen3-coder-480b"
    ]
  }
}
