{
  "contract_type": "multi-head-orchestrator-logits-contract",
  "heads": {
    "abstain_probability": {
      "head_type": "sigmoid",
      "logit": -2.9444389791664403,
      "loss": "binary_cross_entropy",
      "source": "calibrated_bridge_prior",
      "threshold": 0.5,
      "training_target": "future unsolved or high-risk task labels"
    },
    "verifier_probability": {
      "head_type": "sigmoid",
      "logit": -0.4054651081081643,
      "loss": "binary_cross_entropy",
      "regression_passed": true,
      "source": "selected_gated_fallback_teacher",
      "teacher_fallback_rate": 0.4,
      "teacher_policy": "gated-fallback",
      "teacher_solvable_pass_at_1": 0.95,
      "threshold": 0.5,
      "training_target": "fallback/verifier usefulness probability"
    },
    "worker_distribution": {
      "feature_names": [
        "bias",
        "category_datasci",
        "category_filesystem",
        "category_general",
        "category_network",
        "category_plotting",
        "category_subprocess",
        "combo_archive_filesystem",
        "combo_dataframe_plotting",
        "combo_network_archive",
        "combo_network_filesystem",
        "combo_network_plotting",
        "environment_risk",
        "family_bigcodebench_hard",
        "family_code_data",
        "family_code_easy",
        "family_code_text",
        "kw_archive",
        "kw_base64",
        "kw_convert",
        "kw_count",
        "kw_csv",
        "kw_default",
        "kw_dict",
        "kw_directory",
        "kw_download",
        "kw_email",
        "kw_encoding",
        "kw_exception",
        "kw_file",
        "kw_flatten",
        "kw_frequent",
        "kw_ftp",
        "kw_group",
        "kw_hash",
        "kw_hex",
        "kw_http",
        "kw_https",
        "kw_key",
        "kw_list",
        "kw_lowercase",
        "kw_number",
        "kw_pair",
        "kw_parse",
        "kw_process",
        "kw_request",
        "kw_requests",
        "kw_socket",
        "kw_sorted",
        "kw_ssl",
        "kw_string",
        "kw_strip",
        "kw_subprocess",
        "kw_sum",
        "kw_title",
        "kw_unpack",
        "kw_url",
        "kw_urllib",
        "kw_window",
        "kw_word",
        "kw_zip",
        "length_chars",
        "length_tokens",
        "lib_base64",
        "lib_binascii",
        "lib_codecs",
        "lib_collections",
        "lib_csv",
        "lib_datetime",
        "lib_ftplib",
        "lib_functools",
        "lib_glob",
        "lib_itertools",
        "lib_json",
        "lib_math",
        "lib_matplotlib",
        "lib_numpy",
        "lib_os",
        "lib_pandas",
        "lib_pathlib",
        "lib_random",
        "lib_re",
        "lib_requests",
        "lib_shutil",
        "lib_statistics",
        "lib_subprocess",
        "lib_urllib",
        "lib_zipfile",
        "library_count",
        "missing_library_count",
        "plausibility_score",
        "signal_archive",
        "signal_dataframe",
        "signal_filesystem",
        "signal_network",
        "signal_plotting",
        "signal_subprocess"
      ],
      "head_type": "softmax",
      "loss": "kl_divergence",
      "source": "active_logits_router",
      "training_target": "soft worker reward distribution",
      "weights": [
        [
          -0.022842529602310414,
          0.04846752326442045,
          0.0279680000018561,
          0.000604006762331636,
          -0.022804667301857668,
          0.0326363260264233,
          -0.03414836649646994,
          0.009530568147611636,
          0.01725597041830231,
          -0.023108867640751624,
          -0.02668148804201486,
          0.02021083741791798,
          -0.013682800381114468,
          -0.022842529602310414,
          0.0,
          0.0,
          0.0,
          0.0,
          -0.008935960257690754,
          -0.008935960257690754,
          0.019232046900594293,
          -0.006586128604608493,
          -0.022804667301857668,
          0.09031375250270167,
          -0.038175596693603424,
          -0.02668148804201486,
          -0.027191450537218526,
          -0.008935960257690754,
          -0.0917486096685711,
          0.10359230004344176,
          0.0,
          0.0,
          -0.022804667301857668,
          0.0,
          0.0,
          -0.008935960257690754,
          0.0,
          0.0,
          0.10447671350471283,
          -0.004778545156232828,
          0.0,
          -0.04833056288280474,
          0.0,
          -0.008935960257690754,
          -0.05030031817796989,
          0.019232046900594293,
          -0.023108867640751624,
          0.0,
          0.0,
          0.0,
          -0.008935960257690754,
          0.0,
          -0.022804667301857668,
          -0.015361530519335035,
          0.007508473327481432,
          0.0,
          -0.01281278099784803,
          0.01029608664290356,
          0.0,
          0.02995833450873903,
          -0.08046739174639078,
          -0.05960538702492142,
          -0.04521366539467409,
          -0.008935960257690754,
          -0.008935960257690754,
          -0.036127410794909255,
          0.12437756545933404,
          0.032748588792853785,
          -0.0394678390885188,
          -0.022804667301857668,
          0.009539967020022381,
          -0.08483639213165045,
          0.005942239104458648,
          0.10676890487579138,
          0.009539967020022381,
          0.0326363260264233,
          0.07918682191575484,
          -0.0924713406937779,
          -0.06150847710411655,
          -0.027617390342792595,
          0.021908566820673096,
          -0.029981733038647197,
          -0.023108867640751624,
          0.08999795989400226,
          -0.06658293812629032,
          -0.022804667301857668,
          0.01029608664290356,
          -0.08046739174639078,
          -0.008270804225470253,
          0.0,
          -0.025077959169734806,
          0.009530568147611636,
          0.04846752326442045,
          0.0279680000018561,
          -0.03561744829970557,
          0.0326363260264233,
          -0.03414836649646994
        ],
        [
          -0.09599084908360495,
          -0.06089373224017192,
          -0.06290477701919728,
          -0.007867861035381962,
          -0.018959669774808337,
          -0.00425161353953722,
          -0.03909730693582601,
          0.02556246952122241,
          -0.008311111528860339,
          -0.02226547279976948,
          -0.023961238088794693,
          0.005186765333899669,
          -0.01137580186488501,
          -0.09599084908360495,
          0.0,
          0.0,
          0.0,
          0.0,
          -0.004207208968890754,
          -0.004207208968890754,
          0.01726390448578315,
          0.04326809280681673,
          -0.018959669774808337,
          -0.013570945357335164,
          -0.01367513123676405,
          -0.023961238088794693,
          -0.02005208681481422,
          -0.004207208968890754,
          0.0378466365900519,
          0.0016916936847433466,
          0.0,
          0.0,
          -0.018959669774808337,
          0.0,
          0.0,
          -0.004207208968890754,
          0.0,
          0.0,
          -0.022830157214975794,
          -0.11414425879406102,
          0.0,
          -0.0473461842170753,
          0.0,
          -0.004207208968890754,
          -0.04231755961458364,
          0.01726390448578315,
          -0.02226547279976948,
          0.0,
          0.0,
          0.0,
          -0.004207208968890754,
          0.0,
          -0.018959669774808337,
          -0.023938583049669223,
          -0.003700541985020347,
          0.0,
          -0.00920877728287704,
          0.013056695516892368,
          0.0,
          0.0005761957900596197,
          0.07319447156811998,
          -0.053042806839897566,
          -0.042323093630246826,
          -0.004207208968890754,
          -0.004207208968890754,
          -0.024259295783705018,
          -0.009914807942961332,
          -0.05723433841057606,
          -0.044342302672998074,
          -0.018959669774808337,
          -0.003660652066491151,
          0.07614847631385491,
          -0.0025872381884048615,
          -0.019342784866787605,
          -0.003660652066491151,
          -0.00425161353953722,
          -0.045030118020895765,
          -0.0466506668127691,
          -0.03484228715600375,
          0.1179624349063279,
          -0.07370998892963981,
          -0.04596202831528576,
          -0.02226547279976948,
          -0.04763200204689753,
          -0.021264160073586138,
          -0.018959669774808337,
          0.013056695516892368,
          0.07319447156811998,
          -0.027258208887500385,
          0.0,
          -0.028680785877268355,
          0.02556246952122241,
          -0.06089373224017192,
          -0.06290477701919728,
          -0.028168447057685366,
          -0.00425161353953722,
          -0.03909730693582601
        ],
        [
          0.029492475037000306,
          -0.09699467300683608,
          0.04343069700927545,
          0.00044367077662408217,
          0.017563234678186115,
          0.008628293995931558,
          0.04245573311666467,
          -0.06620729276675118,
          -0.004707795762964113,
          0.09093424193170639,
          0.09100705752189626,
          0.010900323110802412,
          0.010537940806911705,
          0.029492475037000306,
          0.0,
          0.0,
          0.0,
          0.0,
          0.0025728294141998324,
          0.0025728294141998324,
          -0.017490419087995996,
          0.04311950437337512,
          0.017563234678186115,
          -0.0599393129321026,
          -0.0770668211390182,
          0.09100705752189626,
          -0.03091847399334594,
          0.0025728294141998324,
          -0.04937752873887003,
          0.08824642634999702,
          0.0,
          0.0,
          0.017563234678186115,
          0.0,
          0.0,
          0.0025728294141998324,
          0.0,
          0.0,
          -0.0470372476541602,
          -0.10504595742621665,
          0.0,
          0.0632852161920348,
          0.0,
          0.0025728294141998324,
          0.060015767938360325,
          -0.017490419087995996,
          0.09093424193170639,
          0.0,
          0.0,
          0.0,
          0.0025728294141998324,
          0.0,
          0.017563234678186115,
          -0.030551921688029043,
          0.001317052682161259,
          0.0,
          0.07601665225791035,
          -0.014917589673796212,
          0.0,
          0.004875474665676996,
          0.010868454042679271,
          0.026604634797902697,
          0.01876004971119457,
          0.0025728294141998324,
          0.0025728294141998324,
          -0.028345644579146168,
          -0.0552009010325324,
          0.1250858719583467,
          0.04874703964802371,
          0.017563234678186115,
          -0.0021291586375757426,
          -0.1071586318285682,
          0.0040816872714579235,
          -0.03626557363853417,
          -0.0021291586375757426,
          0.008628293995931558,
          -0.06485387667694154,
          0.06665177404597718,
          -0.05684842441420619,
          -0.03805492761366268,
          0.1592075399762376,
          -0.057563433648029884,
          0.09093424193170639,
          -0.07707574680942991,
          0.1063586408748697,
          0.017563234678186115,
          -0.014917589673796212,
          0.010868454042679271,
          0.012029260474000164,
          0.0,
          0.017434623730664348,
          -0.06620729276675118,
          -0.09699467300683608,
          0.04343069700927545,
          0.09357988693609626,
          0.008628293995931558,
          0.04245573311666467
        ],
        [
          0.08934090364891523,
          0.10942088198258734,
          -0.008493919991934079,
          0.006820183496426211,
          0.02420110239847983,
          -0.03701300648281759,
          0.0307899403156313,
          0.031114255097916845,
          -0.004237063126477833,
          -0.045559901491185155,
          -0.04036433139108711,
          -0.036297925862619984,
          0.014520661439087899,
          0.08934090364891523,
          0.0,
          0.0,
          0.0,
          0.0,
          0.010570339812381774,
          0.010570339812381774,
          -0.019005532298381478,
          -0.07980146857558368,
          0.02420110239847983,
          -0.016803494213263433,
          0.12891754906938557,
          -0.04036433139108711,
          0.0781620113453784,
          0.010570339812381774,
          0.10327950181738958,
          -0.19353042007818239,
          0.0,
          0.0,
          0.02420110239847983,
          0.0,
          0.0,
          0.010570339812381774,
          0.0,
          0.0,
          -0.03460930863557681,
          0.22396876137651134,
          0.0,
          0.03239153090784481,
          0.0,
          0.010570339812381774,
          0.03260210985419317,
          -0.019005532298381478,
          -0.045559901491185155,
          0.0,
          0.0,
          0.0,
          0.010570339812381774,
          0.0,
          0.02420110239847983,
          0.06985203525703318,
          -0.005124984024622351,
          0.0,
          -0.05399509397718501,
          -0.00843519248599972,
          0.0,
          -0.03541000496447554,
          -0.0035955338644086013,
          0.08604355906691613,
          0.06877670931372629,
          0.010570339812381774,
          0.010570339812381774,
          0.0887323511577604,
          -0.059261856483840365,
          -0.10060012234062475,
          0.03506310211349318,
          0.02420110239847983,
          -0.0037501563159555154,
          0.11584654764636387,
          -0.007436688187511711,
          -0.05116054637046967,
          -0.0037501563159555154,
          -0.03701300648281759,
          0.030697172782083147,
          0.07247023346057034,
          0.1531991886743267,
          -0.052290116949872664,
          -0.10740611786727025,
          0.1335071950019627,
          -0.045559901491185155,
          0.03470978896232535,
          -0.018511542674992998,
          0.02420110239847983,
          -0.00843519248599972,
          -0.0035955338644086013,
          0.023499752638970438,
          0.0,
          0.03632412131633888,
          0.031114255097916845,
          0.10942088198258734,
          -0.008493919991934079,
          -0.02979399157870536,
          -0.03701300648281759,
          0.0307899403156313
        ]
      ],
      "worker_ids": [
        "ollama-cloud-deepseek-v4-pro",
        "ollama-cloud-glm-5.2",
        "ollama-cloud-kimi-k2.7-code",
        "ollama-cloud-qwen3-coder-480b"
      ]
    },
    "workflow_kind": {
      "head_type": "softmax",
      "labels": [
        "direct",
        "verify_then_fallback"
      ],
      "logits": [
        1.7346010553881064,
        -1.7346010553881064
      ],
      "loss": "cross_entropy",
      "source": "calibrated_bridge_prior",
      "training_target": "future terminal or fallback trajectory workflow labels"
    }
  },
  "promotion_requirements": {
    "min_repeated_tasks": 50,
    "requires_backbone_latency_report": true,
    "requires_leave_one_out": true,
    "requires_terminal_bench_pilot_before_memory_refresh": true
  },
  "purpose": "Defines the M5 action-logit surface before training a compact neural or language-model backbone.",
  "schema_version": "mempool.orchestrator_contract.v1",
  "sources": {
    "active_dataset": "research/datasets/20260627-mixed-winner-23task-heldout-hard-routing.jsonl",
    "active_policy_registry": "research/policies/active_policy.json",
    "active_worker_model": "research/models/20260627-mixed-winner-23task-heldout-hard-reward-t0p05-logits-router.json",
    "fallback_report": "research/evals/results/20260627-selected-gated-fallback-active-23task.json",
    "regression_report": "research/evals/results/20260627-selected-gated-fallback-regression-slices.json"
  },
  "status": "bridge-contract",
  "validation": {
    "available_heads": [
      "abstain_probability",
      "verifier_probability",
      "worker_distribution",
      "workflow_kind"
    ],
    "head_count": 4,
    "reasons": [],
    "valid": true
  }
}
