{
  "dataset": "research/datasets/20260628-mixed-winner-26task-next3-917-neighborhood-routing.jsonl",
  "epochs": 300,
  "l2": 0.0001,
  "learning_rate": 0.0005,
  "model_type": "linear-softmax-logits-router",
  "reward_temperature": 0.05,
  "router": {
    "feature_names": [
      "bias",
      "category_datasci",
      "category_filesystem",
      "category_general",
      "category_network",
      "category_plotting",
      "category_subprocess",
      "combo_archive_filesystem",
      "combo_dataframe_plotting",
      "combo_network_archive",
      "combo_network_filesystem",
      "combo_network_plotting",
      "environment_risk",
      "family_bigcodebench_hard",
      "family_code_data",
      "family_code_easy",
      "family_code_text",
      "kw_archive",
      "kw_base64",
      "kw_convert",
      "kw_count",
      "kw_csv",
      "kw_default",
      "kw_dict",
      "kw_directory",
      "kw_download",
      "kw_email",
      "kw_encoding",
      "kw_exception",
      "kw_file",
      "kw_flatten",
      "kw_frequent",
      "kw_ftp",
      "kw_group",
      "kw_hash",
      "kw_hex",
      "kw_http",
      "kw_https",
      "kw_key",
      "kw_list",
      "kw_lowercase",
      "kw_number",
      "kw_pair",
      "kw_parse",
      "kw_process",
      "kw_request",
      "kw_requests",
      "kw_socket",
      "kw_sorted",
      "kw_ssl",
      "kw_string",
      "kw_strip",
      "kw_subprocess",
      "kw_sum",
      "kw_title",
      "kw_unpack",
      "kw_url",
      "kw_urllib",
      "kw_window",
      "kw_word",
      "kw_zip",
      "length_chars",
      "length_tokens",
      "lib_base64",
      "lib_binascii",
      "lib_codecs",
      "lib_collections",
      "lib_csv",
      "lib_datetime",
      "lib_ftplib",
      "lib_functools",
      "lib_glob",
      "lib_itertools",
      "lib_json",
      "lib_math",
      "lib_matplotlib",
      "lib_numpy",
      "lib_os",
      "lib_pandas",
      "lib_pathlib",
      "lib_random",
      "lib_re",
      "lib_requests",
      "lib_shutil",
      "lib_sklearn",
      "lib_statistics",
      "lib_statsmodels",
      "lib_subprocess",
      "lib_typing",
      "lib_urllib",
      "lib_zipfile",
      "library_count",
      "missing_library_count",
      "plausibility_score",
      "signal_archive",
      "signal_dataframe",
      "signal_filesystem",
      "signal_network",
      "signal_plotting",
      "signal_subprocess"
    ],
    "policy": "logits-router",
    "weights": [
      [
        -0.028857575079341755,
        0.039909918510908124,
        0.030004412537314347,
        0.0010620062249660275,
        -0.02264350098670442,
        0.013989117902930791,
        -0.024556692334822088,
        0.009938782084883491,
        -0.003455647446858959,
        -0.023448762933943313,
        -0.026872830366086155,
        0.020859898396895796,
        -0.023546593135969174,
        -0.028857575079341755,
        0.0,
        0.0,
        0.0,
        0.0,
        -0.008839452658411807,
        0.0011325868966001623,
        0.029191473109573405,
        -0.00577096027046451,
        -0.02264350098670442,
        0.0907475654211476,
        -0.0373604162971425,
        -0.026872830366086155,
        -0.027502895302599573,
        -0.008839452658411807,
        -0.0802543948289038,
        0.10495835475379993,
        0.0,
        0.0,
        -0.02264350098670442,
        0.0,
        0.0,
        -0.008839452658411807,
        0.0,
        0.0,
        0.10563243048050734,
        -0.03255531494482454,
        0.0,
        -0.0476628094472415,
        0.0,
        -0.008839452658411807,
        -0.04097961868153071,
        0.019219433554561422,
        -0.023448762933943313,
        0.0,
        0.0,
        0.0,
        -0.008839452658411807,
        0.0,
        -0.02264350098670442,
        -0.014754238511943681,
        0.009070725826293804,
        0.0,
        -0.013068782037793658,
        0.010379980896149709,
        0.0,
        0.04155441195534023,
        -0.08054519228336882,
        -0.057095945900222725,
        -0.0442917496089095,
        -0.008839452658411807,
        -0.008839452658411807,
        -0.036342347961011406,
        0.1277542574327827,
        0.03326053022053584,
        -0.038096340194578485,
        -0.02264350098670442,
        0.009901458883377836,
        -0.08427629620706144,
        0.006829609181241335,
        0.10783007648372053,
        0.009901458883377836,
        0.013989117902930791,
        0.08137521192059026,
        -0.09208296878147543,
        -0.07204003841441835,
        -0.027620193312703965,
        0.024354024172536015,
        -0.01701836022882438,
        -0.023448762933943313,
        0.0904839743682522,
        0.01878761076602173,
        -0.06586842482165876,
        -0.032064418487595045,
        -0.02264350098670442,
        -0.032064418487595045,
        0.010379980896149709,
        -0.08054519228336882,
        -0.012958635829294999,
        -0.004980246271973219,
        -0.033614656572274616,
        0.009938782084883491,
        0.039909918510908124,
        0.030004412537314347,
        -0.035712283024498116,
        0.013989117902930791,
        -0.024556692334822088
      ],
      [
        -0.08811488912318727,
        -0.050067138528744545,
        -0.06594219772635056,
        -0.008499398857640882,
        -0.01917523511613128,
        0.013116307047817575,
        -0.043895501824088835,
        0.024645020216585833,
        0.010593893777072979,
        -0.02212181703180078,
        -0.02405220526798252,
        0.005017557632897177,
        0.000163070824844441,
        -0.08811488912318727,
        0.0,
        0.0,
        0.0,
        0.0,
        -0.004376848926523432,
        -0.007983806807188992,
        0.013637888999283991,
        0.041613248404310535,
        -0.01917523511613128,
        -0.014214385366731601,
        -0.01563052495736598,
        -0.02405220526798252,
        -0.020512484068820443,
        -0.004376848926523432,
        0.025917277882486992,
        0.00010388218300252179,
        0.0,
        0.0,
        -0.01917523511613128,
        0.0,
        0.0,
        -0.004376848926523432,
        0.0,
        0.0,
        -0.02384734444715636,
        -0.09031912724479696,
        0.0,
        -0.04873448223556266,
        0.0,
        -0.004376848926523432,
        -0.04624125898128687,
        0.017244846879949483,
        -0.02212181703180078,
        0.0,
        0.0,
        0.0,
        -0.004376848926523432,
        0.0,
        -0.01917523511613128,
        -0.025222859988938074,
        -0.005233039788253831,
        0.0,
        -0.009253819078374793,
        0.012867997953426105,
        0.0,
        -0.004614125093757234,
        0.07308328804601925,
        -0.053003060689189814,
        -0.04206128708406249,
        -0.004376848926523432,
        -0.004376848926523432,
        -0.024889332995343974,
        -0.013339848015452337,
        -0.05792356056850919,
        -0.046662815937071174,
        -0.01917523511613128,
        -0.004122549931117505,
        0.07518140271145457,
        -0.0042791861827539196,
        -0.020383010460507972,
        -0.004122549931117505,
        0.013116307047817575,
        -0.0487586708537064,
        -0.04889492967198699,
        -0.0219775879954954,
        0.118042788864013,
        -0.07624118368178848,
        -0.053392288260131454,
        -0.02212181703180078,
        -0.04843826782943363,
        -0.01101533541002032,
        -0.02207036563467043,
        0.0292600359406705,
        -0.01917523511613128,
        0.0292600359406705,
        0.012867997953426105,
        0.07308328804601925,
        -0.022492561197214576,
        0.005834105947261575,
        -0.018350705438229805,
        0.024645020216585833,
        -0.050067138528744545,
        -0.06594219772635056,
        -0.028429054194506077,
        0.013116307047817575,
        -0.043895501824088835
      ],
      [
        0.04606136998823952,
        -0.07125314565713552,
        0.032225669491230624,
        -0.0018225315907549333,
        0.016100132246584947,
        0.04232727948821639,
        0.03707843608778071,
        -0.06829584858959128,
        0.03536706120504341,
        0.09156635640392193,
        0.08873051127132843,
        0.008463827765026435,
        0.04153111900885223,
        0.04606136998823952,
        0.0,
        0.0,
        0.0,
        0.0,
        0.0017054905527073608,
        0.005107208594587795,
        -0.015534259337298191,
        0.03820347566099542,
        0.016100132246584947,
        -0.061771994318526514,
        -0.0830739917281581,
        0.08873051127132843,
        -0.03359476111085636,
        0.0017054905527073608,
        -0.0670526535173049,
        0.08184149193856549,
        0.0,
        0.0,
        0.016100132246584947,
        0.0,
        0.0,
        0.0017054905527073608,
        0.0,
        0.0,
        -0.051748734641698435,
        -0.06896276971986291,
        0.0,
        0.05959473340721563,
        0.0,
        0.0017054905527073608,
        0.06137331333494616,
        -0.018935977379178643,
        0.09156635640392193,
        0.0,
        0.0,
        0.0,
        0.0017054905527073608,
        0.0,
        0.016100132246584947,
        -0.03440629752861464,
        -0.004972636509553175,
        0.0,
        0.07433586957745095,
        -0.017230486826471304,
        0.0,
        0.0013546561145879618,
        0.01117138115618892,
        0.029124043782093344,
        0.01973225439393213,
        0.0017054905527073608,
        0.0017054905527073608,
        -0.031889270558148976,
        -0.06702815628037948,
        0.1242123789217392,
        0.038057087848043625,
        0.016100132246584947,
        -0.0035280221434622967,
        -0.10960979591733258,
        -0.0007634681709082424,
        -0.04016016637422328,
        -0.0035280221434622967,
        0.04232727948821639,
        -0.07741877655764973,
        0.059839521453232895,
        -0.02466457623778789,
        -0.037754082408214915,
        0.14972997823904516,
        -0.06858139378688942,
        0.09156635640392193,
        -0.07946722974578017,
        0.002080270748317915,
        0.10291210231813915,
        0.05217203470047789,
        0.016100132246584947,
        0.05217203470047789,
        -0.017230486826471304,
        0.01117138115618892,
        0.020022822442567503,
        0.015935519830450752,
        0.04398113586795673,
        -0.06829584858959128,
        -0.07125314565713552,
        0.032225669491230624,
        0.09043600182403622,
        0.04232727948821639,
        0.03707843608778071
      ],
      [
        0.07091109421428907,
        0.08141036567497167,
        0.003712115697805785,
        0.009259924223429871,
        0.025718603856250716,
        -0.06943270443896517,
        0.031373758071130096,
        0.033712046288122,
        -0.0425053075352573,
        -0.04599577643817792,
        -0.03780547563725953,
        -0.034341283794819426,
        -0.018147596697727742,
        0.07091109421428907,
        0.0,
        0.0,
        0.0,
        0.0,
        0.011510811032227902,
        0.0017440113160010545,
        -0.027295102771559217,
        -0.07404576379484132,
        0.025718603856250716,
        -0.014761185735889764,
        0.13606493298266645,
        -0.03780547563725953,
        0.08161014048227641,
        0.011510811032227902,
        0.12138977046372197,
        -0.18690372887536771,
        0.0,
        0.0,
        0.025718603856250716,
        0.0,
        0.0,
        0.011510811032227902,
        0.0,
        0.0,
        -0.030036351391652574,
        0.1918372119094842,
        0.0,
        0.03680255827558861,
        0.0,
        0.011510811032227902,
        0.025847564327871764,
        -0.017528303055332425,
        -0.04599577643817792,
        0.0,
        0.0,
        0.0,
        0.011510811032227902,
        0.0,
        0.025718603856250716,
        0.07438339602949591,
        0.0011349504715132141,
        0.0,
        -0.05201326846128236,
        -0.006017492023104532,
        0.0,
        -0.03829494297617122,
        -0.0037094769188397068,
        0.08097496280731933,
        0.06662078229903984,
        0.011510811032227902,
        0.011510811032227902,
        0.09312095151450464,
        -0.04738625313695025,
        -0.09954934857376611,
        0.04670206828360606,
        0.025718603856250716,
        -0.002250886808798011,
        0.1187046894129393,
        -0.0017869548275791665,
        -0.047286899648989286,
        -0.002250886808798011,
        -0.06943270443896517,
        0.0448022354907656,
        0.0811383770002301,
        0.11868220264770095,
        -0.05266851314309397,
        -0.09784281872979374,
        0.13899204227584538,
        -0.04599577643817792,
        0.037421523206961606,
        -0.009852546104319213,
        -0.014973311861809557,
        -0.049367652153553314,
        0.025718603856250716,
        -0.049367652153553314,
        -0.006017492023104532,
        -0.0037094769188397068,
        0.01542837458394202,
        -0.0167893795057391,
        0.00798422614254776,
        0.033712046288122,
        0.08141036567497167,
        0.003712115697805785,
        -0.026294664605031663,
        -0.06943270443896517,
        0.031373758071130096
      ]
    ],
    "worker_ids": [
      "ollama-cloud-deepseek-v4-pro",
      "ollama-cloud-glm-5.2",
      "ollama-cloud-kimi-k2.7-code",
      "ollama-cloud-qwen3-coder-480b"
    ]
  },
  "target_mode": "reward"
}
