{
  "dataset": "research/datasets/20260628-normal-offset16-contrast-29task-weight0p5-routing.jsonl",
  "epochs": 300,
  "l2": 0.0001,
  "learning_rate": 0.0005,
  "model_type": "linear-softmax-logits-router",
  "reward_temperature": 0.05,
  "router": {
    "feature_names": [
      "bias",
      "category_datasci",
      "category_filesystem",
      "category_general",
      "category_network",
      "category_plotting",
      "category_subprocess",
      "combo_network_archive",
      "combo_network_filesystem",
      "combo_network_plotting",
      "environment_risk",
      "family_bigcodebench_hard",
      "kw_archive",
      "kw_base64",
      "kw_count",
      "kw_dict",
      "kw_download",
      "kw_fetch",
      "kw_file",
      "kw_files",
      "kw_frequent",
      "kw_hex",
      "kw_http",
      "kw_key",
      "kw_list",
      "kw_lowercase",
      "kw_number",
      "kw_plot",
      "kw_request",
      "kw_requests",
      "kw_scan",
      "kw_sorted",
      "kw_string",
      "kw_strip",
      "kw_subprocess",
      "kw_sum",
      "kw_url",
      "kw_word",
      "kw_zip",
      "length_chars",
      "length_tokens",
      "lib_base64",
      "lib_binascii",
      "lib_codecs",
      "lib_collections",
      "lib_csv",
      "lib_datetime",
      "lib_ftplib",
      "lib_functools",
      "lib_glob",
      "lib_hashlib",
      "lib_itertools",
      "lib_json",
      "lib_math",
      "lib_matplotlib",
      "lib_numpy",
      "lib_os",
      "lib_pandas",
      "lib_pathlib",
      "lib_random",
      "lib_re",
      "lib_requests",
      "lib_shutil",
      "lib_statistics",
      "lib_subprocess",
      "lib_urllib",
      "lib_zipfile",
      "lib_zlib",
      "library_count",
      "missing_library_count",
      "plausibility_score",
      "signal_archive",
      "signal_datasci",
      "signal_filesystem",
      "signal_general",
      "signal_network",
      "signal_plotting",
      "signal_subprocess"
    ],
    "policy": "logits-router",
    "weights": [
      [
        0.05322360508962752,
        0.07705760701950146,
        0.056199991497109095,
        0.014672645800270596,
        -0.018783692001322152,
        0.041713456093773624,
        0.003927518903680239,
        -0.01950452877805177,
        -0.013331969804494982,
        0.02439204024021158,
        -0.011270215200793297,
        0.05322360508962752,
        0.0,
        0.0009377165536037515,
        0.02495625097487912,
        0.09898022245412114,
        -0.013331969804494982,
        0.0,
        0.13159455884329904,
        -0.07390995383718765,
        0.0,
        0.0003519931993547242,
        0.0,
        0.11459494299422754,
        0.017513858884767003,
        0.0,
        -0.04523735279670074,
        0.02008199729312198,
        0.02495625097487912,
        -0.01950452877805177,
        0.0,
        0.0,
        -0.0011479875368857286,
        0.0,
        -0.005933403125093701,
        -0.012077993046096375,
        0.0058037153961820066,
        0.03498937061876773,
        -0.07708790159094962,
        -0.10303312792238635,
        -0.014198679021231397,
        0.0009377165536037515,
        0.0003519931993547242,
        -0.014933768529056974,
        0.12811710750347138,
        0.03982661132183877,
        -0.022781523289676482,
        -0.018783692001322152,
        0.013734929246666902,
        -0.07115522151483315,
        0.0020857040904894847,
        0.015724086118736786,
        0.10858432843173274,
        0.013734929246666902,
        0.041713456093773624,
        0.09810465497281576,
        -0.061430452242209374,
        -0.03160374187915358,
        -0.02730616921229902,
        0.03536114678256474,
        -0.0026107543085161756,
        -0.01950452877805177,
        0.08668053574548579,
        -0.05786426182597981,
        -0.005933403125093701,
        0.025308244174233743,
        -0.07708790159094962,
        -0.0014999807362404516,
        0.019777004444805412,
        0.0,
        -0.0035913724033608363,
        0.009592634154536124,
        0.07705760701950146,
        0.056199991497109095,
        0.014672645800270596,
        -0.01297997660514022,
        0.041713456093773624,
        0.003927518903680239
      ],
      [
        -0.010675271769921635,
        -0.03903298669544893,
        -0.037761339229164,
        0.027107569307202668,
        -0.015537225301160274,
        0.0011873587081150001,
        -0.01414547826050744,
        -0.017745091812553064,
        -0.01287764459209209,
        0.006117290687081907,
        -0.009322335180696202,
        -0.010675271769921635,
        0.0,
        0.02686092620116643,
        0.02040467252162129,
        -0.006439768513346058,
        -0.01287764459209209,
        0.0,
        0.01646342782515567,
        0.04882437114023058,
        0.0,
        0.0017198180199110985,
        0.0,
        -0.015725386789036795,
        -0.08504916754255763,
        0.0,
        -0.044547304282242094,
        -0.004516293809623933,
        0.02040467252162129,
        -0.017745091812553064,
        0.0,
        0.0,
        0.011914867688971573,
        0.0,
        -0.00975271046019751,
        -0.020740236815088155,
        0.00437939872897925,
        0.0032123929082584226,
        0.07492946633161418,
        -0.06667035848530033,
        -0.013044267762269772,
        0.02686092620116643,
        0.0017198180199110985,
        -0.009341255761555674,
        0.004508206850013288,
        -0.048317110470867494,
        -0.03147777372057228,
        -0.015537225301160274,
        0.000246643106036117,
        0.08180528095861085,
        0.014946058512194828,
        0.01670812157692505,
        -0.007960149651877035,
        0.000246643106036117,
        0.0011873587081150001,
        -0.02982050010155276,
        -0.016354641680609957,
        -0.013681120548829062,
        0.11837001816739338,
        -0.04976643560394695,
        -0.03054721218532279,
        -0.017745091812553064,
        -0.051473269234376624,
        -0.015407128082633802,
        -0.00975271046019751,
        0.022124490541532368,
        0.07492946633161418,
        0.010195049669060579,
        0.0026666457132554426,
        0.0,
        -0.007391832555588754,
        0.023456197097237654,
        -0.03903298669544893,
        -0.037761339229164,
        0.027107569307202668,
        -0.011157826572181067,
        0.0011873587081150001,
        -0.01414547826050744
      ],
      [
        -0.014135415433943761,
        -0.10427423086507076,
        0.02414384623726064,
        -0.012876646026999923,
        0.017028692870649852,
        0.003982169574059906,
        0.026477079477174918,
        0.08503719580976613,
        0.08498001979822276,
        0.012536180131028776,
        0.010217215722389938,
        -0.014135415433943761,
        0.0,
        -0.008204786962905917,
        -0.017085868882193253,
        -0.0631622170261775,
        0.08498001979822276,
        0.0,
        0.07097450604614322,
        -0.13995459157682,
        0.0,
        -0.0005908522800003635,
        0.0,
        -0.04738788025077627,
        -0.1251026670982705,
        0.0,
        0.06269729901112467,
        -0.009936641412711176,
        -0.017085868882193253,
        0.08503719580976613,
        0.0,
        0.0,
        -0.00014937500263743255,
        0.0,
        0.006684024058287653,
        -0.03302302736998528,
        0.06736047464757255,
        0.004009150328443503,
        0.004493440247571714,
        0.04740738320783535,
        0.0033743076405874776,
        -0.008204786962905917,
        -0.0005908522800003635,
        -0.03256062346240939,
        -0.058947126829987005,
        0.11602364101205145,
        0.048493231350754326,
        0.017028692870649852,
        -0.004671859064093992,
        -0.1195903231465764,
        -0.00805541196026848,
        -0.0016059275121029315,
        -0.03838784732969861,
        -0.004671859064093992,
        0.003982169574059906,
        -0.06861264189796287,
        0.03826911314691403,
        -0.0627978853295297,
        -0.037832153598656076,
        0.14127434060490843,
        -0.06385785188951873,
        0.08503719580976613,
        -0.08086336121061509,
        0.10593793724859932,
        0.006684024058287653,
        -0.017676721162193584,
        0.004493440247571714,
        0.0004414772773629293,
        -0.004126196949968706,
        0.0,
        0.007166890523460104,
        -0.0763699209630435,
        -0.10427423086507076,
        0.02414384623726064,
        -0.012876646026999923,
        0.08438916751822212,
        0.003982169574059906,
        0.026477079477174918
      ],
      [
        -0.028412917885762175,
        0.06624961054101805,
        -0.04258249850520534,
        -0.02890356908047318,
        0.017292224431832624,
        -0.04688298437594874,
        -0.016259120120347706,
        -0.04778757521916126,
        -0.05877040540163575,
        -0.04304551105832246,
        0.010375334659099664,
        -0.028412917885762175,
        0.0,
        -0.019593855791864304,
        -0.02827505461430707,
        -0.02937823691459739,
        -0.05877040540163575,
        0.0,
        -0.21903249271459702,
        0.16504017427377649,
        0.0,
        -0.0014809589392654268,
        0.0,
        -0.05148167595441411,
        0.19263797575606045,
        0.0,
        0.027087358067817997,
        -0.005629062070786897,
        -0.02827505461430707,
        -0.04778757521916126,
        0.0,
        0.0,
        -0.010617505149448534,
        0.0,
        0.009002089527003442,
        0.06584125723116979,
        -0.0775435887727338,
        -0.042210913855469795,
        -0.002335004988236192,
        0.1222961031998521,
        0.02386863914291364,
        -0.019593855791864304,
        -0.0014809589392654268,
        0.05683564775302193,
        -0.07367818752349854,
        -0.10753314186302255,
        0.005766065659494438,
        0.017292224431832624,
        -0.009309713288609005,
        0.10894026370279847,
        -0.008976350642415802,
        -0.03082628018355899,
        -0.062236331450157015,
        -0.009309713288609005,
        -0.04688298437594874,
        0.00032848702669981415,
        0.039515980775905034,
        0.10808274775751278,
        -0.05323169535643862,
        -0.12686905178352595,
        0.09701581838335799,
        -0.04778757521916126,
        0.0456560946995057,
        -0.032666547339985516,
        0.009002089527003442,
        -0.029756013553572578,
        -0.002335004988236192,
        -0.009136546210183033,
        -0.01831745320809203,
        0.0,
        0.003816314435489511,
        0.04332108971126948,
        0.06624961054101805,
        -0.04258249850520534,
        -0.02890356908047318,
        -0.060251364340901156,
        -0.04688298437594874,
        -0.016259120120347706
      ]
    ],
    "worker_ids": [
      "ollama-cloud-deepseek-v4-pro",
      "ollama-cloud-glm-5.2",
      "ollama-cloud-kimi-k2.7-code",
      "ollama-cloud-qwen3-coder-480b"
    ]
  },
  "target_mode": "reward"
}
