{
  "epochs": 300,
  "l2": 0.0001,
  "latency_regret_weight": 1.0,
  "learning_rate": 0.0005,
  "model_type": "linear-multi-head-orchestrator",
  "orchestrator": {
    "abstain_weights": [
      -0.546384338511937,
      -0.1427878824359029,
      -0.20268543285668397,
      -0.10961191111889153,
      -0.05130773629093166,
      -0.1028608484842786,
      -0.052843574213139045,
      -0.14583974159697738,
      -0.03669898464178147,
      -0.013322734101723566,
      -0.07468551436842444,
      -0.014080675824158645,
      -0.09022203739903256,
      -0.546384338511937,
      0.0,
      0.0,
      0.0,
      -0.01932458329401844,
      -0.0240998654433747,
      -0.061037089928501334,
      -0.08578643378376097,
      -0.029541138913473656,
      -0.01613935222790464,
      -0.08859812029711718,
      -0.17697880318716244,
      -0.05820511966316103,
      -0.020085317388469755,
      -0.0240998654433747,
      0.0541354998248989,
      -0.13251058362090795,
      0.0,
      0.0,
      -0.01613935222790464,
      -0.01642699523683016,
      0.0,
      -0.0240998654433747,
      -0.018687989357763612,
      -0.016480394705263204,
      0.07521501983997025,
      -0.2807858733228023,
      -0.03309787550820065,
      -0.197997908390261,
      -0.01877755949330147,
      -0.08387556530452932,
      -0.054537656141287576,
      -0.04743102269129624,
      -0.07309843396287823,
      0.0,
      -0.015807619834032064,
      0.0,
      -0.09229786721934628,
      0.0,
      -0.01613935222790464,
      -0.06526944823050834,
      -0.02844787948452665,
      0.0,
      -0.12594133273978547,
      -0.09393060928030006,
      0.0,
      0.03994180125547564,
      -0.09112760017503442,
      -0.2555472236758327,
      -0.19331637294249393,
      -0.0240998654433747,
      -0.0240998654433747,
      -0.059775699861154705,
      -0.04418518283184438,
      -0.05275154232072906,
      -0.09709372936359656,
      0.15067974497797268,
      -0.01613935222790464,
      -0.027806854369188207,
      -0.07189535361290068,
      -0.08315085372017406,
      -0.04705776190786592,
      -0.027806854369188207,
      -0.08208919293949252,
      -0.15749368624229204,
      -0.10899358905578405,
      -0.13309425740777114,
      -0.018723095539864537,
      -0.041900192195301736,
      -0.0583303198983137,
      -0.07309843396287823,
      -0.0634399454780509,
      -0.11384732612863452,
      -0.07403672471596259,
      -0.1389075261883263,
      -0.05232671952597525,
      -0.03309787550820065,
      -0.01613935222790464,
      -0.09393060928030006,
      -0.09112760017503442,
      -0.17757596169634052,
      -0.029718697812236673,
      -0.18092755937816005,
      -0.14583974159697738,
      -0.1427878824359029,
      -0.20268543285668397,
      -0.14208068496769213,
      -0.1028608484842786,
      -0.052843574213139045
    ],
    "feature_names": [
      "bias",
      "category_datasci",
      "category_filesystem",
      "category_general",
      "category_network",
      "category_plotting",
      "category_subprocess",
      "combo_archive_filesystem",
      "combo_dataframe_plotting",
      "combo_network_archive",
      "combo_network_filesystem",
      "combo_network_plotting",
      "environment_risk",
      "family_bigcodebench_hard",
      "family_code_data",
      "family_code_easy",
      "family_code_text",
      "kw_archive",
      "kw_base64",
      "kw_convert",
      "kw_count",
      "kw_csv",
      "kw_default",
      "kw_dict",
      "kw_directory",
      "kw_download",
      "kw_email",
      "kw_encoding",
      "kw_exception",
      "kw_file",
      "kw_flatten",
      "kw_frequent",
      "kw_ftp",
      "kw_group",
      "kw_hash",
      "kw_hex",
      "kw_http",
      "kw_https",
      "kw_key",
      "kw_list",
      "kw_lowercase",
      "kw_number",
      "kw_pair",
      "kw_parse",
      "kw_process",
      "kw_request",
      "kw_requests",
      "kw_socket",
      "kw_sorted",
      "kw_ssl",
      "kw_string",
      "kw_strip",
      "kw_subprocess",
      "kw_sum",
      "kw_title",
      "kw_unpack",
      "kw_url",
      "kw_urllib",
      "kw_window",
      "kw_word",
      "kw_zip",
      "length_chars",
      "length_tokens",
      "lib_base64",
      "lib_binascii",
      "lib_bs4",
      "lib_codecs",
      "lib_collections",
      "lib_csv",
      "lib_datetime",
      "lib_ftplib",
      "lib_functools",
      "lib_glob",
      "lib_itertools",
      "lib_json",
      "lib_math",
      "lib_matplotlib",
      "lib_numpy",
      "lib_os",
      "lib_pandas",
      "lib_pathlib",
      "lib_random",
      "lib_re",
      "lib_requests",
      "lib_scipy",
      "lib_seaborn",
      "lib_shutil",
      "lib_sklearn",
      "lib_statistics",
      "lib_string",
      "lib_subprocess",
      "lib_urllib",
      "lib_zipfile",
      "library_count",
      "missing_library_count",
      "plausibility_score",
      "signal_archive",
      "signal_dataframe",
      "signal_filesystem",
      "signal_network",
      "signal_plotting",
      "signal_subprocess"
    ],
    "policy": "linear-multi-head-orchestrator",
    "verifier_weights": [
      -0.07379625942615822,
      -0.043914074153917106,
      -0.20914885875844258,
      0.022342058054629094,
      -0.004911275507807385,
      0.05684451978482308,
      0.1528910314725415,
      -0.07851002344611412,
      -0.01609036910092643,
      -0.04385363536498028,
      0.0564995469240672,
      0.013839067240410733,
      -0.035871295106799886,
      -0.07379625942615822,
      0.0,
      0.0,
      0.0,
      0.044700317868921355,
      0.0244483795901892,
      0.003030290763239358,
      0.09034570504647846,
      -0.14622796000393437,
      0.006993789512376403,
      0.04366751037687619,
      -0.11504769107417599,
      0.012037914146971905,
      -0.06381710129406004,
      0.0244483795901892,
      0.19165894599490652,
      -0.1735062996852445,
      0.0,
      0.0,
      0.006993789512376403,
      -0.058730523407486,
      0.0,
      0.0244483795901892,
      -0.056366697797279076,
      0.04446163277709519,
      0.02840306951231664,
      -0.20939712779809952,
      0.029199965598113525,
      -0.11043399565250953,
      0.03782444173671835,
      -0.047646509623391634,
      -0.08231533134054983,
      -0.007468937797703484,
      -0.11594852457856081,
      0.0,
      -0.0467734941454406,
      0.0,
      -0.06239178557856756,
      0.0,
      0.006993789512376403,
      0.012708453243579231,
      0.018593889771795245,
      0.0,
      -0.04260238498879637,
      0.05761794817346309,
      0.0,
      0.16822681242709614,
      -0.04160561694367106,
      -0.05285910684033915,
      -0.0507301789298805,
      0.0244483795901892,
      0.0244483795901892,
      -0.07209488921358105,
      -0.03936872170387098,
      0.13380591552619764,
      -0.05044006092563404,
      -0.0028620520222142035,
      0.006993789512376403,
      0.02888353705972338,
      -0.08527860715355678,
      0.0870178187954668,
      -0.04357065679219179,
      0.02888353705972338,
      0.1151796492598219,
      -0.06466783265521092,
      -0.06914214556815484,
      0.00558591213357978,
      -0.04152976208425889,
      -0.25687556783726734,
      -0.0091596426343254,
      -0.11594852457856081,
      -0.040642976871073815,
      -0.07000675239898256,
      0.0077959113664790546,
      0.08327790318308455,
      -0.0233605353278631,
      0.029199965598113525,
      0.006993789512376403,
      0.05761794817346309,
      -0.04160561694367106,
      -0.03864219083496324,
      -0.016462264901057722,
      -0.05100005949040462,
      -0.07851002344611412,
      -0.043914074153917106,
      -0.20914885875844258,
      -0.03560859547641968,
      0.05684451978482308,
      0.1528910314725415
    ],
    "worker_ids": [
      "ollama-cloud-deepseek-v4-pro",
      "ollama-cloud-glm-5.2",
      "ollama-cloud-kimi-k2.7-code",
      "ollama-cloud-qwen3-coder-480b"
    ],
    "worker_weights": [
      [
        -0.0721023403306454,
        0.08804134200112497,
        0.05318277957615102,
        -0.10556012344281845,
        0.09539690904206259,
        0.03514046410223281,
        0.04451160614281528,
        -0.008012723065373449,
        -0.0060800721322145515,
        -0.07630815666765259,
        -0.07796405224749448,
        0.0250678653581936,
        0.11544275782299139,
        -0.0721023403306454,
        0.0,
        0.0,
        0.0,
        0.032758102232965165,
        -0.019249518944605477,
        -0.044441617163735375,
        -0.006388388074628876,
        0.10592517030969985,
        -0.050007448151647274,
        0.112948402523804,
        -0.0984138696553274,
        -0.1041513213923567,
        -0.02303547894216539,
        -0.019249518944605477,
        0.06257949714788984,
        0.13107153258073134,
        0.0,
        0.0,
        -0.050007448151647274,
        0.12411356343085449,
        0.0,
        -0.019249518944605477,
        0.11921708804884727,
        0.026187269144862264,
        0.06473281740231576,
        -0.09720649936307461,
        0.014733951075411792,
        0.033566304032449534,
        0.014635318382438964,
        0.013335748250286607,
        -0.07827874894612218,
        0.14138137147579033,
        -0.043722889472760824,
        0.0,
        -0.04625698488282575,
        0.0,
        -0.005104649195026609,
        0.0,
        -0.050007448151647274,
        -0.032310629691852916,
        -0.0003065817575859385,
        0.0,
        -0.040808124990423,
        -0.08371705637161818,
        0.0,
        0.09830573039106325,
        -0.10629414535101595,
        -0.018122606076680047,
        -0.011742644850294439,
        -0.019249518944605477,
        -0.019249518944605477,
        0.03258526719489211,
        -0.04228499788677086,
        0.10788907941065778,
        0.08339169171474155,
        -0.08277356732780292,
        -0.050007448151647274,
        0.01177453442519291,
        -0.11473735420375014,
        -0.008130278955455738,
        0.07491863073829584,
        0.01177453442519291,
        0.06673336823878473,
        0.09036564909368683,
        -0.15170523050419826,
        0.0791730669150329,
        -0.026466900008103075,
        -0.02518882953608423,
        -0.07427988030290059,
        -0.043722889472760824,
        -0.09423186002389093,
        -0.20589023539602125,
        0.13103952451860787,
        0.17497730294729313,
        -0.0684149223952128,
        0.014733951075411792,
        -0.050007448151647274,
        -0.08371705637161818,
        -0.10629414535101595,
        -0.03869954812303016,
        0.029102306198877187,
        0.06941270530884724,
        -0.008012723065373449,
        0.08804134200112497,
        0.05318277957615102,
        -0.09081557314206978,
        0.03514046410223281,
        0.04451160614281528
      ],
      [
        -0.1357347486808987,
        -0.11324919700224241,
        -0.06016965524137639,
        -0.018406032446757068,
        -0.029621811088331774,
        -0.06382942138368278,
        -0.04033380088676667,
        0.03430874576212178,
        -0.07464126934869894,
        -0.0355119974364425,
        -0.02999719012707923,
        -0.002691937580573236,
        0.03324866014437226,
        -0.1357347486808987,
        0.0,
        0.0,
        0.0,
        0.033493926085640655,
        -0.0177302255384472,
        0.14320337479095607,
        0.055345737684432704,
        -0.07461086180301804,
        -0.020519919450542195,
        -0.04883645724956644,
        -0.01993287875780912,
        -0.037882944952947556,
        -0.06301924689421994,
        -0.0177302255384472,
        -0.053917172019506895,
        0.002609031355586106,
        0.0,
        0.0,
        -0.020519919450542195,
        -0.039017560509582314,
        0.0,
        -0.0177302255384472,
        -0.016987646463657854,
        0.00788575482586826,
        0.038548373619346245,
        -0.04474817127358485,
        0.021135950325085594,
        -0.06447649134564182,
        0.030564471189751877,
        -0.0357315347996217,
        -0.06852363009124478,
        0.001161325470379364,
        -0.05351330669761714,
        0.0,
        0.13092598608998568,
        0.0,
        -0.02324001611165123,
        0.0,
        -0.020519919450542195,
        -0.02301018527269767,
        -0.017223519646770123,
        0.0,
        -0.05309456030202657,
        -0.0005949164019265863,
        0.0,
        -0.007779641456875437,
        0.08632545844753443,
        -0.10740626824374704,
        -0.0926836158239096,
        -0.0177302255384472,
        -0.0177302255384472,
        -0.01800130926117436,
        -0.080749472432667,
        0.054068207074069764,
        -0.10835382902366866,
        -0.13565003212822552,
        -0.020519919450542195,
        -0.012912339610010494,
        0.07740599348999593,
        -0.0068605964912692415,
        0.051252350574810424,
        -0.012912339610010494,
        -0.05259478118035972,
        0.0011991923117777605,
        -0.06465366643790703,
        0.01833331671800313,
        0.1275816682593505,
        -0.15613236511610018,
        -0.147356620964668,
        -0.05351330669761714,
        0.023109733509988586,
        0.0015984846186819475,
        -0.018522786599772075,
        0.06570216899238401,
        -0.04734735021494413,
        0.021135950325085594,
        -0.020519919450542195,
        -0.0005949164019265863,
        0.08632545844753443,
        -0.046494347782661656,
        0.025510873398685865,
        -0.01281778026440169,
        0.03430874576212178,
        -0.11324919700224241,
        -0.06016965524137639,
        -0.07361447975256932,
        -0.06382942138368278,
        -0.04033380088676667
      ],
      [
        -0.009637260633450767,
        -0.156298448579948,
        0.1126261027272606,
        -0.028494685259286723,
        0.0015802224895428729,
        -0.051559587767111704,
        -0.025322088779069597,
        -0.07393608041466104,
        -0.1059657236600049,
        0.13061796452444013,
        0.14512011856956478,
        0.026715930689711842,
        0.004589501270952146,
        -0.009637260633450767,
        0.0,
        0.0,
        0.0,
        -0.039828423643957916,
        0.013250460979062507,
        0.044555790211341234,
        0.053782854036904984,
        0.12318148248790615,
        0.018595749736818778,
        -0.06379310001151932,
        -0.09632945015454132,
        0.13221491315192155,
        -0.09624027119574251,
        0.013250460979062507,
        0.028860786535067056,
        0.20563483282882397,
        0.0,
        0.0,
        0.018595749736818778,
        -0.016274893214952565,
        0.0,
        0.013250460979062507,
        -0.029920732664919736,
        0.012905205417643817,
        -0.0700146386112649,
        -0.21038275812040655,
        -0.018433243482700964,
        -0.013489466976726086,
        0.024743646072036107,
        -0.026184643267824027,
        0.0898591303505001,
        -0.04691953377425705,
        0.09118286027755386,
        0.0,
        -0.024176107789524216,
        0.0,
        -0.05619207006007236,
        0.0,
        0.018595749736818778,
        -0.05660277745206383,
        0.06589516452820166,
        0.0,
        0.08743452014727858,
        -0.01326271171224175,
        0.0,
        0.017248103464835265,
        -0.006846668548263556,
        0.002284906216905628,
        -0.004163201657484851,
        0.013250460979062507,
        0.013250460979062507,
        -0.03943510424688679,
        -0.0829898102166801,
        -0.0895621526294206,
        0.15576638129808978,
        0.0880127797567917,
        0.018595749736818778,
        -0.0008923257560375285,
        -0.14388514151719284,
        -0.009158157013285024,
        -0.04449979448216763,
        -0.0008923257560375285,
        -0.025917487952294187,
        -0.24004589060218476,
        0.017233905342763405,
        -0.07319224091968404,
        -0.04224512801700957,
        0.08656539385788012,
        -0.01570727730693441,
        0.09118286027755386,
        -0.04481457412453335,
        -0.0038436349036233626,
        -0.10691783551035557,
        0.12049125690172212,
        0.12110464355182178,
        -0.018433243482700964,
        0.018595749736818778,
        -0.01326271171224175,
        -0.006846668548263556,
        -0.025849186227915016,
        0.0018206838886132132,
        -0.0051481079831748894,
        -0.07393608041466104,
        -0.156298448579948,
        0.1126261027272606,
        0.10603026988409761,
        -0.051559587767111704,
        -0.025322088779069597
      ],
      [
        0.21747434964499668,
        0.18150630358106631,
        -0.10563922706203584,
        0.15246084114886221,
        -0.06735532044327348,
        0.08024854504856135,
        0.02114428352302077,
        0.04764005771791226,
        0.18668706514091818,
        -0.018797810420345267,
        -0.03715887619499193,
        -0.049091858467332404,
        -0.1532809192383166,
        0.21747434964499668,
        0.0,
        0.0,
        0.0,
        -0.026423604674647754,
        0.023729283503990343,
        -0.14331754783856165,
        -0.1027402036467092,
        -0.154495790994587,
        0.05193161786537056,
        -0.00031884526271847436,
        0.2146761985676782,
        0.009819353193382476,
        0.18229499703212804,
        0.023729283503990343,
        -0.037523111663450105,
        -0.3393153967651415,
        0.0,
        0.0,
        0.05193161786537056,
        -0.06882110970632004,
        0.0,
        0.023729283503990343,
        -0.07230870892026987,
        -0.04697822938837429,
        -0.03326655241039707,
        0.352337428757067,
        -0.017436657917796406,
        0.044399654289918586,
        -0.06994343564422678,
        0.048580429817158925,
        0.05694324868686694,
        -0.09562316317191281,
        0.0060533358928235685,
        0.0,
        -0.06049289341763501,
        0.0,
        0.08453673536675048,
        0.0,
        0.05193161786537056,
        0.11192359241661491,
        -0.04836506312384559,
        0.0,
        0.006468165145170893,
        0.09757468448578613,
        0.0,
        -0.10777419239902307,
        0.02681535545174522,
        0.12324396810352137,
        0.10858946233168922,
        0.023729283503990343,
        0.023729283503990343,
        0.024851146313168943,
        0.20602428053611765,
        -0.07239513385530563,
        -0.1308042439891624,
        0.13041081969923704,
        0.05193161786537056,
        0.0020301309408550816,
        0.18121650223094637,
        0.024149032460009812,
        -0.08167118683093776,
        0.0020301309408550816,
        0.011778900893868306,
        0.1484810491967203,
        0.19912499159934208,
        -0.024314142713352103,
        -0.0588696402342369,
        0.0947558007943047,
        0.23734377857450512,
        0.0060533358928235685,
        0.11593670063843557,
        0.20813538568096257,
        -0.005598902408480354,
        -0.36117072884139934,
        -0.005342370941664944,
        -0.017436657917796406,
        0.05193161786537056,
        0.09757468448578613,
        0.02681535545174522,
        0.11104308213360592,
        -0.05643386348617607,
        -0.05144681706127046,
        0.04764005771791226,
        0.18150630358106631,
        -0.10563922706203584,
        0.05839978301054155,
        0.08024854504856135,
        0.02114428352302077
      ]
    ],
    "workflow_labels": [
      "direct",
      "verify_then_fallback"
    ],
    "workflow_weights": [
      [
        0.32912168643904866,
        0.036752765426751426,
        0.10737910168298036,
        0.07954689540577392,
        0.03496172973032696,
        0.034944991196126665,
        0.00668191267231223,
        0.10059343929102821,
        -0.017871782753574365,
        0.00849107227566682,
        0.04937436156173549,
        0.009720369887515625,
        0.06806578335669185,
        0.32912168643904866,
        0.0,
        0.0,
        0.0,
        0.013275561102138046,
        0.016405568395173733,
        0.044260087164501194,
        0.06560315701311614,
        -0.011745968329043434,
        0.010888351880606151,
        0.06410425226069798,
        0.12213191397958995,
        0.03908187971606287,
        0.01648109344876405,
        0.016405568395173733,
        -0.12856536321361742,
        0.059548496782725634,
        0.0,
        0.0,
        0.010888351880606151,
        0.012721620431539975,
        0.0,
        0.016405568395173733,
        0.013780896004048688,
        0.010292481845671974,
        -0.09278815869965476,
        0.208865385973178,
        0.02569625241104355,
        0.15173227883638413,
        0.01495427039004879,
        0.05753537197388453,
        0.04158313524139598,
        0.03348335156383882,
        0.04962087585437795,
        0.0,
        0.011243549252362223,
        0.0,
        0.06684134111632158,
        0.0,
        0.010888351880606151,
        0.04991967239438166,
        -0.0021702618037495406,
        0.0,
        0.08572889980934198,
        0.06345693152962573,
        0.0,
        -0.060291063792807034,
        0.06245804709019857,
        0.15438580344084182,
        0.11624246863788885,
        0.016405568395173733,
        0.016405568395173733,
        0.04112980357871115,
        0.032886661843937515,
        0.010264252669576944,
        0.0706403600200364,
        -0.16763633640169728,
        0.010888351880606151,
        0.020388648870566347,
        0.05069048582858681,
        0.06256541301814592,
        0.033360448787209715,
        0.020388648870566347,
        0.017322106625713363,
        0.09738356192163701,
        0.03800182424235199,
        0.055756185661837064,
        0.013320640299489614,
        0.0054073498264705575,
        0.014325557840710672,
        0.04962087585437795,
        0.051803317040897294,
        0.0946470831996244,
        0.05141095330296832,
        0.11395027223989894,
        0.041829778239853684,
        0.02569625241104355,
        0.010888351880606151,
        0.06345693152962573,
        0.06245804709019857,
        0.10256569649639029,
        0.023544372759247725,
        0.11782449197942345,
        0.10059343929102821,
        0.036752765426751426,
        0.10737910168298036,
        0.09661725168994824,
        0.034944991196126665,
        0.00668191267231223
      ],
      [
        -0.32912168643904866,
        -0.03675276542675139,
        -0.10737910168298048,
        -0.0795468954057739,
        -0.034961729730326976,
        -0.03494499119612669,
        -0.00668191267231224,
        -0.10059343929102821,
        0.017871782753574376,
        -0.008491072275666818,
        -0.049374361561735525,
        -0.009720369887515627,
        -0.06806578335669183,
        -0.32912168643904866,
        0.0,
        0.0,
        0.0,
        -0.013275561102138046,
        -0.01640556839517373,
        -0.0442600871645012,
        -0.06560315701311611,
        0.011745968329043439,
        -0.010888351880606145,
        -0.06410425226069799,
        -0.12213191397958993,
        -0.03908187971606288,
        -0.01648109344876405,
        -0.01640556839517373,
        0.12856536321361736,
        -0.059548496782725606,
        0.0,
        0.0,
        -0.010888351880606145,
        -0.012721620431539972,
        0.0,
        -0.01640556839517373,
        -0.013780896004048691,
        -0.010292481845671976,
        0.09278815869965473,
        -0.20886538597317797,
        -0.025696252411043553,
        -0.15173227883638413,
        -0.014954270390048796,
        -0.05753537197388452,
        -0.04158313524139595,
        -0.03348335156383883,
        -0.04962087585437799,
        0.0,
        -0.011243549252362229,
        0.0,
        -0.06684134111632158,
        0.0,
        -0.010888351880606145,
        -0.04991967239438165,
        0.002170261803749539,
        0.0,
        -0.08572889980934197,
        -0.06345693152962573,
        0.0,
        0.060291063792807034,
        -0.062458047090198546,
        -0.15438580344084182,
        -0.11624246863788887,
        -0.01640556839517373,
        -0.01640556839517373,
        -0.04112980357871115,
        -0.03288666184393752,
        -0.01026425266957693,
        -0.0706403600200364,
        0.16763633640169726,
        -0.010888351880606145,
        -0.02038864887056635,
        -0.05069048582858679,
        -0.06256541301814592,
        -0.03336044878720972,
        -0.02038864887056635,
        -0.017322106625713308,
        -0.09738356192163695,
        -0.038001824242352024,
        -0.05575618566183709,
        -0.013320640299489615,
        -0.005407349826470557,
        -0.014325557840710688,
        -0.04962087585437799,
        -0.051803317040897294,
        -0.09464708319962441,
        -0.051410953302968326,
        -0.11395027223989895,
        -0.04182977823985368,
        -0.025696252411043553,
        -0.010888351880606145,
        -0.06345693152962573,
        -0.062458047090198546,
        -0.10256569649639025,
        -0.02354437275924771,
        -0.1178244919794234,
        -0.10059343929102821,
        -0.03675276542675139,
        -0.10737910168298048,
        -0.09661725168994825,
        -0.03494499119612669,
        -0.00668191267231224
      ]
    ]
  },
  "substrate": "research/datasets/20260628-m5-small-orchestrator-substrate-50task.jsonl",
  "target_balance_power": 0.0
}
