{
  "epochs": 300,
  "l2": 0.0001,
  "latency_regret_weight": 0.5,
  "learning_rate": 0.0005,
  "model_type": "linear-multi-head-orchestrator",
  "orchestrator": {
    "abstain_weights": [
      -0.6809560167837962,
      -0.08866736355742406,
      -0.18814329506791808,
      -0.2612462599931459,
      -0.0657902600243861,
      -0.06889394937373304,
      -0.05407165776351954,
      -0.14357873238344465,
      -0.013300065574081199,
      -0.011808288932941714,
      -0.06412820780502737,
      -0.012278196482965338,
      -0.09284083099800491,
      -0.6809560167837962,
      0.0,
      0.0,
      0.0,
      -0.01647813609540063,
      -0.018732384657699393,
      -0.049821288542588514,
      -0.1135382500303742,
      -0.02327568543963302,
      -0.03635409603699747,
      -0.14092002952917498,
      -0.16981158481658926,
      -0.04945404286961996,
      -0.03835817609294107,
      -0.018732384657699393,
      0.09569508283365799,
      -0.11156595035183801,
      0.0,
      0.0,
      -0.012861850280461802,
      -0.01541285129286463,
      0.0,
      -0.018732384657699393,
      -0.01707585435277533,
      -0.014674164935407824,
      0.033308173279342636,
      -0.40509433602319345,
      -0.0446234558564885,
      -0.17320091788922598,
      -0.04130454881996557,
      -0.07020283986841937,
      -0.0722199053467312,
      -0.041859758008991464,
      -0.06327874414366186,
      -0.021834365450054197,
      -0.07685393503477662,
      0.0,
      -0.1136474692949416,
      0.0,
      -0.037909966803359535,
      -0.0557032905911917,
      -0.011312537359028848,
      0.0,
      -0.10679503245757714,
      -0.0779108891718601,
      0.0,
      0.038579682081833294,
      -0.07903038817925088,
      -0.28925820632364063,
      -0.21842598023918103,
      -0.018732384657699393,
      -0.018732384657699393,
      -0.051470455210720474,
      -0.03591217029489985,
      -0.05893956990422103,
      -0.09921411052096314,
      0.1355229562551424,
      -0.012861850280461802,
      -0.021329302502527653,
      -0.06319813856715785,
      -0.08870960917224252,
      -0.10137513614690247,
      -0.0438965815202114,
      -0.05001333116579326,
      -0.025048116522897564,
      -0.12865247154220577,
      -0.01733231756032993,
      -0.08998930671366064,
      -0.09206468369039947,
      -0.01675635914978357,
      -0.11056425579908284,
      -0.10164174590536262,
      -0.06327874414366186,
      -0.059926994977575886,
      -0.1059893715630891,
      -0.08102648029959535,
      -0.12894906040803553,
      -0.02117839045574079,
      -0.021834365450054197,
      -0.07133632635941088,
      -0.0446234558564885,
      -0.037909966803359535,
      -0.0779108891718601,
      -0.07903038817925088,
      -0.19039057588982014,
      -0.026683337491687033,
      -0.194118966074668,
      -0.14357873238344465,
      -0.08866736355742406,
      -0.18814329506791808,
      -0.1626696386438355,
      -0.06889394937373304,
      -0.05407165776351954
    ],
    "feature_names": [
      "bias",
      "category_datasci",
      "category_filesystem",
      "category_general",
      "category_network",
      "category_plotting",
      "category_subprocess",
      "combo_archive_filesystem",
      "combo_dataframe_plotting",
      "combo_network_archive",
      "combo_network_filesystem",
      "combo_network_plotting",
      "environment_risk",
      "family_bigcodebench_hard",
      "family_code_data",
      "family_code_easy",
      "family_code_text",
      "kw_archive",
      "kw_base64",
      "kw_convert",
      "kw_count",
      "kw_csv",
      "kw_default",
      "kw_dict",
      "kw_directory",
      "kw_download",
      "kw_email",
      "kw_encoding",
      "kw_exception",
      "kw_file",
      "kw_flatten",
      "kw_frequent",
      "kw_ftp",
      "kw_group",
      "kw_hash",
      "kw_hex",
      "kw_http",
      "kw_https",
      "kw_key",
      "kw_list",
      "kw_lowercase",
      "kw_number",
      "kw_pair",
      "kw_parse",
      "kw_process",
      "kw_request",
      "kw_requests",
      "kw_socket",
      "kw_sorted",
      "kw_ssl",
      "kw_string",
      "kw_strip",
      "kw_subprocess",
      "kw_sum",
      "kw_title",
      "kw_unpack",
      "kw_url",
      "kw_urllib",
      "kw_window",
      "kw_word",
      "kw_zip",
      "length_chars",
      "length_tokens",
      "lib_base64",
      "lib_binascii",
      "lib_bs4",
      "lib_codecs",
      "lib_collections",
      "lib_csv",
      "lib_datetime",
      "lib_ftplib",
      "lib_functools",
      "lib_glob",
      "lib_itertools",
      "lib_json",
      "lib_math",
      "lib_matplotlib",
      "lib_multiprocessing",
      "lib_numpy",
      "lib_operator",
      "lib_os",
      "lib_pandas",
      "lib_pathlib",
      "lib_random",
      "lib_re",
      "lib_requests",
      "lib_scipy",
      "lib_seaborn",
      "lib_shutil",
      "lib_sklearn",
      "lib_smtplib",
      "lib_socket",
      "lib_statistics",
      "lib_string",
      "lib_subprocess",
      "lib_urllib",
      "lib_zipfile",
      "library_count",
      "missing_library_count",
      "plausibility_score",
      "signal_archive",
      "signal_dataframe",
      "signal_filesystem",
      "signal_network",
      "signal_plotting",
      "signal_subprocess"
    ],
    "policy": "linear-multi-head-orchestrator",
    "verifier_weights": [
      -0.019680496975408558,
      -0.07433490007611217,
      -0.1810201453571437,
      0.09072672008489113,
      -0.05762342948203427,
      0.0432521209535286,
      0.15723226864052398,
      -0.05590062804561987,
      -0.024843846778378885,
      -0.045781717360666524,
      0.048670050502595055,
      0.013075763509988549,
      -0.07003752810262465,
      -0.019680496975408558,
      0.0,
      0.0,
      0.0,
      0.04170665947678343,
      0.0233419602219627,
      -0.004328893585765562,
      0.15002777158124347,
      -0.13578568878458983,
      0.034551834390702314,
      0.019216560641988723,
      -0.09698395570985643,
      0.004127325361579476,
      -0.1161343683836032,
      0.0233419602219627,
      0.16072481415362144,
      -0.18684088761077208,
      0.0,
      0.0,
      0.0048459697222972735,
      -0.05911688531383278,
      0.0,
      0.0233419602219627,
      -0.05325563386626955,
      0.04454272514101535,
      0.07913345747489949,
      -0.15331707523347202,
      0.05287860080907232,
      -0.12904079718638997,
      0.06723254491966348,
      -0.04394848323373222,
      -0.05971544147053333,
      -0.008192560866320274,
      -0.113072160816362,
      -0.06149793933858363,
      0.03085661946324218,
      0.0,
      -0.09366643321863989,
      0.0,
      0.02893626182110712,
      0.005250817668372012,
      0.013972723982462567,
      0.0,
      -0.04466712759445004,
      0.05437022363248608,
      0.0,
      0.202933153099035,
      -0.055769252554572615,
      -0.04090272192390825,
      -0.03945480679022966,
      0.0233419602219627,
      0.0233419602219627,
      -0.06729044345569467,
      -0.03903591768256327,
      0.1760059117106242,
      -0.029332325848787637,
      0.013192551163022457,
      0.0048459697222972735,
      0.024066917939984254,
      -0.09910090368627399,
      0.10434298146370634,
      -0.028679440502706505,
      0.060739720107994,
      0.10337637553993036,
      0.024090292098809946,
      -0.07777911926291017,
      0.038809805526944775,
      -0.06751542243462309,
      -0.01893628527303303,
      -0.04476915374436035,
      -0.17280213436714864,
      -0.12628953960211134,
      -0.113072160816362,
      -0.04272098446601248,
      -0.07556484654164164,
      0.041575283985736525,
      0.08038889707017952,
      -0.05375649047907715,
      -0.06149793933858363,
      -0.016195793714835812,
      0.05287860080907232,
      0.02893626182110712,
      0.05437022363248608,
      -0.055769252554572615,
      -0.033580444073547704,
      -0.017731735206702553,
      -0.07246184588749234,
      -0.05590062804561987,
      -0.07433490007611217,
      -0.1810201453571437,
      -0.15507558768981372,
      0.0432521209535286,
      0.15723226864052398
    ],
    "worker_ids": [
      "ollama-cloud-deepseek-v4-pro",
      "ollama-cloud-glm-5.2",
      "ollama-cloud-kimi-k2.7-code",
      "ollama-cloud-qwen3-coder-480b"
    ],
    "worker_weights": [
      [
        -0.09105626451759255,
        0.08259550535600788,
        0.05051083871142174,
        -0.09715275006346262,
        0.06250323591166677,
        0.04290704379979557,
        0.04955532604054163,
        0.015484438043706127,
        0.007232519549590502,
        -0.05920565872922388,
        -0.06066856924781118,
        0.02273289574723383,
        0.08391477431546564,
        -0.09105626451759255,
        0.0,
        0.0,
        0.0,
        0.027468473014751308,
        -0.012317923665145017,
        -0.047669498928315214,
        -0.007431762647641898,
        0.07168711741074867,
        -0.013227954046403109,
        0.07662374275424619,
        -0.06291747637538449,
        -0.08218817043265768,
        -0.046500587930443656,
        -0.012317923665145017,
        0.05219374387288202,
        0.10140393844031034,
        0.0,
        0.0,
        -0.042326180889121406,
        0.11714018246035149,
        0.0,
        -0.012317923665145017,
        0.11066029647537853,
        0.021519601184846377,
        0.07016615876708669,
        -0.05105624133876149,
        0.024475186184435945,
        0.0132276662679647,
        0.03718378613188134,
        0.041004933635643295,
        -0.06566746012593602,
        0.13000396566106656,
        -0.005882801428435438,
        -0.02069688439724385,
        -0.07426055552770064,
        0.0,
        0.011749646728445966,
        0.0,
        -0.04021109669126093,
        -0.027424930934783757,
        0.0013740437481673856,
        0.0,
        0.0011429440921067347,
        -0.050311693654047945,
        0.0,
        0.06437480445462349,
        -0.09317086266991846,
        -0.017630618750141012,
        -0.009086207229019802,
        -0.012317923665145017,
        -0.012317923665145017,
        0.05332285730078805,
        -0.031468030736151904,
        0.10590885003239603,
        0.05563310371409223,
        -0.09472177149622923,
        -0.042326180889121406,
        0.011251219840925386,
        -0.10925746518254217,
        0.030725014557655528,
        0.03377030843010618,
        0.02216220350534548,
        0.07476367387437675,
        0.002115084197860096,
        0.08316025662841509,
        -0.01673118030328173,
        -0.11928686973526588,
        0.07968437202121788,
        -0.02885736513845949,
        0.01985521156484281,
        -0.13378978803886157,
        -0.005882801428435438,
        -0.08575220395400242,
        -0.16805746526957965,
        0.13612377372837575,
        0.1259745012319879,
        -0.02735048085943707,
        -0.02069688439724385,
        -0.09167181920487995,
        0.024475186184435945,
        -0.04021109669126093,
        -0.050311693654047945,
        -0.09317086266991846,
        -0.032525419016618595,
        0.023206416384232768,
        0.0480260603307543,
        0.015484438043706127,
        0.08259550535600788,
        0.05051083871142174,
        -0.0892306020536949,
        0.04290704379979557,
        0.04955532604054163
      ],
      [
        -0.042966600458850535,
        -0.12668260873469098,
        -0.05396924843990299,
        -0.029230178053813824,
        0.07475592428760186,
        -0.08088381699183642,
        -0.04940585354235458,
        0.02670346210553659,
        -0.08435425281951119,
        -0.03171769625774161,
        -0.037143306569209764,
        -0.00219757790931964,
        0.08886892745503315,
        -0.042966600458850535,
        0.0,
        0.0,
        0.0,
        0.02605002145586961,
        -0.016084929357226354,
        0.1269340698176056,
        0.035719117211480404,
        -0.053782698928218575,
        -0.034245260969345395,
        -0.06848263591461448,
        -0.029882120462466594,
        -0.041981363732415046,
        0.059011870276455845,
        -0.016084929357226354,
        -0.07249916496374599,
        0.006173862297233605,
        0.0,
        0.0,
        -0.025138964054266442,
        -0.03267382197058756,
        0.0,
        -0.016084929357226354,
        -0.021373235110763274,
        0.004838057163205046,
        0.06745540439004806,
        0.03109851649904391,
        -0.0035826826123059306,
        -0.06933704929936936,
        0.01734223933572279,
        -0.048422270738269116,
        -0.060177019533113045,
        -0.006497938531170492,
        -0.06405503763878446,
        -0.04065851471317619,
        0.11887492573528753,
        0.0,
        0.061110056257610554,
        0.0,
        -0.01734207531638579,
        -0.02302873980645571,
        -0.0309610341754817,
        0.0,
        -0.06526467041641788,
        -0.012173739047913013,
        0.0,
        0.009218521316742997,
        0.07419868932711403,
        -0.06376378768137976,
        -0.0607520427829159,
        -0.016084929357226354,
        -0.016084929357226354,
        -0.03233734138104269,
        -0.07350312537019711,
        0.047930456404674124,
        -0.08564776407338368,
        -0.12571370694188166,
        -0.025138964054266442,
        -0.011770918507162447,
        0.0654796825641793,
        -0.018092395504446208,
        0.10021242844622946,
        0.009735929641820577,
        -0.06710720506360236,
        0.007796888737880609,
        0.0015425987634675572,
        0.016340076451665287,
        -0.07413514549594225,
        -0.011258445775648288,
        0.12141048482874958,
        -0.1619280079388089,
        -0.0306486571326592,
        -0.06405503763878446,
        0.01967515695081175,
        -0.01610142194754623,
        -0.021445205765707135,
        0.03673552222923496,
        0.11643006628942688,
        -0.04065851471317619,
        -0.040552703230019124,
        -0.0035826826123059306,
        -0.01734207531638579,
        -0.012173739047913013,
        0.07419868932711403,
        -0.034787493559008634,
        0.022007686441236376,
        0.04172331530934662,
        0.02670346210553659,
        -0.12668260873469098,
        -0.05396924843990299,
        -0.014632082894434122,
        -0.08088381699183642,
        -0.04940585354235458
      ],
      [
        -0.038651142728295625,
        -0.11422774310841056,
        0.12358471213455785,
        -0.08201149380925915,
        -0.021466609833696224,
        -0.03251247012865624,
        -0.012061684407002933,
        -0.06324535929373286,
        -0.0797250098859109,
        0.11728442031526409,
        0.13365093939708528,
        0.022623049230722628,
        -0.016250047940945683,
        -0.038651142728295625,
        0.0,
        0.0,
        0.0,
        -0.03703608928240477,
        0.015585529232946206,
        0.027200555678331077,
        0.055591603467817816,
        0.12495411445597286,
        -0.02041455575673137,
        -0.054279875944537335,
        -0.07717098898213766,
        0.12350042123663804,
        -0.09390609322889831,
        0.015585529232946206,
        0.0504260640077617,
        0.18326121864221645,
        0.0,
        0.0,
        0.022208856888230464,
        -0.018269238437846533,
        0.0,
        0.015585529232946206,
        -0.029668761781571365,
        0.010150518160448029,
        -0.041995481859653426,
        -0.2328489344087125,
        0.0007130205862732913,
        -0.00766533117734359,
        -0.022239919041139075,
        -0.026433634179410883,
        0.08479306985941042,
        -0.04566161774842799,
        0.07526525690290721,
        -0.027735805171567762,
        0.006343945118850898,
        0.0,
        -0.06095411345223662,
        0.0,
        0.021508542403506165,
        -0.04249093648390132,
        0.04753091119182565,
        0.0,
        0.07485793016899751,
        -0.012757728364696123,
        0.0,
        0.03248426115861992,
        -0.009608960216146345,
        0.001625711945939574,
        -0.0019284481168199866,
        0.015585529232946206,
        0.015585529232946206,
        -0.04201916341235714,
        -0.05416334089514872,
        -0.050436354325579066,
        0.15232477848856807,
        0.1178078211615069,
        0.022208856888230464,
        0.004250823849433268,
        -0.13273761526463523,
        -0.036309286137968945,
        -0.08755049022996697,
        0.018124235475628872,
        -0.006273938588514427,
        -0.0007003144847243072,
        -0.1941780348537453,
        0.007401883627358225,
        0.04275958495249426,
        -0.055488450670882164,
        -0.04338685856494426,
        0.07804560816924555,
        -0.08948581493403875,
        0.07526525690290721,
        -0.0345434460350867,
        0.007449093919915802,
        -0.09067248835999085,
        0.09291912579113862,
        -0.024157223100803423,
        -0.027735805171567762,
        0.13155294422281358,
        0.0007130205862732913,
        0.021508542403506165,
        -0.012757728364696123,
        -0.009608960216146345,
        -0.0188702678705883,
        -0.001685041020363961,
        -0.018466987321227396,
        -0.06324535929373286,
        -0.11422774310841056,
        0.12358471213455785,
        0.04517375878485614,
        -0.03251247012865624,
        -0.012061684407002933
      ],
      [
        0.17267400770473806,
        0.15831484648709382,
        -0.12012630240607629,
        0.20839442192653684,
        -0.11579255036557239,
        0.07048924332069656,
        0.011912211908815487,
        0.02105745914448967,
        0.15684674315583128,
        -0.02636106532829877,
        -0.03583906358006476,
        -0.04315836706863696,
        -0.1565336538295523,
        0.17267400770473806,
        0.0,
        0.0,
        0.0,
        -0.016482405188216098,
        0.012817323789424961,
        -0.10646512656762167,
        -0.08387895803165611,
        -0.14285853293850367,
        0.06788777077248014,
        0.046138769104905705,
        0.1699705858199897,
        0.0006691129284346278,
        0.08139481088288576,
        0.012817323789424961,
        -0.030120642916897502,
        -0.29083901937976314,
        0.0,
        0.0,
        0.045256288055156885,
        -0.06619712205191668,
        0.0,
        0.012817323789424961,
        -0.059618299583044314,
        -0.036508176508499655,
        -0.09562608129748244,
        0.25280665924843104,
        -0.021605524158403246,
        0.06377471420874833,
        -0.03228610642646509,
        0.03385097128203658,
        0.041051409799639,
        -0.07784440938146801,
        -0.005327417835687313,
        0.0890912042819881,
        -0.050958315326438686,
        0.0,
        -0.011905589533819377,
        0.0,
        0.03604462960414062,
        0.0929446072251412,
        -0.01794392076451181,
        0.0,
        -0.01073620384468566,
        0.07524316106665667,
        0.0,
        -0.10607758692998691,
        0.02858113355895103,
        0.07976869448558004,
        0.07176669812875444,
        0.012817323789424961,
        0.012817323789424961,
        0.02103364749261164,
        0.15913449700149607,
        -0.10340295211149131,
        -0.122310118129276,
        0.1026276572766042,
        0.045256288055156885,
        -0.0037311251831961033,
        0.1765153978829989,
        0.023676667084759462,
        -0.04643224664636912,
        -0.05002236862279483,
        -0.0013825302222595032,
        -0.009211658451016406,
        0.10947517946186225,
        -0.007010779775741657,
        0.15066243027871448,
        -0.012937475574687675,
        -0.049166261125345466,
        0.06402718820471988,
        0.25392426010556046,
        -0.005327417835687313,
        0.10062049303827832,
        0.17670979329720848,
        -0.024006079602677453,
        -0.25562914925236074,
        -0.06492236232918545,
        0.0890912042819881,
        0.0006715782120852815,
        -0.021605524158403246,
        0.03604462960414062,
        0.07524316106665667,
        0.02858113355895103,
        0.08618318044621515,
        -0.04352906180510516,
        -0.07128238831887353,
        0.02105745914448967,
        0.15831484648709382,
        -0.12012630240607629,
        0.058688926163273356,
        0.07048924332069656,
        0.011912211908815487
      ]
    ],
    "workflow_labels": [
      "direct",
      "verify_then_fallback"
    ],
    "workflow_weights": [
      [
        0.41219917534125766,
        -0.0024433150457020404,
        0.09216726946265419,
        0.18300130667812725,
        0.044139178333085866,
        0.01120460980593763,
        0.006973051952632823,
        0.09715915989520717,
        -0.03164624690819679,
        0.00753929107903052,
        0.04187441903568358,
        0.008465374925469702,
        0.06903451934756116,
        0.41219917534125766,
        0.0,
        0.0,
        0.0,
        0.011055810093875464,
        0.01196205762430507,
        0.03472305048101618,
        0.08342603002617599,
        -0.018587099958848784,
        0.024138499411129773,
        0.09625800616425545,
        0.11503176450503609,
        0.03271136889463367,
        0.027718576816659422,
        0.01196205762430507,
        -0.1584672990169849,
        0.04143760323519973,
        0.0,
        0.0,
        0.008274623690098962,
        0.01225623991104682,
        0.0,
        0.01196205762430507,
        0.012694448120422756,
        0.009163050141049565,
        -0.06178629948670145,
        0.28485349451510333,
        0.03041510729080274,
        0.13142189368271703,
        0.03038895790309911,
        0.04676194252514601,
        0.05314251445870312,
        0.0295919022459272,
        0.042339175979871746,
        0.014390907619713969,
        0.05251592000132177,
        0.0,
        0.07636591011642768,
        0.0,
        0.02622115560127599,
        0.041996442469254755,
        -0.014666892570248198,
        0.0,
        0.07119868772968084,
        0.050964948530228364,
        0.0,
        -0.06235031392474245,
        0.053592351148004265,
        0.1724044637919007,
        0.129664864474782,
        0.01196205762430507,
        0.01196205762430507,
        0.03479988490084116,
        0.025673578059449507,
        0.00809444973630918,
        0.06968526320484379,
        -0.15635181025876918,
        0.008274623690098962,
        0.01446896014554742,
        0.044453680708905784,
        0.061702591872445194,
        0.07550465543538809,
        0.029842395497456625,
        -0.004859702700232783,
        0.017946531911176792,
        0.07637472490974814,
        0.01181156888106951,
        0.02078095363089439,
        0.025548688830508398,
        0.011960610912633231,
        0.0479811606389292,
        0.04018370587673297,
        0.042339175979871746,
        0.0499044325274036,
        0.08997743579336838,
        0.05462261884107883,
        0.10755397080180219,
        0.01400705638151494,
        0.014390907619713969,
        0.053521141814679554,
        0.03041510729080274,
        0.02622115560127599,
        0.050964948530228364,
        0.053592351148004265,
        0.10753109334623268,
        0.021275506173854795,
        0.12389266494023266,
        0.09715915989520717,
        -0.0024433150457020404,
        0.09216726946265419,
        0.10787127542100873,
        0.01120460980593763,
        0.006973051952632823
      ],
      [
        -0.4121991753412575,
        0.0024433150457021393,
        -0.09216726946265417,
        -0.18300130667812725,
        -0.04413917833308588,
        -0.011204609805937623,
        -0.006973051952632863,
        -0.09715915989520714,
        0.031646246908196805,
        -0.007539291079030521,
        -0.04187441903568359,
        -0.008465374925469697,
        -0.06903451934756115,
        -0.4121991753412575,
        0.0,
        0.0,
        0.0,
        -0.011055810093875462,
        -0.01196205762430507,
        -0.0347230504810162,
        -0.08342603002617593,
        0.018587099958848784,
        -0.024138499411129773,
        -0.09625800616425544,
        -0.11503176450503605,
        -0.032711368894633684,
        -0.02771857681665942,
        -0.01196205762430507,
        0.1584672990169848,
        -0.041437603235199724,
        0.0,
        0.0,
        -0.00827462369009896,
        -0.012256239911046825,
        0.0,
        -0.01196205762430507,
        -0.012694448120422757,
        -0.009163050141049563,
        0.06178629948670146,
        -0.28485349451510333,
        -0.030415107290802743,
        -0.13142189368271703,
        -0.030388957903099093,
        -0.04676194252514599,
        -0.05314251445870312,
        -0.02959190224592719,
        -0.042339175979871725,
        -0.014390907619713967,
        -0.05251592000132175,
        0.0,
        -0.07636591011642767,
        0.0,
        -0.026221155601275994,
        -0.04199644246925475,
        0.01466689257024821,
        0.0,
        -0.07119868772968085,
        -0.050964948530228364,
        0.0,
        0.06235031392474243,
        -0.053592351148004265,
        -0.17240446379190075,
        -0.12966486447478198,
        -0.01196205762430507,
        -0.01196205762430507,
        -0.03479988490084114,
        -0.025673578059449514,
        -0.008094449736309201,
        -0.06968526320484378,
        0.1563518102587692,
        -0.00827462369009896,
        -0.014468960145547412,
        -0.04445368070890579,
        -0.06170259187244519,
        -0.07550465543538809,
        -0.029842395497456625,
        0.004859702700232801,
        -0.017946531911176792,
        -0.0763747249097481,
        -0.011811568881069509,
        -0.020780953630894376,
        -0.025548688830508384,
        -0.01196061091263323,
        -0.04798116063892922,
        -0.04018370587673294,
        -0.042339175979871725,
        -0.049904432527403605,
        -0.0899774357933684,
        -0.0546226188410788,
        -0.10755397080180225,
        -0.014007056381514942,
        -0.014390907619713967,
        -0.05352114181467955,
        -0.030415107290802743,
        -0.026221155601275994,
        -0.050964948530228364,
        -0.053592351148004265,
        -0.10753109334623266,
        -0.021275506173854798,
        -0.12389266494023257,
        -0.09715915989520714,
        0.0024433150457021393,
        -0.09216726946265417,
        -0.10787127542100874,
        -0.011204609805937623,
        -0.006973051952632863
      ]
    ]
  },
  "substrate": "research/datasets/20260628-normal-offset236-boundary-61task-substrate.jsonl",
  "target_balance_power": 0.0
}
