{
  "dataset": "research/datasets/20260627-mixed-winner-14task-routing.jsonl",
  "epochs": 300,
  "l2": 0.0001,
  "learning_rate": 0.0005,
  "model_type": "linear-softmax-logits-router",
  "reward_temperature": 0.5,
  "router": {
    "feature_names": [
      "bias",
      "category_datasci",
      "category_filesystem",
      "category_general",
      "category_network",
      "category_plotting",
      "category_subprocess",
      "environment_risk",
      "family_bigcodebench_hard",
      "family_code_data",
      "family_code_easy",
      "family_code_text",
      "kw_base64",
      "kw_convert",
      "kw_count",
      "kw_csv",
      "kw_default",
      "kw_dict",
      "kw_directory",
      "kw_download",
      "kw_email",
      "kw_encoding",
      "kw_exception",
      "kw_file",
      "kw_flatten",
      "kw_frequent",
      "kw_ftp",
      "kw_group",
      "kw_hash",
      "kw_hex",
      "kw_key",
      "kw_list",
      "kw_lowercase",
      "kw_number",
      "kw_pair",
      "kw_parse",
      "kw_process",
      "kw_socket",
      "kw_sorted",
      "kw_ssl",
      "kw_string",
      "kw_strip",
      "kw_subprocess",
      "kw_sum",
      "kw_title",
      "kw_url",
      "kw_urllib",
      "kw_window",
      "kw_word",
      "kw_zip",
      "length_chars",
      "length_tokens",
      "lib_base64",
      "lib_binascii",
      "lib_codecs",
      "lib_collections",
      "lib_csv",
      "lib_datetime",
      "lib_ftplib",
      "lib_functools",
      "lib_glob",
      "lib_itertools",
      "lib_json",
      "lib_math",
      "lib_os",
      "lib_pandas",
      "lib_pathlib",
      "lib_random",
      "lib_re",
      "lib_shutil",
      "lib_statistics",
      "lib_subprocess",
      "lib_urllib",
      "lib_zipfile",
      "library_count",
      "missing_library_count",
      "plausibility_score"
    ],
    "policy": "logits-router",
    "weights": [
      [
        -0.020041679402414168,
        -0.02130523960918996,
        -0.006022829564365628,
        0.0045372809096882825,
        -0.010353966948821607,
        0.0,
        -0.004953336736888397,
        -0.006212380169292962,
        -0.020041679402414168,
        0.0,
        0.0,
        0.0,
        0.00037068474099235594,
        0.00037068474099235594,
        0.0031826805039471724,
        -0.03059744930002638,
        -0.010353966948821607,
        0.0035533652449395332,
        0.013138223552159874,
        -0.007171286444874446,
        0.0,
        0.00037068474099235594,
        -0.031776869782918195,
        0.02985265286062522,
        0.0,
        0.0,
        -0.010353966948821607,
        0.0,
        0.0,
        0.00037068474099235594,
        0.00037068474099235594,
        -0.05184370160421016,
        0.0,
        -0.022507711412444932,
        0.0,
        0.00037068474099235594,
        0.0,
        0.0,
        0.0,
        0.0,
        0.00037068474099235594,
        0.0,
        -0.010353966948821607,
        -0.0008004624007433797,
        0.0,
        0.0035533652449395332,
        0.0035533652449395332,
        0.0,
        0.0,
        -0.02422476249611529,
        -0.02120961139353077,
        -0.01617653262835454,
        0.00037068474099235594,
        0.00037068474099235594,
        0.00037068474099235594,
        0.0031826805039471724,
        -0.019161053116525623,
        -0.021707249011701665,
        -0.010353966948821607,
        0.004166596168695925,
        -0.02877217950673968,
        0.004166596168695925,
        0.0022179497079860585,
        0.004166596168695925,
        -0.006022829564365628,
        -0.02130523960918996,
        -0.006469337614061615,
        0.029701012838255554,
        -0.0205544569067299,
        0.052684011566536106,
        -0.01919261535650786,
        -0.010353966948821607,
        0.0035533652449395332,
        -0.02422476249611529,
        -0.00831667944888515,
        0.0,
        -0.011812045212785663
      ],
      [
        -0.03705299834036711,
        0.006421823156172431,
        -0.0480204324163822,
        0.002888257453549294,
        -0.01987601457028673,
        0.0,
        -0.0103499261457822,
        -0.011925608742172024,
        -0.03705299834036711,
        0.0,
        0.0,
        0.0,
        0.0006422743058290787,
        0.0006422743058290787,
        0.005006954112543272,
        0.01614280770668441,
        -0.01987601457028673,
        0.005649228418372354,
        -0.033362278565269424,
        -0.014869060457743357,
        0.0,
        0.0006422743058290787,
        0.006490285415412461,
        -0.0023125527185402233,
        0.0,
        0.0,
        -0.01987601457028673,
        0.0,
        0.0,
        0.0006422743058290787,
        0.0006422743058290787,
        -0.05958946103674528,
        0.0,
        -0.0035378252354488424,
        0.0,
        0.0006422743058290787,
        0.0,
        0.0,
        0.0,
        0.0,
        0.0006422743058290787,
        0.0,
        -0.01987601457028673,
        -0.003930504630534371,
        0.0,
        0.005649228418372354,
        0.005649228418372354,
        0.0,
        0.0,
        0.021762037641013247,
        -0.014089482626990836,
        -0.011120937539829921,
        0.0006422743058290787,
        0.0006422743058290787,
        0.0006422743058290787,
        0.005006954112543272,
        -0.014658153851112885,
        0.0003926793950855492,
        -0.01987601457028673,
        0.002245983147720222,
        0.019113362725435682,
        0.002245983147720222,
        0.004519134311961219,
        0.002245983147720222,
        -0.0480204324163822,
        0.006421823156172431,
        0.03697744933605185,
        -0.029049315024269197,
        -0.01965537734930078,
        -0.029071813857741224,
        -0.011978610736275916,
        -0.01987601457028673,
        0.005649228418372354,
        0.021762037641013247,
        -0.008367829091837224,
        0.0,
        -0.01469084326417017
      ],
      [
        0.026677273842166647,
        -0.010041366542783222,
        0.02471157102013396,
        -0.001512355807170729,
        0.019433892147464157,
        0.0,
        0.011415308653443812,
        0.011660335288478573,
        0.026677273842166647,
        0.0,
        0.0,
        0.0,
        -0.0005289529766663593,
        -0.0005289529766663593,
        -0.006644453832590281,
        0.05872048824911781,
        0.019433892147464157,
        -0.007173406809256631,
        -0.05868141030363162,
        0.012789438314873919,
        0.0,
        -0.0005289529766663593,
        -0.03548420574405101,
        0.021530659463270388,
        0.0,
        0.0,
        0.019433892147464157,
        0.0,
        0.0,
        -0.0005289529766663593,
        -0.0005289529766663593,
        -0.020205831813300917,
        0.0,
        0.032177878357889475,
        0.0,
        -0.0005289529766663593,
        0.0,
        0.0,
        0.0,
        0.0,
        -0.0005289529766663593,
        0.0,
        0.019433892147464157,
        -0.013128698341060792,
        0.0,
        -0.007173406809256631,
        -0.007173406809256631,
        0.0,
        0.0,
        -0.016849290258247822,
        0.01263404371958991,
        0.008123335297324629,
        -0.0005289529766663593,
        -0.0005289529766663593,
        -0.0005289529766663593,
        -0.006644453832590281,
        0.08339298132376566,
        0.04530657669895031,
        0.019433892147464157,
        -0.000983402830504371,
        -0.04729024122842047,
        -0.000983402830504371,
        -0.0013741296614301283,
        -0.000983402830504371,
        0.02471157102013396,
        -0.010041366542783222,
        -0.012527197564091489,
        0.06817224730435789,
        -0.004107685080044017,
        -0.04912071668229166,
        0.04820891708660907,
        0.019433892147464157,
        -0.007173406809256631,
        -0.016849290258247822,
        0.014899452264807754,
        0.0,
        0.01648686850295955
      ],
      [
        0.03041740390061472,
        0.024924782995800806,
        0.029331690960613797,
        -0.005913182556066848,
        0.010796089371644082,
        0.0,
        0.003887954229226785,
        0.006477653622986474,
        0.03041740390061472,
        0.0,
        0.0,
        0.0,
        -0.0004840060701550869,
        -0.0004840060701550869,
        -0.0015451807839001756,
        -0.044265846655775716,
        0.010796089371644082,
        -0.0020291868540552637,
        0.07890546531674107,
        0.009250908587743923,
        0.0,
        -0.0004840060701550869,
        0.060770790111556644,
        -0.04907075960535538,
        0.0,
        0.0,
        0.010796089371644082,
        0.0,
        0.0,
        -0.0004840060701550869,
        -0.0004840060701550869,
        0.13163899445425617,
        0.0,
        -0.006132341709995627,
        0.0,
        -0.0004840060701550869,
        0.0,
        0.0,
        0.0,
        0.0,
        -0.0004840060701550869,
        0.0,
        0.010796089371644082,
        0.017859665372338556,
        0.0,
        -0.0020291868540552637,
        -0.0020291868540552637,
        0.0,
        0.0,
        0.019312015113349755,
        0.022665050300931657,
        0.019174134870859776,
        -0.0004840060701550869,
        -0.0004840060701550869,
        -0.0004840060701550869,
        -0.0015451807839001756,
        -0.049573774356127184,
        -0.02399200708233424,
        0.010796089371644082,
        -0.005429176485911767,
        0.056949058009724655,
        -0.005429176485911767,
        -0.005362954358517127,
        -0.005429176485911767,
        0.029331690960613797,
        0.024924782995800806,
        -0.01798091415789887,
        -0.06882394511834468,
        0.04431751933607477,
        0.02550851897349699,
        -0.01703769099382532,
        0.010796089371644082,
        -0.0020291868540552637,
        0.019312015113349755,
        0.0017850562759145676,
        0.0,
        0.01001601997399627
      ]
    ],
    "worker_ids": [
      "ollama-cloud-deepseek-v4-pro",
      "ollama-cloud-glm-5.2",
      "ollama-cloud-kimi-k2.7-code",
      "ollama-cloud-qwen3-coder-480b"
    ]
  },
  "target_mode": "reward"
}
