{
  "epochs": 300,
  "l2": 0.0001,
  "latency_regret_weight": 0.5,
  "learning_rate": 0.0005,
  "model_type": "linear-multi-head-orchestrator",
  "orchestrator": {
    "abstain_weights": [
      -0.5807234278998333,
      -0.123450163539128,
      -0.21284156421682285,
      -0.14857122733494277,
      -0.04880245062148619,
      -0.0907460415380427,
      -0.04279944897378831,
      -0.15204186609079623,
      -0.028986276138955776,
      -0.012402843514039903,
      -0.06908750658454635,
      -0.013160119942934617,
      -0.08673477819430446,
      -0.5807234278998333,
      0.0,
      0.0,
      0.0,
      -0.03562918652355015,
      -0.021838832690156296,
      -0.05683000232058094,
      -0.13021218185801178,
      -0.035023165997499224,
      -0.015159802397883832,
      -0.12794892142119468,
      -0.18117344798696758,
      -0.05369285895457493,
      -0.01983313674455786,
      -0.021838832690156296,
      0.03480892613057052,
      -0.1474670265703474,
      0.0,
      0.0,
      -0.015159802397883832,
      -0.016047183686007722,
      0.0,
      -0.021838832690156296,
      -0.018248000593630895,
      -0.015394647629971161,
      0.03226546266043704,
      -0.28963565254027884,
      -0.05207238162396753,
      -0.23023737086386026,
      -0.018697832764755718,
      -0.0787502901513352,
      -0.05272765538968069,
      -0.044378213636282485,
      -0.06931430097521868,
      0.0,
      -0.014499494499341632,
      0.0,
      -0.12724464320973797,
      0.0,
      -0.015159802397883832,
      -0.061158904165433466,
      -0.02314151376237021,
      0.0,
      -0.117283346708025,
      -0.08663250260035583,
      0.0,
      0.04680147053992936,
      -0.10171444509371673,
      -0.2689245343890362,
      -0.20384615178254548,
      -0.021838832690156296,
      -0.021838832690156296,
      -0.05691145746117864,
      -0.04167196943471404,
      -0.10603555769886601,
      -0.01770318916718841,
      -0.10830175656651612,
      0.1586234393085463,
      -0.015159802397883832,
      -0.02515646593089271,
      -0.06577349980272074,
      -0.10143125328637582,
      -0.043060647927861,
      -0.02515646593089271,
      -0.07061729508110304,
      -0.14703159087344436,
      -0.020189025877704506,
      -0.10591304100837438,
      -0.11885543885979333,
      -0.017042884711631925,
      -0.055979864312177635,
      -0.04895835084112986,
      -0.06931430097521868,
      -0.06179094304283692,
      -0.11150368370004153,
      -0.08595660752062971,
      -0.13586624876922734,
      -0.049431394232270366,
      -0.05207238162396753,
      -0.015159802397883832,
      -0.08663250260035583,
      -0.08401125592652742,
      -0.182774290403118,
      -0.028726653910707025,
      -0.1828069921646282,
      -0.15204186609079623,
      -0.123450163539128,
      -0.21284156421682285,
      -0.132443149105909,
      -0.0907460415380427,
      -0.04279944897378831
    ],
    "feature_names": [
      "bias",
      "category_datasci",
      "category_filesystem",
      "category_general",
      "category_network",
      "category_plotting",
      "category_subprocess",
      "combo_archive_filesystem",
      "combo_dataframe_plotting",
      "combo_network_archive",
      "combo_network_filesystem",
      "combo_network_plotting",
      "environment_risk",
      "family_bigcodebench_hard",
      "family_code_data",
      "family_code_easy",
      "family_code_text",
      "kw_archive",
      "kw_base64",
      "kw_convert",
      "kw_count",
      "kw_csv",
      "kw_default",
      "kw_dict",
      "kw_directory",
      "kw_download",
      "kw_email",
      "kw_encoding",
      "kw_exception",
      "kw_file",
      "kw_flatten",
      "kw_frequent",
      "kw_ftp",
      "kw_group",
      "kw_hash",
      "kw_hex",
      "kw_http",
      "kw_https",
      "kw_key",
      "kw_list",
      "kw_lowercase",
      "kw_number",
      "kw_pair",
      "kw_parse",
      "kw_process",
      "kw_request",
      "kw_requests",
      "kw_socket",
      "kw_sorted",
      "kw_ssl",
      "kw_string",
      "kw_strip",
      "kw_subprocess",
      "kw_sum",
      "kw_title",
      "kw_unpack",
      "kw_url",
      "kw_urllib",
      "kw_window",
      "kw_word",
      "kw_zip",
      "length_chars",
      "length_tokens",
      "lib_base64",
      "lib_binascii",
      "lib_bs4",
      "lib_codecs",
      "lib_collections",
      "lib_configparser",
      "lib_csv",
      "lib_datetime",
      "lib_ftplib",
      "lib_functools",
      "lib_glob",
      "lib_itertools",
      "lib_json",
      "lib_math",
      "lib_matplotlib",
      "lib_numpy",
      "lib_operator",
      "lib_os",
      "lib_pandas",
      "lib_pathlib",
      "lib_random",
      "lib_re",
      "lib_requests",
      "lib_scipy",
      "lib_seaborn",
      "lib_shutil",
      "lib_sklearn",
      "lib_statistics",
      "lib_string",
      "lib_subprocess",
      "lib_urllib",
      "lib_zipfile",
      "library_count",
      "missing_library_count",
      "plausibility_score",
      "signal_archive",
      "signal_dataframe",
      "signal_filesystem",
      "signal_network",
      "signal_plotting",
      "signal_subprocess"
    ],
    "policy": "linear-multi-head-orchestrator",
    "verifier_weights": [
      -0.036355716364845456,
      -0.07077031484281936,
      -0.19136304065260432,
      0.055128360774954435,
      -0.0094378690651045,
      0.0423870412929586,
      0.13005353257852117,
      -0.06184995781837028,
      -0.022975877950167273,
      -0.04682206037249633,
      0.04207229754222168,
      0.011879556613819318,
      -0.04097316448042783,
      -0.036355716364845456,
      0.0,
      0.0,
      0.0,
      0.08790739032875032,
      0.020575296012820755,
      -0.00407426826590321,
      0.12875003308635552,
      -0.1423032985250235,
      0.004852677830860539,
      0.0733040880102942,
      -0.10300486561734311,
      -0.00013258086834110066,
      -0.0632548737490826,
      0.020575296012820755,
      0.21804465351258023,
      -0.1435159894321469,
      0.0,
      0.0,
      0.004852677830860539,
      -0.05899003198706198,
      0.0,
      0.020575296012820755,
      -0.05649542530652798,
      0.0422048784105628,
      0.06418439023460175,
      -0.21704931799722316,
      0.046469641699949105,
      -0.06872005508428346,
      0.03836519571732727,
      -0.0557297123669223,
      -0.08497805196690056,
      -0.014658623633233352,
      -0.12312706875223903,
      0.0,
      -0.04974844643340205,
      0.0,
      -0.016243706207344465,
      0.0,
      0.004852677830860539,
      0.0056905960545848245,
      0.013730671775294011,
      0.0,
      -0.060714971066123696,
      0.042602514612900315,
      0.0,
      0.15896871463050932,
      -0.01341244126888807,
      -0.034749397038738604,
      -0.0371200982114373,
      0.020575296012820755,
      0.020575296012820755,
      -0.07630500837974268,
      -0.042679577736261576,
      0.18835925861072456,
      0.04752623556835299,
      -0.03279363970514277,
      -0.015506421296912959,
      0.004852677830860539,
      0.02435723876843055,
      -0.10120242597527462,
      0.10068932354549286,
      -0.05346268458594785,
      0.02435723876843055,
      0.10147538099810849,
      -0.07866489422041521,
      0.03667582058870608,
      -0.0721546728141428,
      -0.014126623609228258,
      -0.04580642767951282,
      -0.2471770753235365,
      -0.0248264240851851,
      -0.12312706875223903,
      -0.042569600902156654,
      -0.07137863092817245,
      0.03946987377926787,
      0.08038054108373952,
      -0.027743485414120552,
      0.046469641699949105,
      0.004852677830860539,
      0.042602514612900315,
      -0.0609386768372416,
      -0.03472443225337631,
      -0.017655221520682652,
      -0.049833304056750516,
      -0.06184995781837028,
      -0.07077031484281936,
      -0.19136304065260432,
      -0.0558622932352631,
      0.0423870412929586,
      0.13005353257852117
    ],
    "worker_ids": [
      "ollama-cloud-deepseek-v4-pro",
      "ollama-cloud-glm-5.2",
      "ollama-cloud-kimi-k2.7-code",
      "ollama-cloud-qwen3-coder-480b"
    ],
    "worker_weights": [
      [
        -0.06195597628591829,
        0.06635729026555634,
        0.046281227080908593,
        -0.07815861756166391,
        0.0868588233471643,
        0.03552443052224685,
        0.037920082748698854,
        0.0019562059032508378,
        0.00554582521415197,
        -0.059484973140730486,
        -0.06816497694174545,
        0.020671521884107074,
        0.09706950243191818,
        -0.06195597628591829,
        0.0,
        0.0,
        0.0,
        0.03844695980393624,
        -0.015717068378318773,
        -0.05501084468405467,
        -0.006801406795488122,
        0.08398467984617004,
        -0.04215012188411174,
        0.10446087939780742,
        -0.07626732913332093,
        -0.08711519527917694,
        -0.020319793129656084,
        -0.015717068378318773,
        0.05602528619071846,
        0.1207251821244374,
        0.0,
        0.0,
        -0.04215012188411174,
        0.11722891838383044,
        0.0,
        -0.015717068378318773,
        0.11005872689384415,
        0.018950218337431844,
        0.06242401822396077,
        -0.07344267965219103,
        0.014783732131423512,
        0.025936076043751352,
        0.008436440392238528,
        0.02803449978804655,
        -0.07109985231757868,
        0.12457862663950844,
        -0.01573340497436531,
        0.0,
        -0.04799869025854436,
        0.0,
        0.033384787931362944,
        0.0,
        -0.04215012188411174,
        -0.029483977287064377,
        -0.004611156514618524,
        0.0,
        -0.01693057360701907,
        -0.06750432736013201,
        0.0,
        0.07144359390752884,
        -0.08522407041820723,
        -0.009386149062132114,
        -0.0031289300299631746,
        -0.015717068378318773,
        -0.015717068378318773,
        0.043751568166365475,
        -0.03603686150797483,
        0.10948189078776671,
        0.011480230860013403,
        0.07316373288811583,
        -0.09681218165323562,
        -0.04215012188411174,
        0.009445026239968124,
        -0.11084337777913016,
        -0.004913645700290467,
        0.0651043809466171,
        0.009445026239968124,
        0.0678670559679886,
        0.07270987292516122,
        0.014018612759085966,
        -0.14141618424459174,
        0.06988152742408645,
        -0.029817631590036205,
        -0.005321682683449405,
        -0.07756995669585781,
        -0.01573340497436531,
        -0.08701391583960798,
        -0.16703368749685024,
        0.1256272361253947,
        0.12276412108852762,
        -0.07020558242057921,
        0.014783732131423512,
        -0.04215012188411174,
        -0.06750432736013201,
        -0.09670430127822036,
        -0.03131371071986983,
        0.02247710421180942,
        0.059965098259557204,
        0.0019562059032508378,
        0.06635729026555634,
        0.046281227080908593,
        -0.05908069549113063,
        0.03552443052224685,
        0.037920082748698854
      ],
      [
        -0.10172185452203046,
        -0.09597144868039813,
        -0.030216695438114692,
        -0.01323179943050934,
        -0.03196396694260117,
        -0.06682392705217634,
        -0.035509706370093805,
        0.01963056526392356,
        -0.07575312786485412,
        -0.029659734479032245,
        -0.02692894407266575,
        -0.0005877664369475033,
        0.028669285085945902,
        -0.10172185452203046,
        0.0,
        0.0,
        0.0,
        0.013755772904636513,
        -0.013031110418075777,
        0.13301015326018378,
        0.046828652252010786,
        -0.030111502812175304,
        -0.02033182694736804,
        -0.0356483280423874,
        -0.031105264257111048,
        -0.03389934075012207,
        -0.05046281309833522,
        -0.013031110418075777,
        -0.05881632215130316,
        0.027751637329220008,
        0.0,
        0.0,
        -0.02033182694736804,
        -0.03235483820532613,
        0.0,
        -0.013031110418075777,
        -0.018602536672689598,
        0.006970396677456447,
        0.055780020067015885,
        -0.04138473444922998,
        0.0181003570711482,
        -0.026722031924874105,
        0.026552381565462642,
        -0.0375836299155751,
        -0.05795353352962858,
        -0.00251031599641163,
        -0.05421225397653137,
        0.0,
        0.123872249630521,
        0.0,
        0.004876465197000588,
        0.0,
        -0.02033182694736804,
        -0.019808977251857787,
        -0.02444081065082205,
        0.0,
        -0.05115114371832933,
        -0.0028888725666074123,
        0.0,
        -7.959423304481078e-05,
        0.07321022616833309,
        -0.08995333307937493,
        -0.07654572880620986,
        -0.013031110418075777,
        -0.013031110418075777,
        -0.024552519497499502,
        -0.0634939235164106,
        0.09954623095026405,
        -0.015324930465219098,
        -0.06701858002367754,
        -0.1204011991796173,
        -0.02033182694736804,
        -0.009785236173178028,
        0.07261568025970389,
        -7.470764617481487e-06,
        0.057600215147200325,
        -0.009785236173178028,
        -0.05295168566887639,
        0.02132339359245777,
        0.03152957913357036,
        -0.0757029774716007,
        0.012985924493129568,
        0.1226884141360686,
        -0.14740045531981805,
        -0.11983105385945315,
        -0.05421225397653137,
        0.019756438915931977,
        -0.015635114994705424,
        -0.03982388799977339,
        0.04004217186946612,
        -0.037632432978811484,
        0.0181003570711482,
        -0.02033182694736804,
        -0.0028888725666074123,
        0.08853515663355231,
        -0.03384501431579656,
        0.023923832625753334,
        -0.008334457811944331,
        0.01963056526392356,
        -0.09597144868039813,
        -0.030216695438114692,
        -0.07148297066569785,
        -0.06682392705217634,
        -0.035509706370093805
      ],
      [
        -0.0013323497355390804,
        -0.12781531233400634,
        0.08092809872173275,
        -0.0025098927382768005,
        -6.999949053454983e-05,
        -0.042702846057463426,
        -0.015979186291317973,
        -0.06825588696080583,
        -0.08670576370512667,
        0.11661254976787988,
        0.13380652109549165,
        0.022391235861566387,
        -0.004283305359960709,
        -0.0013323497355390804,
        0.0,
        0.0,
        0.0,
        -0.021396448881268168,
        0.012009615253532228,
        0.02321674841633681,
        0.06307322932997773,
        0.09071863509470594,
        0.01928360781834778,
        -0.03333702018819134,
        -0.08401216784435181,
        0.12164371949983555,
        -0.07413993453415402,
        0.012009615253532228,
        0.06759134297405822,
        0.16627342047664284,
        0.0,
        0.0,
        0.01928360781834778,
        -0.0182988611522926,
        0.0,
        0.012009615253532228,
        -0.031516408904538294,
        0.0121628015956559,
        -0.03981638242292355,
        -0.18765285764385375,
        -0.0058674865495426136,
        -0.041990549698422544,
        0.019781052964148522,
        -0.032258343363527356,
        0.0792849502732271,
        -0.04576884699093056,
        0.07234459115082076,
        0.0,
        -0.025605201876695845,
        0.0,
        -0.09071660696085884,
        0.0,
        0.01928360781834778,
        -0.047092105143040554,
        0.04161155841396897,
        0.0,
        0.07010176831796078,
        -0.014994372545381598,
        0.0,
        0.016317033360390816,
        0.004103376922617814,
        0.005868680884028412,
        -0.0006223440891490815,
        0.012009615253532228,
        0.012009615253532228,
        -0.04426795861705963,
        -0.06213031928062186,
        -0.09314268440359105,
        0.017028019511554634,
        0.11155688934360779,
        0.10727510940933184,
        0.01928360781834778,
        -0.0004869513839016324,
        -0.13075332988003927,
        0.012381660946523139,
        -0.04801052936462581,
        -0.0004869513839016324,
        -0.01623168835627033,
        -0.20567641797252856,
        -0.04325649725231683,
        0.04579035075167207,
        -0.06572540631569448,
        -0.04239570878461411,
        0.09210040089070898,
        -0.007716052316204384,
        0.07234459115082076,
        -0.03452711065965281,
        0.004101376488469543,
        -0.09375571276469191,
        0.0904062936104799,
        0.11888861347268066,
        -0.0058674865495426136,
        0.01928360781834778,
        -0.014994372545381598,
        -0.012924642588936932,
        -0.018789006869996776,
        -0.0021206528328199673,
        -0.008614895247663647,
        -0.06825588696080583,
        -0.12781531233400634,
        0.08092809872173275,
        0.0893853761363074,
        -0.042702846057463426,
        -0.015979186291317973
      ],
      [
        0.1650101805434871,
        0.15742947074884794,
        -0.09699263036452622,
        0.09390030973044951,
        -0.05482485691402814,
        0.07400234258739355,
        0.013568809912712386,
        0.04666911579363156,
        0.15691306635582772,
        -0.027467842148117146,
        -0.03871260008108023,
        -0.04247499130872586,
        -0.12145548215790174,
        0.1650101805434871,
        0.0,
        0.0,
        0.0,
        -0.03080628382730454,
        0.01673856354286223,
        -0.10121605699246579,
        -0.10310047478650064,
        -0.14459181212869898,
        0.043198341013132135,
        -0.03547553116722796,
        0.1913847612347838,
        -0.0006291834705358046,
        0.14492254076214442,
        0.01673856354286223,
        -0.06480030701347435,
        -0.3147502399302975,
        0.0,
        0.0,
        0.043198341013132135,
        -0.06657521902621161,
        0.0,
        0.01673856354286223,
        -0.059939781316616314,
        -0.03808341661054408,
        -0.07838765586805278,
        0.3024802717452768,
        -0.027016602653029038,
        0.042776505579545474,
        -0.05476987492184963,
        0.04180747349105601,
        0.04976843557398061,
        -0.07629946365216687,
        -0.0023989321999235208,
        0.0,
        -0.05026835749528098,
        0.0,
        0.0524553538324956,
        0.0,
        0.043198341013132135,
        0.09638505968196304,
        -0.012559591248528512,
        0.0,
        -0.0020200509926119603,
        0.08538757247212131,
        0.0,
        -0.08768103303487408,
        0.0079104673272562,
        0.09347080125747775,
        0.08029700292532307,
        0.01673856354286223,
        0.01673856354286223,
        0.02506890994819367,
        0.16166110430500688,
        -0.11588543733444014,
        -0.013183319906348873,
        -0.11770204220804735,
        0.10993827142352024,
        0.043198341013132135,
        0.000827161317111501,
        0.16898102739946672,
        -0.007460544481615182,
        -0.0746940667291911,
        0.000827161317111501,
        0.0013163180571578346,
        0.11164315145490986,
        -0.0022916946403394698,
        0.17132881096451985,
        -0.01714204560152281,
        -0.050475073761417966,
        0.06062173711255789,
        0.2051170628715158,
        -0.0023989321999235208,
        0.10178458758332866,
        0.17856742600308703,
        0.007952364639070564,
        -0.2532125865684751,
        -0.011050598073289758,
        -0.027016602653029038,
        0.043198341013132135,
        0.08538757247212131,
        0.021093787233605076,
        0.08394773190566374,
        -0.04428028400474287,
        -0.04301574519994954,
        0.04666911579363156,
        0.15742947074884794,
        -0.09699263036452622,
        0.04117829002052011,
        0.07400234258739355,
        0.013568809912712386
      ]
    ],
    "workflow_labels": [
      "direct",
      "verify_then_fallback"
    ],
    "workflow_weights": [
      [
        0.3486484395377748,
        0.023498473418154264,
        0.11108046045167036,
        0.10534955822596476,
        0.03333328918704605,
        0.02660481353419565,
        -0.0004188867658073394,
        0.10404317914721693,
        -0.021975914495065675,
        0.007881082248477826,
        0.045279915253574776,
        0.009042739337984667,
        0.06575585087945689,
        0.3486484395377748,
        0.0,
        0.0,
        0.0,
        0.02458698204708691,
        0.01450497310957281,
        0.040799255829413864,
        0.09693520393017693,
        -0.010391352308691603,
        0.010196785159027728,
        0.09033853491903936,
        0.12410446438507357,
        0.035709481926179586,
        0.016534111627710332,
        0.01450497310957281,
        -0.116533650697271,
        0.06682291205931515,
        0.0,
        0.0,
        0.010196785159027728,
        0.012519582829788878,
        0.0,
        0.01450497310957281,
        0.013566070700622173,
        0.009570433327396096,
        -0.06294399817246625,
        0.21304100160305173,
        0.038274933275896636,
        0.173142369058218,
        0.015120957301498504,
        0.05363394054507313,
        0.04056466050028471,
        0.031197685219295973,
        0.04701004968397831,
        0.0,
        0.010144816095744361,
        0.0,
        0.0900134904967275,
        0.0,
        0.010196785159027728,
        0.04648252672794547,
        -0.005656940104208616,
        0.0,
        0.07914663731222511,
        0.05769948436312472,
        0.0,
        -0.06637928890561359,
        0.06935382876394344,
        0.16195750581664906,
        0.12228960367411493,
        0.01450497310957281,
        0.01450497310957281,
        0.0391289674354998,
        0.03103908473728312,
        0.04441803518365365,
        0.012383048946627232,
        0.07687447567157661,
        -0.1747373831312681,
        0.010196785159027728,
        0.017925620105896007,
        0.04578668968021523,
        0.07351923749871901,
        0.030039576209171696,
        0.017925620105896007,
        0.009478920288628514,
        0.08996804935089406,
        0.014009294859992196,
        0.03331568223515751,
        0.046018575442988464,
        0.011955706979610955,
        0.014981846884683665,
        0.0073352829683928115,
        0.04701004968397831,
        0.05065841735838737,
        0.09347989413927998,
        0.059276332430359964,
        0.1123799925244892,
        0.03928528674160953,
        0.038274933275896636,
        0.010196785159027728,
        0.05769948436312472,
        0.056970779817316124,
        0.10458050183252572,
        0.022877938683614766,
        0.11831156496430782,
        0.10404317914721693,
        0.023498473418154264,
        0.11108046045167036,
        0.08934342247125254,
        0.02660481353419565,
        -0.0004188867658073394
      ],
      [
        -0.34864843953777463,
        -0.02349847341815423,
        -0.11108046045167043,
        -0.10534955822596474,
        -0.033333289187046054,
        -0.026604813534195602,
        0.00041888676580735155,
        -0.10404317914721696,
        0.021975914495065627,
        -0.007881082248477831,
        -0.04527991525357479,
        -0.009042739337984666,
        -0.0657558508794569,
        -0.34864843953777463,
        0.0,
        0.0,
        0.0,
        -0.024586982047086918,
        -0.014504973109572805,
        -0.040799255829413864,
        -0.09693520393017693,
        0.010391352308691633,
        -0.010196785159027725,
        -0.09033853491903937,
        -0.1241044643850735,
        -0.03570948192617959,
        -0.016534111627710332,
        -0.014504973109572805,
        0.11653365069727094,
        -0.06682291205931516,
        0.0,
        0.0,
        -0.010196785159027725,
        -0.01251958282978888,
        0.0,
        -0.014504973109572805,
        -0.013566070700622173,
        -0.009570433327396096,
        0.06294399817246628,
        -0.2130410016030517,
        -0.03827493327589663,
        -0.1731423690582181,
        -0.0151209573014985,
        -0.05363394054507314,
        -0.04056466050028472,
        -0.03119768521929599,
        -0.047010049683978296,
        0.0,
        -0.010144816095744363,
        0.0,
        -0.0900134904967275,
        0.0,
        -0.010196785159027725,
        -0.04648252672794546,
        0.005656940104208648,
        0.0,
        -0.07914663731222513,
        -0.05769948436312475,
        0.0,
        0.06637928890561359,
        -0.06935382876394344,
        -0.161957505816649,
        -0.12228960367411496,
        -0.014504973109572805,
        -0.014504973109572805,
        -0.039128967435499803,
        -0.03103908473728312,
        -0.04441803518365367,
        -0.012383048946627229,
        -0.07687447567157664,
        0.17473738313126808,
        -0.010196785159027725,
        -0.017925620105896004,
        -0.04578668968021524,
        -0.07351923749871903,
        -0.03003957620917168,
        -0.017925620105896004,
        -0.00947892028862854,
        -0.08996804935089409,
        -0.014009294859992196,
        -0.03331568223515756,
        -0.04601857544298845,
        -0.011955706979610958,
        -0.014981846884683691,
        -0.007335282968392801,
        -0.047010049683978296,
        -0.05065841735838737,
        -0.09347989413927998,
        -0.05927633243035998,
        -0.11237999252448919,
        -0.03928528674160953,
        -0.03827493327589663,
        -0.010196785159027725,
        -0.05769948436312475,
        -0.05697077981731614,
        -0.10458050183252568,
        -0.022877938683614783,
        -0.11831156496430784,
        -0.10404317914721696,
        -0.02349847341815423,
        -0.11108046045167043,
        -0.08934342247125258,
        -0.026604813534195602,
        0.00041888676580735155
      ]
    ]
  },
  "substrate": "research/datasets/20260628-fresh-acquisition-54task-substrate.jsonl",
  "target_balance_power": 0.0
}
