{
  "dataset": "research/datasets/20260627-expanded-profile-featurefix-38task-routing.jsonl",
  "epochs": 300,
  "l2": 0.0001,
  "learning_rate": 0.0005,
  "model_type": "linear-softmax-logits-router",
  "reward_temperature": 0.05,
  "router": {
    "feature_names": [
      "bias",
      "category_datasci",
      "category_filesystem",
      "category_general",
      "category_network",
      "category_plotting",
      "category_subprocess",
      "combo_archive_filesystem",
      "combo_dataframe_plotting",
      "combo_network_archive",
      "combo_network_filesystem",
      "combo_network_plotting",
      "environment_risk",
      "family_bigcodebench_hard",
      "family_code_data",
      "family_code_easy",
      "family_code_text",
      "kw_archive",
      "kw_base64",
      "kw_convert",
      "kw_count",
      "kw_csv",
      "kw_default",
      "kw_dict",
      "kw_directory",
      "kw_download",
      "kw_email",
      "kw_encoding",
      "kw_exception",
      "kw_file",
      "kw_flatten",
      "kw_frequent",
      "kw_ftp",
      "kw_group",
      "kw_hash",
      "kw_hex",
      "kw_http",
      "kw_https",
      "kw_key",
      "kw_list",
      "kw_lowercase",
      "kw_number",
      "kw_pair",
      "kw_parse",
      "kw_process",
      "kw_request",
      "kw_requests",
      "kw_socket",
      "kw_sorted",
      "kw_ssl",
      "kw_string",
      "kw_strip",
      "kw_subprocess",
      "kw_sum",
      "kw_title",
      "kw_unpack",
      "kw_url",
      "kw_urllib",
      "kw_window",
      "kw_word",
      "kw_zip",
      "length_chars",
      "length_tokens",
      "lib_base64",
      "lib_binascii",
      "lib_bs4",
      "lib_codecs",
      "lib_collections",
      "lib_csv",
      "lib_datetime",
      "lib_ftplib",
      "lib_functools",
      "lib_glob",
      "lib_itertools",
      "lib_json",
      "lib_math",
      "lib_matplotlib",
      "lib_numpy",
      "lib_os",
      "lib_pandas",
      "lib_pathlib",
      "lib_random",
      "lib_re",
      "lib_requests",
      "lib_seaborn",
      "lib_shutil",
      "lib_sklearn",
      "lib_statistics",
      "lib_string",
      "lib_subprocess",
      "lib_urllib",
      "lib_zipfile",
      "library_count",
      "missing_library_count",
      "plausibility_score",
      "signal_archive",
      "signal_dataframe",
      "signal_filesystem",
      "signal_network",
      "signal_plotting",
      "signal_subprocess"
    ],
    "policy": "logits-router",
    "weights": [
      [
        -0.0004972675771338567,
        0.05555824591177298,
        -0.03687750461494669,
        -0.004855171262463554,
        0.06810784992580408,
        0.042782506159593066,
        -0.030958927695873592,
        0.024977003432572854,
        0.023179041820615438,
        -0.028383683375614737,
        -0.039728775627141645,
        0.017518617874916907,
        0.0604098593427787,
        -0.0004972675771338567,
        0.0,
        0.0,
        0.0,
        0.02291703411758751,
        -0.014352909736913616,
        -0.053196737235599915,
        0.01808954480584923,
        -0.038583935339771135,
        -0.02605481210213105,
        0.0906413542532361,
        -0.029300113433530405,
        -0.039728775627141645,
        -0.03295074966321279,
        -0.014352909736913616,
        -0.04978197478572512,
        0.021821039973028793,
        0.0,
        0.0,
        -0.02605481210213105,
        0.09895047892541826,
        0.0,
        -0.014352909736913616,
        0.09416266202793472,
        0.0,
        0.060901096527311745,
        -0.0895673941993451,
        0.0023846185305178725,
        0.016122751823333566,
        -0.001712406922717639,
        0.07980975229102101,
        -0.05795460808358234,
        0.1088723818785393,
        0.0657789786523202,
        0.0,
        -0.04222365245393137,
        0.0,
        -0.011968291206395696,
        0.0,
        -0.02605481210213105,
        -0.02110918482004011,
        0.014373353280429274,
        0.0,
        0.06613578876601074,
        0.0003568101136904484,
        0.0,
        0.024398075132657505,
        -0.06251610854873009,
        -0.039910585611192595,
        -0.029087426135613777,
        -0.014352909736913616,
        -0.014352909736913616,
        0.09416266202793472,
        -0.047303659400126236,
        0.08669389662466023,
        0.039057168875517474,
        -0.07975339945656545,
        -0.02605481210213105,
        0.007113119943932161,
        -0.08763908223643865,
        0.000713539403323389,
        0.06655951431744904,
        0.007113119943932161,
        0.042782506159593066,
        0.07967074115363111,
        -0.08360237280774523,
        0.03439098577469228,
        -0.02748927397339682,
        0.06496016054635556,
        -0.05477336930041285,
        0.0657789786523202,
        -0.04330560705744643,
        0.11041014609889097,
        -0.030988936789410948,
        -0.0716675115252102,
        0.0023846185305178725,
        -0.02605481210213105,
        0.0003568101136904484,
        -0.06251610854873009,
        0.0032293203392867826,
        0.009772574693648093,
        0.03845553950359594,
        0.024977003432572854,
        0.05555824591177298,
        -0.03687750461494669,
        0.04008097666387969,
        0.042782506159593066,
        -0.030958927695873592
      ],
      [
        -0.08213688329456977,
        -0.052042817204935185,
        -0.0016738353911162898,
        -0.0020741854777221146,
        -0.04303042157543403,
        -0.04070976191623718,
        -0.026798636249360526,
        0.022857821079120957,
        -0.0462565687491047,
        -0.02400438692882344,
        -0.030926754672452775,
        0.003496484149032384,
        0.01163190017364201,
        -0.08213688329456977,
        0.0,
        0.0,
        0.0,
        0.020669401619360334,
        -0.006671007072999758,
        0.11727571612644651,
        0.025040815142838516,
        -0.004368445208925558,
        -0.020953161279874764,
        -0.01867253290156649,
        -0.02105582815399964,
        -0.030926754672452775,
        -0.022814984614648863,
        -0.006671007072999758,
        -0.03745228589893156,
        0.05104057544515824,
        0.0,
        0.0,
        -0.020953161279874764,
        -0.021269872197339522,
        0.0,
        -0.006671007072999758,
        -0.022077260295559255,
        0.0,
        0.07423649764805743,
        -0.01697224416300444,
        0.008701988164512248,
        -0.06913249838611157,
        0.017459593264041864,
        -0.02874826736855907,
        -0.03580934993687947,
        -0.008046466759313723,
        -0.0460816472243829,
        0.0,
        0.11293670159285274,
        0.0,
        0.002030981091512488,
        0.0,
        -0.020953161279874764,
        -0.027065654522480578,
        -0.03561462914199492,
        0.0,
        -0.03872186076113689,
        0.00735978646324588,
        0.0,
        0.020869747485097703,
        0.08277098902162251,
        -0.06320041047778642,
        -0.053034060492236544,
        -0.006671007072999758,
        -0.006671007072999758,
        -0.022077260295559255,
        -0.029485991687648684,
        0.10244666848279807,
        -0.07065411732102735,
        -0.06906938180689418,
        -0.020953161279874764,
        -0.004105166569234574,
        0.06473316243822168,
        0.001800819963797027,
        0.07775393151585162,
        -0.004105166569234574,
        -0.04070976191623718,
        0.03992529609313453,
        -0.061263495586238066,
        0.026010248215059057,
        0.11564323572332183,
        -0.11761814334810194,
        -0.04728983888471483,
        -0.0460816472243829,
        -0.006241897314065438,
        -0.03924376632314121,
        -0.019051413981980837,
        -0.02334373800141654,
        0.008701988164512248,
        -0.020953161279874764,
        0.00735978646324588,
        0.08277098902162251,
        -0.012844299745406301,
        0.018725076559451267,
        -0.00841166187621794,
        0.022857821079120957,
        -0.052042817204935185,
        -0.0016738353911162898,
        -0.05967502204101154,
        -0.04070976191623718,
        -0.026798636249360526
      ],
      [
        0.02042602107119087,
        -0.07534388789892547,
        0.07534325184913587,
        -0.004240186445119836,
        -0.014151186765611199,
        -0.0039326013311268195,
        0.01431347253911011,
        -0.09408773449467137,
        -0.023611718558141627,
        0.0938321027829878,
        0.09565954980117408,
        0.011937036483604507,
        -0.0393780383102649,
        0.02042602107119087,
        0.0,
        0.0,
        0.0,
        -0.03391953253250539,
        0.006062051115064866,
        -0.011331989738742205,
        -0.006724058038504795,
        0.12660311118580758,
        0.020039320878959623,
        -0.06848166492554028,
        -0.10429020759886634,
        0.09565954980117408,
        -0.03329020152622079,
        0.006062051115064866,
        0.03749990533231555,
        0.1512134294806095,
        0.0,
        0.0,
        0.020039320878959623,
        -0.02782793890754868,
        0.0,
        0.006062051115064866,
        -0.034190507644570864,
        0.0,
        -0.08068995686869761,
        -0.17060168698873418,
        -0.010188833171536738,
        -0.014802926448526058,
        0.006404776118082914,
        -0.028128456529505883,
        0.07202971707903545,
        -0.05240238150534446,
        0.05964159513841716,
        0.0,
        -0.028881856676075793,
        0.0,
        -0.004126782056471868,
        0.0,
        0.020039320878959623,
        -0.030355198371803244,
        -0.01181116622342508,
        0.0,
        0.04749177239270838,
        -0.01214982274570853,
        0.0,
        0.01018521436925881,
        -0.019805614983927158,
        0.02879393009325546,
        0.020675210562355384,
        0.006062051115064866,
        0.006062051115064866,
        -0.034190507644570864,
        -0.027228150411156,
        -0.08830271252650689,
        0.11821343903663235,
        0.14073748580565168,
        0.020039320878959623,
        -0.0001134043886479994,
        -0.1104046712971217,
        -0.0022134224279757144,
        -0.06504780944337676,
        -0.0001134043886479994,
        -0.0039326013311268195,
        -0.16825579936904372,
        0.02446502517946004,
        -0.041625536025825305,
        -0.03973337447151079,
        0.103204182873125,
        0.02830846626373708,
        0.05964159513841716,
        0.036098921375802354,
        -0.10820165204324983,
        0.06619055782678405,
        0.10453304544130415,
        -0.010188833171536738,
        0.020039320878959623,
        -0.01214982274570853,
        -0.019805614983927158,
        0.0002088146259031744,
        -0.015443663125449163,
        -0.023701657594981707,
        -0.09408773449467137,
        -0.07534388789892547,
        0.07534325184913587,
        0.06753109327166806,
        -0.0039326013311268195,
        0.01431347253911011
      ],
      [
        0.06220812980051328,
        0.07182845919208737,
        -0.036791911843072636,
        0.011169543185305567,
        -0.0109262415847589,
        0.00185985708777106,
        0.043444091406124166,
        0.04625290998297789,
        0.046689245486630955,
        -0.04144403247854929,
        -0.02500401950157976,
        -0.032952138507554,
        -0.032663721206155516,
        0.06220812980051328,
        0.0,
        0.0,
        0.0,
        -0.009666903204442487,
        0.014961865694848584,
        -0.05274698915210403,
        -0.03640630191018298,
        -0.0836507306371114,
        0.026968652503045865,
        -0.0034871564261291024,
        0.15464614918639658,
        -0.02500401950157976,
        0.08905593580408241,
        0.014961865694848584,
        0.04973435535234104,
        -0.2240750448987963,
        0.0,
        0.0,
        0.026968652503045865,
        -0.049852667820530105,
        0.0,
        0.014961865694848584,
        -0.03789489408780486,
        0.0,
        -0.05444763730667193,
        0.2771413253510833,
        -0.0008977735234934431,
        0.06781267301130334,
        -0.022151962459407145,
        -0.02293302839295644,
        0.021734240941426404,
        -0.0484235336138813,
        -0.07933892656635463,
        0.0,
        -0.04183119246284576,
        0.0,
        0.014064092171355118,
        0.0,
        0.026968652503045865,
        0.0785300377143237,
        0.03305244208499099,
        0.0,
        -0.07490570039758193,
        0.004433226168772251,
        0.0,
        -0.05545303698701346,
        -0.00044926548896540686,
        0.07431706599572362,
        0.06144627606549484,
        0.014961865694848584,
        0.014961865694848584,
        -0.03789489408780486,
        0.10401780149893095,
        -0.10083785258095082,
        -0.08661649059112207,
        0.008085295457807382,
        0.026968652503045865,
        -0.0028945489860495843,
        0.13331059109533913,
        -0.0003009369391446843,
        -0.0792656363899241,
        -0.0028945489860495843,
        0.00185985708777106,
        0.04865976212227786,
        0.12040084321452377,
        -0.018775697963926342,
        -0.048420587278414653,
        -0.050546200071378486,
        0.07375474192139103,
        -0.07933892656635463,
        0.013448582995709233,
        0.0370352722675006,
        -0.016150207055392277,
        -0.009521795914677018,
        -0.0008977735234934431,
        0.026968652503045865,
        0.004433226168772251,
        -0.00044926548896540686,
        0.0094061647802163,
        -0.013053988127650056,
        -0.006342220032396257,
        0.04625290998297789,
        0.07182845919208737,
        -0.036791911843072636,
        -0.04793704789453602,
        0.00185985708777106,
        0.043444091406124166
      ]
    ],
    "worker_ids": [
      "ollama-cloud-deepseek-v4-pro",
      "ollama-cloud-glm-5.2",
      "ollama-cloud-kimi-k2.7-code",
      "ollama-cloud-qwen3-coder-480b"
    ]
  },
  "target_mode": "reward"
}
