{
  "dataset": "research/datasets/20260627-mixed-winner-11task-routing.jsonl",
  "epochs": 300,
  "l2": 0.0001,
  "learning_rate": 0.0005,
  "model_type": "linear-softmax-logits-router",
  "reward_temperature": 0.2,
  "router": {
    "feature_names": [
      "bias",
      "category_datasci",
      "category_filesystem",
      "category_general",
      "category_network",
      "category_plotting",
      "category_subprocess",
      "environment_risk",
      "family_bigcodebench_hard",
      "family_code_data",
      "family_code_easy",
      "family_code_text",
      "kw_base64",
      "kw_convert",
      "kw_count",
      "kw_csv",
      "kw_default",
      "kw_dict",
      "kw_directory",
      "kw_download",
      "kw_email",
      "kw_encoding",
      "kw_exception",
      "kw_file",
      "kw_flatten",
      "kw_frequent",
      "kw_ftp",
      "kw_group",
      "kw_hash",
      "kw_hex",
      "kw_key",
      "kw_list",
      "kw_lowercase",
      "kw_number",
      "kw_pair",
      "kw_parse",
      "kw_process",
      "kw_socket",
      "kw_sorted",
      "kw_ssl",
      "kw_string",
      "kw_strip",
      "kw_subprocess",
      "kw_sum",
      "kw_title",
      "kw_url",
      "kw_urllib",
      "kw_window",
      "kw_word",
      "kw_zip",
      "length_chars",
      "length_tokens",
      "lib_base64",
      "lib_binascii",
      "lib_codecs",
      "lib_collections",
      "lib_csv",
      "lib_datetime",
      "lib_ftplib",
      "lib_functools",
      "lib_glob",
      "lib_itertools",
      "lib_math",
      "lib_os",
      "lib_pathlib",
      "lib_random",
      "lib_re",
      "lib_shutil",
      "lib_statistics",
      "lib_subprocess",
      "lib_urllib",
      "lib_zipfile",
      "library_count",
      "missing_library_count",
      "plausibility_score"
    ],
    "policy": "logits-router",
    "weights": [
      [
        -0.023892688577034422,
        0.0,
        -0.02922558045783376,
        0.005332891880799433,
        -0.021941088903808376,
        0.0,
        -0.015850224514683552,
        -0.013164653342285053,
        -0.023892688577034422,
        0.0,
        0.0,
        0.0,
        -0.0006217359953259036,
        -0.0006217359953259036,
        0.006090864389124841,
        -0.0629799466341876,
        -0.021941088903808376,
        0.005469128393798936,
        0.014797501847995033,
        -0.015850224514683552,
        0.0,
        -0.0006217359953259036,
        -0.05511420730486212,
        0.02169404433275082,
        0.0,
        0.0,
        -0.021941088903808376,
        0.0,
        0.0,
        -0.0006217359953259036,
        -0.0006217359953259036,
        -0.0754664366643243,
        0.0,
        -0.024022473841802866,
        0.0,
        -0.0006217359953259036,
        0.0,
        0.0,
        0.0,
        0.0,
        -0.0006217359953259036,
        0.0,
        -0.021941088903808376,
        0.005954627876125329,
        0.0,
        0.005469128393798936,
        0.005469128393798936,
        0.0,
        0.0,
        -0.043695706803215086,
        -0.02528879766214897,
        -0.019236216358798477,
        -0.0006217359953259036,
        -0.0006217359953259036,
        -0.0006217359953259036,
        0.006090864389124841,
        -0.0440230823058288,
        -0.02997710171792821,
        -0.021941088903808376,
        0.005954627876125329,
        -0.0452186106663039,
        0.005954627876125329,
        0.005954627876125329,
        -0.02922558045783376,
        -0.018956864328358823,
        0.060821790609929906,
        -0.02897853588677616,
        0.08043429755501838,
        -0.020136844977025458,
        -0.021941088903808376,
        0.005469128393798936,
        -0.043695706803215086,
        -0.01352797483606163,
        0.0,
        -0.01966604073176521
      ],
      [
        -0.06191207128863271,
        0.0,
        -0.06293431697071254,
        0.0010222456820795575,
        -0.02500635341990146,
        0.0,
        -0.018581019326398968,
        -0.015003812051940917,
        -0.06191207128863271,
        0.0,
        0.0,
        0.0,
        -6.805541871625451e-05,
        -6.805541871625451e-05,
        0.006425334093502531,
        0.04381486857188729,
        -0.02500635341990146,
        0.006357278674786268,
        -0.023224814219632163,
        -0.018581019326398968,
        0.0,
        -6.805541871625451e-05,
        0.041254601104093534,
        -0.00871621551213086,
        0.0,
        0.0,
        -0.02500635341990146,
        0.0,
        0.0,
        -6.805541871625451e-05,
        -6.805541871625451e-05,
        -0.08116660658038403,
        0.0,
        -0.0172842988545325,
        0.0,
        -6.805541871625451e-05,
        0.0,
        0.0,
        0.0,
        0.0,
        -6.805541871625451e-05,
        0.0,
        -0.02500635341990146,
        0.0010903011007958128,
        0.0,
        0.006357278674786268,
        0.006357278674786268,
        0.0,
        0.0,
        0.057572377513615325,
        -0.02402150385773659,
        -0.018615375432011673,
        -6.805541871625451e-05,
        -6.805541871625451e-05,
        -6.805541871625451e-05,
        0.006425334093502531,
        -0.03970950275108009,
        -0.018374599955328228,
        -0.02500635341990146,
        0.0010903011007958128,
        0.0587453193296967,
        0.0010903011007958128,
        0.0010903011007958128,
        -0.06293431697071254,
        0.08352437132296724,
        -0.07388686893533004,
        -0.029211748038680086,
        -0.055790838313346025,
        -0.027760236889254435,
        -0.02500635341990146,
        0.006357278674786268,
        0.057572377513615325,
        -0.014198940071272755,
        0.0,
        -0.02102678883544842
      ],
      [
        0.04338623085565183,
        0.0,
        0.04649561629579991,
        -0.0031093854401480644,
        0.028294401117774752,
        0.0,
        0.015244199799553233,
        0.016976640670664844,
        0.04338623085565183,
        0.0,
        0.0,
        0.0,
        -0.0002204799257883009,
        -0.0002204799257883009,
        -0.01305020131822148,
        0.12030139314277342,
        0.028294401117774752,
        -0.01327068124400979,
        -0.10286188048360592,
        0.015244199799553233,
        0.0,
        -0.0002204799257883009,
        -0.05243485735788285,
        0.04337377492972855,
        0.0,
        0.0,
        0.028294401117774752,
        0.0,
        0.0,
        -0.0002204799257883009,
        -0.0002204799257883009,
        -0.034871694472127276,
        0.0,
        0.07813456398928005,
        0.0,
        -0.0002204799257883009,
        0.0,
        0.0,
        0.0,
        0.0,
        -0.0002204799257883009,
        0.0,
        0.028294401117774752,
        -0.002888905514359766,
        0.0,
        -0.01327068124400979,
        -0.01327068124400979,
        0.0,
        0.0,
        -0.05485808107094121,
        0.01892257125239172,
        0.011844026518273992,
        -0.0002204799257883009,
        -0.0002204799257883009,
        -0.0002204799257883009,
        -0.01305020131822148,
        0.14935749677940627,
        0.08102346950364002,
        0.028294401117774752,
        -0.002888905514359766,
        -0.0647901516430764,
        -0.002888905514359766,
        -0.002888905514359766,
        0.04649561629579991,
        -0.029056103636632653,
        0.12121412789102629,
        -0.0251725597517035,
        -0.07629820053043956,
        0.08138422859398763,
        0.028294401117774752,
        -0.01327068124400979,
        -0.05485808107094121,
        0.025023960578394035,
        0.0,
        0.025275380955914917
      ],
      [
        0.042418529010015055,
        0.0,
        0.045664281132746114,
        -0.003245752122730919,
        0.01865304120593508,
        0.0,
        0.019187044041529194,
        0.011191824723561075,
        0.042418529010015055,
        0.0,
        0.0,
        0.0,
        0.0009102713398304696,
        0.0009102713398304696,
        0.0005340028355941337,
        -0.10113631508047272,
        0.01865304120593508,
        0.001444274175424604,
        0.11128919285524277,
        0.019187044041529194,
        0.0,
        0.0009102713398304696,
        0.06629446355865148,
        -0.0563516037503486,
        0.0,
        0.0,
        0.01865304120593508,
        0.0,
        0.0,
        0.0009102713398304696,
        0.0009102713398304696,
        0.19150473771683665,
        0.0,
        -0.036827791292944806,
        0.0,
        0.0009102713398304696,
        0.0,
        0.0,
        0.0,
        0.0,
        0.0009102713398304696,
        0.0,
        0.01865304120593508,
        -0.004156023462561384,
        0.0,
        0.001444274175424604,
        0.001444274175424604,
        0.0,
        0.0,
        0.04098141036054093,
        0.030387730267493588,
        0.026007565272536243,
        0.0009102713398304696,
        0.0009102713398304696,
        0.0009102713398304696,
        0.0005340028355941337,
        -0.06562491172249695,
        -0.03267176783038347,
        0.01865304120593508,
        -0.004156023462561384,
        0.05126344297968374,
        -0.004156023462561384,
        -0.004156023462561384,
        0.045664281132746114,
        -0.03551140335797586,
        -0.1081490495656265,
        0.08336284367715997,
        0.05165474128876698,
        -0.03348714672770774,
        0.01865304120593508,
        0.001444274175424604,
        0.04098141036054093,
        0.0027029543289403225,
        0.0,
        0.015417448611298592
      ]
    ],
    "worker_ids": [
      "ollama-cloud-deepseek-v4-pro",
      "ollama-cloud-glm-5.2",
      "ollama-cloud-kimi-k2.7-code",
      "ollama-cloud-qwen3-coder-480b"
    ]
  },
  "target_mode": "reward"
}
