{
  "dataset": "research/datasets/20260627-mixed-winner-10task-routing.jsonl",
  "epochs": 300,
  "l2": 0.0001,
  "learning_rate": 0.0005,
  "model_type": "linear-softmax-logits-router",
  "router": {
    "feature_names": [
      "bias",
      "category_datasci",
      "category_filesystem",
      "category_general",
      "category_network",
      "category_plotting",
      "category_subprocess",
      "environment_risk",
      "family_bigcodebench_hard",
      "family_code_data",
      "family_code_easy",
      "family_code_text",
      "kw_convert",
      "kw_count",
      "kw_csv",
      "kw_default",
      "kw_dict",
      "kw_directory",
      "kw_exception",
      "kw_file",
      "kw_flatten",
      "kw_frequent",
      "kw_ftp",
      "kw_group",
      "kw_key",
      "kw_list",
      "kw_lowercase",
      "kw_number",
      "kw_pair",
      "kw_parse",
      "kw_process",
      "kw_sorted",
      "kw_string",
      "kw_strip",
      "kw_subprocess",
      "kw_sum",
      "kw_title",
      "kw_window",
      "kw_word",
      "kw_zip",
      "length_chars",
      "length_tokens",
      "library_count",
      "missing_library_count",
      "plausibility_score"
    ],
    "policy": "logits-router",
    "weights": [
      [
        -0.08791904361782625,
        0.0,
        -0.09834965652107824,
        0.010430612903251986,
        -0.01692105797025993,
        0.0,
        -0.008239056020907213,
        -0.010152634782155952,
        -0.08791904361782625,
        0.0,
        0.0,
        0.0,
        0.0025965852642169766,
        0.008682001949352685,
        -0.040081512383507045,
        -0.01692105797025993,
        0.011278587213569656,
        -0.06990776577838599,
        -0.028021156309136083,
        -0.05605801866995616,
        0.0,
        0.0,
        -0.01692105797025993,
        0.0,
        0.0025965852642169766,
        -0.058471494834481205,
        0.0,
        -0.018173465713159705,
        0.0,
        0.0025965852642169766,
        0.0,
        0.0,
        0.0025965852642169766,
        0.0,
        -0.01692105797025993,
        0.007834027639035037,
        0.0,
        0.0,
        0.0,
        -0.02897282318573185,
        -0.032948669188785626,
        -0.024703762996232004,
        -0.030124205797276937,
        0.0,
        -0.024747681953421013
      ],
      [
        -0.051478974684297976,
        0.0,
        -0.05356008582847932,
        0.0020811111441814854,
        -0.026703462287227572,
        0.0,
        -0.02248282139325365,
        -0.016022077372336515,
        -0.051478974684297976,
        0.0,
        0.0,
        0.0,
        0.0003691476404499875,
        0.004220640893973915,
        0.027553015857001737,
        -0.026703462287227572,
        0.004589788534423909,
        -0.009444750741411155,
        0.026041125567876265,
        0.0026966483703302515,
        0.0,
        0.0,
        -0.026703462287227572,
        0.0,
        0.0003691476404499875,
        -0.08288334106663016,
        0.0,
        -0.015492178152264372,
        0.0,
        0.0003691476404499875,
        0.0,
        0.0,
        0.0003691476404499875,
        0.0,
        -0.026703462287227572,
        0.0017119635037315046,
        0.0,
        0.0,
        0.0,
        0.04559728191736829,
        -0.024185951121289778,
        -0.01878578358947104,
        -0.012651476055544243,
        0.0,
        -0.021281764872950797
      ],
      [
        0.07435726671455725,
        0.0,
        0.08068918904210687,
        -0.006331922327549704,
        0.026678868898327344,
        0.0,
        0.01571938091932449,
        0.01600732133899643,
        0.07435726671455725,
        0.0,
        0.0,
        0.0,
        -0.00242094608697968,
        -0.010959487979002884,
        0.1192307717912491,
        0.026678868898327344,
        -0.013380434065982562,
        -0.0681767891806735,
        -0.06063375637627021,
        0.07642381716775597,
        0.0,
        0.0,
        0.026678868898327344,
        0.0,
        -0.00242094608697968,
        -0.03792441475611348,
        0.0,
        0.076050047398882,
        0.0,
        -0.00242094608697968,
        0.0,
        0.0,
        -0.00242094608697968,
        0.0,
        0.026678868898327344,
        -0.003910976240570026,
        0.0,
        0.0,
        0.0,
        -0.05657684768910632,
        0.024339171781219086,
        0.01580510621973796,
        0.033988162584794125,
        0.0,
        0.028769182265169065
      ],
      [
        0.06504075158756677,
        0.0,
        0.07122055330745074,
        -0.006179801719883795,
        0.01694565135916007,
        0.0,
        0.01500249649483637,
        0.010167390815496053,
        0.06504075158756677,
        0.0,
        0.0,
        0.0,
        -0.0005447868176872815,
        -0.0019431548643237255,
        -0.10670227526474385,
        0.01694565135916007,
        -0.0024879416820110115,
        0.1475293057004707,
        0.06261378711753013,
        -0.02306244686812988,
        0.0,
        0.0,
        0.01694565135916007,
        0.0,
        -0.0005447868176872815,
        0.1792792506572248,
        0.0,
        -0.04238440353345811,
        0.0,
        -0.0005447868176872815,
        0.0,
        0.0,
        -0.0005447868176872815,
        0.0,
        0.01694565135916007,
        -0.005635014902196524,
        0.0,
        0.0,
        0.0,
        0.03995238895746992,
        0.03279544852885632,
        0.0276844403659651,
        0.008787519268026971,
        0.0,
        0.01726026456120272
      ]
    ],
    "worker_ids": [
      "ollama-cloud-deepseek-v4-pro",
      "ollama-cloud-glm-5.2",
      "ollama-cloud-kimi-k2.7-code",
      "ollama-cloud-qwen3-coder-480b"
    ]
  }
}
