{
  "dataset": "research/datasets/20260628-contrast-aware-26task-routing.jsonl",
  "epochs": 300,
  "l2": 0.0001,
  "learning_rate": 0.0005,
  "model_type": "linear-softmax-logits-router",
  "reward_temperature": 0.2,
  "router": {
    "feature_names": [
      "bias",
      "category_algorithmic",
      "category_datasci",
      "category_filesystem",
      "category_general",
      "category_network",
      "category_plotting",
      "category_subprocess",
      "combo_network_archive",
      "combo_network_filesystem",
      "combo_network_plotting",
      "environment_risk",
      "family_bigcodebench_hard",
      "kw_archive",
      "kw_base64",
      "kw_count",
      "kw_dict",
      "kw_download",
      "kw_fetch",
      "kw_file",
      "kw_files",
      "kw_frequent",
      "kw_hex",
      "kw_http",
      "kw_key",
      "kw_list",
      "kw_lowercase",
      "kw_number",
      "kw_plot",
      "kw_request",
      "kw_requests",
      "kw_scan",
      "kw_sorted",
      "kw_string",
      "kw_strip",
      "kw_subprocess",
      "kw_sum",
      "kw_url",
      "kw_word",
      "kw_zip",
      "length_chars",
      "length_tokens",
      "lib_base64",
      "lib_binascii",
      "lib_codecs",
      "lib_collections",
      "lib_csv",
      "lib_datetime",
      "lib_ftplib",
      "lib_functools",
      "lib_glob",
      "lib_itertools",
      "lib_json",
      "lib_math",
      "lib_matplotlib",
      "lib_numpy",
      "lib_os",
      "lib_pandas",
      "lib_pathlib",
      "lib_random",
      "lib_re",
      "lib_requests",
      "lib_shutil",
      "lib_statistics",
      "lib_subprocess",
      "lib_urllib",
      "lib_zipfile",
      "library_count",
      "missing_library_count",
      "plausibility_score",
      "signal_algorithmic",
      "signal_archive",
      "signal_datasci",
      "signal_filesystem",
      "signal_general",
      "signal_network",
      "signal_plotting",
      "signal_subprocess"
    ],
    "policy": "logits-router",
    "weights": [
      [
        0.037271601712504945,
        0.007525073115575816,
        0.06432283048293594,
        0.053867903444014126,
        -0.0029897847353188,
        -0.01617701949948448,
        0.028784969136039642,
        -0.005907754510054696,
        -0.013726012237818094,
        -0.007713834700548735,
        0.018703367136387823,
        -0.009706211699690673,
        0.037271601712504945,
        0.0,
        0.006603339685958662,
        0.022189197036753847,
        0.06971953352433566,
        -0.007713834700548735,
        0.0,
        0.11777946801363394,
        -0.07783764426930484,
        0.0,
        0.006603339685958662,
        0.0,
        0.10692218530527495,
        0.023435372446928626,
        0.0,
        -0.04115140784367082,
        0.00921900090386983,
        0.022189197036753847,
        -0.013726012237818094,
        0.0,
        -0.031036894004787163,
        0.006603339685958662,
        0.0,
        -0.01617701949948448,
        -0.008686126675463647,
        0.015066524484894307,
        0.02155236145773029,
        -0.05626652360929968,
        -0.08825269726383023,
        -0.011700075387229118,
        0.006603339685958662,
        0.006603339685958662,
        -0.0023200938990547166,
        0.11300843866739789,
        0.0362590946314413,
        -0.02536712049417481,
        -0.01617701949948448,
        0.010359084738655471,
        -0.062404172025699756,
        0.025324860874084046,
        0.0881855723125083,
        0.013918696467933865,
        0.028784969136039642,
        0.08847390996970156,
        -0.05194310990589394,
        -0.02563381005192621,
        -0.018698801981466888,
        0.019050492829164635,
        -0.015197804687517616,
        -0.013726012237818094,
        0.08074260852256969,
        -0.07511138274970551,
        -0.01617701949948448,
        0.028792536722712432,
        -0.05626652360929968,
        0.016708407360260035,
        0.0,
        -0.004711922240250752,
        0.007525073115575816,
        0.0244760849132696,
        0.06432283048293594,
        0.053867903444014126,
        -0.0029897847353188,
        -0.0011104950145900655,
        0.028784969136039642,
        -0.005907754510054696
      ],
      [
        -0.0012079202354530272,
        0.0047839076289628345,
        -0.015314416890524556,
        -0.06948473324461628,
        0.05344825616600635,
        -0.02041077631106764,
        0.019267277560609544,
        -0.0060147654037940555,
        -0.013936102144613764,
        -0.00886220421661783,
        0.014361325382681383,
        -0.012246465786640544,
        -0.0012079202354530272,
        0.0,
        0.0022827645960748887,
        0.025484674239063542,
        0.03104311389535311,
        -0.00886220421661783,
        0.0,
        -0.0036087747746139038,
        0.031032343901581348,
        0.0,
        0.0022827645960748887,
        0.0,
        -0.00626452918943348,
        -0.0899868683122698,
        0.0,
        -0.031185001982467882,
        0.0026077387087423093,
        0.025484674239063542,
        -0.013936102144613764,
        0.0,
        0.03501666486107274,
        0.0022827645960748887,
        0.0,
        -0.02041077631106764,
        -0.014292140777474222,
        0.013831336690524658,
        0.015716329126594965,
        0.05042622215513449,
        -0.026756393868621157,
        -0.005930928776752876,
        0.0022827645960748887,
        0.0022827645960748887,
        -0.01006176060215305,
        0.0035643770227185892,
        -0.058481477915151625,
        -0.01915228080572433,
        -0.02041077631106764,
        0.0031710690686283403,
        0.04989180313174774,
        0.015979824741453083,
        -0.019213921051061147,
        0.01136491907989585,
        0.019267277560609544,
        -0.028538187839896794,
        -0.05827254419785301,
        0.008904093795006271,
        0.08693770017594939,
        -0.00864137014279506,
        -0.022331954915278916,
        -0.013936102144613764,
        -0.04674918734277851,
        0.02212049554357119,
        -0.02041077631106764,
        0.02776743883513835,
        0.05042622215513449,
        -0.002223958927743876,
        0.0,
        -0.0074208012992065826,
        0.0047839076289628345,
        0.003677034812356162,
        -0.015314416890524556,
        -0.06948473324461628,
        0.05344825616600635,
        -0.006579439620542999,
        0.019267277560609544,
        -0.0060147654037940555
      ],
      [
        -0.01460922169439983,
        -0.005560831376064117,
        -0.07676954878135278,
        0.04646682325204339,
        -0.04177761455109681,
        0.020803215086064673,
        0.0043507770057255365,
        0.02948658143527383,
        0.06870514600322185,
        0.07200162070789014,
        0.003661951965651493,
        0.012481929051638764,
        -0.01460922169439983,
        0.0,
        -0.0004798779669034558,
        -0.01750674038139622,
        -0.08157574400090166,
        0.07200162070789014,
        0.0,
        0.07512794763947939,
        -0.10309154993075746,
        0.0,
        -0.0004798779669034558,
        0.0,
        -0.03381163099528277,
        -0.08954937146358306,
        0.0,
        0.06112049801918651,
        -0.0008859994019793646,
        -0.01750674038139622,
        0.06870514600322185,
        0.0,
        -0.033932342624720724,
        -0.0004798779669034558,
        0.0,
        0.020803215086064673,
        -0.023939453483158214,
        0.0507185276549221,
        0.003631812643650832,
        0.008333396312796488,
        0.02747460834916109,
        4.664317479528124e-05,
        -0.0004798779669034558,
        -0.0004798779669034558,
        -0.035228345257546104,
        -0.040210433317059334,
        0.12389911277632876,
        0.042118702165573854,
        0.020803215086064673,
        -5.810957689447311e-05,
        -0.09420714943326292,
        -0.0009311890521602924,
        -0.02467802807153967,
        -0.0018045625834082419,
        0.0043507770057255365,
        -0.05433923276756063,
        0.06705324934210774,
        -0.05249103140363657,
        -0.03025504354936233,
        0.09424827044948918,
        -0.05512482577217527,
        0.06870514600322185,
        -0.07901258701638529,
        0.060397349006451044,
        0.020803215086064673,
        -0.017986618348299635,
        0.008333396312796488,
        0.0023425521150725586,
        0.0,
        0.007972344421459039,
        -0.005560831376064117,
        -0.0706791907035884,
        -0.07676954878135278,
        0.04646682325204339,
        -0.04177761455109681,
        0.07152174274098685,
        0.0043507770057255365,
        0.02948658143527383
      ],
      [
        -0.0214544597826521,
        -0.006748149368474533,
        0.027761135188941494,
        -0.030849993451441127,
        -0.008680856879591112,
        0.015784580724487594,
        -0.05240302370237456,
        -0.017564061521425197,
        -0.04104303162078986,
        -0.05542558179072334,
        -0.0367266444847209,
        0.009470748434692517,
        -0.0214544597826521,
        0.0,
        -0.008406226315130076,
        -0.03016713089442111,
        -0.019186903418787316,
        -0.05542558179072334,
        0.0,
        -0.18929864087849924,
        0.14989685029848118,
        0.0,
        -0.008406226315130076,
        0.0,
        -0.0668460251205594,
        0.1561008673289242,
        0.0,
        0.011215911806952136,
        -0.010940740210632769,
        -0.03016713089442111,
        -0.04104303162078986,
        0.0,
        0.029952571768435198,
        -0.008406226315130076,
        0.0,
        0.015784580724487594,
        0.0469177209360961,
        -0.07961638883034126,
        -0.040900503227976184,
        -0.002493094858631542,
        0.08753448278329055,
        0.017584360989186608,
        -0.008406226315130076,
        -0.008406226315130076,
        0.04761019975875355,
        -0.07636238237305716,
        -0.1016767294926192,
        0.0024006991343253486,
        0.015784580724487594,
        -0.01347204423038925,
        0.10671951832721478,
        -0.040373496563376694,
        -0.044293623189907975,
        -0.02347905296442149,
        -0.05240302370237456,
        -0.005596489362244057,
        0.04316240476163936,
        0.06922074766055672,
        -0.03798385464512033,
        -0.10465739313585862,
        0.0926545853749721,
        -0.04104303162078986,
        0.045019165836594204,
        -0.007406461800316508,
        0.015784580724487594,
        -0.03857335720955146,
        -0.002493094858631542,
        -0.01682700054758875,
        0.0,
        0.004160379117998314,
        -0.006748149368474533,
        0.04252607097796259,
        0.027761135188941494,
        -0.030849993451441127,
        -0.008680856879591112,
        -0.06383180810585344,
        -0.05240302370237456,
        -0.017564061521425197
      ]
    ],
    "worker_ids": [
      "ollama-cloud-deepseek-v4-pro",
      "ollama-cloud-glm-5.2",
      "ollama-cloud-kimi-k2.7-code",
      "ollama-cloud-qwen3-coder-480b"
    ]
  },
  "target_mode": "reward"
}
