{
  "epochs": 300,
  "l2": 0.0001,
  "latency_regret_weight": 0.5,
  "learning_rate": 0.0005,
  "model_type": "linear-multi-head-orchestrator",
  "orchestrator": {
    "abstain_weights": [
      -0.546384338511937,
      -0.1427878824359029,
      -0.20268543285668397,
      -0.10961191111889153,
      -0.05130773629093166,
      -0.1028608484842786,
      -0.052843574213139045,
      -0.14583974159697738,
      -0.03669898464178147,
      -0.013322734101723566,
      -0.07468551436842444,
      -0.014080675824158645,
      -0.09022203739903256,
      -0.546384338511937,
      0.0,
      0.0,
      0.0,
      -0.01932458329401844,
      -0.0240998654433747,
      -0.061037089928501334,
      -0.08578643378376097,
      -0.029541138913473656,
      -0.01613935222790464,
      -0.08859812029711718,
      -0.17697880318716244,
      -0.05820511966316103,
      -0.020085317388469755,
      -0.0240998654433747,
      0.0541354998248989,
      -0.13251058362090795,
      0.0,
      0.0,
      -0.01613935222790464,
      -0.01642699523683016,
      0.0,
      -0.0240998654433747,
      -0.018687989357763612,
      -0.016480394705263204,
      0.07521501983997025,
      -0.2807858733228023,
      -0.03309787550820065,
      -0.197997908390261,
      -0.01877755949330147,
      -0.08387556530452932,
      -0.054537656141287576,
      -0.04743102269129624,
      -0.07309843396287823,
      0.0,
      -0.015807619834032064,
      0.0,
      -0.09229786721934628,
      0.0,
      -0.01613935222790464,
      -0.06526944823050834,
      -0.02844787948452665,
      0.0,
      -0.12594133273978547,
      -0.09393060928030006,
      0.0,
      0.03994180125547564,
      -0.09112760017503442,
      -0.2555472236758327,
      -0.19331637294249393,
      -0.0240998654433747,
      -0.0240998654433747,
      -0.059775699861154705,
      -0.04418518283184438,
      -0.05275154232072906,
      -0.09709372936359656,
      0.15067974497797268,
      -0.01613935222790464,
      -0.027806854369188207,
      -0.07189535361290068,
      -0.08315085372017406,
      -0.04705776190786592,
      -0.027806854369188207,
      -0.08208919293949252,
      -0.15749368624229204,
      -0.10899358905578405,
      -0.13309425740777114,
      -0.018723095539864537,
      -0.041900192195301736,
      -0.0583303198983137,
      -0.07309843396287823,
      -0.0634399454780509,
      -0.11384732612863452,
      -0.07403672471596259,
      -0.1389075261883263,
      -0.05232671952597525,
      -0.03309787550820065,
      -0.01613935222790464,
      -0.09393060928030006,
      -0.09112760017503442,
      -0.17757596169634052,
      -0.029718697812236673,
      -0.18092755937816005,
      -0.14583974159697738,
      -0.1427878824359029,
      -0.20268543285668397,
      -0.14208068496769213,
      -0.1028608484842786,
      -0.052843574213139045
    ],
    "feature_names": [
      "bias",
      "category_datasci",
      "category_filesystem",
      "category_general",
      "category_network",
      "category_plotting",
      "category_subprocess",
      "combo_archive_filesystem",
      "combo_dataframe_plotting",
      "combo_network_archive",
      "combo_network_filesystem",
      "combo_network_plotting",
      "environment_risk",
      "family_bigcodebench_hard",
      "family_code_data",
      "family_code_easy",
      "family_code_text",
      "kw_archive",
      "kw_base64",
      "kw_convert",
      "kw_count",
      "kw_csv",
      "kw_default",
      "kw_dict",
      "kw_directory",
      "kw_download",
      "kw_email",
      "kw_encoding",
      "kw_exception",
      "kw_file",
      "kw_flatten",
      "kw_frequent",
      "kw_ftp",
      "kw_group",
      "kw_hash",
      "kw_hex",
      "kw_http",
      "kw_https",
      "kw_key",
      "kw_list",
      "kw_lowercase",
      "kw_number",
      "kw_pair",
      "kw_parse",
      "kw_process",
      "kw_request",
      "kw_requests",
      "kw_socket",
      "kw_sorted",
      "kw_ssl",
      "kw_string",
      "kw_strip",
      "kw_subprocess",
      "kw_sum",
      "kw_title",
      "kw_unpack",
      "kw_url",
      "kw_urllib",
      "kw_window",
      "kw_word",
      "kw_zip",
      "length_chars",
      "length_tokens",
      "lib_base64",
      "lib_binascii",
      "lib_bs4",
      "lib_codecs",
      "lib_collections",
      "lib_csv",
      "lib_datetime",
      "lib_ftplib",
      "lib_functools",
      "lib_glob",
      "lib_itertools",
      "lib_json",
      "lib_math",
      "lib_matplotlib",
      "lib_numpy",
      "lib_os",
      "lib_pandas",
      "lib_pathlib",
      "lib_random",
      "lib_re",
      "lib_requests",
      "lib_scipy",
      "lib_seaborn",
      "lib_shutil",
      "lib_sklearn",
      "lib_statistics",
      "lib_string",
      "lib_subprocess",
      "lib_urllib",
      "lib_zipfile",
      "library_count",
      "missing_library_count",
      "plausibility_score",
      "signal_archive",
      "signal_dataframe",
      "signal_filesystem",
      "signal_network",
      "signal_plotting",
      "signal_subprocess"
    ],
    "policy": "linear-multi-head-orchestrator",
    "verifier_weights": [
      -0.07379625942615822,
      -0.043914074153917106,
      -0.20914885875844258,
      0.022342058054629094,
      -0.004911275507807385,
      0.05684451978482308,
      0.1528910314725415,
      -0.07851002344611412,
      -0.01609036910092643,
      -0.04385363536498028,
      0.0564995469240672,
      0.013839067240410733,
      -0.035871295106799886,
      -0.07379625942615822,
      0.0,
      0.0,
      0.0,
      0.044700317868921355,
      0.0244483795901892,
      0.003030290763239358,
      0.09034570504647846,
      -0.14622796000393437,
      0.006993789512376403,
      0.04366751037687619,
      -0.11504769107417599,
      0.012037914146971905,
      -0.06381710129406004,
      0.0244483795901892,
      0.19165894599490652,
      -0.1735062996852445,
      0.0,
      0.0,
      0.006993789512376403,
      -0.058730523407486,
      0.0,
      0.0244483795901892,
      -0.056366697797279076,
      0.04446163277709519,
      0.02840306951231664,
      -0.20939712779809952,
      0.029199965598113525,
      -0.11043399565250953,
      0.03782444173671835,
      -0.047646509623391634,
      -0.08231533134054983,
      -0.007468937797703484,
      -0.11594852457856081,
      0.0,
      -0.0467734941454406,
      0.0,
      -0.06239178557856756,
      0.0,
      0.006993789512376403,
      0.012708453243579231,
      0.018593889771795245,
      0.0,
      -0.04260238498879637,
      0.05761794817346309,
      0.0,
      0.16822681242709614,
      -0.04160561694367106,
      -0.05285910684033915,
      -0.0507301789298805,
      0.0244483795901892,
      0.0244483795901892,
      -0.07209488921358105,
      -0.03936872170387098,
      0.13380591552619764,
      -0.05044006092563404,
      -0.0028620520222142035,
      0.006993789512376403,
      0.02888353705972338,
      -0.08527860715355678,
      0.0870178187954668,
      -0.04357065679219179,
      0.02888353705972338,
      0.1151796492598219,
      -0.06466783265521092,
      -0.06914214556815484,
      0.00558591213357978,
      -0.04152976208425889,
      -0.25687556783726734,
      -0.0091596426343254,
      -0.11594852457856081,
      -0.040642976871073815,
      -0.07000675239898256,
      0.0077959113664790546,
      0.08327790318308455,
      -0.0233605353278631,
      0.029199965598113525,
      0.006993789512376403,
      0.05761794817346309,
      -0.04160561694367106,
      -0.03864219083496324,
      -0.016462264901057722,
      -0.05100005949040462,
      -0.07851002344611412,
      -0.043914074153917106,
      -0.20914885875844258,
      -0.03560859547641968,
      0.05684451978482308,
      0.1528910314725415
    ],
    "worker_ids": [
      "ollama-cloud-deepseek-v4-pro",
      "ollama-cloud-glm-5.2",
      "ollama-cloud-kimi-k2.7-code",
      "ollama-cloud-qwen3-coder-480b"
    ],
    "worker_weights": [
      [
        -0.06765985706250195,
        0.07137580684938216,
        0.04067493297227815,
        -0.07931734788216951,
        0.0883193814336286,
        0.038338182022499855,
        0.04342387744377577,
        -0.0014005014449569343,
        0.006354771080502758,
        -0.058603227377017314,
        -0.06371480829497916,
        0.021094208184829846,
        0.09845855320202435,
        -0.06765985706250195,
        0.0,
        0.0,
        0.0,
        0.02776572576652846,
        -0.014871981748798965,
        -0.0531713616958504,
        -0.0089676794018617,
        0.08123226425644842,
        -0.04182759322882914,
        0.10326468769858985,
        -0.07843317736798323,
        -0.08410929096649335,
        -0.020546997296411403,
        -0.014871981748798965,
        0.049265842010664564,
        0.1125276092367879,
        0.0,
        0.0,
        -0.04182759322882914,
        0.11732387184392216,
        0.0,
        -0.014871981748798965,
        0.10975249199094363,
        0.02039448267151387,
        0.05984476760579907,
        -0.06494593376357725,
        0.0095560492448046,
        0.01198797161421272,
        0.008114558730158851,
        0.030938949938601495,
        -0.07044279144446705,
        0.12607402163029674,
        -0.012792295689616534,
        0.0,
        -0.04700681317601241,
        0.0,
        0.016906493406869852,
        0.0,
        -0.04182759322882914,
        -0.02789247429679469,
        -0.0035234696096739676,
        0.0,
        -0.011342747799062887,
        -0.06249201241299012,
        0.0,
        0.07316770242214961,
        -0.09192349270092022,
        -0.012884150269459958,
        -0.0057554941567786394,
        -0.014871981748798965,
        -0.014871981748798965,
        0.04581093168740044,
        -0.035418979045210235,
        0.0979719654990044,
        0.06574061974778742,
        -0.09212389725315932,
        -0.04182759322882914,
        0.010334627596883071,
        -0.1061729828797865,
        -0.0009556673531860642,
        0.06720743886970272,
        0.010334627596883071,
        0.07033394997739255,
        0.07486158433422693,
        -0.13807007525722187,
        0.07432690299853649,
        -0.028583368380797513,
        -0.007339447973538879,
        -0.07418432222406526,
        -0.012792295689616534,
        -0.08644646786847301,
        -0.1671817715891144,
        0.11828871702249161,
        0.12332180017004876,
        -0.06856845582475526,
        0.0095560492448046,
        -0.04182759322882914,
        -0.06249201241299012,
        -0.09192349270092022,
        -0.03175631716629292,
        0.022733462170923733,
        0.060152373839423824,
        -0.0014005014449569343,
        0.07137580684938216,
        0.04067493297227815,
        -0.05317034102789184,
        0.038338182022499855,
        0.04342387744377577
      ],
      [
        -0.11021791401093194,
        -0.08931384186032376,
        -0.037671646622727734,
        -0.016892482586152825,
        -0.030715422014358073,
        -0.06306215484233593,
        -0.03527440412414869,
        0.03152116408804584,
        -0.07427233338554595,
        -0.030416441471626175,
        -0.02463820429039647,
        0.0002787720641253475,
        0.030195263458048762,
        -0.11021791401093194,
        0.0,
        0.0,
        0.0,
        0.028520829851525653,
        -0.011912845753728616,
        0.1350985710437408,
        0.04162753132487318,
        -0.05106438043518091,
        -0.020454107135397474,
        -0.03658322942803319,
        -0.01880339372937335,
        -0.033110264617790854,
        -0.05052227428167539,
        -0.011912845753728616,
        -0.044375033376796026,
        0.020770548466922327,
        0.0,
        0.0,
        -0.020454107135397474,
        -0.03205418448188277,
        0.0,
        -0.011912845753728616,
        -0.01873337520635488,
        0.008472060327394127,
        0.05359724976352661,
        -0.03869926139970753,
        0.01648245847904169,
        -0.05492691729589749,
        0.026480489279532286,
        -0.03488753793595886,
        -0.058602912153051794,
        -0.000973091217122074,
        -0.05339113365385662,
        0.0,
        0.12467561319721958,
        0.0,
        -0.026388016209876363,
        0.0,
        -0.020454107135397474,
        -0.0183738596840566,
        -0.023670673599483376,
        0.0,
        -0.04754369541835228,
        0.0016061212596289694,
        0.0,
        0.0027695578800568795,
        0.08621810470825825,
        -0.09291893842458089,
        -0.07985921740221097,
        -0.011912845753728616,
        -0.011912845753728616,
        -0.02297469218223024,
        -0.06243512003540441,
        0.0700082859711794,
        -0.09002885514042558,
        -0.11702057251505087,
        -0.020454107135397474,
        -0.008748718008196515,
        0.07214699696876162,
        -0.0015418538106094283,
        0.06093558311710635,
        -0.008748718008196515,
        -0.049403676729037956,
        0.02676422654942763,
        -0.05920111872025048,
        0.015490964155193892,
        0.12262870840154026,
        -0.14701165912905226,
        -0.11800547565936242,
        -0.05339113365385662,
        0.020388384930462515,
        -0.015645259123789803,
        -0.026176110768686218,
        0.04033055567720193,
        -0.03596417847588634,
        0.01648245847904169,
        -0.020454107135397474,
        0.0016061212596289694,
        0.08621810470825825,
        -0.03480306575204847,
        0.024312258333331824,
        -0.00811841310459651,
        0.03152116408804584,
        -0.08931384186032376,
        -0.037671646622727734,
        -0.06799780255375008,
        -0.06306215484233593,
        -0.03527440412414869
      ],
      [
        -0.001838533327118439,
        -0.12885999915229718,
        0.09954112527808405,
        -0.02544473338094398,
        -0.0018343130003187055,
        -0.04266617553526724,
        -0.015981392001517748,
        -0.0794201632362924,
        -0.08635469735422513,
        0.1172159552438896,
        0.13048398609548859,
        0.021684939408501986,
        -0.005654978924819144,
        -0.001838533327118439,
        0.0,
        0.0,
        0.0,
        -0.03715454093951779,
        0.0128282527281852,
        0.023967135376048863,
        0.03666190658533845,
        0.12107785399128869,
        0.019946930335032302,
        -0.05940205492049308,
        -0.09495477672010308,
        0.12128972334808995,
        -0.07440136688261079,
        0.0128282527281852,
        0.045301954176772186,
        0.1825531316436364,
        0.0,
        0.0,
        0.019946930335032302,
        -0.018454041101382254,
        0.0,
        0.0128282527281852,
        -0.03097550608274943,
        0.009194262747398724,
        -0.06677011744480997,
        -0.20236108979767653,
        -0.013916317735272837,
        -0.01333643885239476,
        0.019680576378874354,
        -0.03388758144486512,
        0.07987895720189633,
        -0.04684866831358119,
        0.07050012107083913,
        0.0,
        -0.02592548619275373,
        0.0,
        -0.0559198853841993,
        0.0,
        0.019946930335032302,
        -0.04610575434601149,
        0.04245411860819127,
        0.0,
        0.06745521156819263,
        -0.01878523759294735,
        0.0,
        0.01704568580569728,
        -0.009168568522630071,
        0.00753120948007021,
        0.0015936223826854494,
        0.0128282527281852,
        0.0128282527281852,
        -0.046715834173050294,
        -0.061573114154425436,
        -0.07637221694752544,
        0.144917813397077,
        0.10342184647242403,
        0.019946930335032302,
        0.0005779224638430661,
        -0.1290509145980822,
        -0.0019561647904919183,
        -0.049258583084102144,
        0.0005779224638430661,
        -0.01610606739123344,
        -0.20592856675607082,
        0.02860766649747929,
        -0.06543243623279284,
        -0.04217705097230768,
        0.08001264262980372,
        -0.007124799886854864,
        0.07050012107083913,
        -0.034840688779216575,
        0.005095255209808954,
        -0.10740613565318034,
        0.0902512251743236,
        0.11692615498420693,
        -0.013916317735272837,
        0.019946930335032302,
        -0.01878523759294735,
        -0.009168568522630071,
        -0.017937376078010003,
        -0.002277195562313969,
        -0.009013073924903766,
        -0.0794201632362924,
        -0.12885999915229718,
        0.09954112527808405,
        0.08740214190322475,
        -0.04266617553526724,
        -0.015981392001517748
      ],
      [
        0.17971630440055164,
        0.14679803416323917,
        -0.10254441162763409,
        0.12165456384926598,
        -0.055769646418952115,
        0.0673901483551041,
        0.007831918681890319,
        0.04929950059320376,
        0.15427225965926875,
        -0.02819628639524626,
        -0.042130973510113044,
        -0.04305791965745704,
        -0.12299883773525433,
        0.17971630440055164,
        0.0,
        0.0,
        0.0,
        -0.01913201467853631,
        0.013956574774342301,
        -0.10589434472393926,
        -0.06932175850834948,
        -0.15124573781255543,
        0.04233477002919394,
        -0.0072794033500630465,
        0.1921913478174588,
        -0.004070167763806108,
        0.14547063846069755,
        0.013956574774342301,
        -0.05019276281064008,
        -0.3158512893473473,
        0.0,
        0.0,
        0.04233477002919394,
        -0.06681564626065699,
        0.0,
        0.013956574774342301,
        -0.060043610701839445,
        -0.038060805746306714,
        -0.04667189992451585,
        0.30600628496096394,
        -0.012122189988573414,
        0.05627538453407932,
        -0.0542756243885656,
        0.03783616944222247,
        0.04916674639562308,
        -0.0782522620995931,
        -0.0043166917273661145,
        0.0,
        -0.051743313828453284,
        0.0,
        0.06540140818720591,
        0.0,
        0.04233477002919394,
        0.09237208832686333,
        -0.01525997539903401,
        0.0,
        -0.008568768350777627,
        0.07967112874630816,
        0.0,
        -0.09298294610790414,
        0.014873956515292507,
        0.09827187921397057,
        0.08402108917630444,
        0.013956574774342301,
        0.013956574774342301,
        0.023879594667880262,
        0.15942721323503967,
        -0.09160803452265817,
        -0.12062957800443856,
        0.10572262329578581,
        0.04233477002919394,
        -0.002163832052529608,
        0.16307690050910653,
        0.004453685954287557,
        -0.07888443890270669,
        -0.002163832052529608,
        -0.004824205857121283,
        0.10430275587241755,
        0.16866352747999436,
        -0.024385430920937794,
        -0.05186828904843486,
        0.07433846447278762,
        0.19931459777028365,
        -0.0043166917273661145,
        0.10089877171722803,
        0.17773177550309502,
        0.015293529399374511,
        -0.2539035810215736,
        -0.012393520683565461,
        -0.012122189988573414,
        0.04233477002919394,
        0.07967112874630816,
        0.014873956515292507,
        0.08449675899635173,
        -0.04476852494194155,
        -0.043020886809924164,
        0.04929950059320376,
        0.14679803416323917,
        -0.10254441162763409,
        0.03376600167841659,
        0.0673901483551041,
        0.007831918681890319
      ]
    ],
    "workflow_labels": [
      "direct",
      "verify_then_fallback"
    ],
    "workflow_weights": [
      [
        0.32912168643904866,
        0.036752765426751426,
        0.10737910168298036,
        0.07954689540577392,
        0.03496172973032696,
        0.034944991196126665,
        0.00668191267231223,
        0.10059343929102821,
        -0.017871782753574365,
        0.00849107227566682,
        0.04937436156173549,
        0.009720369887515625,
        0.06806578335669185,
        0.32912168643904866,
        0.0,
        0.0,
        0.0,
        0.013275561102138046,
        0.016405568395173733,
        0.044260087164501194,
        0.06560315701311614,
        -0.011745968329043434,
        0.010888351880606151,
        0.06410425226069798,
        0.12213191397958995,
        0.03908187971606287,
        0.01648109344876405,
        0.016405568395173733,
        -0.12856536321361742,
        0.059548496782725634,
        0.0,
        0.0,
        0.010888351880606151,
        0.012721620431539975,
        0.0,
        0.016405568395173733,
        0.013780896004048688,
        0.010292481845671974,
        -0.09278815869965476,
        0.208865385973178,
        0.02569625241104355,
        0.15173227883638413,
        0.01495427039004879,
        0.05753537197388453,
        0.04158313524139598,
        0.03348335156383882,
        0.04962087585437795,
        0.0,
        0.011243549252362223,
        0.0,
        0.06684134111632158,
        0.0,
        0.010888351880606151,
        0.04991967239438166,
        -0.0021702618037495406,
        0.0,
        0.08572889980934198,
        0.06345693152962573,
        0.0,
        -0.060291063792807034,
        0.06245804709019857,
        0.15438580344084182,
        0.11624246863788885,
        0.016405568395173733,
        0.016405568395173733,
        0.04112980357871115,
        0.032886661843937515,
        0.010264252669576944,
        0.0706403600200364,
        -0.16763633640169728,
        0.010888351880606151,
        0.020388648870566347,
        0.05069048582858681,
        0.06256541301814592,
        0.033360448787209715,
        0.020388648870566347,
        0.017322106625713363,
        0.09738356192163701,
        0.03800182424235199,
        0.055756185661837064,
        0.013320640299489614,
        0.0054073498264705575,
        0.014325557840710672,
        0.04962087585437795,
        0.051803317040897294,
        0.0946470831996244,
        0.05141095330296832,
        0.11395027223989894,
        0.041829778239853684,
        0.02569625241104355,
        0.010888351880606151,
        0.06345693152962573,
        0.06245804709019857,
        0.10256569649639029,
        0.023544372759247725,
        0.11782449197942345,
        0.10059343929102821,
        0.036752765426751426,
        0.10737910168298036,
        0.09661725168994824,
        0.034944991196126665,
        0.00668191267231223
      ],
      [
        -0.32912168643904866,
        -0.03675276542675139,
        -0.10737910168298048,
        -0.0795468954057739,
        -0.034961729730326976,
        -0.03494499119612669,
        -0.00668191267231224,
        -0.10059343929102821,
        0.017871782753574376,
        -0.008491072275666818,
        -0.049374361561735525,
        -0.009720369887515627,
        -0.06806578335669183,
        -0.32912168643904866,
        0.0,
        0.0,
        0.0,
        -0.013275561102138046,
        -0.01640556839517373,
        -0.0442600871645012,
        -0.06560315701311611,
        0.011745968329043439,
        -0.010888351880606145,
        -0.06410425226069799,
        -0.12213191397958993,
        -0.03908187971606288,
        -0.01648109344876405,
        -0.01640556839517373,
        0.12856536321361736,
        -0.059548496782725606,
        0.0,
        0.0,
        -0.010888351880606145,
        -0.012721620431539972,
        0.0,
        -0.01640556839517373,
        -0.013780896004048691,
        -0.010292481845671976,
        0.09278815869965473,
        -0.20886538597317797,
        -0.025696252411043553,
        -0.15173227883638413,
        -0.014954270390048796,
        -0.05753537197388452,
        -0.04158313524139595,
        -0.03348335156383883,
        -0.04962087585437799,
        0.0,
        -0.011243549252362229,
        0.0,
        -0.06684134111632158,
        0.0,
        -0.010888351880606145,
        -0.04991967239438165,
        0.002170261803749539,
        0.0,
        -0.08572889980934197,
        -0.06345693152962573,
        0.0,
        0.060291063792807034,
        -0.062458047090198546,
        -0.15438580344084182,
        -0.11624246863788887,
        -0.01640556839517373,
        -0.01640556839517373,
        -0.04112980357871115,
        -0.03288666184393752,
        -0.01026425266957693,
        -0.0706403600200364,
        0.16763633640169726,
        -0.010888351880606145,
        -0.02038864887056635,
        -0.05069048582858679,
        -0.06256541301814592,
        -0.03336044878720972,
        -0.02038864887056635,
        -0.017322106625713308,
        -0.09738356192163695,
        -0.038001824242352024,
        -0.05575618566183709,
        -0.013320640299489615,
        -0.005407349826470557,
        -0.014325557840710688,
        -0.04962087585437799,
        -0.051803317040897294,
        -0.09464708319962441,
        -0.051410953302968326,
        -0.11395027223989895,
        -0.04182977823985368,
        -0.025696252411043553,
        -0.010888351880606145,
        -0.06345693152962573,
        -0.062458047090198546,
        -0.10256569649639025,
        -0.02354437275924771,
        -0.1178244919794234,
        -0.10059343929102821,
        -0.03675276542675139,
        -0.10737910168298048,
        -0.09661725168994825,
        -0.03494499119612669,
        -0.00668191267231224
      ]
    ]
  },
  "substrate": "research/datasets/20260628-m5-small-orchestrator-substrate-50task.jsonl",
  "target_balance_power": 0.0
}
