{
  "dataset": "research/datasets/20260627-mixed-winner-19task-routing.jsonl",
  "epochs": 300,
  "l2": 0.0001,
  "learning_rate": 0.0005,
  "model_type": "linear-softmax-logits-router",
  "reward_temperature": 0.5,
  "router": {
    "feature_names": [
      "bias",
      "category_datasci",
      "category_filesystem",
      "category_general",
      "category_network",
      "category_plotting",
      "category_subprocess",
      "combo_archive_filesystem",
      "combo_dataframe_plotting",
      "combo_network_archive",
      "combo_network_filesystem",
      "combo_network_plotting",
      "environment_risk",
      "family_bigcodebench_hard",
      "family_code_data",
      "family_code_easy",
      "family_code_text",
      "kw_archive",
      "kw_base64",
      "kw_convert",
      "kw_count",
      "kw_csv",
      "kw_default",
      "kw_dict",
      "kw_directory",
      "kw_download",
      "kw_email",
      "kw_encoding",
      "kw_exception",
      "kw_file",
      "kw_flatten",
      "kw_frequent",
      "kw_ftp",
      "kw_group",
      "kw_hash",
      "kw_hex",
      "kw_http",
      "kw_https",
      "kw_key",
      "kw_list",
      "kw_lowercase",
      "kw_number",
      "kw_pair",
      "kw_parse",
      "kw_process",
      "kw_request",
      "kw_requests",
      "kw_socket",
      "kw_sorted",
      "kw_ssl",
      "kw_string",
      "kw_strip",
      "kw_subprocess",
      "kw_sum",
      "kw_title",
      "kw_unpack",
      "kw_url",
      "kw_urllib",
      "kw_window",
      "kw_word",
      "kw_zip",
      "length_chars",
      "length_tokens",
      "lib_base64",
      "lib_binascii",
      "lib_codecs",
      "lib_collections",
      "lib_csv",
      "lib_datetime",
      "lib_ftplib",
      "lib_functools",
      "lib_glob",
      "lib_itertools",
      "lib_json",
      "lib_math",
      "lib_matplotlib",
      "lib_numpy",
      "lib_os",
      "lib_pandas",
      "lib_pathlib",
      "lib_random",
      "lib_re",
      "lib_requests",
      "lib_shutil",
      "lib_statistics",
      "lib_subprocess",
      "lib_urllib",
      "lib_zipfile",
      "library_count",
      "missing_library_count",
      "plausibility_score",
      "signal_archive",
      "signal_dataframe",
      "signal_filesystem",
      "signal_network",
      "signal_plotting",
      "signal_subprocess"
    ],
    "policy": "logits-router",
    "weights": [
      [
        -0.015425887657555891,
        -0.020077032362192365,
        -0.002655132213634603,
        0.003876132551725427,
        -0.010221806826095138,
        0.012263833342646642,
        -0.0027235832284024856,
        0.02062340821304629,
        0.0,
        -0.0052855935190149585,
        -0.0019346124141812048,
        0.011014299322397347,
        -0.006133084095657092,
        -0.015425887657555891,
        0.0,
        0.0,
        0.0,
        0.0,
        -9.762815114329811e-05,
        -9.762815114329811e-05,
        0.013572787930928884,
        -0.03085940230149377,
        -0.010221806826095138,
        0.0024608604573882475,
        0.0060289631228792806,
        -0.0019346124141812048,
        -0.0029809987319968276,
        -9.762815114329811e-05,
        -0.03848542673287285,
        0.033031067009728736,
        0.0,
        0.0,
        -0.010221806826095138,
        0.0,
        0.0,
        -9.762815114329811e-05,
        0.0,
        0.0,
        -9.762815114329811e-05,
        -0.04788722017841798,
        0.0,
        -0.02205592569150635,
        0.0,
        -9.762815114329811e-05,
        -0.008266592251011761,
        0.013572787930928884,
        -0.0052855935190149585,
        0.0,
        0.0,
        0.0,
        -9.762815114329811e-05,
        0.0,
        -0.010221806826095138,
        -0.0003988775612031448,
        0.0,
        0.0,
        0.008189566260770647,
        0.01347515977978558,
        0.0,
        0.011014299322397347,
        -0.030721654381790323,
        -0.020575510066961608,
        -0.015612313172174668,
        -9.762815114329811e-05,
        -9.762815114329811e-05,
        -0.00307862688314011,
        0.014822321951178212,
        -0.01969839465891121,
        -0.024638046862300124,
        -0.010221806826095138,
        0.003973760702868714,
        -0.02951027569916321,
        0.007342775730208282,
        0.002192027917775539,
        0.003973760702868714,
        0.012263833342646642,
        0.00038801629534275116,
        -0.013669431536031909,
        -0.020077032362192365,
        -0.006788369378510754,
        0.02940504380389176,
        -0.011808919522546516,
        -0.0052855935190149585,
        0.05134506259483666,
        -0.018884273448378248,
        -0.010221806826095138,
        0.01347515977978558,
        -0.030721654381790323,
        -0.006561772538505355,
        0.0,
        -0.011011535473612036,
        0.02062340821304629,
        -0.020077032362192365,
        -0.002655132213634603,
        -0.0020322405653245266,
        0.012263833342646642,
        -0.0027235832284024856
      ],
      [
        -0.028161995996871567,
        0.0038936869660831743,
        -0.03585676234638263,
        0.0019654185812353815,
        -0.01955898288250225,
        0.012007293243901348,
        -0.00651227624065295,
        -0.006494381758749352,
        0.0,
        -0.0019385061406757224,
        -0.006102205149552489,
        0.01075733257053423,
        -0.01173538972950135,
        -0.028161995996871567,
        0.0,
        0.0,
        0.0,
        0.0,
        0.00013231193252696182,
        0.00013231193252696182,
        0.015395283873625596,
        0.016836602319871424,
        -0.01955898288250225,
        0.004770263235618314,
        -0.03191288228864862,
        -0.006102205149552489,
        -0.005683888609671804,
        0.00013231193252696182,
        0.005494358810457134,
        0.008744365124725472,
        0.0,
        0.0,
        -0.01955898288250225,
        0.0,
        0.0,
        0.00013231193252696182,
        0.0,
        0.0,
        0.00013231193252696182,
        -0.055095213541124136,
        0.0,
        -0.0034450117181681313,
        0.0,
        0.00013231193252696182,
        -0.0076223947503475135,
        0.015395283873625596,
        -0.0019385061406757224,
        0.0,
        0.0,
        0.0,
        0.00013231193252696182,
        0.0,
        -0.01955898288250225,
        -0.004026410998688382,
        0.0,
        0.0,
        0.013589089665476853,
        0.01552759580615261,
        0.0,
        0.01075733257053423,
        0.021119691079018083,
        -0.012843817419550301,
        -0.010162530120593911,
        0.00013231193252696182,
        0.00013231193252696182,
        -0.0055515766771448245,
        0.016645244546992715,
        -0.014701212628268415,
        -0.0051024893291515255,
        -0.01955898288250225,
        0.0018331066487084135,
        0.020520789881835467,
        0.004116469888287385,
        0.0052738175185713014,
        0.0018331066487084135,
        0.012007293243901348,
        -0.003400525370092844,
        -0.04661409491691709,
        0.0038936869660831743,
        0.03739733259553655,
        -0.028486625191026415,
        -0.012859222306979475,
        -0.0019385061406757224,
        -0.02761407283776734,
        -0.01204065074687855,
        -0.01955898288250225,
        0.01552759580615261,
        0.021119691079018083,
        -0.005699418322105761,
        0.0,
        -0.013365102193773116,
        -0.006494381758749352,
        0.0038936869660831743,
        -0.03585676234638263,
        -0.005969893217025509,
        0.012007293243901348,
        -0.00651227624065295
      ],
      [
        0.019521198517754718,
        -0.03172790900566735,
        0.04020095403330772,
        -0.001997141170302336,
        0.014232652945443515,
        0.003273247389008992,
        0.012280807203387954,
        -0.039592776715575866,
        0.0,
        0.034159940722538,
        0.03916476794325217,
        0.0035605565207770533,
        0.008539591767266104,
        0.019521198517754718,
        0.0,
        0.0,
        0.0,
        0.0,
        -0.0010252515497761862,
        -0.0010252515497761862,
        -0.009227825724729664,
        0.047158661206798465,
        0.014232652945443515,
        -0.01381363379528293,
        -0.03763437195451769,
        0.03916476794325217,
        -0.025825605132064337,
        -0.0010252515497761862,
        -0.018820636454155132,
        0.043482602728959555,
        0.0,
        0.0,
        0.014232652945443515,
        0.0,
        0.0,
        -0.0010252515497761862,
        0.0,
        0.0,
        -0.0010252515497761862,
        -0.026246883454242576,
        0.0,
        0.03090417052958282,
        0.0,
        -0.0010252515497761862,
        0.008334335590473805,
        -0.009227825724729664,
        0.034159940722538,
        0.0,
        0.0,
        0.0,
        -0.0010252515497761862,
        0.0,
        0.014232652945443515,
        -0.013246137804911401,
        0.0,
        0.0,
        0.023906863448032386,
        -0.010253077274505857,
        0.0,
        0.0035605565207770533,
        0.011288211306157831,
        0.0054236631291518875,
        0.002854726032515974,
        -0.0010252515497761862,
        -0.0010252515497761862,
        -0.02685085668184057,
        -0.009515134856497742,
        0.07427476946704839,
        0.018324703202429758,
        0.014232652945443515,
        -0.0009718896205261496,
        -0.053452958256103696,
        0.0008691084852257677,
        -0.0010583556077997007,
        -0.0009718896205261496,
        0.003273247389008992,
        -0.023984607026312423,
        0.036640397512530544,
        -0.03172790900566735,
        -0.014841860075864508,
        0.06637685522349929,
        -0.02779241119976552,
        0.034159940722538,
        -0.050880988021733534,
        0.04850214519089073,
        0.014232652945443515,
        -0.010253077274505857,
        0.011288211306157831,
        0.006782224404352025,
        0.0,
        0.009863204992803166,
        -0.039592776715575866,
        -0.03172790900566735,
        0.04020095403330772,
        0.03813951639347574,
        0.003273247389008992,
        0.012280807203387954
      ],
      [
        0.024066685136672584,
        0.047911254401776675,
        -0.0016890594732904105,
        -0.003844409962658484,
        0.015548136763154018,
        -0.027544373975556972,
        -0.0030449477343324947,
        0.025463750261279,
        0.0,
        -0.02693584106284755,
        -0.031127950379518377,
        -0.025332188413708545,
        0.009328882057892365,
        0.024066685136672584,
        0.0,
        0.0,
        0.0,
        0.0,
        0.000990567768392511,
        0.000990567768392511,
        -0.019740246079824816,
        -0.03313586122517618,
        0.015548136763154018,
        0.006582510102276324,
        0.06351829112028698,
        -0.031127950379518377,
        0.034490492473732884,
        0.000990567768392511,
        0.05181170437657097,
        -0.08525803486341332,
        0.0,
        0.0,
        0.015548136763154018,
        0.0,
        0.0,
        0.000990567768392511,
        0.0,
        0.0,
        0.000990567768392511,
        0.12922931717378477,
        0.0,
        -0.005403233119908236,
        0.0,
        0.000990567768392511,
        0.007554651410885485,
        -0.019740246079824816,
        -0.02693584106284755,
        0.0,
        0.0,
        0.0,
        0.000990567768392511,
        0.0,
        0.015548136763154018,
        0.017671426364802845,
        0.0,
        0.0,
        -0.0456855193742799,
        -0.01874967831143235,
        0.0,
        -0.025332188413708545,
        -0.0016862480033855787,
        0.027995664357360034,
        0.022920117260252577,
        0.000990567768392511,
        0.000990567768392511,
        0.035481060242125544,
        -0.021952431641673164,
        -0.03987516217986867,
        0.01141583298902183,
        0.015548136763154018,
        -0.004834977731050995,
        0.06244244407343159,
        -0.012328354103721406,
        -0.006407489828547132,
        -0.004834977731050995,
        -0.027544373975556972,
        0.026997116101062493,
        0.02364312894041824,
        0.047911254401776675,
        -0.015767103141161316,
        -0.0672952738363646,
        0.05246055302929165,
        -0.02693584106284755,
        0.027149998264664608,
        -0.01757722099563402,
        0.015548136763154018,
        -0.01874967831143235,
        -0.0016862480033855787,
        0.005478966456259025,
        0.0,
        0.014513432674581992,
        0.025463750261279,
        0.047911254401776675,
        -0.0016890594732904105,
        -0.030137382611125738,
        -0.027544373975556972,
        -0.0030449477343324947
      ]
    ],
    "worker_ids": [
      "ollama-cloud-deepseek-v4-pro",
      "ollama-cloud-glm-5.2",
      "ollama-cloud-kimi-k2.7-code",
      "ollama-cloud-qwen3-coder-480b"
    ]
  },
  "target_mode": "reward"
}
