{
  "dataset": "research/datasets/20260628-normal-offset16-contrast-29task-routing.jsonl",
  "epochs": 300,
  "l2": 0.0001,
  "learning_rate": 0.0005,
  "model_type": "linear-softmax-logits-router",
  "reward_temperature": 0.05,
  "router": {
    "feature_names": [
      "bias",
      "category_datasci",
      "category_filesystem",
      "category_general",
      "category_network",
      "category_plotting",
      "category_subprocess",
      "combo_network_archive",
      "combo_network_filesystem",
      "combo_network_plotting",
      "environment_risk",
      "family_bigcodebench_hard",
      "kw_archive",
      "kw_base64",
      "kw_count",
      "kw_dict",
      "kw_download",
      "kw_fetch",
      "kw_file",
      "kw_files",
      "kw_frequent",
      "kw_hex",
      "kw_http",
      "kw_key",
      "kw_list",
      "kw_lowercase",
      "kw_number",
      "kw_plot",
      "kw_request",
      "kw_requests",
      "kw_scan",
      "kw_sorted",
      "kw_string",
      "kw_strip",
      "kw_subprocess",
      "kw_sum",
      "kw_url",
      "kw_word",
      "kw_zip",
      "length_chars",
      "length_tokens",
      "lib_base64",
      "lib_binascii",
      "lib_codecs",
      "lib_collections",
      "lib_csv",
      "lib_datetime",
      "lib_ftplib",
      "lib_functools",
      "lib_glob",
      "lib_hashlib",
      "lib_itertools",
      "lib_json",
      "lib_math",
      "lib_matplotlib",
      "lib_numpy",
      "lib_os",
      "lib_pandas",
      "lib_pathlib",
      "lib_random",
      "lib_re",
      "lib_requests",
      "lib_shutil",
      "lib_statistics",
      "lib_subprocess",
      "lib_urllib",
      "lib_zipfile",
      "lib_zlib",
      "library_count",
      "missing_library_count",
      "plausibility_score",
      "signal_archive",
      "signal_datasci",
      "signal_filesystem",
      "signal_general",
      "signal_network",
      "signal_plotting",
      "signal_subprocess"
    ],
    "policy": "logits-router",
    "weights": [
      [
        0.053105918490852,
        0.07290218558114994,
        0.058798469207878526,
        0.013624706093527996,
        -0.019733601500610175,
        0.040717445440095444,
        0.008377702126675643,
        -0.020137118430098938,
        -0.016360261642088078,
        0.02378046620689554,
        -0.011840160900366143,
        0.053105918490852,
        0.0,
        0.00029793950063176927,
        0.023510458288621028,
        0.09716197195548548,
        -0.016360261642088078,
        0.0,
        0.1393949430906261,
        -0.0707537491869744,
        0.0,
        -9.637754723843434e-05,
        0.0,
        0.11276215011530853,
        0.01605663378530225,
        0.0,
        -0.04704766904061426,
        0.01993805557164855,
        0.023510458288621028,
        -0.020137118430098938,
        0.0,
        0.0,
        -0.0033226561052161724,
        0.0,
        0.0029125692598320936,
        -0.012983255430063161,
        0.0032769623112836486,
        0.0342986871455165,
        -0.07964667112350624,
        -0.10157405601175064,
        -0.014248890424666462,
        0.00029793950063176927,
        -9.637754723843434e-05,
        -0.016004615194133574,
        0.12258770948258713,
        0.042762488582305476,
        -0.02522264638287074,
        -0.019733601500610175,
        0.013326766592896208,
        -0.06421604501650316,
        0.0036205956058479277,
        0.0118047612172225,
        0.1127350400199773,
        0.013326766592896208,
        0.040717445440095444,
        0.09658458616425634,
        -0.05292150798696309,
        -0.03514439277846963,
        -0.02799781059374843,
        0.0352755324972012,
        0.002567874371486923,
        -0.020137118430098938,
        0.08415467328130491,
        -0.059203746291882006,
        0.0029125692598320936,
        0.023414080741382542,
        -0.07964667112350624,
        -0.00322627855797772,
        0.02025380179459214,
        0.0,
        -0.003822771167402354,
        0.004508002157798559,
        0.07290218558114994,
        0.058798469207878526,
        0.013624706093527996,
        -0.01645663918932646,
        0.040717445440095444,
        0.008377702126675643
      ],
      [
        -0.0006421487257256405,
        -0.04674531242339062,
        -0.037172960682782495,
        0.042299649218707366,
        -0.016767495625160223,
        -0.0020397213385833436,
        -0.017270930037782597,
        -0.018782610363183926,
        -0.01683132001721951,
        0.005421259121217787,
        -0.01006049737509615,
        -0.0006421487257256405,
        0.0,
        0.0438758969294785,
        0.018718785971124637,
        -0.010579831897195621,
        -0.01683132001721951,
        0.0,
        0.011640450474032046,
        0.04357716053170099,
        0.0,
        -0.0006369320140134253,
        0.0,
        -0.01968865240968294,
        -0.07849563630787806,
        0.0,
        -0.04829059911010636,
        -0.006026883012866615,
        0.018718785971124637,
        -0.018782610363183926,
        0.0,
        0.0,
        0.016874765861532838,
        0.0,
        -0.007742302733030608,
        -0.02333101093999285,
        -0.0007007564060726661,
        0.0017831432824837769,
        0.07076140127799146,
        -0.06047926112091045,
        -0.012209613825091645,
        0.0438758969294785,
        -0.0006369320140134253,
        -0.012686352280342358,
        0.00868587013548558,
        -0.04544618415143411,
        -0.035209069273155334,
        -0.016767495625160223,
        -0.0015762477107712455,
        0.08090965616755827,
        0.02700113106794555,
        0.022242315564041267,
        0.001618011321567248,
        -0.0015762477107712455,
        -0.0020397213385833436,
        -0.03338912374645823,
        -0.010632386186083951,
        -0.019866769851567344,
        0.11724396431612638,
        -0.03965611366224443,
        -0.03132042175343743,
        -0.018782610363183926,
        -0.054326261381623456,
        -0.017846340995465965,
        -0.007742302733030608,
        0.018081853957111232,
        0.07076140127799146,
        0.017511697875546316,
        0.005843121783552557,
        0.0,
        -0.006709865629496947,
        0.016435139896367943,
        -0.04674531242339062,
        -0.037172960682782495,
        0.042299649218707366,
        -0.017468252031232943,
        -0.0020397213385833436,
        -0.017270930037782597
      ],
      [
        -0.016747572907486723,
        -0.10035114223282897,
        0.023932295196293137,
        -0.017492675734816745,
        0.017953058586098275,
        0.005609407756983965,
        0.023787711120250455,
        0.08582835131111742,
        0.08835522852504292,
        0.013145424016986549,
        0.010771835151658953,
        -0.016747572907486723,
        0.0,
        -0.013389139524379761,
        -0.015426181372172856,
        -0.060973312731453476,
        0.08835522852504292,
        0.0,
        0.06991335120546323,
        -0.14186061596969463,
        0.0,
        3.591720138051389e-05,
        0.0,
        -0.04559162941085621,
        -0.13279959265461605,
        0.0,
        0.06486951767836369,
        -0.009324602120696671,
        -0.015426181372172856,
        0.08582835131111742,
        0.0,
        0.0,
        0.0016752164376921037,
        0.0,
        8.114744630093389e-05,
        -0.032001338869653104,
        0.07043808714032503,
        0.004833763558406286,
        0.007066816763169536,
        0.04411604369421253,
        0.002550005711041405,
        -0.013389139524379761,
        3.591720138051389e-05,
        -0.03161975226333336,
        -0.0571722514214836,
        0.10888238872609005,
        0.0510123233526247,
        0.017953058586098275,
        -0.004103536210436922,
        -0.12466822074419588,
        -0.01506435596207197,
        -0.0016856104203837854,
        -0.03901403796477919,
        -0.004103536210436922,
        0.005609407756983965,
        -0.06720165776916595,
        0.030945510668658867,
        -0.0596018572305743,
        -0.03717518463791853,
        0.13324639768494284,
        -0.06464995899961311,
        0.08582835131111742,
        -0.07888603321932272,
        0.10770330379315174,
        8.114744630093389e-05,
        -0.01539026417079238,
        0.007066816763169536,
        0.0016392992363115906,
        -0.006372147422205846,
        0.0,
        0.006730945639856462,
        -0.0718192164561532,
        -0.10035114223282897,
        0.023932295196293137,
        -0.017492675734816745,
        0.08839114572642329,
        0.005609407756983965,
        0.023787711120250455
      ],
      [
        -0.03571619685763957,
        0.07419426907506915,
        -0.045557803721388665,
        -0.03843167957741863,
        0.018548038539672042,
        -0.04428713185849591,
        -0.014894483209143388,
        -0.046908622517834626,
        -0.055163646865735314,
        -0.0423471493450997,
        0.011128823123803273,
        -0.03571619685763957,
        0.0,
        -0.03078469690573058,
        -0.026803062887572754,
        -0.02560882732683655,
        -0.055163646865735314,
        0.0,
        -0.22094874477012047,
        0.1690372046249683,
        0.0,
        0.0006973923598713659,
        0.0,
        -0.04748186829476892,
        0.19523859517719228,
        0.0,
        0.030468750472356965,
        -0.004586570438085279,
        -0.026803062887572754,
        -0.046908622517834626,
        0.0,
        0.0,
        -0.015227326194008845,
        0.0,
        0.004748586026897597,
        0.06831560523970931,
        -0.07301429304553576,
        -0.04091559398640648,
        0.0018184530823451255,
        0.11793727343844866,
        0.02390849853871669,
        -0.03078469690573058,
        0.0006973923598713659,
        0.060310719737809416,
        -0.0741013281965892,
        -0.10619869315696147,
        0.00941939230340162,
        0.018548038539672042,
        -0.007646982671688052,
        0.10797460959314079,
        -0.015557370711721741,
        -0.03236146636087995,
        -0.07533901337676484,
        -0.007646982671688052,
        -0.04428713185849591,
        0.004006195351368256,
        0.03260838350438839,
        0.1146130198606112,
        -0.05207096908445939,
        -0.1288658165198993,
        0.09340250638156367,
        -0.046908622517834626,
        0.04905762131964153,
        -0.030653216505803643,
        0.004748586026897597,
        -0.026105670527701484,
        0.0018184530823451255,
        -0.015924718553880196,
        -0.019724776155938824,
        0.0,
        0.0038016911570428404,
        0.05087607440198708,
        0.07419426907506915,
        -0.045557803721388665,
        -0.03843167957741863,
        -0.05446625450586398,
        -0.04428713185849591,
        -0.014894483209143388
      ]
    ],
    "worker_ids": [
      "ollama-cloud-deepseek-v4-pro",
      "ollama-cloud-glm-5.2",
      "ollama-cloud-kimi-k2.7-code",
      "ollama-cloud-qwen3-coder-480b"
    ]
  },
  "target_mode": "reward"
}
