{
  "dataset": "research/datasets/20260627-mixed-winner-16task-routing.jsonl",
  "epochs": 300,
  "l2": 0.0001,
  "learning_rate": 0.0005,
  "model_type": "linear-softmax-logits-router",
  "reward_temperature": 0.05,
  "router": {
    "feature_names": [
      "bias",
      "category_datasci",
      "category_filesystem",
      "category_general",
      "category_network",
      "category_plotting",
      "category_subprocess",
      "environment_risk",
      "family_bigcodebench_hard",
      "family_code_data",
      "family_code_easy",
      "family_code_text",
      "kw_base64",
      "kw_convert",
      "kw_count",
      "kw_csv",
      "kw_default",
      "kw_dict",
      "kw_directory",
      "kw_download",
      "kw_email",
      "kw_encoding",
      "kw_exception",
      "kw_file",
      "kw_flatten",
      "kw_frequent",
      "kw_ftp",
      "kw_group",
      "kw_hash",
      "kw_hex",
      "kw_key",
      "kw_list",
      "kw_lowercase",
      "kw_number",
      "kw_pair",
      "kw_parse",
      "kw_process",
      "kw_socket",
      "kw_sorted",
      "kw_ssl",
      "kw_string",
      "kw_strip",
      "kw_subprocess",
      "kw_sum",
      "kw_title",
      "kw_url",
      "kw_urllib",
      "kw_window",
      "kw_word",
      "kw_zip",
      "length_chars",
      "length_tokens",
      "lib_base64",
      "lib_binascii",
      "lib_codecs",
      "lib_collections",
      "lib_csv",
      "lib_datetime",
      "lib_ftplib",
      "lib_functools",
      "lib_glob",
      "lib_itertools",
      "lib_json",
      "lib_math",
      "lib_matplotlib",
      "lib_numpy",
      "lib_os",
      "lib_pandas",
      "lib_pathlib",
      "lib_random",
      "lib_re",
      "lib_shutil",
      "lib_statistics",
      "lib_subprocess",
      "lib_urllib",
      "lib_zipfile",
      "library_count",
      "missing_library_count",
      "plausibility_score"
    ],
    "policy": "logits-router",
    "weights": [
      [
        -0.059158456772821284,
        -0.038845721585632466,
        -0.03949391953601251,
        0.006773090504547056,
        -0.022451970916838253,
        0.0025628408891290554,
        -0.00496927116499939,
        -0.013471182550102892,
        -0.059158456772821284,
        0.0,
        0.0,
        0.0,
        -0.0050963735827699525,
        -0.0050963735827699525,
        0.006181582455641674,
        -0.0937025515480048,
        -0.022451970916838253,
        0.001085208872871716,
        0.008688595325451774,
        -0.016270388461196498,
        0.0,
        -0.0050963735827699525,
        -0.07602428767028169,
        0.029928415920722855,
        0.0,
        0.0,
        -0.022451970916838253,
        0.0,
        0.0,
        -0.0050963735827699525,
        -0.0050963735827699525,
        -0.0801279859440235,
        0.0,
        -0.036311045128553265,
        0.0,
        -0.0050963735827699525,
        0.0,
        0.0,
        0.0,
        0.0,
        -0.0050963735827699525,
        0.0,
        -0.022451970916838253,
        -0.009276906164027899,
        0.0,
        0.001085208872871716,
        0.001085208872871716,
        0.0,
        0.0,
        -0.04995836793177002,
        -0.04711987997015781,
        -0.03552274906941629,
        -0.0050963735827699525,
        -0.0050963735827699525,
        -0.0050963735827699525,
        0.008744423344770737,
        -0.04818251486146439,
        -0.027034138964525296,
        -0.022451970916838253,
        0.011869464087317021,
        -0.0716233632964021,
        0.01307412802542272,
        0.011301117296197106,
        0.011869464087317021,
        0.0025628408891290554,
        0.0012046639381057102,
        -0.03949391953601251,
        -0.038845721585632466,
        -0.024373666435195642,
        0.03271757664535103,
        -0.023261153399423265,
        0.10224530442540457,
        -0.05753509092117097,
        -0.022451970916838253,
        0.001085208872871716,
        -0.04995836793177002,
        -0.02438268079016958,
        0.0,
        -0.028061301183168092
      ],
      [
        -0.07944223287618954,
        -0.030274460280008596,
        -0.061416359596968305,
        -0.011407503683554069,
        -0.022536614916976217,
        -0.0031456721069993915,
        -0.019125607978143045,
        -0.013521968950185747,
        -0.07944223287618954,
        0.0,
        0.0,
        0.0,
        -0.006632447475704311,
        -0.006632447475704311,
        0.006406546533065013,
        0.04471557213858433,
        -0.022536614916976217,
        -0.0002259009426393039,
        -0.014618873229291434,
        -0.016130068383911154,
        0.0,
        -0.006632447475704311,
        0.04502459030756484,
        0.012672807505706384,
        0.0,
        0.0,
        -0.022536614916976217,
        0.0,
        0.0,
        -0.006632447475704311,
        -0.006632447475704311,
        -0.11132309086943988,
        0.0,
        -0.054705845499364254,
        0.0,
        -0.006632447475704311,
        0.0,
        0.0,
        0.0,
        0.0,
        -0.006632447475704311,
        0.0,
        -0.022536614916976217,
        -0.028581279404958863,
        0.0,
        -0.0002259009426393039,
        -0.0002259009426393039,
        0.0,
        0.0,
        0.08800612566812231,
        -0.03263292123819644,
        -0.02533851633607643,
        -0.006632447475704311,
        -0.006632447475704311,
        -0.006632447475704311,
        0.0032608744260656177,
        -0.04679748636767689,
        -0.02612456609440558,
        -0.022536614916976217,
        -0.0047750562078497285,
        0.0659297148993259,
        -0.008071735099488674,
        -0.002995539594231797,
        -0.0047750562078497285,
        -0.0031456721069993915,
        -0.0032966788916389492,
        -0.061416359596968305,
        -0.030274460280008596,
        0.11531928170336968,
        -0.08065015612659077,
        -0.03089200109558889,
        -0.05628216078332845,
        -0.027255485403365212,
        -0.022536614916976217,
        -0.0002259009426393039,
        0.08800612566812231,
        -0.017943289036281052,
        0.0,
        -0.02294821212297704
      ],
      [
        0.04059234662077423,
        -0.026921351714364865,
        0.03065667526327198,
        0.001872490512700749,
        0.028648806660047675,
        0.0010585547565200388,
        0.008944441281823486,
        0.0171892839960286,
        0.04059234662077423,
        0.0,
        0.0,
        0.0,
        0.003907502330373279,
        0.003907502330373279,
        -0.01570131013698141,
        0.10983820015488294,
        0.028648806660047675,
        -0.01179380780660818,
        -0.14220660344613426,
        0.012947496523066267,
        0.0,
        0.003907502330373279,
        -0.08469248509722256,
        0.06293506075600605,
        0.0,
        0.0,
        0.028648806660047675,
        0.0,
        0.0,
        0.003907502330373279,
        0.003907502330373279,
        -0.06388707207894208,
        0.0,
        0.06169812550099404,
        0.0,
        0.003907502330373279,
        0.0,
        0.0,
        0.0,
        0.0,
        0.003907502330373279,
        0.0,
        0.028648806660047675,
        -0.03195793437907587,
        0.0,
        -0.01179380780660818,
        -0.01179380780660818,
        0.0,
        0.0,
        -0.06622925369875213,
        0.019418634426792186,
        0.011665481404707821,
        0.003907502330373279,
        0.003907502330373279,
        0.003907502330373279,
        -0.01464275538046138,
        0.17286327870940704,
        0.09365605988006988,
        0.028648806660047675,
        -0.002035011817672524,
        -0.0956049698026166,
        -0.0022101782088893743,
        -0.004003055241242824,
        -0.002035011817672524,
        0.0010585547565200388,
        -0.00017516639121685468,
        0.03065667526327198,
        -0.026921351714364865,
        -0.03310215599312037,
        0.15550126585494098,
        -0.02994571483485815,
        -0.07470323384602648,
        0.1020883214458163,
        0.028648806660047675,
        -0.01179380780660818,
        -0.06622925369875213,
        0.026144260966773813,
        0.0,
        0.025926181220750664
      ],
      [
        0.0980083430282366,
        0.09604153358000571,
        0.07025360386970897,
        0.0027619226663063066,
        0.01633977917376675,
        -0.0004757235386497137,
        0.015150437861318923,
        0.00980386750426002,
        0.0980083430282366,
        0.0,
        0.0,
        0.0,
        0.007821318728101016,
        0.007821318728101016,
        0.00311318114827473,
        -0.060851220745462106,
        0.01633977917376675,
        0.010934499876375766,
        0.1481368813499741,
        0.0194529603220415,
        0.0,
        0.007821318728101016,
        0.1156921824599395,
        -0.10553628418243524,
        0.0,
        0.0,
        0.01633977917376675,
        0.0,
        0.0,
        0.007821318728101016,
        0.007821318728101016,
        0.2553381488924058,
        0.0,
        0.029318765126923534,
        0.0,
        0.007821318728101016,
        0.0,
        0.0,
        0.0,
        0.0,
        0.007821318728101016,
        0.0,
        0.01633977917376675,
        0.06981611994806242,
        0.0,
        0.010934499876375766,
        0.010934499876375766,
        0.0,
        0.0,
        0.028181495962399782,
        0.060334166781562025,
        0.04919578400078496,
        0.007821318728101016,
        0.007821318728101016,
        0.007821318728101016,
        0.002637457609624998,
        -0.07788327748026509,
        -0.04049735482113892,
        0.01633977917376675,
        -0.005059396061794742,
        0.10129861819969259,
        -0.00279221471704466,
        -0.004302522460722527,
        -0.005059396061794742,
        -0.0004757235386497137,
        0.0022671813447500766,
        0.07025360386970897,
        0.09604153358000571,
        -0.057843459275054306,
        -0.10756868637370136,
        0.0840988693298697,
        0.02874009020395037,
        -0.01729774512127997,
        0.01633977917376675,
        0.010934499876375766,
        0.028181495962399782,
        0.01618170885967691,
        0.0,
        0.025083332085394486
      ]
    ],
    "worker_ids": [
      "ollama-cloud-deepseek-v4-pro",
      "ollama-cloud-glm-5.2",
      "ollama-cloud-kimi-k2.7-code",
      "ollama-cloud-qwen3-coder-480b"
    ]
  },
  "target_mode": "reward"
}
