{
  "dataset": "research/datasets/20260628-live-plus-corpus-guided-38task-routing.jsonl",
  "epochs": 300,
  "initial_model": "research/models/20260627-mixed-winner-23task-heldout-hard-reward-t0p05-logits-router.json",
  "l2": 0.0001,
  "learning_rate": 0.0005,
  "model_type": "linear-softmax-logits-router",
  "reward_temperature": 0.05,
  "router": {
    "feature_names": [
      "bias",
      "category_algorithmic",
      "category_datasci",
      "category_filesystem",
      "category_general",
      "category_network",
      "category_plotting",
      "category_subprocess",
      "category_text",
      "combo_network_archive",
      "combo_network_filesystem",
      "combo_network_plotting",
      "environment_risk",
      "family_bigcodebench_hard",
      "kw_archive",
      "kw_base64",
      "kw_count",
      "kw_dict",
      "kw_download",
      "kw_fetch",
      "kw_file",
      "kw_files",
      "kw_frequent",
      "kw_hex",
      "kw_http",
      "kw_key",
      "kw_list",
      "kw_lowercase",
      "kw_number",
      "kw_plot",
      "kw_request",
      "kw_requests",
      "kw_scan",
      "kw_sorted",
      "kw_string",
      "kw_strip",
      "kw_subprocess",
      "kw_sum",
      "kw_url",
      "kw_word",
      "kw_zip",
      "length_chars",
      "length_tokens",
      "lib_base64",
      "lib_binascii",
      "lib_codecs",
      "lib_collections",
      "lib_csv",
      "lib_datetime",
      "lib_ftplib",
      "lib_functools",
      "lib_glob",
      "lib_hashlib",
      "lib_hmac",
      "lib_itertools",
      "lib_json",
      "lib_math",
      "lib_matplotlib",
      "lib_numpy",
      "lib_operator",
      "lib_os",
      "lib_pandas",
      "lib_pathlib",
      "lib_random",
      "lib_re",
      "lib_requests",
      "lib_shutil",
      "lib_sqlite3",
      "lib_statistics",
      "lib_subprocess",
      "lib_sys",
      "lib_urllib",
      "lib_zipfile",
      "library_count",
      "missing_library_count",
      "plausibility_score",
      "signal_algorithmic",
      "signal_archive",
      "signal_datasci",
      "signal_filesystem",
      "signal_general",
      "signal_network",
      "signal_plotting",
      "signal_subprocess",
      "signal_text"
    ],
    "policy": "logits-router",
    "weights": [
      [
        -0.004125569859279571,
        -0.07151273860896461,
        0.14221292538298735,
        0.02248389979316776,
        -0.04086409454280437,
        -0.05999507098224926,
        0.07403282352004403,
        -0.016831581164526006,
        -0.05306633961580725,
        -0.03286833453199394,
        -0.041555333827952075,
        0.04583445681429839,
        -0.027367155804625683,
        -0.004125569859279571,
        0.0,
        -0.0032989121944197084,
        0.028026547145089172,
        0.16082059512886493,
        -0.012797536495662044,
        0.0,
        0.18868377714650642,
        -0.048793355866488745,
        0.0,
        -0.0032989121944197084,
        0.0,
        0.1796399782730489,
        0.008161598987558118,
        0.0,
        -0.08900613221886818,
        0.01618777215949266,
        0.022550274354000248,
        -0.03286833453199394,
        -0.02328152454120167,
        0.0,
        -0.016334679411973894,
        0.0,
        -0.04560343439092035,
        -0.007288701163808553,
        -0.013616972372413187,
        0.05905771283980623,
        -0.11862514650425691,
        -0.09297486129690134,
        -0.04860005032276933,
        -0.0032989121944197084,
        -0.0032989121944197084,
        -0.03924303170096562,
        0.17328961274133176,
        -0.0012083435214834467,
        -0.03944504818486257,
        -0.031237273649959207,
        0.031208293023180414,
        -0.11440059809950154,
        -0.028757797332290606,
        -0.028757797332290606,
        0.037011525147862726,
        0.15828512185183743,
        0.031208293023180414,
        0.07403282352004403,
        0.16858893505350767,
        -0.022848977955332844,
        -0.16567994820123808,
        -0.056516897052383046,
        -0.04588351502989587,
        0.057468679183714025,
        -0.049829761622204954,
        -0.03286833453199394,
        0.1876967509050897,
        -0.023097192134023177,
        -0.11094195032018173,
        -0.04560343439092035,
        0.0026832412651928914,
        0.019251362159580593,
        -0.11862514650425691,
        -0.0020818234078101372,
        0.0,
        -0.053765825295147535,
        -0.07151273860896461,
        0.069071604400832,
        0.09377302073546502,
        0.02248389979316776,
        -0.0414677571193754,
        -0.04485424602237223,
        0.07403282352004403,
        -0.016831581164526006,
        -0.05306633961580725
      ],
      [
        -0.04535102720708007,
        -0.006140846859890409,
        -0.07720298562393246,
        -0.02101239248675964,
        0.038205415528584814,
        0.03263008934615861,
        -0.001843751992307046,
        -0.06749992505315029,
        0.05772663911992369,
        -0.04129778550345067,
        0.02159900753279956,
        0.006415416464834026,
        -0.007714989909055373,
        -0.04535102720708007,
        0.0,
        -0.008465408461260603,
        0.06296982458180089,
        0.027203214544750172,
        -0.04190283514484964,
        0.0,
        -0.0017420830142145507,
        0.06358665213540413,
        0.0,
        -0.008465408461260603,
        0.0,
        0.026568084647122,
        -0.17457256682181765,
        0.0,
        -0.08992647360504517,
        -0.0022311961961749933,
        0.09376854636774137,
        -0.04129778550345067,
        0.03270312089170925,
        0.0,
        -0.018958183763232776,
        0.0,
        -0.04033328555994389,
        -0.035010442816937125,
        0.04400535240302996,
        0.017380215692158796,
        0.1292212835376616,
        -0.030899756875204114,
        -0.044157182600877955,
        -0.008465408461260603,
        -0.008465408461260603,
        -0.03819241150432205,
        -0.019076096761626873,
        -0.13201991704021407,
        -0.06560039844087408,
        -0.030871753331490833,
        -0.0005165559900183616,
        0.14227304355977902,
        0.0635018426776494,
        0.0635018426776494,
        0.009643008935860063,
        0.04235209110524557,
        -0.0005165559900183616,
        -0.001843751992307046,
        -0.06504779499309908,
        -0.02255010398976068,
        -0.019508213381062685,
        -0.03172262874801626,
        0.22330984179921187,
        -0.1254081743959771,
        -0.02747489605859984,
        -0.04129778550345067,
        -0.0863586525963048,
        0.02825755248307858,
        -0.031944772170388165,
        -0.04033328555994389,
        0.005008268602540062,
        0.08530313790648072,
        0.1292212835376616,
        -0.00048426520848412856,
        0.0,
        0.0023305521938846714,
        -0.006140846859890409,
        0.042862630941357206,
        -0.016343952921697283,
        -0.02101239248675964,
        0.04606879316095585,
        0.013133599071539034,
        -0.001843751992307046,
        -0.06749992505315029,
        0.05772663911992369
      ],
      [
        -0.009157992862554289,
        -0.07804474769025642,
        -0.14579678706823246,
        -0.00789632688024547,
        -0.0066323029970164335,
        0.03732638343751785,
        0.02004937464234124,
        0.04348248947904516,
        -0.04807666707510347,
        0.1548922693370367,
        0.14875886988808187,
        0.018909541290650412,
        0.01639745647647827,
        -0.009157992862554289,
        0.0,
        0.006302414119009083,
        -0.06398287650707205,
        -0.13393845676352215,
        0.14936736040336496,
        0.0,
        0.07808626804250672,
        -0.1217068259381025,
        0.0,
        0.006302414119009083,
        0.0,
        -0.045999779635246645,
        -0.1733306321345813,
        0.0,
        0.09940060416142268,
        -0.0069336601900758564,
        -0.0440682734017537,
        0.1548922693370367,
        -0.020523093620600497,
        0.0,
        -0.029058084751550754,
        0.0,
        0.006726024992072669,
        -0.044576296598915745,
        0.11712641005429143,
        0.010388621990724125,
        0.017116835684631397,
        0.03195655516647568,
        0.015494165363119802,
        0.006302414119009083,
        0.006302414119009083,
        -0.04408430503442688,
        -0.17149265896215662,
        0.11366580534590824,
        0.09578755062235547,
        0.03793487395280019,
        0.0003956832670570417,
        -0.17622122649147867,
        -0.0006084905152821788,
        -0.0006084905152821788,
        0.021476510275109533,
        -0.030212501324075033,
        0.0003956832670570417,
        0.02004937464234124,
        -0.09207262715652738,
        -0.035821898510270386,
        0.058557558008125836,
        -0.08303005205708835,
        -0.06874006555278608,
        0.2960782653161779,
        -0.10555648903129265,
        0.1548922693370367,
        -0.13449955474731257,
        0.006364366115198482,
        0.19599600477419113,
        0.006726024992072669,
        0.007024955648036981,
        -0.03776585928274495,
        0.017116835684631397,
        0.0064352370305395,
        0.0,
        0.008106670138455854,
        -0.07804474769025642,
        -0.11738271906268101,
        -0.04885738527260069,
        -0.00789632688024547,
        -0.007075720953352167,
        0.15506128400709018,
        0.02004937464234124,
        0.04348248947904516,
        -0.04807666707510347
      ],
      [
        0.05863458992891376,
        0.15569833315911089,
        0.08078684730917769,
        0.006424819573837315,
        0.009290982011236126,
        -0.009961401801426711,
        -0.0922384461700788,
        0.04084901673863111,
        0.0434163675709871,
        -0.08072614930159146,
        -0.12880254359292972,
        -0.07115941456978239,
        0.018684689237202696,
        0.05863458992891376,
        0.0,
        0.00546190653667146,
        -0.02701349521981848,
        -0.05408535291009133,
        -0.09466698876285312,
        0.0,
        -0.26502796217480007,
        0.10691352966918731,
        0.0,
        0.00546190653667146,
        0.0,
        -0.16020828328492281,
        0.33974159996884257,
        0.0,
        0.07953200166248935,
        -0.007022915773241677,
        -0.07225054731998788,
        -0.08072614930159146,
        0.011101497270092775,
        0.0,
        0.06435094792675725,
        0.0,
        0.07921069495879164,
        0.08687544057966157,
        -0.14751479008490812,
        -0.08682655052268784,
        -0.0277129727180363,
        0.0919180630056297,
        0.07726306756052782,
        0.00546190653667146,
        0.00546190653667146,
        0.12151974823971479,
        0.01727914298245117,
        0.019562455215788557,
        0.009257896003381024,
        0.02417415302864978,
        -0.031087420300218965,
        0.14834878103120072,
        -0.03413555483007669,
        -0.03413555483007669,
        -0.06813104435883245,
        -0.17042471163300854,
        -0.031087420300218965,
        -0.0922384461700788,
        -0.011468512903880757,
        0.08122098045536388,
        0.12663060357417474,
        0.17126957785748634,
        -0.10868626121652927,
        -0.22813877010391673,
        0.18286114671209724,
        -0.08072614930159146,
        0.033161456438527456,
        -0.011524726464254155,
        -0.053109282283619476,
        0.07921069495879164,
        -0.014716465515769958,
        -0.06678864078331673,
        -0.0277129727180363,
        -0.0038691484142453826,
        0.0,
        0.043328602962806995,
        0.15569833315911089,
        0.005448483720491546,
        -0.028571682541166734,
        0.006424819573837315,
        0.0024746849117717445,
        -0.12334063705625806,
        -0.0922384461700788,
        0.04084901673863111,
        0.0434163675709871
      ]
    ],
    "worker_ids": [
      "ollama-cloud-deepseek-v4-pro",
      "ollama-cloud-glm-5.2",
      "ollama-cloud-kimi-k2.7-code",
      "ollama-cloud-qwen3-coder-480b"
    ]
  },
  "target_mode": "reward"
}
