{
  "dataset": "research/datasets/20260627-mixed-winner-10task-routing.jsonl",
  "epochs": 300,
  "l2": 0.0001,
  "learning_rate": 0.0005,
  "model_type": "linear-softmax-logits-router",
  "reward_temperature": 0.2,
  "router": {
    "feature_names": [
      "bias",
      "category_datasci",
      "category_filesystem",
      "category_general",
      "category_network",
      "category_plotting",
      "category_subprocess",
      "environment_risk",
      "family_bigcodebench_hard",
      "family_code_data",
      "family_code_easy",
      "family_code_text",
      "kw_base64",
      "kw_convert",
      "kw_count",
      "kw_csv",
      "kw_default",
      "kw_dict",
      "kw_directory",
      "kw_download",
      "kw_email",
      "kw_encoding",
      "kw_exception",
      "kw_file",
      "kw_flatten",
      "kw_frequent",
      "kw_ftp",
      "kw_group",
      "kw_hash",
      "kw_hex",
      "kw_key",
      "kw_list",
      "kw_lowercase",
      "kw_number",
      "kw_pair",
      "kw_parse",
      "kw_process",
      "kw_socket",
      "kw_sorted",
      "kw_ssl",
      "kw_string",
      "kw_strip",
      "kw_subprocess",
      "kw_sum",
      "kw_title",
      "kw_url",
      "kw_urllib",
      "kw_window",
      "kw_word",
      "kw_zip",
      "length_chars",
      "length_tokens",
      "lib_base64",
      "lib_binascii",
      "lib_codecs",
      "lib_collections",
      "lib_csv",
      "lib_datetime",
      "lib_ftplib",
      "lib_functools",
      "lib_glob",
      "lib_itertools",
      "lib_math",
      "lib_os",
      "lib_pathlib",
      "lib_random",
      "lib_re",
      "lib_shutil",
      "lib_statistics",
      "lib_subprocess",
      "lib_urllib",
      "lib_zipfile",
      "library_count",
      "missing_library_count",
      "plausibility_score"
    ],
    "policy": "logits-router",
    "weights": [
      [
        -0.08540539574244144,
        0.0,
        -0.09467310664949702,
        0.009267710907055691,
        -0.017714518889609024,
        0.0,
        -0.007228372869657744,
        -0.01062871133376542,
        -0.08540539574244144,
        0.0,
        0.0,
        0.0,
        0.001560958327168484,
        0.001560958327168484,
        0.010486146019951301,
        -0.040136024710589954,
        -0.017714518889609024,
        0.012047104347119761,
        -0.06805328025273687,
        -0.007228372869657744,
        0.0,
        0.001560958327168484,
        -0.025847481339036464,
        -0.052945687446026346,
        0.0,
        0.0,
        -0.017714518889609024,
        0.0,
        0.0,
        0.001560958327168484,
        0.001560958327168484,
        -0.05693468752462249,
        0.0,
        -0.015865421204247603,
        0.0,
        0.001560958327168484,
        0.0,
        0.0,
        0.0,
        0.0,
        0.001560958327168484,
        0.0,
        -0.017714518889609024,
        0.007706752579887196,
        0.0,
        0.012047104347119761,
        0.012047104347119761,
        0.0,
        0.0,
        -0.027424740462089092,
        -0.03235704455479184,
        -0.02423256945487962,
        0.001560958327168484,
        0.001560958327168484,
        0.001560958327168484,
        0.010486146019951301,
        -0.02661982639676043,
        -0.023572173784134818,
        -0.017714518889609024,
        0.007706752579887196,
        -0.026325861049266,
        0.007706752579887196,
        0.007706752579887196,
        -0.09467310664949702,
        -0.013516198313829527,
        -0.03710597241671167,
        -0.024012900313861885,
        -0.022914020901038768,
        -0.013533798632576803,
        -0.017714518889609024,
        0.012047104347119761,
        -0.027424740462089092,
        -0.0294791253610747,
        0.0,
        -0.024760636287658542
      ],
      [
        -0.044311554353521444,
        0.0,
        -0.04428580382835339,
        -2.5750525168031084e-05,
        -0.025711070534594885,
        0.0,
        -0.020266804990622007,
        -0.015426642320756936,
        -0.044311554353521444,
        0.0,
        0.0,
        0.0,
        -0.0006496227737857448,
        -0.0006496227737857448,
        0.0054442655439728834,
        0.039123634278734075,
        -0.025711070534594885,
        0.0047946427701871285,
        -0.0012264690464379518,
        -0.020266804990622007,
        0.0,
        -0.0006496227737857448,
        0.03503314459428309,
        0.011616742554371997,
        0.0,
        0.0,
        -0.025711070534594885,
        0.0,
        0.0,
        -0.0006496227737857448,
        -0.0006496227737857448,
        -0.08470879852605137,
        0.0,
        -0.018903615873192416,
        0.0,
        -0.0006496227737857448,
        0.0,
        0.0,
        0.0,
        0.0,
        -0.0006496227737857448,
        0.0,
        -0.025711070534594885,
        0.0006238722486177131,
        0.0,
        0.0047946427701871285,
        0.0047946427701871285,
        0.0,
        0.0,
        0.053914725880100677,
        -0.021340821394781946,
        -0.016678042429961477,
        -0.0006496227737857448,
        -0.0006496227737857448,
        -0.0006496227737857448,
        0.0054442655439728834,
        -0.04305933478191545,
        -0.019527488121810162,
        -0.025711070534594885,
        0.0006238722486177131,
        0.0546760773362874,
        0.0006238722486177131,
        0.0006238722486177131,
        -0.04428580382835339,
        0.08218296906064965,
        -0.04850360032588824,
        -0.03019147584813038,
        -0.029430124391943573,
        -0.028976112204078093,
        -0.025711070534594885,
        0.0047946427701871285,
        0.053914725880100677,
        -0.009446065155561534,
        0.0,
        -0.019144268823970703
      ],
      [
        0.06531708541463213,
        0.0,
        0.06982857340816216,
        -0.004511487993529908,
        0.026754540635377386,
        0.0,
        0.011867148770648156,
        0.016052724381226367,
        0.06531708541463213,
        0.0,
        0.0,
        0.0,
        -0.0009990962609159192,
        -0.0009990962609159192,
        -0.01488739186472925,
        0.10989774829627126,
        0.026754540635377386,
        -0.01588648812564517,
        -0.0709977477728786,
        0.011867148770648156,
        0.0,
        -0.0009990962609159192,
        -0.06264893339895043,
        0.06982263074405608,
        0.0,
        0.0,
        0.026754540635377386,
        0.0,
        0.0,
        -0.0009990962609159192,
        -0.0009990962609159192,
        -0.04104119157022656,
        0.0,
        0.07417068651935681,
        0.0,
        -0.0009990962609159192,
        0.0,
        0.0,
        0.0,
        0.0,
        -0.0009990962609159192,
        0.0,
        0.026754540635377386,
        -0.003512391732613986,
        0.0,
        -0.01588648812564517,
        -0.01588648812564517,
        0.0,
        0.0,
        -0.06021754590653748,
        0.0212839069777539,
        0.013532519762894048,
        -0.0009990962609159192,
        -0.0009990962609159192,
        -0.0009990962609159192,
        -0.01488739186472925,
        0.14082632118104088,
        0.07768307825197117,
        0.026754540635377386,
        -0.003512391732613986,
        -0.07100369043698465,
        -0.003512391732613986,
        -0.003512391732613986,
        0.06982857340816216,
        -0.030928572884769603,
        0.15571371304577014,
        -0.02674859797127133,
        -0.03753474250171862,
        0.07803063479379935,
        0.026754540635377386,
        -0.01588648812564517,
        -0.06021754590653748,
        0.03048499082792523,
        0.0,
        0.026966071471244416
      ],
      [
        0.06439986468133078,
        0.0,
        0.06913033706968817,
        -0.004730472388357746,
        0.01667104878882656,
        0.0,
        0.015628029089631637,
        0.010002629273295904,
        0.06439986468133078,
        0.0,
        0.0,
        0.0,
        8.776070753318905e-05,
        8.776070753318905e-05,
        -0.0010430196991949312,
        -0.10888535786441564,
        0.01667104878882656,
        -0.0009552589916617437,
        0.1402774970720534,
        0.015628029089631637,
        0.0,
        8.776070753318905e-05,
        0.053463270143704174,
        -0.028493685852401765,
        0.0,
        0.0,
        0.01667104878882656,
        0.0,
        0.0,
        8.776070753318905e-05,
        8.776070753318905e-05,
        0.18268467762090038,
        0.0,
        -0.03940164944191697,
        0.0,
        8.776070753318905e-05,
        0.0,
        0.0,
        0.0,
        0.0,
        8.776070753318905e-05,
        0.0,
        0.01667104878882656,
        -0.004818233095890933,
        0.0,
        -0.0009552589916617437,
        -0.0009552589916617437,
        0.0,
        0.0,
        0.0337275604885261,
        0.03241395897181983,
        0.02737809212194703,
        8.776070753318905e-05,
        8.776070753318905e-05,
        8.776070753318905e-05,
        -0.0010430196991949312,
        -0.07114716000236515,
        -0.03458341634602596,
        0.01667104878882656,
        -0.004818233095890933,
        0.04265347414996334,
        -0.004818233095890933,
        -0.004818233095890933,
        0.06913033706968817,
        -0.037738197862050536,
        -0.07010414030317033,
        0.08095297413326355,
        0.08987888779470095,
        -0.0355207239571442,
        0.01667104878882656,
        -0.0009552589916617437,
        0.0337275604885261,
        0.008440199688710922,
        0.0,
        0.016938833640384777
      ]
    ],
    "worker_ids": [
      "ollama-cloud-deepseek-v4-pro",
      "ollama-cloud-glm-5.2",
      "ollama-cloud-kimi-k2.7-code",
      "ollama-cloud-qwen3-coder-480b"
    ]
  },
  "target_mode": "reward"
}
