{
  "dataset": "research/datasets/20260628-router-miss-repeat-24task-routing.jsonl",
  "epochs": 300,
  "l2": 0.0001,
  "learning_rate": 0.0005,
  "model_type": "linear-softmax-logits-router",
  "reward_temperature": 0.05,
  "router": {
    "feature_names": [
      "bias",
      "category_datasci",
      "category_filesystem",
      "category_general",
      "category_network",
      "category_plotting",
      "category_subprocess",
      "combo_network_archive",
      "combo_network_filesystem",
      "combo_network_plotting",
      "environment_risk",
      "family_bigcodebench_hard",
      "kw_archive",
      "kw_base64",
      "kw_count",
      "kw_dict",
      "kw_download",
      "kw_fetch",
      "kw_file",
      "kw_files",
      "kw_frequent",
      "kw_hex",
      "kw_http",
      "kw_key",
      "kw_list",
      "kw_lowercase",
      "kw_number",
      "kw_plot",
      "kw_request",
      "kw_requests",
      "kw_scan",
      "kw_sorted",
      "kw_string",
      "kw_strip",
      "kw_subprocess",
      "kw_sum",
      "kw_url",
      "kw_word",
      "kw_zip",
      "length_chars",
      "length_tokens",
      "lib_base64",
      "lib_binascii",
      "lib_codecs",
      "lib_collections",
      "lib_csv",
      "lib_datetime",
      "lib_ftplib",
      "lib_functools",
      "lib_glob",
      "lib_itertools",
      "lib_json",
      "lib_math",
      "lib_matplotlib",
      "lib_numpy",
      "lib_os",
      "lib_pandas",
      "lib_pathlib",
      "lib_random",
      "lib_re",
      "lib_requests",
      "lib_shutil",
      "lib_statistics",
      "lib_subprocess",
      "lib_urllib",
      "lib_zipfile",
      "library_count",
      "missing_library_count",
      "plausibility_score",
      "signal_archive",
      "signal_datasci",
      "signal_filesystem",
      "signal_general",
      "signal_network",
      "signal_plotting",
      "signal_subprocess"
    ],
    "policy": "logits-router",
    "weights": [
      [
        0.053543475126147676,
        0.08122101353724029,
        0.05120393573577479,
        0.019073780587725166,
        -0.017790839651848942,
        0.04281875005759018,
        -0.002376716135668447,
        -0.018760953002117334,
        -0.00964344401671873,
        0.02531964066385043,
        -0.01067450379110938,
        0.053543475126147676,
        0.0,
        0.0003175006917782884,
        0.02690834863724761,
        0.10552465172754694,
        -0.00964344401671873,
        0.0,
        0.12162508289142449,
        -0.07833132514639933,
        0.0,
        0.0003175006917782884,
        0.0,
        0.12112937755013453,
        0.021342059882361136,
        0.0,
        -0.043695031807224845,
        0.02013337784458894,
        0.02690834863724761,
        -0.018760953002117334,
        0.0,
        0.0,
        0.0003175006917782884,
        0.0,
        -0.017790839651848942,
        -0.01159800240224548,
        0.008464896326908562,
        0.03605572278187286,
        -0.07391578443460446,
        -0.10560673866501354,
        -0.014123901307998923,
        0.0003175006917782884,
        0.0003175006917782884,
        -0.0144725969467359,
        0.13344473504055712,
        0.03560517735078824,
        -0.020296397520942356,
        -0.017790839651848942,
        0.013572409569711348,
        -0.08045705614612197,
        0.018370740700009932,
        0.10329796445971672,
        0.01875627989594693,
        0.04281875005759018,
        0.09917888834594292,
        -0.07255027766421186,
        -0.027949641316917677,
        -0.026409049331672284,
        0.03861251514468449,
        -0.008828538839334448,
        -0.018760953002117334,
        0.0899627199835615,
        -0.05656265803664174,
        -0.017790839651848942,
        0.027225849329025806,
        -0.07391578443460446,
        0.01856963987180922,
        0.0,
        -0.003383809335720601,
        0.016046935548957447,
        0.08122101353724029,
        0.05120393573577479,
        0.019073780587725166,
        -0.009325943324940392,
        0.04281875005759018,
        -0.002376716135668447
      ],
      [
        -0.018624434062220772,
        -0.03479398087923502,
        -0.04617681499735469,
        0.025305718279098107,
        -0.014676381411378007,
        0.0029708037151204487,
        -0.01476663417147988,
        -0.016923809681749395,
        -0.009725943930356853,
        0.006837104982474814,
        -0.008805828846826774,
        -0.018624434062220772,
        0.0,
        0.0024611433177497634,
        0.02187424716277039,
        0.017626427232829145,
        -0.009725943930356853,
        0.0,
        0.015605951327182904,
        0.05096102291067816,
        0.0,
        0.0024611433177497634,
        0.0,
        0.00818395300407457,
        -0.07649347013809912,
        0.0,
        -0.04272826604171004,
        -0.0038864744639179566,
        0.02187424716277039,
        -0.016923809681749395,
        0.0,
        0.0,
        0.0024611433177497634,
        0.0,
        -0.014676381411378007,
        -0.019866816710328587,
        0.007411580798770893,
        0.0043890275461947225,
        0.07892509938693627,
        -0.06824040265331456,
        -0.012244643437700606,
        0.0024611433177497634,
        0.0024611433177497634,
        -0.008142326521559216,
        -0.002799738587723243,
        -0.05380174660729688,
        -0.0293086482467871,
        -0.014676381411378007,
        0.00047035171578748195,
        0.08000673622843892,
        0.007415202156265241,
        -0.022277969864132243,
        0.022844574961348365,
        0.0029708037151204487,
        -0.028352778345888625,
        -0.030767838469052174,
        -0.010099821932177809,
        0.11959544984878626,
        -0.04229767935565765,
        -0.03296348558359436,
        -0.016923809681749395,
        -0.04871839087351592,
        -0.013959774623212353,
        -0.014676381411378007,
        0.02433539048052028,
        0.07892509938693627,
        -0.0028280876386400132,
        0.0,
        -0.007945458048686477,
        0.03020670851342016,
        -0.03479398087923502,
        -0.04617681499735469,
        0.025305718279098107,
        -0.0072648006126071335,
        0.0029708037151204487,
        -0.01476663417147988
      ],
      [
        -0.010519124377982223,
        -0.10892248021669816,
        0.026849897074523777,
        -0.009243642204345376,
        0.015878588085459003,
        0.0022429827994255016,
        0.03115784182947776,
        0.0842115557457896,
        0.08110957455942992,
        0.011840352810842225,
        0.009527152851275403,
        -0.010519124377982223,
        0.0,
        -0.0014533702496883497,
        -0.018980569271818553,
        -0.06802242422133192,
        0.08110957455942992,
        0.0,
        0.07414545166813549,
        -0.13622231997911752,
        0.0,
        -0.0014533702496883497,
        0.0,
        -0.051798691358539206,
        -0.11830851590706812,
        0.0,
        0.05997221864815875,
        -0.010533491052223702,
        -0.018980569271818553,
        0.0842115557457896,
        0.0,
        0.0,
        -0.0014533702496883497,
        0.0,
        0.015878588085459003,
        -0.034421041871993414,
        0.06377761622428264,
        0.003136663755390124,
        0.001542532127544991,
        0.05001178744230741,
        0.004026328484559727,
        -0.0014533702496883497,
        -0.0014533702496883497,
        -0.03392302485822949,
        -0.06028918952528067,
        0.12424022092815355,
        0.045496614694971606,
        0.015878588085459003,
        -0.0055831923044908655,
        -0.11212288964243845,
        -0.00124864089701951,
        -0.03642594114035966,
        -0.0077902719546570276,
        0.0022429827994255016,
        -0.07037984449533842,
        0.048550596502498176,
        -0.06667773892242915,
        -0.038606290660147154,
        0.14879284794671754,
        -0.06273316292391244,
        0.0842115557457896,
        -0.08321675809010542,
        0.10381602869380462,
        0.015878588085459003,
        -0.020433939521506985,
        0.001542532127544991,
        -0.0011687069825469265,
        0.0,
        0.0076365722352587685,
        -0.08167422596256084,
        -0.10892248021669816,
        0.026849897074523777,
        -0.009243642204345376,
        0.07965620430974137,
        0.0022429827994255016,
        0.03115784182947776
      ],
      [
        -0.02439991668594463,
        0.062495447558692366,
        -0.03187701781294389,
        -0.03513585666247802,
        0.016588632977767897,
        -0.04803253657213619,
        -0.014014491522329399,
        -0.048526793061922695,
        -0.06174018661235408,
        -0.04399709845716773,
        0.009953179786660719,
        -0.02439991668594463,
        0.0,
        -0.0013252737598396934,
        -0.029802026528199337,
        -0.05512865473904376,
        -0.06174018661235408,
        0.0,
        -0.21137648588674393,
        0.16359262221483845,
        0.0,
        -0.0013252737598396934,
        0.0,
        -0.07751463919567017,
        0.17345992616280623,
        0.0,
        0.02645107920077602,
        -0.005713412328447287,
        -0.029802026528199337,
        -0.048526793061922695,
        0.0,
        0.0,
        -0.0013252737598396934,
        0.0,
        0.016588632977767897,
        0.06588586098456739,
        -0.07965409334996153,
        -0.04358141408345765,
        -0.006551847079876709,
        0.12383535387602168,
        0.022342216261139775,
        -0.0013252737598396934,
        -0.0013252737598396934,
        0.05653794832652457,
        -0.07035580692755268,
        -0.10604365167164521,
        0.004108431072758119,
        0.016588632977767897,
        -0.008459568981007927,
        0.11257320956012208,
        -0.02453730195925558,
        -0.04459405345522404,
        -0.033810582902638435,
        -0.04803253657213619,
        -0.0004462655047153631,
        0.054767519630765725,
        0.10472720217152462,
        -0.05458010985696725,
        -0.14510768373574365,
        0.10452518734684084,
        -0.048526793061922695,
        0.041972428980059595,
        -0.03329359603395071,
        0.016588632977767897,
        -0.031127300288039034,
        -0.006551847079876709,
        -0.014572845250622303,
        0.0,
        0.003692695149148321,
        0.035420581900182914,
        0.062495447558692366,
        -0.03187701781294389,
        -0.03513585666247802,
        -0.06306546037219363,
        -0.04803253657213619,
        -0.014014491522329399
      ]
    ],
    "worker_ids": [
      "ollama-cloud-deepseek-v4-pro",
      "ollama-cloud-glm-5.2",
      "ollama-cloud-kimi-k2.7-code",
      "ollama-cloud-qwen3-coder-480b"
    ]
  },
  "target_mode": "reward"
}
