{
  "epochs": 300,
  "l2": 0.0001,
  "learning_rate": 0.0005,
  "model_type": "linear-multi-head-orchestrator",
  "orchestrator": {
    "abstain_weights": [
      -0.5577034456571689,
      -0.16013997243572597,
      -0.22690303839881193,
      -0.10208631919502821,
      -0.05221151299368148,
      -0.10957251474052512,
      -0.05767215053085477,
      -0.14421964937641868,
      -0.043938522549833874,
      -0.014748829505196043,
      -0.07364669257257905,
      -0.015646998054550505,
      -0.08894063592590938,
      -0.5577034456571689,
      0.0,
      0.0,
      0.0,
      -0.021194858254330883,
      -0.02051385135097089,
      -0.06634200299992982,
      -0.08019926932649371,
      -0.057712092473200735,
      -0.01324835119401522,
      -0.08695373956135934,
      -0.1694898466273184,
      -0.055176392366915294,
      -0.016338898428592413,
      -0.02051385135097089,
      0.01658619201575001,
      -0.16422906259198297,
      0.0,
      0.0,
      -0.01324835119401522,
      -0.018106115655158007,
      0.0,
      -0.02051385135097089,
      -0.020492861594002574,
      -0.01847030020566325,
      0.053883242924146604,
      -0.25436120277206203,
      -0.03712042851276271,
      -0.18642342424647607,
      -0.026981794423911954,
      -0.08023396111724243,
      -0.054787788973217504,
      -0.04767207326170657,
      -0.074468939271467,
      0.0,
      -0.022128090609529704,
      0.0,
      -0.08945900782826735,
      0.0,
      -0.01324835119401522,
      -0.05394754153859496,
      -0.04101528522615628,
      0.0,
      -0.12216200229014201,
      -0.08692031119094333,
      0.0,
      0.017720307105840424,
      -0.09412920710015284,
      -0.25844524290420573,
      -0.19508708480174217,
      -0.02051385135097089,
      -0.02051385135097089,
      -0.05972010976627055,
      -0.036852749779563,
      -0.07187616171089847,
      -0.10163557613280104,
      0.11755776401440739,
      -0.01324835119401522,
      -0.023695091364690266,
      -0.06862311938082212,
      -0.07940725574180575,
      -0.0513885054770439,
      -0.023695091364690266,
      -0.09272929236993878,
      -0.14881449173152597,
      -0.12055544550086311,
      -0.15283222355505888,
      -0.026052143308902882,
      -0.05277699270849391,
      -0.06390263703296092,
      -0.074468939271467,
      -0.05260235407024881,
      -0.10419737248210699,
      -0.07128530053059624,
      -0.14676299484432137,
      -0.04985081929838354,
      -0.03712042851276271,
      -0.01324835119401522,
      -0.08692031119094333,
      -0.09412920710015284,
      -0.184186125530287,
      -0.02880686406485087,
      -0.18285966946087348,
      -0.14421964937641868,
      -0.16013997243572597,
      -0.22690303839881193,
      -0.13541035348415809,
      -0.10957251474052512,
      -0.05767215053085477
    ],
    "feature_names": [
      "bias",
      "category_datasci",
      "category_filesystem",
      "category_general",
      "category_network",
      "category_plotting",
      "category_subprocess",
      "combo_archive_filesystem",
      "combo_dataframe_plotting",
      "combo_network_archive",
      "combo_network_filesystem",
      "combo_network_plotting",
      "environment_risk",
      "family_bigcodebench_hard",
      "family_code_data",
      "family_code_easy",
      "family_code_text",
      "kw_archive",
      "kw_base64",
      "kw_convert",
      "kw_count",
      "kw_csv",
      "kw_default",
      "kw_dict",
      "kw_directory",
      "kw_download",
      "kw_email",
      "kw_encoding",
      "kw_exception",
      "kw_file",
      "kw_flatten",
      "kw_frequent",
      "kw_ftp",
      "kw_group",
      "kw_hash",
      "kw_hex",
      "kw_http",
      "kw_https",
      "kw_key",
      "kw_list",
      "kw_lowercase",
      "kw_number",
      "kw_pair",
      "kw_parse",
      "kw_process",
      "kw_request",
      "kw_requests",
      "kw_socket",
      "kw_sorted",
      "kw_ssl",
      "kw_string",
      "kw_strip",
      "kw_subprocess",
      "kw_sum",
      "kw_title",
      "kw_unpack",
      "kw_url",
      "kw_urllib",
      "kw_window",
      "kw_word",
      "kw_zip",
      "length_chars",
      "length_tokens",
      "lib_base64",
      "lib_binascii",
      "lib_bs4",
      "lib_codecs",
      "lib_collections",
      "lib_csv",
      "lib_datetime",
      "lib_ftplib",
      "lib_functools",
      "lib_glob",
      "lib_itertools",
      "lib_json",
      "lib_math",
      "lib_matplotlib",
      "lib_numpy",
      "lib_os",
      "lib_pandas",
      "lib_pathlib",
      "lib_random",
      "lib_re",
      "lib_requests",
      "lib_scipy",
      "lib_seaborn",
      "lib_shutil",
      "lib_sklearn",
      "lib_statistics",
      "lib_string",
      "lib_subprocess",
      "lib_urllib",
      "lib_zipfile",
      "library_count",
      "missing_library_count",
      "plausibility_score",
      "signal_archive",
      "signal_dataframe",
      "signal_filesystem",
      "signal_network",
      "signal_plotting",
      "signal_subprocess"
    ],
    "policy": "linear-multi-head-orchestrator",
    "verifier_weights": [
      -0.07284081826832342,
      -0.0548922510209622,
      -0.23401518141372876,
      0.02741689596992666,
      -0.0005090123629782899,
      0.06893765334233856,
      0.15344416096954702,
      -0.08218968945899541,
      -0.009239182510206698,
      -0.04810253136471988,
      0.0659843869465214,
      0.017791296517252208,
      -0.04720557606605861,
      -0.07284081826832342,
      0.0,
      0.0,
      0.0,
      0.05350479446164198,
      0.021100274216232177,
      -0.011764537612034633,
      0.09693099208699522,
      -0.17112925485818478,
      0.008099984639470823,
      0.04245594103949122,
      -0.10865126004995489,
      0.011429328317487575,
      -0.053757200816848275,
      0.021100274216232177,
      0.14902186912437948,
      -0.22512580337475663,
      0.0,
      0.0,
      0.008099984639470823,
      -0.06705642658478825,
      0.0,
      0.021100274216232177,
      -0.0631640556314831,
      0.054555058629034016,
      -0.001704441183223497,
      -0.20084476253978148,
      0.0340537137954486,
      -0.09136923316770164,
      0.05480361842151482,
      -0.040473285264486604,
      -0.07162688234587582,
      -0.01173218058874658,
      -0.1096760908454386,
      0.0,
      -0.06309766166395905,
      0.0,
      -0.05824179490098678,
      0.0,
      0.008099984639470823,
      0.015623835158765908,
      0.031130462986939642,
      0.0,
      -0.03714394158646971,
      0.0741226454097333,
      0.0,
      0.1683591591811208,
      -0.047209351940596576,
      -0.04969236848258172,
      -0.04903614134349176,
      0.021100274216232177,
      0.021100274216232177,
      -0.06157355948071897,
      -0.03265692660061599,
      0.11446452174854437,
      -0.05137160985000802,
      -0.007733873042206779,
      0.008099984639470823,
      0.025227470436515496,
      -0.0852542261253432,
      0.08510757546904175,
      -0.06501667726365835,
      0.025227470436515496,
      0.11899417195557974,
      -0.08361657699973064,
      -0.08160773126914624,
      -0.00504108921171331,
      -0.05651014341068837,
      -0.265025716433959,
      0.01158896522120989,
      -0.1096760908454386,
      -0.034111322415284084,
      -0.037928524356561674,
      0.018524456943243336,
      0.11011430784222324,
      -0.0292843206816014,
      0.0340537137954486,
      0.008099984639470823,
      0.0741226454097333,
      -0.047209351940596576,
      -0.037779192295781056,
      -0.023450084324136086,
      -0.05856537304958454,
      -0.08218968945899541,
      -0.0548922510209622,
      -0.23401518141372876,
      -0.029043956946998926,
      0.06893765334233856,
      0.15344416096954702
    ],
    "worker_ids": [
      "ollama-cloud-deepseek-v4-pro",
      "ollama-cloud-glm-5.2",
      "ollama-cloud-kimi-k2.7-code",
      "ollama-cloud-qwen3-coder-480b"
    ],
    "worker_weights": [
      [
        -0.053590144799876394,
        0.04659570649404787,
        0.019632935125464508,
        -0.035110100309395625,
        0.09048718648318888,
        0.04762621797552851,
        0.045001378137539585,
        0.013975311779178922,
        0.02649672083960091,
        -0.03722143066062285,
        -0.044351947105444656,
        0.016469551139131018,
        0.07900660741769129,
        -0.053590144799876394,
        0.0,
        0.0,
        0.0,
        0.024120262210759028,
        -0.010423385609266594,
        -0.07676461433576715,
        -0.006536432953073008,
        0.03808347138918024,
        -0.028099354268576716,
        0.10342559816966941,
        -0.04273609746550848,
        -0.05553180757762315,
        -0.028704458006622562,
        -0.010423385609266594,
        0.014099177146438909,
        0.07587321486079267,
        0.0,
        0.0,
        -0.028099354268576716,
        0.1186240251752189,
        0.0,
        -0.010423385609266594,
        0.10740668027958712,
        0.011179860472178716,
        0.04455950661232359,
        -0.00998790723533277,
        0.0036759525726408177,
        -0.013831417250787416,
        -0.0021331066410742137,
        0.07417760831142359,
        -0.06658983645828231,
        0.1171956576311635,
        0.047379563260066884,
        0.0,
        -0.06567728093546377,
        0.0,
        0.07031459003729341,
        0.0,
        -0.028099354268576716,
        -0.026247473562761102,
        0.014473701880740727,
        0.0,
        0.04674515500237677,
        -0.023440094616587644,
        0.0,
        0.026262318245457297,
        -0.08473579761790487,
        0.0020152999464959766,
        0.007787334700058851,
        -0.010423385609266594,
        -0.010423385609266594,
        0.08460099392068952,
        -0.03912784361588919,
        0.05981679219430249,
        0.04270911053400081,
        -0.12961834757846039,
        -0.028099354268576716,
        0.005622879558306108,
        -0.10596079513165191,
        0.001847108635780712,
        0.04911303522959485,
        0.005622879558306108,
        0.07744500490324639,
        0.0294825742359266,
        -0.12425388423433235,
        0.06640958976682672,
        -0.04488123602201445,
        0.04192728762910204,
        -0.08942044993087211,
        0.047379563260066884,
        -0.07465459091819591,
        -0.10995471230022104,
        0.12283137160784262,
        0.08427081613122193,
        -0.07303202786295962,
        0.0036759525726408177,
        -0.028099354268576716,
        -0.023440094616587644,
        -0.08473579761790487,
        -0.02533702998469209,
        0.012357147763889012,
        0.0507900550579257,
        0.013975311779178922,
        0.04659570649404787,
        0.019632935125464508,
        0.01864580073380016,
        0.04762621797552851,
        0.045001378137539585
      ],
      [
        -0.06544715777781138,
        -0.043968767207687096,
        0.019489270143224432,
        -0.01937123878757096,
        -0.03413696831657653,
        -0.07748693225818745,
        -0.044787485852813384,
        0.041987487653620786,
        -0.0882942481555831,
        -0.03142197452843275,
        -0.026318249775221132,
        0.005611207569748622,
        0.03384764665851716,
        -0.06544715777781138,
        0.0,
        0.0,
        0.0,
        0.019084864585355115,
        -0.005254353460608295,
        0.16421259754040687,
        0.014265566453697661,
        -0.003849135949286362,
        -0.02007254880505797,
        -0.02833078431132198,
        -0.0014058595678666,
        -0.036937905491416276,
        -0.019696273850912303,
        -0.005254353460608295,
        -0.028682229650629516,
        0.07320420112591128,
        0.0,
        0.0,
        -0.02007254880505797,
        -0.022633362717547026,
        0.0,
        -0.005254353460608295,
        -0.02468407522771326,
        0.010619655716194958,
        0.10758269101780743,
        -0.01817317679723089,
        0.009920083817852582,
        -0.05645298039170104,
        0.030135732048811932,
        -0.03914690841860408,
        -0.03909466286917108,
        -0.010127457385638907,
        -0.06531452948642821,
        0.0,
        0.15744336549084098,
        0.0,
        -0.03852186919519021,
        0.0,
        -0.02007254880505797,
        -0.017192199900864208,
        -0.027231325555938424,
        0.0,
        -0.05601226510496185,
        9.378465118427932e-05,
        0.0,
        0.027789599467021996,
        0.11329356368400739,
        -0.070159837017176,
        -0.060542605450097174,
        -0.005254353460608295,
        -0.005254353460608295,
        -0.03389255495799544,
        -0.024950627311520576,
        0.13031791797024522,
        -0.08354332359636267,
        -0.09238599254176547,
        -0.02007254880505797,
        -0.004208833698338165,
        0.10297398719750211,
        0.002149952564439317,
        0.10872944842298998,
        -0.004208833698338165,
        -0.06147361925329232,
        0.09583487058192353,
        -0.05629131001106484,
        0.023678687124531125,
        0.1616311058166415,
        -0.16323635746238507,
        -0.06522277289007838,
        -0.06531452948642821,
        0.008202462311317717,
        -0.03665105092947081,
        -0.05222121144503181,
        0.0022528141763977563,
        -0.029318055854901128,
        0.009920083817852582,
        -0.02007254880505797,
        9.378465118427932e-05,
        0.11329356368400739,
        -0.006449419934927434,
        0.027164913824231456,
        0.009096470613228227,
        0.041987487653620786,
        -0.043968767207687096,
        0.019489270143224432,
        -0.07608481391001984,
        -0.07748693225818745,
        -0.044787485852813384
      ],
      [
        0.011327832901578473,
        -0.08984441470451275,
        0.07932589399330696,
        -0.03158225049166676,
        -0.013706845685406085,
        -0.029458209242222443,
        0.0037593049373378738,
        -0.10114308176027792,
        -0.057163993144834925,
        0.1085773655469591,
        0.11931310071907357,
        0.015606509798169212,
        -0.029144456844350363,
        0.011327832901578473,
        0.0,
        0.0,
        0.0,
        -0.039247646825028716,
        0.008353237459109835,
        -0.015881498094397203,
        0.016004839521286448,
        0.12887075642065646,
        0.015202527727097973,
        -0.0662059175999021,
        -0.1121854231528996,
        0.11186719540031435,
        -0.027211600802412916,
        0.008353237459109835,
        0.05864156761050297,
        0.156605396559927,
        0.0,
        0.0,
        0.015202527727097973,
        -0.027660923201902277,
        0.0,
        0.008353237459109835,
        -0.03635527873126423,
        0.007445905318760146,
        -0.08911461883880682,
        -0.2123136434381767,
        -0.009415006494571443,
        0.005531821740273147,
        0.017957139836231623,
        -0.051892248378960434,
        0.09700057500837181,
        -0.04826797660500778,
        0.04833187970888935,
        0.0,
        -0.03986954581733234,
        0.0,
        -0.07054251323927804,
        0.0,
        0.015202527727097973,
        -0.031539864528178724,
        -0.006508561929789749,
        0.0,
        0.044772419294255204,
        -0.027449667521439593,
        0.0,
        0.0250987800934534,
        -0.02594364710021162,
        0.02101523673294502,
        0.014364937835500628,
        0.008353237459109835,
        0.008353237459109835,
        -0.060245485838069796,
        -0.01885836334330302,
        -0.07555806455404133,
        0.15279324800635907,
        0.16367500537013396,
        0.015202527727097973,
        0.0008156309693609554,
        -0.1226081994311368,
        0.00024746680041283763,
        -0.0780655660392973,
        0.0008156309693609554,
        -0.0035711942255260355,
        -0.1612270198249933,
        0.050813490839171215,
        -0.049992293933530864,
        -0.06065872762499319,
        0.09041104163466865,
        0.03747592976216722,
        0.04833187970888935,
        -0.016837646788791256,
        0.020747031292619345,
        -0.1144470814850947,
        0.049415395100366896,
        0.11934739978350964,
        -0.009415006494571443,
        0.015202527727097973,
        -0.027449667521439593,
        -0.02594364710021162,
        -0.004287728359556404,
        -0.010460174716553394,
        -0.01915600021251863,
        -0.10114308176027792,
        -0.08984441470451275,
        0.07932589399330696,
        0.05997494702135389,
        -0.029458209242222443,
        0.0037593049373378738
      ],
      [
        0.10770946967610913,
        0.08721747541815227,
        -0.11844809926199612,
        0.0860635895886334,
        -0.04264337248120669,
        0.05931892352488202,
        -0.003973197222063903,
        0.04518028232747824,
        0.11896152046081784,
        -0.039933960357903954,
        -0.04864290383840818,
        -0.037687268507048496,
        -0.08370979723185847,
        0.10770946967610913,
        0.0,
        0.0,
        0.0,
        -0.003957479971085473,
        0.007324501610764992,
        -0.07156648511024209,
        -0.023733973021911204,
        -0.1631050918605512,
        0.032969375346536774,
        -0.008888896258445486,
        0.1563273801862734,
        -0.01939748233127481,
        0.07561233265994764,
        0.007324501610764992,
        -0.04405851510631267,
        -0.3056828125466324,
        0.0,
        0.0,
        0.032969375346536774,
        -0.06832973925576935,
        0.0,
        0.007324501610764992,
        -0.04636732632060926,
        -0.02924542150713372,
        -0.06302757879132445,
        0.24047472747074028,
        -0.004181029895921947,
        0.06475257590221546,
        -0.04595976524396922,
        0.01686154848614089,
        0.008683924319081734,
        -0.0588002236405168,
        -0.03039691348252811,
        0.0,
        -0.05189653873804462,
        0.0,
        0.038749792397174465,
        0.0,
        0.032969375346536774,
        0.07497953799180423,
        0.019266185604987635,
        0.0,
        -0.03550530919167049,
        0.050795977486842996,
        0.0,
        -0.07915069780593255,
        -0.002614118965891183,
        0.04712930033773488,
        0.038390332914537764,
        0.007324501610764992,
        0.007324501610764992,
        0.009537046875375798,
        0.08293683427071301,
        -0.11457664561050646,
        -0.11195903494399649,
        0.05832933475009273,
        0.032969375346536774,
        -0.002229676829328889,
        0.1255950073652872,
        -0.004244528000632884,
        -0.0797769176132862,
        -0.002229676829328889,
        -0.012400191424427102,
        0.03590957500714278,
        0.12973170340622595,
        -0.04009598295782713,
        -0.056091142169633644,
        0.03089802819861414,
        0.11716729305878336,
        -0.03039691348252811,
        0.08328977539566954,
        0.12585873193707164,
        0.04383692132228378,
        -0.13593902540798677,
        -0.016997316065648898,
        -0.004181029895921947,
        0.032969375346536774,
        0.050795977486842996,
        -0.002614118965891183,
        0.036074178279175986,
        -0.029061886871567084,
        -0.04073052545863518,
        0.04518028232747824,
        0.08721747541815227,
        -0.11844809926199612,
        -0.0025359338451338615,
        0.05931892352488202,
        -0.003973197222063903
      ]
    ],
    "workflow_labels": [
      "direct",
      "verify_then_fallback"
    ],
    "workflow_weights": [
      [
        0.3316429882069855,
        0.04727062594405117,
        0.12270206673637742,
        0.07450360442795056,
        0.03513810195113216,
        0.03848035917900064,
        0.009443645370954108,
        0.09780056162346913,
        -0.012830880917719566,
        0.009241022833377226,
        0.047697823699217705,
        0.010532429361489223,
        0.06535892989444807,
        0.3316429882069855,
        0.0,
        0.0,
        0.0,
        0.014404760250570118,
        0.014057805991949883,
        0.04750342730132862,
        0.05964210428913661,
        0.008211187628453421,
        0.008862468408785759,
        0.06256754337891014,
        0.11499086860320887,
        0.0362476952760389,
        0.01308981411057508,
        0.014057805991949883,
        -0.09716134630620428,
        0.08042996114443714,
        0.0,
        0.0,
        0.008862468408785759,
        0.013708408614845664,
        0.0,
        0.014057805991949883,
        0.014825505119167703,
        0.011450128423178906,
        -0.07421392959735772,
        0.18648607918740087,
        0.028525668718286608,
        0.1403619684336091,
        0.020921948236947943,
        0.05477005750181401,
        0.04051292768592136,
        0.03296970915304333,
        0.04995327434324109,
        0.0,
        0.015263530567409991,
        0.0,
        0.0647074575924736,
        0.0,
        0.008862468408785759,
        0.04075976922548304,
        0.007463014203882473,
        0.0,
        0.08215528436906741,
        0.05808875641652214,
        0.0,
        -0.04140315194203739,
        0.06342927984653468,
        0.15363129701666134,
        0.11538032347282981,
        0.014057805991949883,
        0.014057805991949883,
        0.04071225150986382,
        0.02714762010252481,
        0.025078677368081784,
        0.07203024184145974,
        -0.13985984586548952,
        0.008862468408785759,
        0.0174835117501975,
        0.04726785956897616,
        0.05975706518042835,
        0.03539928470286305,
        0.0174835117501975,
        0.02458532798396869,
        0.08841897459732319,
        0.04729112787219824,
        0.06723116266195724,
        0.017968110853229944,
        0.013095288701797023,
        0.019074898473045315,
        0.04995327434324109,
        0.042404042249601204,
        0.08378568822194161,
        0.048776042027504414,
        0.11675548240751948,
        0.038743372011744666,
        0.028525668718286608,
        0.008862468408785759,
        0.05808875641652214,
        0.06342927984653468,
        0.10564672240969912,
        0.022138034361884513,
        0.11672180966756406,
        0.09780056162346913,
        0.04727062594405117,
        0.12270206673637742,
        0.09101775277785361,
        0.03848035917900064,
        0.009443645370954108
      ],
      [
        -0.3316429882069855,
        -0.047270625944051195,
        -0.12270206673637736,
        -0.07450360442795059,
        -0.03513810195113215,
        -0.038480359179000674,
        -0.009443645370954129,
        -0.09780056162346915,
        0.012830880917719563,
        -0.009241022833377223,
        -0.04769782369921769,
        -0.010532429361489216,
        -0.0653589298944481,
        -0.3316429882069855,
        0.0,
        0.0,
        0.0,
        -0.014404760250570118,
        -0.014057805991949892,
        -0.04750342730132861,
        -0.059642104289136626,
        -0.008211187628453414,
        -0.008862468408785757,
        -0.06256754337891014,
        -0.11499086860320884,
        -0.036247695276038897,
        -0.013089814110575084,
        -0.014057805991949892,
        0.09716134630620424,
        -0.0804299611444371,
        0.0,
        0.0,
        -0.008862468408785757,
        -0.013708408614845666,
        0.0,
        -0.014057805991949892,
        -0.014825505119167701,
        -0.01145012842317891,
        0.07421392959735772,
        -0.18648607918740093,
        -0.0285256687182866,
        -0.1403619684336091,
        -0.020921948236947947,
        -0.05477005750181402,
        -0.040512927685921345,
        -0.03296970915304333,
        -0.04995327434324109,
        0.0,
        -0.01526353056740999,
        0.0,
        -0.0647074575924736,
        0.0,
        -0.008862468408785757,
        -0.04075976922548305,
        -0.007463014203882464,
        0.0,
        -0.08215528436906741,
        -0.05808875641652213,
        0.0,
        0.0414031519420374,
        -0.06342927984653471,
        -0.15363129701666123,
        -0.1153803234728298,
        -0.014057805991949892,
        -0.014057805991949892,
        -0.0407122515098638,
        -0.027147620102524812,
        -0.025078677368081805,
        -0.07203024184145977,
        0.1398598458654895,
        -0.008862468408785757,
        -0.017483511750197498,
        -0.047267859568976146,
        -0.05975706518042836,
        -0.03539928470286305,
        -0.017483511750197498,
        -0.024585327983968716,
        -0.0884189745973232,
        -0.04729112787219828,
        -0.06723116266195711,
        -0.017968110853229944,
        -0.013095288701797042,
        -0.019074898473045308,
        -0.04995327434324109,
        -0.0424040422496012,
        -0.08378568822194161,
        -0.048776042027504414,
        -0.11675548240751948,
        -0.03874337201174465,
        -0.0285256687182866,
        -0.008862468408785757,
        -0.05808875641652213,
        -0.06342927984653471,
        -0.10564672240969909,
        -0.02213803436188452,
        -0.11672180966756407,
        -0.09780056162346915,
        -0.047270625944051195,
        -0.12270206673637736,
        -0.09101775277785364,
        -0.038480359179000674,
        -0.009443645370954129
      ]
    ]
  },
  "substrate": "research/datasets/20260628-m5-small-orchestrator-substrate-50task.jsonl",
  "target_balance_power": 0.25
}
