{
  "epochs": 300,
  "l2": 0.0001,
  "latency_regret_weight": 0.1,
  "learning_rate": 0.0005,
  "model_type": "linear-multi-head-orchestrator",
  "orchestrator": {
    "abstain_weights": [
      -0.546384338511937,
      -0.1427878824359029,
      -0.20268543285668397,
      -0.10961191111889153,
      -0.05130773629093166,
      -0.1028608484842786,
      -0.052843574213139045,
      -0.14583974159697738,
      -0.03669898464178147,
      -0.013322734101723566,
      -0.07468551436842444,
      -0.014080675824158645,
      -0.09022203739903256,
      -0.546384338511937,
      0.0,
      0.0,
      0.0,
      -0.01932458329401844,
      -0.0240998654433747,
      -0.061037089928501334,
      -0.08578643378376097,
      -0.029541138913473656,
      -0.01613935222790464,
      -0.08859812029711718,
      -0.17697880318716244,
      -0.05820511966316103,
      -0.020085317388469755,
      -0.0240998654433747,
      0.0541354998248989,
      -0.13251058362090795,
      0.0,
      0.0,
      -0.01613935222790464,
      -0.01642699523683016,
      0.0,
      -0.0240998654433747,
      -0.018687989357763612,
      -0.016480394705263204,
      0.07521501983997025,
      -0.2807858733228023,
      -0.03309787550820065,
      -0.197997908390261,
      -0.01877755949330147,
      -0.08387556530452932,
      -0.054537656141287576,
      -0.04743102269129624,
      -0.07309843396287823,
      0.0,
      -0.015807619834032064,
      0.0,
      -0.09229786721934628,
      0.0,
      -0.01613935222790464,
      -0.06526944823050834,
      -0.02844787948452665,
      0.0,
      -0.12594133273978547,
      -0.09393060928030006,
      0.0,
      0.03994180125547564,
      -0.09112760017503442,
      -0.2555472236758327,
      -0.19331637294249393,
      -0.0240998654433747,
      -0.0240998654433747,
      -0.059775699861154705,
      -0.04418518283184438,
      -0.05275154232072906,
      -0.09709372936359656,
      0.15067974497797268,
      -0.01613935222790464,
      -0.027806854369188207,
      -0.07189535361290068,
      -0.08315085372017406,
      -0.04705776190786592,
      -0.027806854369188207,
      -0.08208919293949252,
      -0.15749368624229204,
      -0.10899358905578405,
      -0.13309425740777114,
      -0.018723095539864537,
      -0.041900192195301736,
      -0.0583303198983137,
      -0.07309843396287823,
      -0.0634399454780509,
      -0.11384732612863452,
      -0.07403672471596259,
      -0.1389075261883263,
      -0.05232671952597525,
      -0.03309787550820065,
      -0.01613935222790464,
      -0.09393060928030006,
      -0.09112760017503442,
      -0.17757596169634052,
      -0.029718697812236673,
      -0.18092755937816005,
      -0.14583974159697738,
      -0.1427878824359029,
      -0.20268543285668397,
      -0.14208068496769213,
      -0.1028608484842786,
      -0.052843574213139045
    ],
    "feature_names": [
      "bias",
      "category_datasci",
      "category_filesystem",
      "category_general",
      "category_network",
      "category_plotting",
      "category_subprocess",
      "combo_archive_filesystem",
      "combo_dataframe_plotting",
      "combo_network_archive",
      "combo_network_filesystem",
      "combo_network_plotting",
      "environment_risk",
      "family_bigcodebench_hard",
      "family_code_data",
      "family_code_easy",
      "family_code_text",
      "kw_archive",
      "kw_base64",
      "kw_convert",
      "kw_count",
      "kw_csv",
      "kw_default",
      "kw_dict",
      "kw_directory",
      "kw_download",
      "kw_email",
      "kw_encoding",
      "kw_exception",
      "kw_file",
      "kw_flatten",
      "kw_frequent",
      "kw_ftp",
      "kw_group",
      "kw_hash",
      "kw_hex",
      "kw_http",
      "kw_https",
      "kw_key",
      "kw_list",
      "kw_lowercase",
      "kw_number",
      "kw_pair",
      "kw_parse",
      "kw_process",
      "kw_request",
      "kw_requests",
      "kw_socket",
      "kw_sorted",
      "kw_ssl",
      "kw_string",
      "kw_strip",
      "kw_subprocess",
      "kw_sum",
      "kw_title",
      "kw_unpack",
      "kw_url",
      "kw_urllib",
      "kw_window",
      "kw_word",
      "kw_zip",
      "length_chars",
      "length_tokens",
      "lib_base64",
      "lib_binascii",
      "lib_bs4",
      "lib_codecs",
      "lib_collections",
      "lib_csv",
      "lib_datetime",
      "lib_ftplib",
      "lib_functools",
      "lib_glob",
      "lib_itertools",
      "lib_json",
      "lib_math",
      "lib_matplotlib",
      "lib_numpy",
      "lib_os",
      "lib_pandas",
      "lib_pathlib",
      "lib_random",
      "lib_re",
      "lib_requests",
      "lib_scipy",
      "lib_seaborn",
      "lib_shutil",
      "lib_sklearn",
      "lib_statistics",
      "lib_string",
      "lib_subprocess",
      "lib_urllib",
      "lib_zipfile",
      "library_count",
      "missing_library_count",
      "plausibility_score",
      "signal_archive",
      "signal_dataframe",
      "signal_filesystem",
      "signal_network",
      "signal_plotting",
      "signal_subprocess"
    ],
    "policy": "linear-multi-head-orchestrator",
    "verifier_weights": [
      -0.07379625942615822,
      -0.043914074153917106,
      -0.20914885875844258,
      0.022342058054629094,
      -0.004911275507807385,
      0.05684451978482308,
      0.1528910314725415,
      -0.07851002344611412,
      -0.01609036910092643,
      -0.04385363536498028,
      0.0564995469240672,
      0.013839067240410733,
      -0.035871295106799886,
      -0.07379625942615822,
      0.0,
      0.0,
      0.0,
      0.044700317868921355,
      0.0244483795901892,
      0.003030290763239358,
      0.09034570504647846,
      -0.14622796000393437,
      0.006993789512376403,
      0.04366751037687619,
      -0.11504769107417599,
      0.012037914146971905,
      -0.06381710129406004,
      0.0244483795901892,
      0.19165894599490652,
      -0.1735062996852445,
      0.0,
      0.0,
      0.006993789512376403,
      -0.058730523407486,
      0.0,
      0.0244483795901892,
      -0.056366697797279076,
      0.04446163277709519,
      0.02840306951231664,
      -0.20939712779809952,
      0.029199965598113525,
      -0.11043399565250953,
      0.03782444173671835,
      -0.047646509623391634,
      -0.08231533134054983,
      -0.007468937797703484,
      -0.11594852457856081,
      0.0,
      -0.0467734941454406,
      0.0,
      -0.06239178557856756,
      0.0,
      0.006993789512376403,
      0.012708453243579231,
      0.018593889771795245,
      0.0,
      -0.04260238498879637,
      0.05761794817346309,
      0.0,
      0.16822681242709614,
      -0.04160561694367106,
      -0.05285910684033915,
      -0.0507301789298805,
      0.0244483795901892,
      0.0244483795901892,
      -0.07209488921358105,
      -0.03936872170387098,
      0.13380591552619764,
      -0.05044006092563404,
      -0.0028620520222142035,
      0.006993789512376403,
      0.02888353705972338,
      -0.08527860715355678,
      0.0870178187954668,
      -0.04357065679219179,
      0.02888353705972338,
      0.1151796492598219,
      -0.06466783265521092,
      -0.06914214556815484,
      0.00558591213357978,
      -0.04152976208425889,
      -0.25687556783726734,
      -0.0091596426343254,
      -0.11594852457856081,
      -0.040642976871073815,
      -0.07000675239898256,
      0.0077959113664790546,
      0.08327790318308455,
      -0.0233605353278631,
      0.029199965598113525,
      0.006993789512376403,
      0.05761794817346309,
      -0.04160561694367106,
      -0.03864219083496324,
      -0.016462264901057722,
      -0.05100005949040462,
      -0.07851002344611412,
      -0.043914074153917106,
      -0.20914885875844258,
      -0.03560859547641968,
      0.05684451978482308,
      0.1528910314725415
    ],
    "worker_ids": [
      "ollama-cloud-deepseek-v4-pro",
      "ollama-cloud-glm-5.2",
      "ollama-cloud-kimi-k2.7-code",
      "ollama-cloud-qwen3-coder-480b"
    ],
    "worker_weights": [
      [
        -0.06146235707062587,
        0.0463952949963586,
        0.027050899063047286,
        -0.04593075737452881,
        0.08018330104694638,
        0.038951940397178704,
        0.039573461452614686,
        0.007417043183484795,
        0.01525829456655597,
        -0.03757973296733739,
        -0.04793919233066391,
        0.016726814360392066,
        0.08305847638220505,
        -0.06146235707062587,
        0.0,
        0.0,
        0.0,
        0.02320343176493992,
        -0.010980049067349366,
        -0.05494973441170446,
        -0.006486157704100994,
        0.05162177669715291,
        -0.033286665929967464,
        0.09185670391250386,
        -0.05780956870206843,
        -0.06115826453921848,
        -0.027255184857095924,
        -0.010980049067349366,
        0.03353819686153804,
        0.09484688077729655,
        0.0,
        0.0,
        -0.033286665929967464,
        0.10965190449520892,
        0.0,
        -0.010980049067349366,
        0.10025089476835918,
        0.013219072208554755,
        0.05358301636872047,
        -0.029627105984800936,
        0.005170819360025535,
        -0.013821201489626136,
        0.0030346662113127708,
        0.05409348264547326,
        -0.06319804285938356,
        0.10995902912644585,
        0.027493798745485555,
        0.0,
        -0.04560656030940488,
        0.0,
        0.04722636885547485,
        0.0,
        -0.033286665929967464,
        -0.02609333213788687,
        0.003896328962206873,
        0.0,
        0.026221884036222658,
        -0.03644927776479928,
        0.0,
        0.042669587449344966,
        -0.07550103510027666,
        -0.007792843101682674,
        -0.0007110373376363309,
        -0.010980049067349366,
        -0.010980049067349366,
        0.06507353171282278,
        -0.03823523392444521,
        0.07874404962704427,
        0.04492264855788663,
        -0.11010632094580924,
        -0.033286665929967464,
        0.008274907596885886,
        -0.10033413262055063,
        0.003989654964140321,
        0.059067006025076675,
        0.008274907596885886,
        0.07105483112747689,
        0.04399139977607942,
        -0.12530559385152895,
        0.07458030483146406,
        -0.030178491061389708,
        0.014269487942795249,
        -0.0816417147218497,
        0.027493798745485555,
        -0.08059587536957272,
        -0.12227892050830687,
        0.1061215100487011,
        0.08656081914393583,
        -0.07000722587015007,
        0.005170819360025535,
        -0.033286665929967464,
        -0.03644927776479928,
        -0.07550103510027666,
        -0.026157757467660633,
        0.017474247877018786,
        0.05158007355263622,
        0.007417043183484795,
        0.0463952949963586,
        0.027050899063047286,
        -0.007064781893744828,
        0.038951940397178704,
        0.039573461452614686
      ],
      [
        -0.08419169225252657,
        -0.056947404805158496,
        -0.012358320938584473,
        -0.01914916364836097,
        -0.03222005377145224,
        -0.06502305703605081,
        -0.026290422491454007,
        0.026280964447215744,
        -0.07674162748126921,
        -0.025124526640580187,
        -0.020035570591202947,
        0.0040589366200450274,
        0.026395873997631793,
        -0.08419169225252657,
        0.0,
        0.0,
        0.0,
        0.022596456640902245,
        -0.005919675573188154,
        0.12426516760420357,
        0.02286775716637472,
        -0.02084428595270647,
        -0.02108567010853474,
        -0.019882718772612336,
        -0.019422626247816252,
        -0.02931465060234082,
        -0.029556416740691174,
        -0.005919675573188154,
        -0.03197812495174003,
        0.04120229440637688,
        0.0,
        0.0,
        -0.02108567010853474,
        -0.022273442256026225,
        0.0,
        -0.005919675573188154,
        -0.020413463674055637,
        0.009279080011137766,
        0.07187088082503928,
        -0.037389976390246195,
        0.011412482732513498,
        -0.0448078420771101,
        0.022195712598300273,
        -0.03695663018610192,
        -0.04071900998725078,
        -0.003517917527281401,
        -0.056161481253493926,
        0.0,
        0.11622290978337113,
        0.0,
        -0.032952569181276745,
        0.0,
        -0.02108567010853474,
        -0.014217849138292557,
        -0.03181073445145391,
        0.0,
        -0.04518561067990801,
        0.0003523796347275097,
        0.0,
        0.021783889723392253,
        0.08428119694391419,
        -0.07522422924517479,
        -0.06406253101330768,
        -0.005919675573188154,
        -0.005919675573188154,
        -0.031036954612913892,
        -0.035476092313879465,
        0.09366239374304446,
        -0.06706058542374853,
        -0.08933467096253772,
        -0.02108567010853474,
        -0.004739399857689952,
        0.06586864593668945,
        0.0032940637854915766,
        0.07417131294253115,
        -0.004739399857689952,
        -0.04808707960359869,
        0.06522995967024492,
        -0.05777037415051222,
        0.010665666071744606,
        0.11699117572797568,
        -0.14250514075927834,
        -0.0734631416818009,
        -0.056161481253493926,
        0.014598026572852713,
        -0.0426852755195431,
        -0.035403775855796675,
        0.011293932220587577,
        -0.024668617489971446,
        0.011412482732513498,
        -0.02108567010853474,
        0.0003523796347275097,
        0.08428119694391419,
        -0.021532144472358183,
        0.02286395313025174,
        -0.002784190916136507,
        0.026280964447215744,
        -0.056947404805158496,
        -0.012358320938584473,
        -0.06627128078844272,
        -0.06502305703605081,
        -0.026290422491454007
      ],
      [
        0.005747782849313278,
        -0.09600732569591064,
        0.08081926110397232,
        -0.029310583832487046,
        -0.002753467969957658,
        -0.031083159048668017,
        -0.0031258481777692105,
        -0.08650409294173056,
        -0.06333425196432196,
        0.10037452158309566,
        0.11458345133050563,
        0.01675001218733281,
        -0.016801761524829897,
        0.005747782849313278,
        0.0,
        0.0,
        0.0,
        -0.03406684585751027,
        0.010840246201039284,
        0.0027036088320317457,
        0.01959992576931282,
        0.11745958249616371,
        0.01972271074488534,
        -0.059592459030961886,
        -0.09696374398365641,
        0.10575866657026314,
        -0.041284247504890494,
        0.010840246201039284,
        0.055633245198611056,
        0.15576276010685428,
        0.0,
        0.0,
        0.01972271074488534,
        -0.02213605046753384,
        0.0,
        0.010840246201039284,
        -0.03130096347508614,
        0.008824784760243084,
        -0.06947620875525372,
        -0.1987852939560388,
        -0.009648227824210055,
        -0.010194807401205456,
        0.014043553581845945,
        -0.04364679934671112,
        0.0783230027187034,
        -0.045639529232803996,
        0.045887476035345265,
        0.0,
        -0.02736936600950589,
        0.0,
        -0.06234168011999419,
        0.0,
        0.01972271074488534,
        -0.03656603199050132,
        0.008084746896366657,
        0.0,
        0.04238915647866704,
        -0.026684401629342464,
        0.0,
        0.022911028783853826,
        -0.01512850922777551,
        0.015843606808440474,
        0.009571351572237263,
        0.010840246201039284,
        0.010840246201039284,
        -0.054487045547749906,
        -0.03044400130385141,
        -0.06080945041290873,
        0.1353368359368743,
        0.1249649565852326,
        0.01972271074488534,
        0.001508264623590836,
        -0.11400426413590113,
        0.0028436775226358584,
        -0.0576285117315337,
        0.001508264623590836,
        -0.0031449023851387982,
        -0.16082775145790806,
        0.0359930171716687,
        -0.05543012996856938,
        -0.04076041462682609,
        0.07580504445419972,
        0.0116451679342571,
        0.045887476035345265,
        -0.02308053640110381,
        0.01583992795135031,
        -0.10544242957146559,
        0.05826200445492625,
        0.11136017889752423,
        -0.009648227824210055,
        0.01972271074488534,
        -0.026684401629342464,
        -0.01512850922777551,
        -0.007543984614123762,
        -0.007574840371427626,
        -0.012072994396877593,
        -0.08650409294173056,
        -0.09600732569591064,
        0.08081926110397232,
        0.06211186722355236,
        -0.031083159048668017,
        -0.0031258481777692105
      ],
      [
        0.13990626647384002,
        0.1065594355047105,
        -0.09551183922843513,
        0.09439050485537685,
        -0.045209779305536206,
        0.05715427568754028,
        -0.010157190783391572,
        0.05280608531102945,
        0.12481758487903552,
        -0.03767026197517806,
        -0.04660868840863933,
        -0.037535763167769735,
        -0.09265258885500696,
        0.13990626647384002,
        0.0,
        0.0,
        0.0,
        -0.011733042548331653,
        0.006059478439498314,
        -0.07201904202453124,
        -0.03598152523158671,
        -0.14823707324060983,
        0.034649625293616725,
        -0.01238152610892957,
        0.17419593893354207,
        -0.015285751428703899,
        0.09809584910267709,
        0.006059478439498314,
        -0.057193317108409074,
        -0.29181193529052984,
        0.0,
        0.0,
        0.034649625293616725,
        -0.06524241177164812,
        0.0,
        0.006059478439498314,
        -0.04853646761921724,
        -0.03132293697993545,
        -0.055977688438506715,
        0.26580237633108583,
        -0.0069350742683290355,
        0.0688238509679415,
        -0.039273932391459036,
        0.026509946887339545,
        0.02559405012793085,
        -0.060801582366360456,
        -0.017219793527336796,
        0.0,
        -0.04324698346446068,
        0.0,
        0.0480678804457954,
        0.0,
        0.034649625293616725,
        0.07687721326668039,
        0.019829658592880273,
        0.0,
        -0.023425429834981193,
        0.0627812997594141,
        0.0,
        -0.08736450595659086,
        0.006348347384137576,
        0.06717346553841691,
        0.05520221677870768,
        0.006059478439498314,
        0.006059478439498314,
        0.020450468447841274,
        0.10415532754217555,
        -0.11159699295718112,
        -0.11319889907101263,
        0.07447603532311435,
        0.034649625293616725,
        -0.005043772362786737,
        0.1484697508197626,
        -0.010127396272267785,
        -0.07560980723607458,
        -0.005043772362786737,
        -0.019822849138739534,
        0.051606392011583554,
        0.1470829508303717,
        -0.029815840934639026,
        -0.04605227003975951,
        0.0524306083622828,
        0.14345968846939375,
        -0.017219793527336796,
        0.08907838519782409,
        0.14912426807649876,
        0.034724695378560363,
        -0.15611675581944892,
        -0.016684335537403144,
        -0.0069350742683290355,
        0.034649625293616725,
        0.0627812997594141,
        0.006348347384137576,
        0.055233886554142596,
        -0.03276336063584283,
        -0.036722888239622054,
        0.05280608531102945,
        0.1065594355047105,
        -0.09551183922843513,
        0.011224195458635467,
        0.05715427568754028,
        -0.010157190783391572
      ]
    ],
    "workflow_labels": [
      "direct",
      "verify_then_fallback"
    ],
    "workflow_weights": [
      [
        0.32912168643904866,
        0.036752765426751426,
        0.10737910168298036,
        0.07954689540577392,
        0.03496172973032696,
        0.034944991196126665,
        0.00668191267231223,
        0.10059343929102821,
        -0.017871782753574365,
        0.00849107227566682,
        0.04937436156173549,
        0.009720369887515625,
        0.06806578335669185,
        0.32912168643904866,
        0.0,
        0.0,
        0.0,
        0.013275561102138046,
        0.016405568395173733,
        0.044260087164501194,
        0.06560315701311614,
        -0.011745968329043434,
        0.010888351880606151,
        0.06410425226069798,
        0.12213191397958995,
        0.03908187971606287,
        0.01648109344876405,
        0.016405568395173733,
        -0.12856536321361742,
        0.059548496782725634,
        0.0,
        0.0,
        0.010888351880606151,
        0.012721620431539975,
        0.0,
        0.016405568395173733,
        0.013780896004048688,
        0.010292481845671974,
        -0.09278815869965476,
        0.208865385973178,
        0.02569625241104355,
        0.15173227883638413,
        0.01495427039004879,
        0.05753537197388453,
        0.04158313524139598,
        0.03348335156383882,
        0.04962087585437795,
        0.0,
        0.011243549252362223,
        0.0,
        0.06684134111632158,
        0.0,
        0.010888351880606151,
        0.04991967239438166,
        -0.0021702618037495406,
        0.0,
        0.08572889980934198,
        0.06345693152962573,
        0.0,
        -0.060291063792807034,
        0.06245804709019857,
        0.15438580344084182,
        0.11624246863788885,
        0.016405568395173733,
        0.016405568395173733,
        0.04112980357871115,
        0.032886661843937515,
        0.010264252669576944,
        0.0706403600200364,
        -0.16763633640169728,
        0.010888351880606151,
        0.020388648870566347,
        0.05069048582858681,
        0.06256541301814592,
        0.033360448787209715,
        0.020388648870566347,
        0.017322106625713363,
        0.09738356192163701,
        0.03800182424235199,
        0.055756185661837064,
        0.013320640299489614,
        0.0054073498264705575,
        0.014325557840710672,
        0.04962087585437795,
        0.051803317040897294,
        0.0946470831996244,
        0.05141095330296832,
        0.11395027223989894,
        0.041829778239853684,
        0.02569625241104355,
        0.010888351880606151,
        0.06345693152962573,
        0.06245804709019857,
        0.10256569649639029,
        0.023544372759247725,
        0.11782449197942345,
        0.10059343929102821,
        0.036752765426751426,
        0.10737910168298036,
        0.09661725168994824,
        0.034944991196126665,
        0.00668191267231223
      ],
      [
        -0.32912168643904866,
        -0.03675276542675139,
        -0.10737910168298048,
        -0.0795468954057739,
        -0.034961729730326976,
        -0.03494499119612669,
        -0.00668191267231224,
        -0.10059343929102821,
        0.017871782753574376,
        -0.008491072275666818,
        -0.049374361561735525,
        -0.009720369887515627,
        -0.06806578335669183,
        -0.32912168643904866,
        0.0,
        0.0,
        0.0,
        -0.013275561102138046,
        -0.01640556839517373,
        -0.0442600871645012,
        -0.06560315701311611,
        0.011745968329043439,
        -0.010888351880606145,
        -0.06410425226069799,
        -0.12213191397958993,
        -0.03908187971606288,
        -0.01648109344876405,
        -0.01640556839517373,
        0.12856536321361736,
        -0.059548496782725606,
        0.0,
        0.0,
        -0.010888351880606145,
        -0.012721620431539972,
        0.0,
        -0.01640556839517373,
        -0.013780896004048691,
        -0.010292481845671976,
        0.09278815869965473,
        -0.20886538597317797,
        -0.025696252411043553,
        -0.15173227883638413,
        -0.014954270390048796,
        -0.05753537197388452,
        -0.04158313524139595,
        -0.03348335156383883,
        -0.04962087585437799,
        0.0,
        -0.011243549252362229,
        0.0,
        -0.06684134111632158,
        0.0,
        -0.010888351880606145,
        -0.04991967239438165,
        0.002170261803749539,
        0.0,
        -0.08572889980934197,
        -0.06345693152962573,
        0.0,
        0.060291063792807034,
        -0.062458047090198546,
        -0.15438580344084182,
        -0.11624246863788887,
        -0.01640556839517373,
        -0.01640556839517373,
        -0.04112980357871115,
        -0.03288666184393752,
        -0.01026425266957693,
        -0.0706403600200364,
        0.16763633640169726,
        -0.010888351880606145,
        -0.02038864887056635,
        -0.05069048582858679,
        -0.06256541301814592,
        -0.03336044878720972,
        -0.02038864887056635,
        -0.017322106625713308,
        -0.09738356192163695,
        -0.038001824242352024,
        -0.05575618566183709,
        -0.013320640299489615,
        -0.005407349826470557,
        -0.014325557840710688,
        -0.04962087585437799,
        -0.051803317040897294,
        -0.09464708319962441,
        -0.051410953302968326,
        -0.11395027223989895,
        -0.04182977823985368,
        -0.025696252411043553,
        -0.010888351880606145,
        -0.06345693152962573,
        -0.062458047090198546,
        -0.10256569649639025,
        -0.02354437275924771,
        -0.1178244919794234,
        -0.10059343929102821,
        -0.03675276542675139,
        -0.10737910168298048,
        -0.09661725168994825,
        -0.03494499119612669,
        -0.00668191267231224
      ]
    ]
  },
  "substrate": "research/datasets/20260628-m5-small-orchestrator-substrate-50task.jsonl",
  "target_balance_power": 0.0
}
