{
  "dataset": "research/datasets/20260628-mixed-winner-24task-next3-routing.jsonl",
  "epochs": 300,
  "l2": 0.0001,
  "learning_rate": 0.0005,
  "model_type": "linear-softmax-logits-router",
  "reward_temperature": 0.5,
  "router": {
    "feature_names": [
      "bias",
      "category_datasci",
      "category_filesystem",
      "category_general",
      "category_network",
      "category_plotting",
      "category_subprocess",
      "combo_archive_filesystem",
      "combo_dataframe_plotting",
      "combo_network_archive",
      "combo_network_filesystem",
      "combo_network_plotting",
      "environment_risk",
      "family_bigcodebench_hard",
      "family_code_data",
      "family_code_easy",
      "family_code_text",
      "kw_archive",
      "kw_base64",
      "kw_convert",
      "kw_count",
      "kw_csv",
      "kw_default",
      "kw_dict",
      "kw_directory",
      "kw_download",
      "kw_email",
      "kw_encoding",
      "kw_exception",
      "kw_file",
      "kw_flatten",
      "kw_frequent",
      "kw_ftp",
      "kw_group",
      "kw_hash",
      "kw_hex",
      "kw_http",
      "kw_https",
      "kw_key",
      "kw_list",
      "kw_lowercase",
      "kw_number",
      "kw_pair",
      "kw_parse",
      "kw_process",
      "kw_request",
      "kw_requests",
      "kw_socket",
      "kw_sorted",
      "kw_ssl",
      "kw_string",
      "kw_strip",
      "kw_subprocess",
      "kw_sum",
      "kw_title",
      "kw_unpack",
      "kw_url",
      "kw_urllib",
      "kw_window",
      "kw_word",
      "kw_zip",
      "length_chars",
      "length_tokens",
      "lib_base64",
      "lib_binascii",
      "lib_codecs",
      "lib_collections",
      "lib_csv",
      "lib_datetime",
      "lib_ftplib",
      "lib_functools",
      "lib_glob",
      "lib_itertools",
      "lib_json",
      "lib_math",
      "lib_matplotlib",
      "lib_numpy",
      "lib_os",
      "lib_pandas",
      "lib_pathlib",
      "lib_random",
      "lib_re",
      "lib_requests",
      "lib_shutil",
      "lib_statistics",
      "lib_statsmodels",
      "lib_subprocess",
      "lib_typing",
      "lib_urllib",
      "lib_zipfile",
      "library_count",
      "missing_library_count",
      "plausibility_score",
      "signal_archive",
      "signal_dataframe",
      "signal_filesystem",
      "signal_network",
      "signal_plotting",
      "signal_subprocess"
    ],
    "policy": "logits-router",
    "weights": [
      [
        -0.011960334826866287,
        0.004203268605678065,
        0.024870262213101894,
        0.00202250585981824,
        -0.010668335369889146,
        -0.006588294996556051,
        -0.010094042778001114,
        0.011280001321044742,
        -0.017649785915748274,
        -0.0057236543266320225,
        -0.007730680639805097,
        0.01021155688579203,
        -0.02066712755728552,
        -0.011960334826866287,
        0.0,
        0.0,
        0.0,
        0.0,
        -0.0015403999607217069,
        -0.0015403999607217069,
        0.008661309056716205,
        0.005550194954243571,
        -0.010668335369889146,
        0.04541442984731093,
        -0.005993446841963903,
        -0.007730680639805097,
        -0.004369702833071567,
        -0.0015403999607217069,
        -0.041809159334868944,
        0.06412489295782565,
        0.0,
        0.0,
        -0.010668335369889146,
        0.0,
        0.0,
        -0.0015403999607217069,
        0.0,
        0.0,
        0.049339572081068574,
        -0.03112564987330356,
        0.0,
        -0.027900247201525813,
        0.0,
        -0.0015403999607217069,
        -0.010093357159703602,
        0.008661309056716205,
        -0.0057236543266320225,
        0.0,
        0.0,
        0.0,
        -0.0015403999607217069,
        0.0,
        -0.010668335369889146,
        -0.003042206972579483,
        0.004088740219059915,
        0.0,
        0.001397254769362398,
        0.007120909095994446,
        0.0,
        0.012249907976570554,
        -0.03476535691945228,
        -0.023427904316132366,
        -0.01718803317864704,
        -0.0015403999607217069,
        -0.0015403999607217069,
        -0.005910102793793299,
        0.060054671818003384,
        0.01827725776459205,
        -0.02276410843827623,
        -0.010668335369889146,
        0.003562905820539963,
        -0.03593181334433172,
        0.004817026966605205,
        0.04813652392730246,
        0.003562905820539963,
        -0.006588294996556051,
        0.04742784704088096,
        -0.03384637230979888,
        -0.046340160122209005,
        -0.00849684442191075,
        0.02515359133559739,
        -0.013251043404815968,
        -0.0057236543266320225,
        0.04604535824049686,
        -0.02275720114492643,
        -0.02377687722558671,
        -0.010668335369889146,
        -0.02377687722558671,
        0.007120909095994446,
        -0.03476535691945228,
        -0.004418717950454484,
        -0.007133063167675978,
        -0.02173247781384985,
        0.011280001321044742,
        0.004203268605678065,
        0.024870262213101894,
        -0.00927108060052678,
        -0.006588294996556051,
        -0.010094042778001114
      ],
      [
        -0.02311905680920303,
        0.007068290137173913,
        -0.048383158616380276,
        0.0017884326355323563,
        -0.01992136769370452,
        0.031984891259413666,
        -0.0029711313797647467,
        -0.00553120770551028,
        0.021514782954474274,
        -0.0019037603386528837,
        -0.005558711373837559,
        0.010383421916950348,
        0.003436256937554507,
        -0.02311905680920303,
        0.0,
        0.0,
        0.0,
        0.0,
        0.0003511843424683761,
        0.0003511843424683761,
        0.016266416658519793,
        0.004515273488728296,
        -0.01992136769370452,
        -0.012745273057423994,
        -0.03190340568952292,
        -0.005558711373837559,
        -0.006522009791215055,
        0.0003511843424683761,
        0.006043778642774923,
        -0.0028140727579059385,
        0.0,
        0.0,
        -0.01992136769370452,
        0.0,
        0.0,
        0.0003511843424683761,
        0.0,
        0.0,
        -0.014652076542865194,
        -0.051648090870749314,
        0.0,
        -0.003662851788545216,
        0.0,
        0.0003511843424683761,
        -0.008425770129867928,
        0.016266416658519793,
        -0.0019037603386528837,
        0.0,
        0.0,
        0.0,
        0.0003511843424683761,
        0.0,
        -0.01992136769370452,
        -0.00501358199724429,
        -0.0023250795341163717,
        0.0,
        0.01471384066233524,
        0.016617601000988177,
        0.0,
        0.008574821815912395,
        0.021803378885901222,
        -0.010457679831793527,
        -0.008811442930877975,
        0.0003511843424683761,
        0.0003511843424683761,
        -0.006170825448746684,
        -0.004434949195990945,
        -0.030839366099936275,
        -0.0035201678605041096,
        -0.01992136769370452,
        0.0014372482930639738,
        0.020706152019524842,
        0.002912342940752798,
        -0.013846053612302256,
        0.0014372482930639738,
        0.031984891259413666,
        -0.025834967386026052,
        -0.03978712839186919,
        0.02785634237967379,
        0.03782927862284473,
        -0.029867813592840298,
        -0.01705738946177573,
        -0.0019037603386528837,
        -0.02733458659141145,
        -0.012172523936034943,
        0.025648462589628634,
        -0.01992136769370452,
        0.025648462589628634,
        0.016617601000988177,
        0.021803378885901222,
        -0.0038028489744078783,
        0.007694538776888602,
        -0.0008453404042355763,
        -0.00553120770551028,
        0.007068290137173913,
        -0.048383158616380276,
        -0.005207527031369175,
        0.031984891259413666,
        -0.0029711313797647467
      ],
      [
        0.02589357663316197,
        -0.027165893013379065,
        0.03043731755608816,
        -0.0025824789942191662,
        0.01392137083153414,
        0.02231956107201983,
        0.006831339948624211,
        -0.03809657800512893,
        0.021253273442360512,
        0.03475359444031979,
        0.04041537321852591,
        0.0030323267258256267,
        0.024183899194359582,
        0.02589357663316197,
        0.0,
        0.0,
        0.0,
        0.0,
        -0.001109687764545489,
        -0.001109687764545489,
        -0.008259592053327984,
        0.037283103180151295,
        0.01392137083153414,
        -0.019313732804921296,
        -0.03723665678942006,
        0.04041537321852591,
        -0.02638693896611116,
        -0.001109687764545489,
        -0.028511373081071507,
        0.03508534278652512,
        0.0,
        0.0,
        0.01392137083153414,
        0.0,
        0.0,
        -0.001109687764545489,
        0.0,
        0.0,
        -0.014030295259560182,
        -0.011560350543060474,
        0.0,
        0.03058751529908315,
        0.0,
        -0.001109687764545489,
        0.008366655474208626,
        -0.008259592053327984,
        0.03475359444031979,
        0.0,
        0.0,
        0.0,
        -0.001109687764545489,
        0.0,
        0.01392137083153414,
        -0.014534240845499254,
        -0.003227265004522287,
        0.0,
        0.02538431462244633,
        -0.009369279817873472,
        0.0,
        0.0011277373469766388,
        0.012551292778595085,
        0.00586143726830454,
        0.0028936148575729546,
        -0.001109687764545489,
        -0.001109687764545489,
        -0.02749662673065661,
        -0.019042346789565574,
        0.07065012885347503,
        0.009499070940156413,
        0.01392137083153414,
        -0.0014727912296736872,
        -0.053281292726934514,
        -0.0008937998854371429,
        -0.008100739331220309,
        -0.0014727912296736872,
        0.02231956107201983,
        -0.03462466326194594,
        0.0343171170914849,
        -0.018349177373307806,
        -0.014297094823706029,
        0.06425259041810627,
        -0.032733187161446374,
        0.03475359444031979,
        -0.05064787078372389,
        0.04829186909624238,
        0.0263851278257318,
        0.01392137083153414,
        0.0263851278257318,
        -0.009369279817873472,
        0.012551292778595085,
        0.010324718533067568,
        0.007915538347719525,
        0.022923863336004234,
        -0.03809657800512893,
        -0.027165893013379065,
        0.03043731755608816,
        0.03930568545398044,
        0.02231956107201983,
        0.006831339948624211
      ],
      [
        0.009185815002907195,
        0.015894334270527066,
        -0.006924421152809522,
        -0.0012284595011314368,
        0.016668332232059435,
        -0.04771615733487743,
        0.0062338342091416725,
        0.032347784389594327,
        -0.02511827048108662,
        -0.02712617977503483,
        -0.027125981204883364,
        -0.023627305528568045,
        -0.0069530285746285765,
        0.009185815002907195,
        0.0,
        0.0,
        0.0,
        0.0,
        0.00229890338279881,
        0.00229890338279881,
        -0.016668133661907957,
        -0.047348571623123066,
        0.016668332232059435,
        -0.013355423984965777,
        0.07513350932090739,
        -0.027125981204883364,
        0.037278651590397775,
        0.00229890338279881,
        0.0642767537731654,
        -0.09639616298644434,
        0.0,
        0.0,
        0.016668332232059435,
        0.0,
        0.0,
        0.00229890338279881,
        0.0,
        0.0,
        -0.020657200278643224,
        0.09433409128711312,
        0.0,
        0.0009755836909878074,
        0.0,
        0.00229890338279881,
        0.010152471815362924,
        -0.016668133661907957,
        -0.02712617977503483,
        0.0,
        0.0,
        0.0,
        0.00229890338279881,
        0.0,
        0.016668332232059435,
        0.02259002981532297,
        0.0014636043195787175,
        0.0,
        -0.041495410054144026,
        -0.014369230279109167,
        0.0,
        -0.02195246713945953,
        0.0004106852549559457,
        0.02802414687962127,
        0.023105861251952162,
        0.00229890338279881,
        0.00229890338279881,
        0.039577554973196656,
        -0.03657737583244694,
        -0.0580880205181309,
        0.016785205358623916,
        0.016668332232059435,
        -0.0035273628839302463,
        0.0685069540517415,
        -0.0068355700219208835,
        -0.02618973098377991,
        -0.0035273628839302463,
        -0.04771615733487743,
        0.01303178360709105,
        0.039316383610182935,
        0.03683299511584311,
        -0.015035339377227869,
        -0.05953836816086339,
        0.0630416200280382,
        -0.02712617977503483,
        0.031937099134638484,
        -0.013362144015280833,
        -0.028256713189773727,
        0.016668332232059435,
        -0.028256713189773727,
        -0.014369230279109167,
        0.0004106852549559457,
        -0.0021031516082052498,
        -0.008477013956932124,
        -0.00034604511791901734,
        0.032347784389594327,
        0.015894334270527066,
        -0.006924421152809522,
        -0.024827077822084563,
        -0.04771615733487743,
        0.0062338342091416725
      ]
    ],
    "worker_ids": [
      "ollama-cloud-deepseek-v4-pro",
      "ollama-cloud-glm-5.2",
      "ollama-cloud-kimi-k2.7-code",
      "ollama-cloud-qwen3-coder-480b"
    ]
  },
  "target_mode": "reward"
}
