{
  "dataset": "research/datasets/20260627-mixed-winner-19task-routing.jsonl",
  "epochs": 300,
  "l2": 0.0001,
  "learning_rate": 0.0005,
  "model_type": "linear-softmax-logits-router",
  "reward_temperature": 0.2,
  "router": {
    "feature_names": [
      "bias",
      "category_datasci",
      "category_filesystem",
      "category_general",
      "category_network",
      "category_plotting",
      "category_subprocess",
      "combo_archive_filesystem",
      "combo_dataframe_plotting",
      "combo_network_archive",
      "combo_network_filesystem",
      "combo_network_plotting",
      "environment_risk",
      "family_bigcodebench_hard",
      "family_code_data",
      "family_code_easy",
      "family_code_text",
      "kw_archive",
      "kw_base64",
      "kw_convert",
      "kw_count",
      "kw_csv",
      "kw_default",
      "kw_dict",
      "kw_directory",
      "kw_download",
      "kw_email",
      "kw_encoding",
      "kw_exception",
      "kw_file",
      "kw_flatten",
      "kw_frequent",
      "kw_ftp",
      "kw_group",
      "kw_hash",
      "kw_hex",
      "kw_http",
      "kw_https",
      "kw_key",
      "kw_list",
      "kw_lowercase",
      "kw_number",
      "kw_pair",
      "kw_parse",
      "kw_process",
      "kw_request",
      "kw_requests",
      "kw_socket",
      "kw_sorted",
      "kw_ssl",
      "kw_string",
      "kw_strip",
      "kw_subprocess",
      "kw_sum",
      "kw_title",
      "kw_unpack",
      "kw_url",
      "kw_urllib",
      "kw_window",
      "kw_word",
      "kw_zip",
      "length_chars",
      "length_tokens",
      "lib_base64",
      "lib_binascii",
      "lib_codecs",
      "lib_collections",
      "lib_csv",
      "lib_datetime",
      "lib_ftplib",
      "lib_functools",
      "lib_glob",
      "lib_itertools",
      "lib_json",
      "lib_math",
      "lib_matplotlib",
      "lib_numpy",
      "lib_os",
      "lib_pandas",
      "lib_pathlib",
      "lib_random",
      "lib_re",
      "lib_requests",
      "lib_shutil",
      "lib_statistics",
      "lib_subprocess",
      "lib_urllib",
      "lib_zipfile",
      "library_count",
      "missing_library_count",
      "plausibility_score",
      "signal_archive",
      "signal_dataframe",
      "signal_filesystem",
      "signal_network",
      "signal_plotting",
      "signal_subprocess"
    ],
    "policy": "logits-router",
    "weights": [
      [
        -0.03983037417151529,
        -0.04072649118725986,
        -0.016051256630914012,
        0.008553869961675946,
        -0.018792954042293596,
        0.02090676207890681,
        -0.016942484565817578,
        0.03590462835277182,
        0.0,
        -0.01674028651457982,
        -0.009526978576871428,
        0.018010826054810452,
        -0.011275772425376156,
        -0.03983037417151529,
        0.0,
        0.0,
        0.0,
        0.0,
        0.0004280198823910041,
        0.0004280198823910041,
        0.026006261980002075,
        -0.06830074094269009,
        -0.018792954042293596,
        0.008423455807582664,
        0.003427573334517569,
        -0.009526978576871428,
        -0.015602039304020399,
        0.0004280198823910041,
        -0.07322220158993546,
        0.04379008882159215,
        0.0,
        0.0,
        -0.018792954042293596,
        0.0,
        0.0,
        0.0004280198823910041,
        0.0,
        0.0,
        0.0004280198823910041,
        -0.07071764580372979,
        0.0,
        -0.03330379352364669,
        0.0,
        0.0004280198823910041,
        -0.03234232581860034,
        0.026006261980002075,
        -0.01674028651457982,
        0.0,
        0.0,
        0.0,
        0.0004280198823910041,
        0.0,
        -0.018792954042293596,
        -0.005558250896675666,
        0.0,
        0.0,
        0.009693995347813214,
        0.026434281862393143,
        0.0,
        0.018010826054810452,
        -0.05528404793143253,
        -0.04705284749993016,
        -0.03619542644709879,
        0.0004280198823910041,
        0.0004280198823910041,
        -0.015174019421629482,
        0.028902198004098496,
        -0.03748965602024192,
        -0.0433475819309917,
        -0.018792954042293596,
        0.008125850079284954,
        -0.05381024703753874,
        0.015174438703657091,
        0.008186533315074358,
        0.008125850079284954,
        0.02090676207890681,
        -0.008553450679648343,
        -0.034062082685724186,
        -0.04072649118725986,
        -0.017126983946487623,
        0.03978825325594806,
        -0.022059567659365526,
        -0.01674028651457982,
        0.09118867628420424,
        -0.04441502216518786,
        -0.018792954042293596,
        0.026434281862393143,
        -0.05528404793143253,
        -0.01786864618370409,
        0.0,
        -0.024121424983314623,
        0.03590462835277182,
        -0.04072649118725986,
        -0.016051256630914012,
        -0.009098958694480413,
        0.02090676207890681,
        -0.016942484565817578
      ],
      [
        -0.05124495096064252,
        -0.010455261449462194,
        -0.05456958956705567,
        0.00278446983463801,
        -0.02186344854691905,
        0.015277706282743669,
        -0.02558171972093648,
        0.005134478276504441,
        0.0,
        -0.01603273046910852,
        -0.015407919521817756,
        0.01337591572740729,
        -0.013118069128151387,
        -0.05124495096064252,
        0.0,
        0.0,
        0.0,
        0.0,
        0.0002677793049280163,
        0.0002677793049280163,
        0.02248825949420954,
        0.03534459103599183,
        -0.02186344854691905,
        0.009380123071730338,
        -0.03363425510626553,
        -0.015407919521817756,
        -0.017985445369068584,
        0.0002677793049280163,
        0.023497871326493704,
        0.01094913493461557,
        0.0,
        0.0,
        -0.02186344854691905,
        0.0,
        0.0,
        0.0002677793049280163,
        0.0,
        0.0,
        0.0002677793049280163,
        -0.0822966748305921,
        0.0,
        -0.031180716377144722,
        0.0,
        0.0002677793049280163,
        -0.03401817583817706,
        0.02248825949420954,
        -0.01603273046910852,
        0.0,
        0.0,
        0.0,
        0.0002677793049280163,
        0.0,
        -0.02186344854691905,
        -0.014388594306140971,
        0.0,
        0.0,
        0.006723308330029106,
        0.022756038799137554,
        0.0,
        0.01337591572740729,
        0.049665731582190786,
        -0.030056471822977236,
        -0.02403824334921683,
        0.0002677793049280163,
        0.0002677793049280163,
        -0.017717666064140554,
        0.024390050049545912,
        -0.034311250188197716,
        -0.0347775674400723,
        -0.02186344854691905,
        0.002516690529709993,
        0.04976501604600889,
        0.007098411404083862,
        0.007811645169950039,
        0.002516690529709993,
        0.015277706282743669,
        -0.01340372449469471,
        -0.06794550529446274,
        -0.010455261449462194,
        0.08656112606003995,
        -0.05794623743116181,
        -0.0294577302052263,
        -0.01603273046910852,
        -0.04453125330568649,
        -0.014589369172862625,
        -0.02186344854691905,
        0.022756038799137554,
        0.049665731582190786,
        -0.011600052754593701,
        0.0,
        -0.019909864674816757,
        0.005134478276504441,
        -0.010455261449462194,
        -0.05456958956705567,
        -0.015140140216889801,
        0.015277706282743669,
        -0.02558171972093648
      ],
      [
        0.03584711652090717,
        -0.05014350390427276,
        0.06032031665019591,
        -0.002902447307062806,
        0.020184249755149878,
        0.001882552154180746,
        0.03347834144724239,
        -0.06921823374934713,
        0.0,
        0.07283847298821372,
        0.06992077843284626,
        0.0013172834976864533,
        0.012110549853089934,
        0.03584711652090717,
        0.0,
        0.0,
        0.0,
        0.0,
        -0.0016924621921128931,
        -0.0016924621921128931,
        -0.023101944310517507,
        0.0761984250996105,
        0.020184249755149878,
        -0.026111690000316937,
        -0.07503764384407383,
        0.06992077843284626,
        -0.03443861440992737,
        -0.0016924621921128931,
        -0.029892687460708604,
        0.09239771485056274,
        0.0,
        0.0,
        0.020184249755149878,
        0.0,
        0.0,
        -0.0016924621921128931,
        0.0,
        0.0,
        -0.0016924621921128931,
        -0.06411621089774201,
        0.0,
        0.05278390149101689,
        0.0,
        -0.0016924621921128931,
        0.03839985857828641,
        -0.023101944310517507,
        0.07283847298821372,
        0.0,
        0.0,
        0.0,
        -0.0016924621921128931,
        0.0,
        0.020184249755149878,
        -0.027213644964826433,
        0.0,
        0.0,
        0.048044066485583535,
        -0.024794406502630456,
        0.0,
        0.0013172834976864533,
        0.010409290452854448,
        0.019503789660402927,
        0.013245863638043667,
        -0.0016924621921128931,
        -0.0016924621921128931,
        -0.03613107660204023,
        -0.022536675654023234,
        0.13404067699658376,
        0.045558932045916066,
        0.020184249755149878,
        -0.0012099851149499237,
        -0.09728619728091852,
        0.0025072616474530337,
        -0.0020038225756764515,
        -0.0012099851149499237,
        0.001882552154180746,
        -0.030721367647524284,
        0.059003033152509224,
        -0.05014350390427276,
        -0.031838592047095784,
        0.1245328923483888,
        -0.058814050361386976,
        0.07283847298821372,
        -0.0796275242022019,
        0.08704770451774793,
        0.020184249755149878,
        -0.024794406502630456,
        0.010409290452854448,
        0.013848720442225139,
        0.0,
        0.017830722476676792,
        -0.06921823374934713,
        -0.05014350390427276,
        0.06032031665019591,
        0.06822831624073337,
        0.001882552154180746,
        0.03347834144724239
      ],
      [
        0.05522820861125078,
        0.10132525654099496,
        0.01030052954777384,
        -0.008435892489251097,
        0.02047215283406273,
        -0.038067020515831294,
        0.009045862839511592,
        0.028179127120070924,
        0.0,
        -0.040065456004525594,
        -0.04498588033415689,
        -0.03270402527990416,
        0.012283291700437642,
        0.05522820861125078,
        0.0,
        0.0,
        0.0,
        0.0,
        0.0009966630047938754,
        0.0009966630047938754,
        -0.025392577163694058,
        -0.043242275192912696,
        0.02047215283406273,
        0.008308111121003936,
        0.10524432561582155,
        -0.04498588033415689,
        0.06802609908301645,
        0.0009966630047938754,
        0.07961701772415056,
        -0.1471369386067705,
        0.0,
        0.0,
        0.02047215283406273,
        0.0,
        0.0,
        0.0009966630047938754,
        0.0,
        0.0,
        0.0009966630047938754,
        0.21713053153206352,
        0.0,
        0.011700608409774736,
        0.0,
        0.0009966630047938754,
        0.027960643078490974,
        -0.025392577163694058,
        -0.040065456004525594,
        0.0,
        0.0,
        0.0,
        0.0009966630047938754,
        0.0,
        0.02047215283406273,
        0.04716049016764296,
        0.0,
        0.0,
        -0.06446137016342571,
        -0.024395914158900262,
        0.0,
        -0.03270402527990416,
        -0.004790974103612756,
        0.05760552966250487,
        0.04698780615827188,
        0.0009966630047938754,
        0.0009966630047938754,
        0.06902276208781025,
        -0.03075557239962129,
        -0.062239770788143606,
        0.0325662173251481,
        0.02047215283406273,
        -0.009432555494044996,
        0.1013314282724479,
        -0.024780111755193936,
        -0.013994355909347927,
        -0.009432555494044996,
        -0.038067020515831294,
        0.05267854282186725,
        0.04300455482767789,
        0.10132525654099496,
        -0.03759555006645696,
        -0.10637490817317527,
        0.11033134822597858,
        -0.040065456004525594,
        0.032970101223683636,
        -0.028043313179697906,
        0.02047215283406273,
        -0.024395914158900262,
        -0.004790974103612756,
        0.015619978496072618,
        0.0,
        0.02620056718145461,
        0.028179127120070924,
        0.10132525654099496,
        0.01030052954777384,
        -0.04398921732936287,
        -0.038067020515831294,
        0.009045862839511592
      ]
    ],
    "worker_ids": [
      "ollama-cloud-deepseek-v4-pro",
      "ollama-cloud-glm-5.2",
      "ollama-cloud-kimi-k2.7-code",
      "ollama-cloud-qwen3-coder-480b"
    ]
  },
  "target_mode": "reward"
}
