{
  "dataset": "research/datasets/20260628-mixed-winner-24task-next3-routing.jsonl",
  "epochs": 300,
  "l2": 0.0001,
  "learning_rate": 0.0005,
  "model_type": "linear-softmax-logits-router",
  "reward_temperature": 0.1,
  "router": {
    "feature_names": [
      "bias",
      "category_datasci",
      "category_filesystem",
      "category_general",
      "category_network",
      "category_plotting",
      "category_subprocess",
      "combo_archive_filesystem",
      "combo_dataframe_plotting",
      "combo_network_archive",
      "combo_network_filesystem",
      "combo_network_plotting",
      "environment_risk",
      "family_bigcodebench_hard",
      "family_code_data",
      "family_code_easy",
      "family_code_text",
      "kw_archive",
      "kw_base64",
      "kw_convert",
      "kw_count",
      "kw_csv",
      "kw_default",
      "kw_dict",
      "kw_directory",
      "kw_download",
      "kw_email",
      "kw_encoding",
      "kw_exception",
      "kw_file",
      "kw_flatten",
      "kw_frequent",
      "kw_ftp",
      "kw_group",
      "kw_hash",
      "kw_hex",
      "kw_http",
      "kw_https",
      "kw_key",
      "kw_list",
      "kw_lowercase",
      "kw_number",
      "kw_pair",
      "kw_parse",
      "kw_process",
      "kw_request",
      "kw_requests",
      "kw_socket",
      "kw_sorted",
      "kw_ssl",
      "kw_string",
      "kw_strip",
      "kw_subprocess",
      "kw_sum",
      "kw_title",
      "kw_unpack",
      "kw_url",
      "kw_urllib",
      "kw_window",
      "kw_word",
      "kw_zip",
      "length_chars",
      "length_tokens",
      "lib_base64",
      "lib_binascii",
      "lib_codecs",
      "lib_collections",
      "lib_csv",
      "lib_datetime",
      "lib_ftplib",
      "lib_functools",
      "lib_glob",
      "lib_itertools",
      "lib_json",
      "lib_math",
      "lib_matplotlib",
      "lib_numpy",
      "lib_os",
      "lib_pandas",
      "lib_pathlib",
      "lib_random",
      "lib_re",
      "lib_requests",
      "lib_shutil",
      "lib_statistics",
      "lib_statsmodels",
      "lib_subprocess",
      "lib_typing",
      "lib_urllib",
      "lib_zipfile",
      "library_count",
      "missing_library_count",
      "plausibility_score",
      "signal_archive",
      "signal_dataframe",
      "signal_filesystem",
      "signal_network",
      "signal_plotting",
      "signal_subprocess"
    ],
    "policy": "logits-router",
    "weights": [
      [
        -0.03406689790282288,
        0.022117532517730208,
        0.032598519830821335,
        0.0043530485814028946,
        -0.022470595181653483,
        0.0038349405384512794,
        -0.035179433929300764,
        0.01358129148421189,
        -0.014466359575509688,
        -0.022960983771968365,
        -0.025715618350299656,
        0.018585389137725106,
        -0.03192115591756305,
        -0.03406689790282288,
        0.0,
        0.0,
        0.0,
        0.0,
        -0.004370045711883125,
        -0.004370045711883125,
        0.019715960603322008,
        -0.004140298941647038,
        -0.022470595181653483,
        0.09714014919057232,
        -0.03298154956525964,
        -0.025715618350299656,
        -0.02602834781897391,
        -0.004370045711883125,
        -0.08703645041128641,
        0.10733120514921933,
        0.0,
        0.0,
        -0.022470595181653483,
        0.0,
        0.0,
        -0.004370045711883125,
        0.0,
        0.0,
        0.10695438068759469,
        -0.0262276548654183,
        0.0,
        -0.0483441776847526,
        0.0,
        -0.004370045711883125,
        -0.048989331590942285,
        0.019715960603322008,
        -0.022960983771968365,
        0.0,
        0.0,
        0.0,
        -0.004370045711883125,
        0.0,
        -0.022470595181653483,
        -0.015369151574531907,
        0.008935149244738226,
        0.0,
        -0.0076150688805293985,
        0.015345914891438932,
        0.0,
        0.025915211665095517,
        -0.07486435030215277,
        -0.06073108127474254,
        -0.045791660066702856,
        -0.004370045711883125,
        -0.004370045711883125,
        -0.03039839353085716,
        0.12714131754378588,
        0.036049877295735784,
        -0.03912342172183645,
        -0.022470595181653483,
        0.008723094293285981,
        -0.07866831195127638,
        0.009983371209704066,
        0.10599935271421115,
        0.008723094293285981,
        0.0038349405384512794,
        0.08294137506167253,
        -0.08636649274376196,
        -0.08559191344649826,
        -0.027042733332184758,
        0.025643341156014125,
        -0.028567069446569313,
        -0.022960983771968365,
        0.08844564178636526,
        -0.06398523830971549,
        -0.030731331347618195,
        -0.022470595181653483,
        -0.030731331347618195,
        0.015345914891438932,
        -0.07486435030215277,
        -0.013988153225518019,
        -0.009219399404285468,
        -0.04098293682205204,
        0.01358129148421189,
        0.022117532517730208,
        0.032598519830821335,
        -0.030085664062182826,
        0.0038349405384512794,
        -0.035179433929300764
      ],
      [
        -0.05866073566369439,
        -0.02277094032795593,
        -0.070827294113354,
        -0.000979404073459716,
        -0.02103721560101354,
        0.03578346041220045,
        -0.034414456326356875,
        0.02004152547037328,
        0.025868516275647964,
        -0.02315964950478006,
        -0.022248712556124147,
        0.010509221471648735,
        0.00703183734478252,
        -0.05866073566369439,
        0.0,
        0.0,
        0.0,
        0.0,
        -0.0009939883408390394,
        -0.0009939883408390394,
        0.021948152549669614,
        0.03305613410360023,
        -0.02103721560101354,
        -0.014001295686120619,
        -0.0243163852954814,
        -0.022248712556124147,
        -0.023421497172204493,
        -0.0009939883408390394,
        0.034331616444671524,
        0.0007126236569162663,
        0.0,
        0.0,
        -0.02103721560101354,
        0.0,
        0.0,
        -0.0009939883408390394,
        0.0,
        0.0,
        -0.01968346906866946,
        -0.08753462048491063,
        0.0,
        -0.04727374573366149,
        0.0,
        -0.0009939883408390394,
        -0.04658114667698473,
        0.021948152549669614,
        -0.02315964950478006,
        0.0,
        0.0,
        0.0,
        -0.0009939883408390394,
        0.0,
        -0.02103721560101354,
        -0.023306110897461686,
        -0.003185715956534201,
        0.0,
        -0.0022054852959496347,
        0.020954164208830485,
        0.0,
        0.006806509194846451,
        0.06749569490998239,
        -0.037989887111355064,
        -0.031108214516227847,
        -0.0009939883408390394,
        -0.0009939883408390394,
        -0.02441548551304363,
        -0.0067950754855312335,
        -0.06277688798499353,
        -0.044818090269466176,
        -0.02103721560101354,
        1.4584267379315996e-05,
        0.0682066367429297,
        0.0025988880461815375,
        -0.01894724271680252,
        1.4584267379315996e-05,
        0.03578346041220045,
        -0.048986144093506864,
        -0.05689027716170031,
        0.005378010372148547,
        0.11339695955796256,
        -0.07088952525497759,
        -0.04439127231686947,
        -0.02315964950478006,
        -0.04745416943960958,
        -0.017093028827542198,
        0.03275694450898439,
        -0.02103721560101354,
        0.03275694450898439,
        0.020954164208830485,
        0.06749569490998239,
        -0.013132238464956428,
        0.009827083352695333,
        -0.006920382876418935,
        0.02004152547037328,
        -0.02277094032795593,
        -0.070827294113354,
        -0.023242700896963207,
        0.03578346041220045,
        -0.034414456326356875
      ],
      [
        0.04415507017948556,
        -0.07023303508245206,
        0.03455603593364202,
        -0.0020607770787241225,
        0.019676758047487114,
        0.03592407085862746,
        0.03796234616431888,
        -0.06763529567304978,
        0.03403631172891841,
        0.0889973638053913,
        0.08729802007684466,
        0.0027228465455203213,
        0.03801522678718561,
        0.04415507017948556,
        0.0,
        0.0,
        0.0,
        0.0,
        -0.00015756317381038074,
        -0.00015756317381038074,
        -0.021376101776033822,
        0.041727939644910624,
        0.019676758047487114,
        -0.06032574280510329,
        -0.07976753870065416,
        0.08729802007684466,
        -0.03448597247452537,
        -0.00015756317381038074,
        -0.048841432820749,
        0.08140825469712931,
        0.0,
        0.0,
        0.019676758047487114,
        0.0,
        0.0,
        -0.00015756317381038074,
        0.0,
        0.0,
        -0.049159383968157236,
        -0.07264754690662768,
        0.0,
        0.05887332567945632,
        0.0,
        -0.00015756317381038074,
        0.054511391330865855,
        -0.021376101776033822,
        0.0889973638053913,
        0.0,
        0.0,
        0.0,
        -0.00015756317381038074,
        0.0,
        0.019676758047487114,
        -0.03371221498000553,
        -0.004959757123027809,
        0.0,
        0.06746369885554726,
        -0.021533664949844242,
        0.0,
        -0.001963037867022047,
        0.011538374154833875,
        0.027156162224853557,
        0.018554184950640155,
        -0.00015756317381038074,
        -0.00015756317381038074,
        -0.03464353564833589,
        -0.06296630491412632,
        0.12453331757338455,
        0.040207221577300466,
        0.019676758047487114,
        -0.0019032139049137374,
        -0.10893516142698151,
        0.0018141837551360733,
        -0.03798634326313126,
        -0.0019032139049137374,
        0.03592407085862746,
        -0.07152369053675688,
        0.06790242069786027,
        -0.029477919360170603,
        -0.038063787368773666,
        0.14609949047030912,
        -0.07200407349324152,
        0.0889973638053913,
        -0.07917366982788356,
        0.10134311837115173,
        0.0436819532644887,
        0.019676758047487114,
        0.0436819532644887,
        -0.021533664949844242,
        0.011538374154833875,
        0.018464727894125236,
        0.013104585979346592,
        0.040405307298303515,
        -0.06763529567304978,
        -0.07023303508245206,
        0.03455603593364202,
        0.08714045690303425,
        0.03592407085862746,
        0.03796234616431888
      ],
      [
        0.04857256338703143,
        0.07088644289267791,
        0.0036727383488906317,
        -0.0013128674292190578,
        0.023831052735179964,
        -0.07554247180927966,
        0.031631544091338996,
        0.0340124787184647,
        -0.04543846842905722,
        -0.04287673052864296,
        -0.039333689170420925,
        -0.03181745715489414,
        -0.013125908214405006,
        0.04857256338703143,
        0.0,
        0.0,
        0.0,
        0.0,
        0.005521597226532542,
        0.005521597226532542,
        -0.020288011376957665,
        -0.07064377480686394,
        0.023831052735179964,
        -0.022813110699347803,
        0.1370654735613952,
        -0.039333689170420925,
        0.08393581746570429,
        0.005521597226532542,
        0.10154626678736386,
        -0.18945208350326445,
        0.0,
        0.0,
        0.023831052735179964,
        0.0,
        0.0,
        0.005521597226532542,
        0.0,
        0.0,
        -0.038111527650768466,
        0.1864098222569555,
        0.0,
        0.03674459773895795,
        0.0,
        0.005521597226532542,
        0.04105908693706095,
        -0.020288011376957665,
        -0.04287673052864296,
        0.0,
        0.0,
        0.0,
        0.005521597226532542,
        0.0,
        0.023831052735179964,
        0.07238747745199886,
        -0.0007896761651762431,
        0.0,
        -0.057643144679068295,
        -0.014766414150425185,
        0.0,
        -0.030758682992919874,
        -0.004169718762663321,
        0.07156480616124443,
        0.058345689632290726,
        0.005521597226532542,
        0.005521597226532542,
        0.08945741469223685,
        -0.0573799371441286,
        -0.09780630688412577,
        0.04373429041400256,
        0.023831052735179964,
        -0.006834464655751578,
        0.11939683663532852,
        -0.014396443011021649,
        -0.049065766734277254,
        -0.006834464655751578,
        -0.07554247180927966,
        0.03756845956859134,
        0.07535434920760198,
        0.10969182243452051,
        -0.04829043885700426,
        -0.10085330637134496,
        0.14496241525668055,
        -0.04287673052864296,
        0.03818219748112785,
        -0.020264851233893714,
        -0.045707566425854815,
        0.023831052735179964,
        -0.045707566425854815,
        -0.014766414150425185,
        -0.004169718762663321,
        0.008655663796349295,
        -0.013712269927756465,
        0.00749801240016733,
        0.0340124787184647,
        0.07088644289267791,
        0.0036727383488906317,
        -0.03381209194388831,
        -0.07554247180927966,
        0.031631544091338996
      ]
    ],
    "worker_ids": [
      "ollama-cloud-deepseek-v4-pro",
      "ollama-cloud-glm-5.2",
      "ollama-cloud-kimi-k2.7-code",
      "ollama-cloud-qwen3-coder-480b"
    ]
  },
  "target_mode": "reward"
}
