{
  "dataset": "research/datasets/20260627-mixed-winner-14task-routing.jsonl",
  "epochs": 300,
  "l2": 0.0001,
  "learning_rate": 0.0005,
  "model_type": "linear-softmax-logits-router",
  "reward_temperature": 0.05,
  "router": {
    "feature_names": [
      "bias",
      "category_datasci",
      "category_filesystem",
      "category_general",
      "category_network",
      "category_plotting",
      "category_subprocess",
      "environment_risk",
      "family_bigcodebench_hard",
      "family_code_data",
      "family_code_easy",
      "family_code_text",
      "kw_base64",
      "kw_convert",
      "kw_count",
      "kw_csv",
      "kw_default",
      "kw_dict",
      "kw_directory",
      "kw_download",
      "kw_email",
      "kw_encoding",
      "kw_exception",
      "kw_file",
      "kw_flatten",
      "kw_frequent",
      "kw_ftp",
      "kw_group",
      "kw_hash",
      "kw_hex",
      "kw_key",
      "kw_list",
      "kw_lowercase",
      "kw_number",
      "kw_pair",
      "kw_parse",
      "kw_process",
      "kw_socket",
      "kw_sorted",
      "kw_ssl",
      "kw_string",
      "kw_strip",
      "kw_subprocess",
      "kw_sum",
      "kw_title",
      "kw_url",
      "kw_urllib",
      "kw_window",
      "kw_word",
      "kw_zip",
      "length_chars",
      "length_tokens",
      "lib_base64",
      "lib_binascii",
      "lib_codecs",
      "lib_collections",
      "lib_csv",
      "lib_datetime",
      "lib_ftplib",
      "lib_functools",
      "lib_glob",
      "lib_itertools",
      "lib_json",
      "lib_math",
      "lib_os",
      "lib_pandas",
      "lib_pathlib",
      "lib_random",
      "lib_re",
      "lib_shutil",
      "lib_statistics",
      "lib_subprocess",
      "lib_urllib",
      "lib_zipfile",
      "library_count",
      "missing_library_count",
      "plausibility_score"
    ],
    "policy": "logits-router",
    "weights": [
      [
        -0.06265695188687193,
        -0.04011236288599467,
        -0.03919593864140332,
        0.006774172525431659,
        -0.022443909957414028,
        0.0,
        -0.004906623600343152,
        -0.013466345974448433,
        -0.06265695188687193,
        0.0,
        0.0,
        0.0,
        -0.005072098790566917,
        -0.005072098790566917,
        0.006232542714584354,
        -0.09357332466314995,
        -0.022443909957414028,
        0.001160443924017419,
        0.008873552403033447,
        -0.016211367242829695,
        0.0,
        -0.005072098790566917,
        -0.07588607456753142,
        0.030241268068779994,
        0.0,
        0.0,
        -0.022443909957414028,
        0.0,
        0.0,
        -0.005072098790566917,
        -0.005072098790566917,
        -0.08390190401497759,
        0.0,
        -0.03633842284115281,
        0.0,
        -0.005072098790566917,
        0.0,
        0.0,
        0.0,
        0.0,
        -0.005072098790566917,
        0.0,
        -0.022443909957414028,
        -0.009335649441582765,
        0.0,
        0.001160443924017419,
        0.001160443924017419,
        0.0,
        0.0,
        -0.04983946525751438,
        -0.048512541406487086,
        -0.036641123811808014,
        -0.005072098790566917,
        -0.005072098790566917,
        -0.005072098790566917,
        0.006232542714584354,
        -0.04806949104443679,
        -0.02700277339956994,
        -0.022443909957414028,
        0.011846271315998603,
        -0.07152097864070052,
        0.011846271315998603,
        0.011304743642486573,
        0.011846271315998603,
        -0.03919593864140332,
        -0.04011236288599467,
        -0.02432191286113181,
        0.032807853823928264,
        -0.025811375995188016,
        0.1023388483755433,
        -0.05753444613035108,
        -0.022443909957414028,
        0.001160443924017419,
        -0.04983946525751438,
        -0.02541296147142634,
        0.0,
        -0.028696804277132955
      ],
      [
        -0.0760166324094568,
        -0.027957848376873165,
        -0.06337663310538366,
        -0.012055666504577551,
        -0.02275659097670605,
        0.0,
        -0.01974929658284665,
        -0.013653954586023663,
        -0.0760166324094568,
        0.0,
        0.0,
        0.0,
        -0.006861743253729503,
        -0.006861743253729503,
        0.006246771132280068,
        0.04394660716672756,
        -0.02275659097670605,
        -0.0006149721214494513,
        -0.016186685790498173,
        -0.016509819844425917,
        0.0,
        -0.006861743253729503,
        0.04356879706394925,
        0.011604137376661805,
        0.0,
        0.0,
        -0.02275659097670605,
        0.0,
        0.0,
        -0.006861743253729503,
        -0.006861743253729503,
        -0.10640715506617097,
        0.0,
        -0.05556356747880922,
        0.0,
        -0.006861743253729503,
        0.0,
        0.0,
        0.0,
        0.0,
        -0.006861743253729503,
        0.0,
        -0.02275659097670605,
        -0.029327962089805037,
        0.0,
        -0.0006149721214494513,
        -0.0006149721214494513,
        0.0,
        0.0,
        0.08754889966507488,
        -0.031110386234270728,
        -0.02400581463746366,
        -0.006861743253729503,
        -0.006861743253729503,
        -0.006861743253729503,
        0.006246771132280068,
        -0.04718994731488569,
        -0.026235605389004067,
        -0.02275659097670605,
        -0.005193923250848054,
        0.06527254015922312,
        -0.005193923250848054,
        -0.0032394767384207094,
        -0.005193923250848054,
        -0.06337663310538366,
        -0.027957848376873165,
        0.11527059332057016,
        -0.0813940688148732,
        -0.028090140666382574,
        -0.05684495563990994,
        -0.027785445857657035,
        -0.02275659097670605,
        -0.0006149721214494513,
        0.08754889966507488,
        -0.017007047121483616,
        0.0,
        -0.02241500967889115
      ],
      [
        0.0396988744353533,
        -0.026916383389248608,
        0.03078325945524038,
        0.0018098119630871928,
        0.028649347419175474,
        0.0,
        0.008960709782641432,
        0.017189608451505273,
        0.0396988744353533,
        0.0,
        0.0,
        0.0,
        0.003905138652406739,
        0.003905138652406739,
        -0.015650247128752796,
        0.10994360777723355,
        0.028649347419175474,
        -0.011745108476346033,
        -0.14219853556628695,
        0.012999100290422672,
        0.0,
        0.003905138652406739,
        -0.08467044326629908,
        0.06313771779452988,
        0.0,
        0.0,
        0.028649347419175474,
        0.0,
        0.0,
        0.003905138652406739,
        0.003905138652406739,
        -0.06490427328172994,
        0.0,
        0.0616126608320632,
        0.0,
        0.003905138652406739,
        0.0,
        0.0,
        0.0,
        0.0,
        0.003905138652406739,
        0.0,
        0.028649347419175474,
        -0.032079122587812654,
        0.0,
        -0.011745108476346033,
        -0.011745108476346033,
        0.0,
        0.0,
        -0.06615594257576032,
        0.019174699670436838,
        0.011490867952993217,
        0.003905138652406739,
        0.003905138652406739,
        0.003905138652406739,
        -0.015650247128752796,
        0.17298179502152733,
        0.09369178341987555,
        0.028649347419175474,
        -0.002095326689319548,
        -0.09557421686740239,
        -0.002095326689319548,
        -0.004038390507781242,
        -0.002095326689319548,
        0.03078325945524038,
        -0.026916383389248608,
        -0.033054391345800925,
        0.15552257941699904,
        -0.031020009859971887,
        -0.07470814451120915,
        0.10204606174742976,
        0.028649347419175474,
        -0.011745108476346033,
        -0.06615594257576032,
        0.02588907751264122,
        0.0,
        0.025788323402140708
      ],
      [
        0.09897470986097498,
        0.09498659465211678,
        0.07178931229154666,
        0.0034716820160587227,
        0.01655115351494464,
        0.0,
        0.01569521040054825,
        0.009930692108966745,
        0.09897470986097498,
        0.0,
        0.0,
        0.0,
        0.008028703391889776,
        0.008028703391889776,
        0.0031709332818883455,
        -0.06031689028081101,
        0.01655115351494464,
        0.011199636673778067,
        0.14951166895375237,
        0.01972208679683296,
        0.0,
        0.008028703391889776,
        0.11698772076988213,
        -0.10498312323997189,
        0.0,
        0.0,
        0.01655115351494464,
        0.0,
        0.0,
        0.008028703391889776,
        0.008028703391889776,
        0.2552133323628785,
        0.0,
        0.030289329487898746,
        0.0,
        0.008028703391889776,
        0.0,
        0.0,
        0.0,
        0.0,
        0.008028703391889776,
        0.0,
        0.01655115351494464,
        0.07074273411920035,
        0.0,
        0.011199636673778067,
        0.011199636673778067,
        0.0,
        0.0,
        0.028446508168199665,
        0.06044822797032118,
        0.04915607049627867,
        0.008028703391889776,
        0.008028703391889776,
        0.008028703391889776,
        0.0031709332818883455,
        -0.07772235666220521,
        -0.040453404631301766,
        0.01655115351494464,
        -0.004557021375830999,
        0.10182265534887956,
        -0.004557021375830999,
        -0.004026876396284606,
        -0.004557021375830999,
        0.07178931229154666,
        0.09498659465211678,
        -0.05789428911363738,
        -0.1069363644260544,
        0.08492152652154261,
        0.029214251775576034,
        -0.016726169759422118,
        0.01655115351494464,
        0.011199636673778067,
        0.028446508168199665,
        0.016530931080268884,
        0.0,
        0.02532349055388345
      ]
    ],
    "worker_ids": [
      "ollama-cloud-deepseek-v4-pro",
      "ollama-cloud-glm-5.2",
      "ollama-cloud-kimi-k2.7-code",
      "ollama-cloud-qwen3-coder-480b"
    ]
  },
  "target_mode": "reward"
}
