{
  "dataset": "research/datasets/20260628-mixed-winner-26task-next3-917-neighborhood-routing.jsonl",
  "epochs": 300,
  "l2": 0.0001,
  "learning_rate": 0.0005,
  "model_type": "linear-softmax-logits-router",
  "reward_temperature": 0.5,
  "router": {
    "feature_names": [
      "bias",
      "category_datasci",
      "category_filesystem",
      "category_general",
      "category_network",
      "category_plotting",
      "category_subprocess",
      "combo_archive_filesystem",
      "combo_dataframe_plotting",
      "combo_network_archive",
      "combo_network_filesystem",
      "combo_network_plotting",
      "environment_risk",
      "family_bigcodebench_hard",
      "family_code_data",
      "family_code_easy",
      "family_code_text",
      "kw_archive",
      "kw_base64",
      "kw_convert",
      "kw_count",
      "kw_csv",
      "kw_default",
      "kw_dict",
      "kw_directory",
      "kw_download",
      "kw_email",
      "kw_encoding",
      "kw_exception",
      "kw_file",
      "kw_flatten",
      "kw_frequent",
      "kw_ftp",
      "kw_group",
      "kw_hash",
      "kw_hex",
      "kw_http",
      "kw_https",
      "kw_key",
      "kw_list",
      "kw_lowercase",
      "kw_number",
      "kw_pair",
      "kw_parse",
      "kw_process",
      "kw_request",
      "kw_requests",
      "kw_socket",
      "kw_sorted",
      "kw_ssl",
      "kw_string",
      "kw_strip",
      "kw_subprocess",
      "kw_sum",
      "kw_title",
      "kw_unpack",
      "kw_url",
      "kw_urllib",
      "kw_window",
      "kw_word",
      "kw_zip",
      "length_chars",
      "length_tokens",
      "lib_base64",
      "lib_binascii",
      "lib_codecs",
      "lib_collections",
      "lib_csv",
      "lib_datetime",
      "lib_ftplib",
      "lib_functools",
      "lib_glob",
      "lib_itertools",
      "lib_json",
      "lib_math",
      "lib_matplotlib",
      "lib_numpy",
      "lib_os",
      "lib_pandas",
      "lib_pathlib",
      "lib_random",
      "lib_re",
      "lib_requests",
      "lib_shutil",
      "lib_sklearn",
      "lib_statistics",
      "lib_statsmodels",
      "lib_subprocess",
      "lib_typing",
      "lib_urllib",
      "lib_zipfile",
      "library_count",
      "missing_library_count",
      "plausibility_score",
      "signal_archive",
      "signal_dataframe",
      "signal_filesystem",
      "signal_network",
      "signal_plotting",
      "signal_subprocess"
    ],
    "policy": "logits-router",
    "weights": [
      [
        -0.009502530206703172,
        0.007793988107506743,
        0.023308372016916695,
        0.0017901356516895927,
        -0.01078815731011446,
        -0.004497263595067329,
        -0.00874974138590835,
        0.01081462957249319,
        -0.015077417432227094,
        -0.005823980705266045,
        -0.008308882731161468,
        0.009944117185336212,
        -0.017489585751753797,
        -0.009502530206703172,
        0.0,
        0.0,
        0.0,
        0.0,
        -0.0016622401750602343,
        0.0012213199670938486,
        0.011186815426373157,
        0.004814585054069702,
        -0.01078815731011446,
        0.04508634858126984,
        -0.006783358734679463,
        -0.008308882731161468,
        -0.004775861771151492,
        -0.0016622401750602343,
        -0.0397848083241895,
        0.0629159134382938,
        0.0,
        0.0,
        -0.01078815731011446,
        0.0,
        0.0,
        -0.0016622401750602343,
        0.0,
        0.0,
        0.04881056312844962,
        -0.03266760503629408,
        0.0,
        -0.02821123951452629,
        0.0,
        -0.0016622401750602343,
        -0.007716282334263478,
        0.008303255284219074,
        -0.005823980705266045,
        0.0,
        0.0,
        0.0,
        -0.0016622401750602343,
        0.0,
        -0.01078815731011446,
        -0.0033574551703084285,
        0.003641402936163477,
        0.0,
        0.0008170344038927763,
        0.006641015109158778,
        0.0,
        0.014392382663344435,
        -0.034952757645091606,
        -0.021793860528578474,
        -0.016326073182055544,
        -0.0016622401750602343,
        -0.0016622401750602343,
        -0.006438101946211731,
        0.058893447929344075,
        0.018064260920197573,
        -0.023904890533143656,
        -0.01078815731011446,
        0.0034523758267498237,
        -0.03621579162424327,
        0.004426858053342665,
        0.04775754098563565,
        0.0034523758267498237,
        -0.004497263595067329,
        0.04615277644874289,
        -0.035025195825866884,
        -0.042160167885794894,
        -0.008523197515131968,
        0.024401271098490142,
        -0.011756995570188045,
        -0.005823980705266045,
        0.045767387217584665,
        0.006825706613875738,
        -0.02307238118441613,
        -0.024225672175966294,
        -0.01078815731011446,
        -0.024225672175966294,
        0.006641015109158778,
        -0.034952757645091606,
        -0.00398878473228317,
        -0.005508345682842608,
        -0.01887203607583023,
        0.01081462957249319,
        0.007793988107506743,
        0.023308372016916695,
        -0.009971122906221649,
        -0.004497263595067329,
        -0.00874974138590835
      ],
      [
        -0.024407441376050915,
        0.005284307440833043,
        -0.04777688453108368,
        0.0018856212482123438,
        -0.01988435356071565,
        0.030049374506662795,
        -0.002796115038453189,
        -0.005340794959525209,
        0.01936955659673524,
        -0.001878245895692809,
        -0.005373014018158391,
        0.010480466314386016,
        0.0017488938197654108,
        -0.024407441376050915,
        0.0,
        0.0,
        0.0,
        0.0,
        0.00039262457251399964,
        9.205584022510882e-05,
        0.016089016705961173,
        0.004825277910954207,
        -0.01988435356071565,
        -0.01263148861885643,
        -0.03158458971420822,
        -0.005373014018158391,
        -0.006415042926761833,
        0.00039262457251399964,
        0.004068248906184006,
        -0.002337727102079759,
        0.0,
        0.0,
        -0.01988435356071565,
        0.0,
        0.0,
        0.00039262457251399964,
        0.0,
        0.0,
        -0.01445971200210387,
        -0.05091570188057702,
        0.0,
        -0.0035116674886348114,
        0.0,
        0.00039262457251399964,
        -0.008593857554743489,
        0.016389585438250174,
        -0.001878245895692809,
        0.0,
        0.0,
        0.0,
        0.00039262457251399964,
        0.0,
        -0.01988435356071565,
        -0.004866444518268957,
        -0.002065964445087581,
        0.0,
        0.014903964115071281,
        0.016782210010764107,
        0.0,
        0.008615862875402698,
        0.021888661271859528,
        -0.010982209559959526,
        -0.00914297447291085,
        0.00039262457251399964,
        0.00039262457251399964,
        -0.0060224183542478054,
        -0.00390832998813722,
        -0.03075365687187819,
        -0.003045334601598605,
        -0.01988435356071565,
        0.0014929966756983442,
        0.02087962205314443,
        0.0030792010354156146,
        -0.013721617417095244,
        0.0014929966756983442,
        0.030049374506662795,
        -0.02532610558897342,
        -0.03932411853023537,
        0.025781574462761952,
        0.03785748023618311,
        -0.029469051646480733,
        -0.016795191130138516,
        -0.001878245895692809,
        -0.027229456231384803,
        -0.0032023548112377577,
        -0.012039999696264906,
        0.025901341827466166,
        -0.01988435356071565,
        0.025901341827466166,
        0.016782210010764107,
        0.021888661271859528,
        -0.004059253815664807,
        0.0068397529780974105,
        -0.0023055103826505013,
        -0.005340794959525209,
        0.005284307440833043,
        -0.04777688453108368,
        -0.004980389445644394,
        0.030049374506662795,
        -0.002796115038453189
      ],
      [
        0.025395636504986056,
        -0.027980924272826932,
        0.030874488807029987,
        -0.002509827504178561,
        0.013953447108814685,
        0.021243046372973796,
        0.00711896551243632,
        -0.03798964981408495,
        0.019998308785252803,
        0.034768549447816176,
        0.040568368029138005,
        0.0031238816079770773,
        0.023175480797923666,
        0.025395636504986056,
        0.0,
        0.0,
        0.0,
        0.0,
        -0.0010784901399987327,
        -0.0012007353070538174,
        -0.008275873694547591,
        0.03750263193823593,
        0.013953447108814685,
        -0.019231136507252795,
        -0.03702274887006152,
        0.040568368029138005,
        -0.026297796251004812,
        -0.0010784901399987327,
        -0.0296414064605538,
        0.035423439076318425,
        0.0,
        0.0,
        0.013953447108814685,
        0.0,
        0.0,
        -0.0010784901399987327,
        0.0,
        0.0,
        -0.013864512559179637,
        -0.011009204748125927,
        0.0,
        0.030691204942783826,
        0.0,
        -0.0010784901399987327,
        0.008348508029756223,
        -0.00815362852749252,
        0.034768549447816176,
        0.0,
        0.0,
        0.0,
        -0.0010784901399987327,
        0.0,
        0.013953447108814685,
        -0.014417883528971203,
        -0.003030793621809367,
        0.0,
        0.025536430780324977,
        -0.009232118667491246,
        0.0,
        0.0012768878488893254,
        0.01258689228815414,
        0.005718713385394919,
        0.0028224546737989097,
        -0.0010784901399987327,
        -0.0010784901399987327,
        -0.027376286391003615,
        -0.01863265737156564,
        0.07068424225651089,
        0.009869612411544229,
        0.013953447108814685,
        -0.0014313373641798312,
        -0.05316747691997713,
        -0.0007653506133760979,
        -0.007993611143030042,
        -0.0014313373641798312,
        0.021243046372973796,
        -0.03423169432401816,
        0.03462574343083718,
        -0.019381039449009856,
        -0.014284177966087169,
        0.06452901772419153,
        -0.03241590363568327,
        0.034768549447816176,
        -0.05057654210223913,
        -0.001942895363374695,
        0.048393665256404046,
        0.026574501195414504,
        0.013953447108814685,
        0.026574501195414504,
        -0.009232118667491246,
        0.01258689228815414,
        0.010273725684167765,
        0.007401706266317452,
        0.022121157264980457,
        -0.03798964981408495,
        -0.027980924272826932,
        0.030874488807029987,
        0.03948987788913964,
        0.021243046372973796,
        0.00711896551243632
      ],
      [
        0.008514335077767958,
        0.014902628724487232,
        -0.006405976292862831,
        -0.0011659293957233816,
        0.016719063762015502,
        -0.04679515728456946,
        0.004426890911925092,
        0.03251581520111702,
        -0.024290447949761193,
        -0.02706632284685734,
        -0.026886471279818518,
        -0.023548465107699253,
        -0.007434788865935246,
        0.008514335077767958,
        0.0,
        0.0,
        0.0,
        0.0,
        0.0023481057425449553,
        -0.00011264050026516694,
        -0.018999958437786704,
        -0.04714249490325981,
        0.016719063762015502,
        -0.01322372345516088,
        0.07539069731894915,
        -0.026886471279818518,
        0.0374887009489181,
        0.0023481057425449553,
        0.06535796587855926,
        -0.09600162541253235,
        0.0,
        0.0,
        0.016719063762015502,
        0.0,
        0.0,
        0.0023481057425449553,
        0.0,
        0.0,
        -0.020486338567165918,
        0.0945925116649967,
        0.0,
        0.0010317020603772945,
        0.0,
        0.0023481057425449553,
        0.00796163185925074,
        -0.01653921219497668,
        -0.02706632284685734,
        0.0,
        0.0,
        0.0,
        0.0023481057425449553,
        0.0,
        0.016719063762015502,
        0.022641783217548655,
        0.0014553551307334494,
        0.0,
        -0.041257429299289085,
        -0.014191106452431683,
        0.0,
        -0.02428513338763641,
        0.0004772040850779204,
        0.02705735670314303,
        0.022646592981167484,
        0.0023481057425449553,
        0.0023481057425449553,
        0.0398368066914632,
        -0.03635246056964109,
        -0.05799484630483029,
        0.017080612723197837,
        0.016719063762015502,
        -0.0035140351382683273,
        0.06850364649107599,
        -0.006740708475382198,
        -0.02604231242551035,
        -0.0035140351382683273,
        -0.04679515728456946,
        0.013405023464248787,
        0.03972357092526511,
        0.03575963287204273,
        -0.01505010475496385,
        -0.05946123717620097,
        0.06096809033600966,
        -0.02706632284685734,
        0.032038611116039006,
        -0.0016804564392632934,
        -0.013281284375723195,
        -0.028250170846914228,
        0.016719063762015502,
        -0.028250170846914228,
        -0.014191106452431683,
        0.0004772040850779204,
        -0.002225687136219826,
        -0.008733113561572291,
        -0.0009436108064997784,
        0.03251581520111702,
        0.014902628724487232,
        -0.006405976292862831,
        -0.024538365537273506,
        -0.04679515728456946,
        0.004426890911925092
      ]
    ],
    "worker_ids": [
      "ollama-cloud-deepseek-v4-pro",
      "ollama-cloud-glm-5.2",
      "ollama-cloud-kimi-k2.7-code",
      "ollama-cloud-qwen3-coder-480b"
    ]
  },
  "target_mode": "reward"
}
