{
  "dataset": "research/datasets/20260628-normal-offset16-contrast-29task-weight0p25-routing.jsonl",
  "epochs": 300,
  "l2": 0.0001,
  "learning_rate": 0.0005,
  "model_type": "linear-softmax-logits-router",
  "reward_temperature": 0.05,
  "router": {
    "feature_names": [
      "bias",
      "category_datasci",
      "category_filesystem",
      "category_general",
      "category_network",
      "category_plotting",
      "category_subprocess",
      "combo_network_archive",
      "combo_network_filesystem",
      "combo_network_plotting",
      "environment_risk",
      "family_bigcodebench_hard",
      "kw_archive",
      "kw_base64",
      "kw_count",
      "kw_dict",
      "kw_download",
      "kw_fetch",
      "kw_file",
      "kw_files",
      "kw_frequent",
      "kw_hex",
      "kw_http",
      "kw_key",
      "kw_list",
      "kw_lowercase",
      "kw_number",
      "kw_plot",
      "kw_request",
      "kw_requests",
      "kw_scan",
      "kw_sorted",
      "kw_string",
      "kw_strip",
      "kw_subprocess",
      "kw_sum",
      "kw_url",
      "kw_word",
      "kw_zip",
      "length_chars",
      "length_tokens",
      "lib_base64",
      "lib_binascii",
      "lib_codecs",
      "lib_collections",
      "lib_csv",
      "lib_datetime",
      "lib_ftplib",
      "lib_functools",
      "lib_glob",
      "lib_hashlib",
      "lib_itertools",
      "lib_json",
      "lib_math",
      "lib_matplotlib",
      "lib_numpy",
      "lib_os",
      "lib_pandas",
      "lib_pathlib",
      "lib_random",
      "lib_re",
      "lib_requests",
      "lib_shutil",
      "lib_statistics",
      "lib_subprocess",
      "lib_urllib",
      "lib_zipfile",
      "lib_zlib",
      "library_count",
      "missing_library_count",
      "plausibility_score",
      "signal_archive",
      "signal_datasci",
      "signal_filesystem",
      "signal_general",
      "signal_network",
      "signal_plotting",
      "signal_subprocess"
    ],
    "policy": "logits-router",
    "weights": [
      [
        0.052994498000345565,
        0.07966281128767992,
        0.054413847550578036,
        0.015128840903023398,
        -0.01821739178472948,
        0.04237293180470952,
        0.0011790355371698485,
        -0.01912231864453175,
        -0.01149772354802518,
        0.024769164784772334,
        -0.010930435070837649,
        0.052994498000345565,
        0.0,
        0.001111982625452232,
        0.025841986881235984,
        0.10014969105471003,
        -0.01149772354802518,
        0.0,
        0.12715783912137119,
        -0.07588490072652053,
        0.0,
        0.0006691590899384795,
        0.0,
        0.11576717402603648,
        0.018066058015730097,
        0.0,
        -0.04410288966387021,
        0.020200273110823633,
        0.025841986881235984,
        -0.01912231864453175,
        0.0,
        0.0,
        -2.6814850076622302e-05,
        0.0,
        -0.011343902489970628,
        -0.011488410863236667,
        0.00738882732664274,
        0.03542821716861341,
        -0.07555198545036176,
        -0.10388820094056223,
        -0.01418581164204792,
        0.001111982625452232,
        0.0006691590899384795,
        -0.014239626042175497,
        0.13102755196385357,
        0.038139403818198504,
        -0.02129173813797431,
        -0.01821739178472948,
        0.014016858277571211,
        -0.07541208908250212,
        0.0011387974755288494,
        0.01765616824756429,
        0.10617167628782473,
        0.014016858277571211,
        0.04237293180470952,
        0.09908197816867291,
        -0.06633953854832808,
        -0.029403950964468916,
        -0.026894756545137823,
        0.03502166026947851,
        -0.005375523116225503,
        -0.01912231864453175,
        0.08820790001495649,
        -0.05703909121578421,
        -0.011343902489970628,
        0.02651114597117448,
        -0.07555198545036176,
        -0.0006959739400151,
        0.019421618633028943,
        0.0,
        -0.003478023800379365,
        0.012655914564595017,
        0.07966281128767992,
        0.054413847550578036,
        0.015128840903023398,
        -0.010828564458086665,
        0.04237293180470952,
        0.0011790355371698485
      ],
      [
        -0.016929051783910343,
        -0.03426013487323705,
        -0.03812785956914298,
        0.017753177180133497,
        -0.014788421045987085,
        0.00319876974952512,
        -0.01259135231260424,
        -0.017089246287203253,
        -0.010377152860915602,
        0.006588129842571702,
        -0.008873052627592335,
        -0.016929051783910343,
        0.0,
        0.016457256794525903,
        0.02150051447227476,
        -0.003980873317579777,
        -0.010377152860915602,
        0.0,
        0.018971628207872956,
        0.05175224090978254,
        0.0,
        0.0030710937660616633,
        0.0,
        -0.013358639491567965,
        -0.0883915268369367,
        0.0,
        -0.04232108635291844,
        -0.0035833895336457736,
        0.02150051447227476,
        -0.017089246287203253,
        0.0,
        0.0,
        0.008577117534400075,
        0.0,
        -0.011489066946396542,
        -0.0192074635261306,
        0.007482361951133285,
        0.004138275750349659,
        0.07758115713050155,
        -0.07110393702675342,
        -0.013620967805103443,
        0.016457256794525903,
        0.0030710937660616633,
        -0.007398459372563507,
        0.0024264166312614314,
        -0.04976177943300252,
        -0.02918209295112177,
        -0.014788421045987085,
        0.001295920385607577,
        0.08195029386909687,
        0.007880139260125811,
        0.013664729328268836,
        -0.014150658637139114,
        0.001295920385607577,
        0.00319876974952512,
        -0.027661028525484372,
        -0.020017576962198313,
        -0.009845929067670437,
        0.119098282110633,
        -0.05524742381946242,
        -0.030204721114684727,
        -0.017089246287203253,
        -0.049680427918769095,
        -0.01394384959272475,
        -0.011489066946396542,
        0.02457160823833652,
        0.07758115713050155,
        0.005506023768338435,
        0.0007536929743481976,
        0.0,
        -0.007813075670207467,
        0.02790072921173266,
        -0.03426013487323705,
        -0.03812785956914298,
        0.017753177180133497,
        -0.007306059094853921,
        0.00319876974952512,
        -0.01259135231260424
      ],
      [
        -0.012288447129928642,
        -0.10669983697413676,
        0.02450260934210816,
        -0.01002305289108926,
        0.016489318095403886,
        0.002936431285367332,
        0.028231765422689164,
        0.08453806165131299,
        0.08288628435993652,
        0.012130634506045665,
        0.009893590857242288,
        -0.012288447129928642,
        0.0,
        -0.005018462327863816,
        -0.018141095386780142,
        -0.06449667201845632,
        0.08288628435993652,
        0.0,
        0.07167047661269349,
        -0.138661405756257,
        0.0,
        -0.0009570107414361888,
        0.0,
        -0.04847976829521459,
        -0.12084426206523473,
        0.0,
        0.061410145509670534,
        -0.010328522978129102,
        -0.018141095386780142,
        0.08453806165131299,
        0.0,
        0.0,
        -0.0008455084940776885,
        0.0,
        0.010897394750745982,
        -0.03362807664706496,
        0.06543995552309682,
        0.003458740145604501,
        0.002890443768415055,
        0.049712342015912084,
        0.0038931546003402318,
        -0.005018462327863816,
        -0.0009570107414361888,
        -0.03311351016632153,
        -0.05994420920377725,
        0.11977420168468082,
        0.0469702679445785,
        0.016489318095403886,
        -0.005004590563225435,
        -0.11633917073766563,
        -0.004172953833786132,
        -0.0013947602222918738,
        -0.03768428269067025,
        -0.005004590563225435,
        0.002936431285367332,
        -0.06948888699877562,
        0.04246456021628326,
        -0.06476001122950083,
        -0.03824330664191133,
        0.14572743465915,
        -0.06347611452988046,
        0.08453806165131299,
        -0.08207095762565042,
        0.1048842975956557,
        0.010897394750745982,
        -0.01909810612821628,
        0.002890443768415055,
        0.00011150224735849778,
        -0.002808701030524564,
        0.0,
        0.007431394622566365,
        -0.07918051385723515,
        -0.10669983697413676,
        0.02450260934210816,
        -0.01002305289108926,
        0.08192927361850047,
        0.002936431285367332,
        0.028231765422689164
      ],
      [
        -0.02377699908650635,
        0.06129716055969403,
        -0.04078859732354358,
        -0.022858965192067652,
        0.016516494735312692,
        -0.048508132839602196,
        -0.016819448647254896,
        -0.048326496719578074,
        -0.06101140795099557,
        -0.0434879291333897,
        0.009909896841187593,
        -0.02377699908650635,
        0.0,
        -0.012550777092114352,
        -0.029201405966730713,
        -0.03167214571867361,
        -0.06101140795099557,
        0.0,
        -0.21779994394193705,
        0.16279406557299542,
        0.0,
        -0.0027832421145639395,
        0.0,
        -0.053928766239254404,
        0.19116973088644065,
        0.0,
        0.025013830507118036,
        -0.006288360599048636,
        -0.029201405966730713,
        -0.048326496719578074,
        0.0,
        0.0,
        -0.007704794190245765,
        0.0,
        0.011935574685621127,
        0.06432395103643232,
        -0.08031114480087248,
        -0.04302523306456738,
        -0.004919615448555019,
        0.1252797959514047,
        0.023913624846810904,
        -0.012550777092114352,
        -0.0027832421145639395,
        0.05475159558106072,
        -0.07350975939133783,
        -0.10815182606987717,
        0.0035035631445177085,
        0.016516494735312692,
        -0.010308188099953338,
        0.10980096595107054,
        -0.00484598290186854,
        -0.029926137353541153,
        -0.05433673496001521,
        -0.010308188099953338,
        -0.048508132839602196,
        -0.0019320626444129486,
        0.043892555294243206,
        0.10400989126164059,
        -0.05396021892358357,
        -0.12550167110916588,
        0.09905635876079097,
        -0.048326496719578074,
        0.04354348552946269,
        -0.03390135678714684,
        0.011935574685621127,
        -0.031984648081294684,
        -0.004919615448555019,
        -0.0049215520756818384,
        -0.01736661057685257,
        0.0,
        0.003859704848020431,
        0.03862387008090762,
        0.06129716055969403,
        -0.04078859732354358,
        -0.022858965192067652,
        -0.06379465006556001,
        -0.048508132839602196,
        -0.016819448647254896
      ]
    ],
    "worker_ids": [
      "ollama-cloud-deepseek-v4-pro",
      "ollama-cloud-glm-5.2",
      "ollama-cloud-kimi-k2.7-code",
      "ollama-cloud-qwen3-coder-480b"
    ]
  },
  "target_mode": "reward"
}
