{
  "dataset": "research/datasets/20260627-mixed-winner-16task-routing.jsonl",
  "epochs": 300,
  "l2": 0.0001,
  "learning_rate": 0.0005,
  "model_type": "linear-softmax-logits-router",
  "reward_temperature": 0.1,
  "router": {
    "feature_names": [
      "bias",
      "category_datasci",
      "category_filesystem",
      "category_general",
      "category_network",
      "category_plotting",
      "category_subprocess",
      "environment_risk",
      "family_bigcodebench_hard",
      "family_code_data",
      "family_code_easy",
      "family_code_text",
      "kw_base64",
      "kw_convert",
      "kw_count",
      "kw_csv",
      "kw_default",
      "kw_dict",
      "kw_directory",
      "kw_download",
      "kw_email",
      "kw_encoding",
      "kw_exception",
      "kw_file",
      "kw_flatten",
      "kw_frequent",
      "kw_ftp",
      "kw_group",
      "kw_hash",
      "kw_hex",
      "kw_key",
      "kw_list",
      "kw_lowercase",
      "kw_number",
      "kw_pair",
      "kw_parse",
      "kw_process",
      "kw_socket",
      "kw_sorted",
      "kw_ssl",
      "kw_string",
      "kw_strip",
      "kw_subprocess",
      "kw_sum",
      "kw_title",
      "kw_url",
      "kw_urllib",
      "kw_window",
      "kw_word",
      "kw_zip",
      "length_chars",
      "length_tokens",
      "lib_base64",
      "lib_binascii",
      "lib_codecs",
      "lib_collections",
      "lib_csv",
      "lib_datetime",
      "lib_ftplib",
      "lib_functools",
      "lib_glob",
      "lib_itertools",
      "lib_json",
      "lib_math",
      "lib_matplotlib",
      "lib_numpy",
      "lib_os",
      "lib_pandas",
      "lib_pathlib",
      "lib_random",
      "lib_re",
      "lib_shutil",
      "lib_statistics",
      "lib_subprocess",
      "lib_urllib",
      "lib_zipfile",
      "library_count",
      "missing_library_count",
      "plausibility_score"
    ],
    "policy": "logits-router",
    "weights": [
      [
        -0.0521293155501643,
        -0.03857723173332571,
        -0.038823406000891805,
        0.008794276933431558,
        -0.023064085107089845,
        0.0041259210518425245,
        -0.006306994971903274,
        -0.01383845106425397,
        -0.0521293155501643,
        0.0,
        0.0,
        0.0,
        -0.0012726261638131555,
        -0.0012726261638131555,
        0.007765858337650897,
        -0.09215422076647027,
        -0.023064085107089845,
        0.006493232173837747,
        0.007793346303382078,
        -0.015298226769439,
        0.0,
        -0.0012726261638131555,
        -0.07321165137409148,
        0.03232900038401656,
        0.0,
        0.0,
        -0.023064085107089845,
        0.0,
        0.0,
        -0.0012726261638131555,
        -0.0012726261638131555,
        -0.08003021514433245,
        0.0,
        -0.03881816287330341,
        0.0,
        -0.0012726261638131555,
        0.0,
        0.0,
        0.0,
        0.0,
        -0.0012726261638131555,
        0.0,
        -0.023064085107089845,
        -0.01127545289907043,
        0.0,
        0.006493232173837747,
        0.006493232173837747,
        0.0,
        0.0,
        -0.04600687199512833,
        -0.04288932270420316,
        -0.032254845285777975,
        -0.0012726261638131555,
        -0.0012726261638131555,
        -0.0012726261638131555,
        0.011891779389493439,
        -0.046616752304274,
        -0.027542709974233057,
        -0.023064085107089845,
        0.010066903097244667,
        -0.06798032770189748,
        0.014373335180690831,
        0.008991231797535774,
        0.010066903097244667,
        0.0041259210518425245,
        0.0043064320834461335,
        -0.038823406000891805,
        -0.03857723173332571,
        -0.024195112465880894,
        0.0316773423364196,
        -0.02262004422966088,
        0.09820665940191547,
        -0.05737244028568418,
        -0.023064085107089845,
        0.006493232173837747,
        -0.04600687199512833,
        -0.021948120578692467,
        0.0,
        -0.02663854504157346
      ],
      [
        -0.05959780776184644,
        -0.01463850944834376,
        -0.06606238491661683,
        -0.00264455411323492,
        -0.02385969980011144,
        0.0006941384523171626,
        -0.015355024639234695,
        -0.014315819880066813,
        -0.05959780776184644,
        0.0,
        0.0,
        0.0,
        -0.0025803564193266257,
        -0.0025803564193266257,
        0.006548660830653266,
        0.03826355428978713,
        -0.02385969980011144,
        0.003968304411326646,
        -0.018389347083288706,
        -0.017311038969458133,
        0.0,
        -0.0025803564193266257,
        0.04341302974571168,
        0.011820378641712499,
        0.0,
        0.0,
        -0.02385969980011144,
        0.0,
        0.0,
        -0.0025803564193266257,
        -0.0025803564193266257,
        -0.10384327265448799,
        0.0,
        -0.051299783306290495,
        0.0,
        -0.0025803564193266257,
        0.0,
        0.0,
        0.0,
        0.0,
        -0.0025803564193266257,
        0.0,
        -0.02385969980011144,
        -0.025073714288163476,
        0.0,
        0.003968304411326646,
        0.003968304411326646,
        0.0,
        0.0,
        0.08413979507575267,
        -0.02178306376246803,
        -0.016987640900680643,
        -0.0025803564193266257,
        -0.0025803564193266257,
        -0.0025803564193266257,
        0.007242799282970432,
        -0.047673037833328005,
        -0.026226069018126946,
        -0.02385969980011144,
        -6.419769390831194e-05,
        0.06078826640907818,
        0.0007009116879057338,
        0.0019560143302234084,
        -6.419769390831194e-05,
        0.0006941384523171626,
        0.0007651093818140498,
        -0.06606238491661683,
        -0.01463850944834376,
        0.11094610871737048,
        -0.0748321960886235,
        -0.028319408711645518,
        -0.05365992576467444,
        -0.020345746211980247,
        -0.02385969980011144,
        0.003968304411326646,
        0.08413979507575267,
        -0.01161446944905999,
        0.0,
        -0.01915854196971476
      ],
      [
        0.042680221905197165,
        -0.025724060231456986,
        0.03404722514099943,
        0.000636051718675256,
        0.03199349671009596,
        0.0007633159123913378,
        0.01642937916490276,
        0.019196098026057526,
        0.042680221905197165,
        0.0,
        0.0,
        0.0,
        0.001309256414808023,
        0.001309256414808023,
        -0.013512182812141253,
        0.10744700818852768,
        0.03199349671009596,
        -0.012202926397333225,
        -0.13772948946868954,
        0.018481313897954633,
        0.0,
        0.001309256414808023,
        -0.07740130726715025,
        0.06428059729628832,
        0.0,
        0.0,
        0.03199349671009596,
        0.0,
        0.0,
        0.001309256414808023,
        0.001309256414808023,
        -0.06160851815155923,
        0.0,
        0.060593900924790466,
        0.0,
        0.001309256414808023,
        0.0,
        0.0,
        0.0,
        0.0,
        0.001309256414808023,
        0.0,
        0.03199349671009596,
        -0.031578959327669104,
        0.0,
        -0.012202926397333225,
        -0.012202926397333225,
        0.0,
        0.0,
        -0.0637845036482814,
        0.021157308318657704,
        0.013106227840560807,
        0.001309256414808023,
        0.001309256414808023,
        0.001309256414808023,
        -0.012748866899749934,
        0.17177671460968855,
        0.0921728602524596,
        0.03199349671009596,
        -0.0006732046961327655,
        -0.09520941646897225,
        -0.0002981894856583857,
        -0.0020519347330519053,
        -0.0006732046961327655,
        0.0007633159123913378,
        0.0003750152104743816,
        0.03404722514099943,
        -0.025724060231456986,
        -0.03342395178962487,
        0.15100699060157433,
        -0.030557798321457216,
        -0.07503272789896771,
        0.0999746510920276,
        0.03199349671009596,
        -0.012202926397333225,
        -0.0637845036482814,
        0.026565075021741196,
        0.0,
        0.027926311440884102
      ],
      [
        0.06904690140681372,
        0.07893980141312677,
        0.07083856577650889,
        -0.006785774538871855,
        0.014930288197105452,
        -0.005583375416551039,
        0.005232640446235318,
        0.00895817291826325,
        0.06904690140681372,
        0.0,
        0.0,
        0.0,
        0.0025437261683317544,
        0.0025437261683317544,
        -0.0008023363561629178,
        -0.053556341711845194,
        0.014930288197105452,
        0.0017413898121688466,
        0.14832549024859631,
        0.014127951840942513,
        0.0,
        0.0025437261683317544,
        0.1071999288955303,
        -0.10842997632201767,
        0.0,
        0.0,
        0.014930288197105452,
        0.0,
        0.0,
        0.0025437261683317544,
        0.0025437261683317544,
        0.2454820059503795,
        0.0,
        0.029524045254803635,
        0.0,
        0.0025437261683317544,
        0.0,
        0.0,
        0.0,
        0.0,
        0.0025437261683317544,
        0.0,
        0.014930288197105452,
        0.06792812651490307,
        0.0,
        0.0017413898121688466,
        0.0017413898121688466,
        0.0,
        0.0,
        0.02565158056765757,
        0.043515078148013316,
        0.036136258345897995,
        0.0025437261683317544,
        0.0025437261683317544,
        0.0025437261683317544,
        -0.0063857117727139645,
        -0.07748692447208697,
        -0.03840408126009946,
        0.014930288197105452,
        -0.009329500707203623,
        0.10240147776179141,
        -0.014776057382938154,
        -0.008895311394707258,
        -0.009329500707203623,
        -0.005583375416551039,
        -0.005446556675734561,
        0.07083856577650889,
        0.07893980141312677,
        -0.053327044461864564,
        -0.10785213684937099,
        0.08149725126276378,
        0.030485994261726726,
        -0.022256464594363035,
        0.014930288197105452,
        0.0017413898121688466,
        0.02565158056765757,
        0.00699751500601129,
        0.0,
        0.017870775570404146
      ]
    ],
    "worker_ids": [
      "ollama-cloud-deepseek-v4-pro",
      "ollama-cloud-glm-5.2",
      "ollama-cloud-kimi-k2.7-code",
      "ollama-cloud-qwen3-coder-480b"
    ]
  },
  "target_mode": "reward"
}
