{
  "epochs": 300,
  "l2": 0.0001,
  "latency_regret_weight": 0.5,
  "learning_rate": 0.0005,
  "model_type": "linear-multi-head-orchestrator",
  "orchestrator": {
    "abstain_weights": [
      -0.6047091386884541,
      -0.11361993491405596,
      -0.23424148006065673,
      -0.15593081189522567,
      -0.04663664958474415,
      -0.08855652409240115,
      -0.06624971914080251,
      -0.1267153684958765,
      -0.027166310455289472,
      -0.011734666401581295,
      -0.06551481825947081,
      -0.012659842910411044,
      -0.08494998189148832,
      -0.6047091386884541,
      0.0,
      0.0,
      0.0,
      -0.016933838145067923,
      -0.07833916485392574,
      -0.05546718244489959,
      -0.08020628220767856,
      -0.021897265145028492,
      -0.01349887252567973,
      -0.07855825287377274,
      -0.17144604273462144,
      -0.05050078760816835,
      -0.039826074296548955,
      -0.021424335718499842,
      0.04260203952603574,
      -0.15065807131146813,
      0.0,
      0.0,
      -0.01349887252567973,
      -0.01610989822195444,
      0.0,
      -0.021424335718499842,
      -0.018123746407761914,
      -0.015014030651302548,
      0.08408146473436609,
      -0.2948382417037887,
      -0.029822998503481038,
      -0.18474438152998457,
      -0.018506896513576142,
      -0.07734241876287072,
      -0.05049640419845985,
      -0.04339099508866969,
      -0.06765274944595176,
      0.0,
      -0.014031373582666162,
      0.0,
      -0.11466200856054584,
      0.0,
      -0.046716878293312614,
      -0.05951870363779869,
      -0.021661571780634138,
      0.0,
      -0.11434433384535947,
      -0.08448592103601553,
      0.0,
      0.04692867657716875,
      -0.07950313157264143,
      -0.27125929925610237,
      -0.20479385320447754,
      -0.07833916485392574,
      -0.021424335718499842,
      -0.05591808304437063,
      -0.0401746003716443,
      -0.059683089733063736,
      -0.09932867766904108,
      0.16276876124372536,
      -0.01349887252567973,
      -0.024988342552512997,
      -0.09538411178217646,
      -0.025637888187095673,
      -0.0984223511031761,
      -0.09375466728176729,
      -0.024988342552512997,
      -0.06835280442929581,
      -0.14443025508737667,
      -0.153530187784736,
      -0.10949025446789008,
      -0.016157045257829433,
      -0.06501287315533313,
      -0.06391429840942554,
      -0.06765274944595176,
      -0.06214754534043107,
      -0.11065537354263617,
      -0.0641460750683032,
      -0.13325204054995,
      -0.047057608453038496,
      -0.029822998503481038,
      -0.046716878293312614,
      -0.08448592103601553,
      -0.07950313157264143,
      -0.03127694094833047,
      -0.19463787474777172,
      -0.02848399607032094,
      -0.18608760243155636,
      -0.1267153684958765,
      -0.11361993491405596,
      -0.25987936824775615,
      -0.12784320637103902,
      -0.08855652409240115,
      -0.06624971914080251
    ],
    "feature_names": [
      "bias",
      "category_datasci",
      "category_filesystem",
      "category_general",
      "category_network",
      "category_plotting",
      "category_subprocess",
      "combo_archive_filesystem",
      "combo_dataframe_plotting",
      "combo_network_archive",
      "combo_network_filesystem",
      "combo_network_plotting",
      "environment_risk",
      "family_bigcodebench_hard",
      "family_code_data",
      "family_code_easy",
      "family_code_text",
      "kw_archive",
      "kw_base64",
      "kw_convert",
      "kw_count",
      "kw_csv",
      "kw_default",
      "kw_dict",
      "kw_directory",
      "kw_download",
      "kw_email",
      "kw_encoding",
      "kw_exception",
      "kw_file",
      "kw_flatten",
      "kw_frequent",
      "kw_ftp",
      "kw_group",
      "kw_hash",
      "kw_hex",
      "kw_http",
      "kw_https",
      "kw_key",
      "kw_list",
      "kw_lowercase",
      "kw_number",
      "kw_pair",
      "kw_parse",
      "kw_process",
      "kw_request",
      "kw_requests",
      "kw_socket",
      "kw_sorted",
      "kw_ssl",
      "kw_string",
      "kw_strip",
      "kw_subprocess",
      "kw_sum",
      "kw_title",
      "kw_unpack",
      "kw_url",
      "kw_urllib",
      "kw_window",
      "kw_word",
      "kw_zip",
      "length_chars",
      "length_tokens",
      "lib_base64",
      "lib_binascii",
      "lib_bs4",
      "lib_codecs",
      "lib_collections",
      "lib_csv",
      "lib_datetime",
      "lib_ftplib",
      "lib_functools",
      "lib_glob",
      "lib_hashlib",
      "lib_itertools",
      "lib_json",
      "lib_math",
      "lib_matplotlib",
      "lib_numpy",
      "lib_os",
      "lib_pandas",
      "lib_pathlib",
      "lib_random",
      "lib_re",
      "lib_requests",
      "lib_scipy",
      "lib_seaborn",
      "lib_shutil",
      "lib_sklearn",
      "lib_statistics",
      "lib_string",
      "lib_subprocess",
      "lib_urllib",
      "lib_zipfile",
      "lib_zlib",
      "library_count",
      "missing_library_count",
      "plausibility_score",
      "signal_archive",
      "signal_dataframe",
      "signal_filesystem",
      "signal_network",
      "signal_plotting",
      "signal_subprocess"
    ],
    "policy": "linear-multi-head-orchestrator",
    "verifier_weights": [
      -0.009273046505946809,
      -0.09097442881572568,
      -0.15390192924050966,
      0.04793169599436366,
      -0.0170336774928156,
      0.039723267483139146,
      0.1799151235386241,
      -0.12321014330585255,
      -0.02245583387764449,
      -0.04798620073765454,
      0.027315743635979155,
      0.008935658096877217,
      -0.04636236753130139,
      -0.009273046505946809,
      0.0,
      0.0,
      0.0,
      0.0389594183562531,
      0.061232180968507605,
      -0.006887322993141879,
      0.0769631446211781,
      -0.15641487439062624,
      -0.0027633813198115202,
      0.02325568170461835,
      -0.13965551761676417,
      -0.013880874712863983,
      -0.021715723515318378,
      0.021315128932859095,
      0.17651224347323788,
      -0.13755212563478852,
      0.0,
      0.0,
      -0.0027633813198115202,
      -0.05862896615072279,
      0.0,
      0.021315128932859095,
      -0.05546691452184716,
      0.04119661834884321,
      0.008401778482817555,
      -0.17432253444609846,
      0.024769575015031516,
      -0.1336714873120803,
      0.03849426915299929,
      -0.05526607582651112,
      -0.09097799277347028,
      -0.018598207177245127,
      -0.12456740549702486,
      0.0,
      -0.05177318227232412,
      0.0,
      -0.054786139991588954,
      0.0,
      0.07944070550012867,
      0.0017962122712929416,
      0.013117621665298274,
      0.0,
      -0.0663835692195636,
      0.03706954603993829,
      0.0,
      0.15686453278524964,
      -0.06791132587074528,
      -0.03584135669458897,
      -0.03816332298797887,
      0.061232180968507605,
      0.021315128932859095,
      -0.07658120475937062,
      -0.04524739344927988,
      0.14559457368342757,
      -0.03467102831721846,
      -0.026118498727175136,
      -0.0027633813198115202,
      0.02424084859719088,
      -0.026296089678016898,
      0.017245760405209545,
      0.12061553561182733,
      0.007779246000008328,
      0.02424084859719088,
      0.09847445875811144,
      -0.08154530637164371,
      -0.013046630206519834,
      -0.03464765521096731,
      -0.04705451827864215,
      -0.19169589822853064,
      0.005633715600695815,
      -0.12456740549702486,
      -0.040197110704961035,
      -0.07131183951012113,
      -0.01633939907885408,
      0.07564750988553687,
      -0.033569211422385885,
      0.024769575015031516,
      0.07944070550012867,
      0.03706954603993829,
      -0.06791132587074528,
      0.02267129163043892,
      -0.01675929714051655,
      -0.01807108051780582,
      -0.04780580098657452,
      -0.12321014330585255,
      -0.09097442881572568,
      -0.13665616883529877,
      -0.06914695053937471,
      0.039723267483139146,
      0.1799151235386241
    ],
    "worker_ids": [
      "ollama-cloud-deepseek-v4-pro",
      "ollama-cloud-glm-5.2",
      "ollama-cloud-kimi-k2.7-code",
      "ollama-cloud-qwen3-coder-480b"
    ],
    "worker_weights": [
      [
        -0.06056778592526238,
        0.059820495672994786,
        0.048102423709157086,
        -0.08110322109728908,
        0.08326465634106965,
        0.036885927206063936,
        0.06903082845786147,
        -0.015927189192412063,
        0.007040831986407973,
        -0.060529592792955965,
        -0.07753299518822103,
        0.019725557611551866,
        0.09503773895176426,
        -0.06056778592526238,
        0.0,
        0.0,
        0.0,
        0.026277687669125947,
        -0.015743317221486613,
        -0.0548043356949921,
        -0.013871184621259932,
        0.0990550532961968,
        -0.04616783011425588,
        0.09796142465777123,
        -0.09445303520726045,
        -0.09602688533087364,
        -0.006553683496412939,
        -0.014698633325523078,
        0.03233613576839295,
        0.1389324971547841,
        0.0,
        0.0,
        -0.04616783011425588,
        0.1175206698250318,
        0.0,
        -0.014698633325523078,
        0.11093859631267235,
        0.018493890142652826,
        0.053978116478931665,
        -0.04639602825973201,
        0.009478256712492335,
        0.004039614213352837,
        0.008337546378004178,
        0.029909466051088573,
        -0.07382705381334267,
        0.12160913388901068,
        -0.015921493416344336,
        0.0,
        -0.04833112020353313,
        0.0,
        0.011784474846502043,
        0.0,
        0.0034402464828572434,
        -0.03057122652573543,
        -0.0034170650916272,
        0.0,
        -0.019949589165529892,
        -0.07035859268524679,
        0.0,
        0.07239875502339257,
        -0.10013926473958958,
        -0.011081679347037333,
        -0.003671831784614956,
        -0.015743317221486613,
        -0.014698633325523078,
        0.044608099376611664,
        -0.03622151217997342,
        0.0810435146409433,
        0.09462117221518719,
        -0.10208925449423635,
        -0.04616783011425588,
        0.009986226490419504,
        -0.06467131246773253,
        0.0011410256312785457,
        -0.01184240050954345,
        0.07528375993837792,
        0.009986226490419504,
        0.0688880785261771,
        0.07439550055365829,
        -0.10968130474945469,
        0.062009681364465684,
        -0.030572866629635955,
        0.01573320260100492,
        -0.06548469574819782,
        -0.015921493416344336,
        -0.0856891758455291,
        -0.16721968386737907,
        0.11048976321630397,
        0.12061310296219031,
        -0.07320292772593606,
        0.009478256712492335,
        0.0034402464828572434,
        -0.07035859268524679,
        -0.10013926473958958,
        -0.0021857095272420322,
        -0.02301721180449197,
        0.02253947257356121,
        0.061005944212843805,
        -0.015927189192412063,
        0.059820495672994786,
        0.0492434493404355,
        -0.06611741927978529,
        0.036885927206063936,
        0.06903082845786147
      ],
      [
        -0.07721441142939768,
        -0.1082814085196414,
        -0.04022785420989537,
        0.03003590748756463,
        -0.03378982832349124,
        -0.07130453068803431,
        -0.03669307047566095,
        0.01994854465479503,
        -0.07958056927916249,
        -0.031155324830073487,
        -0.030557039550791785,
        -0.0004362504783933651,
        0.02676360804062657,
        -0.07721441142939768,
        0.0,
        0.0,
        0.0,
        0.027447982042739717,
        0.04128718264343749,
        0.12948448182291442,
        0.038619549140830066,
        -0.04444369793535626,
        -0.022000780138047845,
        -0.047986690769466364,
        -0.051319985766545534,
        -0.0377513897210085,
        -0.04780152132437761,
        -0.016109704750327993,
        -0.04675814266570428,
        0.00592919717294984,
        0.0,
        0.0,
        -0.022000780138047845,
        -0.03240635239627491,
        0.0,
        -0.016109704750327993,
        -0.01898339835565992,
        0.00719435017021646,
        0.043609891471582785,
        -0.013342631279066663,
        0.014001917690694693,
        -0.06596485504376533,
        0.026337949341577883,
        -0.04136795847474369,
        -0.060234963145334164,
        -0.0035786831085474606,
        -0.05641357855448851,
        0.0,
        0.1233217352493461,
        0.0,
        -0.012856725709908133,
        0.0,
        -0.013861723331590251,
        -0.0230604901217091,
        -0.027124473908293523,
        0.0,
        -0.0571185680577043,
        -0.006979844871971263,
        0.0,
        -0.0015965221194406915,
        0.07886895566345266,
        -0.0865088457706497,
        -0.07460303323288303,
        0.04128718264343749,
        -0.016109704750327993,
        -0.025258253724415706,
        -0.06746179438948566,
        0.07579222798525011,
        -0.07722627156246546,
        -0.12525026940993894,
        -0.022000780138047845,
        -0.011783987307595594,
        0.07423152242389126,
        0.035822684016352135,
        0.010425537707866203,
        0.08082705830190898,
        -0.011783987307595594,
        -0.0573488376048593,
        0.016507376338252402,
        -0.036529755324852926,
        0.0018843764657834844,
        0.1210315149798757,
        -0.11420443756485749,
        -0.12387899874488746,
        -0.05641357855448851,
        0.019732416051657903,
        -0.016806075356427648,
        -0.031472428965918016,
        0.03829158639735957,
        -0.04146121585950786,
        0.014001917690694693,
        -0.013861723331590251,
        -0.006979844871971263,
        0.07886895566345266,
        0.021574203377413895,
        -0.02255533847260373,
        0.02351875251736053,
        -0.005123431589071162,
        0.01994854465479503,
        -0.1082814085196414,
        -0.0044051701935434225,
        -0.07911934819575205,
        -0.07130453068803431,
        -0.03669307047566095
      ],
      [
        -0.013878363372088922,
        -0.10825731675506245,
        0.09670983320833906,
        -0.03455233395260373,
        0.007167044034455456,
        -0.03878524710887371,
        -0.06647497045564903,
        -0.059523823413786134,
        -0.08555457470304494,
        0.11892915707369572,
        0.15286447429595215,
        0.023804312229350356,
        0.0009906442420621613,
        -0.013878363372088922,
        0.0,
        0.0,
        0.0,
        -0.034915763283211144,
        0.0036787928102314576,
        0.02558039378927245,
        0.04488306086629321,
        0.06476116208926304,
        0.026912483672678997,
        -0.04909691504094312,
        -0.04414330132481385,
        0.13957582400906174,
        -0.07303303625900033,
        0.012540343175789635,
        0.08356827216240657,
        0.15832037330516835,
        0.0,
        0.0,
        0.026912483672678997,
        -0.0181886897251425,
        0.0,
        0.012540343175789635,
        -0.03303408992511458,
        0.013288650286890939,
        -0.05625135791992212,
        -0.27297208493825686,
        -0.014081377712154721,
        0.004905405707502084,
        0.019173392903609685,
        -0.03273084454732027,
        0.0845074462191594,
        -0.039299906662427206,
        0.07365796935058605,
        0.0,
        -0.024615119038241463,
        0.0,
        -0.045394132892422265,
        0.0,
        -0.06090373444236413,
        -0.040978945340339155,
        0.042554623957776976,
        0.0,
        0.07993249578906284,
        -0.005962571359518318,
        0.0,
        0.016266532078405498,
        0.002477850629452711,
        0.007596153784028945,
        -0.0013974654534445758,
        0.0036787928102314576,
        0.012540343175789635,
        -0.045271187723109896,
        -0.05953653733047095,
        -0.059014218134742835,
        0.0701410245221352,
        0.12223048643953538,
        0.026912483672678997,
        0.0013759990342058328,
        -0.20387821997448147,
        -0.01642723947213572,
        0.006509238955322056,
        -0.035837773554776096,
        0.0013759990342058328,
        -0.012445555134165063,
        -0.20362896407965608,
        -0.013879401296085208,
        -0.04366725190742424,
        -0.03857073057906937,
        0.005628479065574915,
        -0.0011482934389994612,
        0.07365796935058605,
        -0.03653196503186972,
        0.006694057900597936,
        -0.09691743732644977,
        0.09271531145970273,
        0.1275643772255021,
        -0.014081377712154721,
        -0.06090373444236413,
        -0.005962571359518318,
        0.002477850629452711,
        0.007565689106577571,
        -0.038663435611537775,
        -0.0016547910893055715,
        -0.011269988525685727,
        -0.059523823413786134,
        -0.10825731675506245,
        0.0802825937362028,
        0.1068449794617417,
        -0.03878524710887371,
        -0.06647497045564903
      ],
      [
        0.15166056072674772,
        0.1567182296017095,
        -0.10458440270760075,
        0.08561964756232827,
        -0.056641872052034345,
        0.07320385059084387,
        0.03413721247344889,
        0.05550246795140351,
        0.15809431199580093,
        -0.027244239450666386,
        -0.044774439556939626,
        -0.04309361936250885,
        -0.12279199123445271,
        0.15166056072674772,
        0.0,
        0.0,
        0.0,
        -0.01880990642865464,
        -0.02922265823218277,
        -0.10026053991719583,
        -0.06963142538586388,
        -0.11937251745010374,
        0.04125612657962438,
        -0.0008778188473617436,
        0.18991632229862207,
        -0.0057975489571795175,
        0.12738824107979047,
        0.018267994900061403,
        -0.0691462652650956,
        -0.30318206763290306,
        0.0,
        0.0,
        0.04125612657962438,
        -0.06692562770361556,
        0.0,
        0.018267994900061403,
        -0.058921108031898255,
        -0.038976890599760276,
        -0.04133665003059241,
        0.33271074447705506,
        -0.009398796691032269,
        0.057019835122910645,
        -0.05384888862319208,
        0.04418933697097575,
        0.049554570739517544,
        -0.07873054411803634,
        -0.001322897379752314,
        0.0,
        -0.05037549600757187,
        0.0,
        0.046466383755828615,
        0.0,
        0.07132521129109767,
        0.09461066198778383,
        -0.012013084957856036,
        0.0,
        -0.0028643385658285326,
        0.08330100891673617,
        0.0,
        -0.08706876498235779,
        0.0187924584466844,
        0.08999437133365672,
        0.07967233047094278,
        -0.02922265823218277,
        0.018267994900061403,
        0.02592134207091418,
        0.16321984389992975,
        -0.0978215244914505,
        -0.08753592517485673,
        0.1051090374646385,
        0.04125612657962438,
        0.0004217617829702918,
        0.19431801001832125,
        -0.020536470175494703,
        -0.005092376153644749,
        -0.1202730446855104,
        0.0004217617829702918,
        0.0009063142128471885,
        0.1127260871877468,
        0.1600904613703923,
        -0.020226805922824803,
        -0.05188791777117058,
        0.09284275589827724,
        0.19051198793208438,
        -0.001322897379752314,
        0.10248872482574081,
        0.1773317013232091,
        0.017900103076064225,
        -0.2516200008192527,
        -0.012900233640058328,
        -0.009398796691032269,
        0.07132521129109767,
        0.08330100891673617,
        0.0187924584466844,
        -0.026954182956749263,
        0.08423598588863289,
        -0.04440343400161624,
        -0.044612524098086734,
        0.05550246795140351,
        0.1567182296017095,
        -0.1251208728830953,
        0.03839178801379578,
        0.07320385059084387,
        0.03413721247344889
      ]
    ],
    "workflow_labels": [
      "direct",
      "verify_then_fallback"
    ],
    "workflow_weights": [
      [
        0.36508665407817703,
        0.015125272903309098,
        0.1235594485902202,
        0.11248872627136103,
        0.031598903825781205,
        0.0258808363800921,
        0.013938596070785248,
        0.08516798246827521,
        -0.02265722533945976,
        0.007382614709880911,
        0.04246306029011125,
        0.008639479756016945,
        0.06442777914576704,
        0.36508665407817703,
        0.0,
        0.0,
        0.0,
        0.011373237673254722,
        0.0567272150985172,
        0.039652332644097704,
        0.06160050968347283,
        -0.022027300760889438,
        0.008741470691767525,
        0.05523090976171851,
        0.11647965474887895,
        0.033136851570361586,
        0.0305286496222215,
        0.01410956063080441,
        -0.12186583223795475,
        0.06702212643195257,
        0.0,
        0.0,
        0.008741470691767525,
        0.012692090781422168,
        0.0,
        0.01410956063080441,
        0.01353122441426386,
        0.009326208719749953,
        -0.10088202047535012,
        0.21573262905103938,
        0.02242376369141895,
        0.1411502547989042,
        0.014966283131043846,
        0.0525077587029022,
        0.03851608384342375,
        0.03054399058297713,
        0.045780812781978895,
        0.0,
        0.009767668524067385,
        0.0,
        0.08178130891814295,
        0.0,
        0.03230188272258867,
        0.044958604974294936,
        -0.006674090304151418,
        0.0,
        0.07690313958149671,
        0.05598930045735098,
        0.0,
        -0.06613596810628866,
        0.05320732767226573,
        0.1630563317135141,
        0.1225133135729793,
        0.0567272150985172,
        0.01410956063080441,
        0.038398198072097454,
        0.02946792627512171,
        0.012942528857951219,
        0.06949831585122601,
        -0.17887784151081657,
        0.008741470691767525,
        0.01779698254334153,
        0.06622535968503186,
        0.019655937477199268,
        0.07175487701327715,
        0.06683530992013755,
        0.01779698254334153,
        0.008501076762767843,
        0.08849409373621031,
        0.0660701356516376,
        0.0376100927594811,
        0.011192316689356482,
        0.019332141751244196,
        0.01678563575685229,
        0.045780812781978895,
        0.05126432634955532,
        0.09302976766712936,
        0.04333389246926518,
        0.11002932667964432,
        0.03694594582125449,
        0.02242376369141895,
        0.03230188272258867,
        0.05598930045735098,
        0.05320732767226573,
        0.02296171699051384,
        0.11263263795595081,
        0.022734218425149205,
        0.12035352398661196,
        0.08516798246827521,
        0.015125272903309098,
        0.14321538606741793,
        0.08564461027326305,
        0.0258808363800921,
        0.013938596070785248
      ],
      [
        -0.3650866540781768,
        -0.015125272903309157,
        -0.1235594485902202,
        -0.11248872627136103,
        -0.031598903825781205,
        -0.0258808363800921,
        -0.013938596070785202,
        -0.08516798246827523,
        0.022657225339459738,
        -0.007382614709880911,
        -0.042463060290111244,
        -0.008639479756016949,
        -0.06442777914576706,
        -0.3650866540781768,
        0.0,
        0.0,
        0.0,
        -0.011373237673254724,
        -0.05672721509851719,
        -0.0396523326440977,
        -0.061600509683472825,
        0.022027300760889428,
        -0.008741470691767523,
        -0.0552309097617185,
        -0.11647965474887893,
        -0.03313685157036158,
        -0.0305286496222215,
        -0.014109560630804414,
        0.12186583223795476,
        -0.06702212643195259,
        0.0,
        0.0,
        -0.008741470691767523,
        -0.012692090781422164,
        0.0,
        -0.014109560630804414,
        -0.013531224414263864,
        -0.009326208719749951,
        0.10088202047535015,
        -0.2157326290510394,
        -0.022423763691418942,
        -0.14115025479890422,
        -0.014966283131043848,
        -0.0525077587029022,
        -0.03851608384342376,
        -0.030543990582977135,
        -0.04578081278197889,
        0.0,
        -0.009767668524067382,
        0.0,
        -0.08178130891814295,
        0.0,
        -0.03230188272258869,
        -0.04495860497429493,
        0.006674090304151408,
        0.0,
        -0.0769031395814967,
        -0.05598930045735097,
        0.0,
        0.06613596810628865,
        -0.05320732767226572,
        -0.163056331713514,
        -0.12251331357297933,
        -0.05672721509851719,
        -0.014109560630804414,
        -0.03839819807209743,
        -0.0294679262751217,
        -0.01294252885795122,
        -0.06949831585122603,
        0.17887784151081662,
        -0.008741470691767523,
        -0.01779698254334153,
        -0.06622535968503185,
        -0.01965593747719927,
        -0.07175487701327717,
        -0.06683530992013752,
        -0.01779698254334153,
        -0.008501076762767812,
        -0.08849409373621034,
        -0.06607013565163765,
        -0.037610092759481066,
        -0.011192316689356484,
        -0.01933214175124413,
        -0.01678563575685228,
        -0.04578081278197889,
        -0.05126432634955533,
        -0.09302976766712934,
        -0.043333892469265174,
        -0.11002932667964432,
        -0.036945945821254496,
        -0.022423763691418942,
        -0.03230188272258869,
        -0.05598930045735097,
        -0.05320732767226572,
        -0.022961716990513848,
        -0.11263263795595085,
        -0.022734218425149198,
        -0.12035352398661191,
        -0.08516798246827523,
        -0.015125272903309157,
        -0.143215386067418,
        -0.08564461027326307,
        -0.0258808363800921,
        -0.013938596070785202
      ]
    ]
  },
  "substrate": "research/datasets/20260628-normal-offset16-contrast-56task-substrate.jsonl",
  "target_balance_power": 0.0
}
