{
  "epochs": 300,
  "l2": 0.0001,
  "learning_rate": 0.0005,
  "model_type": "linear-multi-head-orchestrator",
  "orchestrator": {
    "abstain_weights": [
      -0.5804794849507993,
      -0.2052345685169645,
      -0.27387827964569433,
      -0.08420071975182179,
      -0.05133308604029309,
      -0.1294265643692578,
      -0.06804694517464208,
      -0.14267070137921084,
      -0.06857192502147745,
      -0.0163096068577646,
      -0.06953089587006493,
      -0.017535185140713266,
      -0.08478034302828766,
      -0.5804794849507993,
      0.0,
      0.0,
      0.0,
      -0.022787464468159713,
      -0.013357741269617189,
      -0.0783373523164966,
      -0.06789788516096378,
      -0.11206529841162487,
      -0.008012093653696154,
      -0.07988391990404049,
      -0.15753541699458498,
      -0.04836296018559584,
      -0.009643249100444532,
      -0.013357741269617189,
      -0.06331630738112089,
      -0.2264948694759902,
      0.0,
      0.0,
      -0.008012093653696154,
      -0.019460117524865383,
      0.0,
      -0.013357741269617189,
      -0.0221530567021273,
      -0.02116793568446887,
      0.006182991512955546,
      -0.20360009910351728,
      -0.04207748851107294,
      -0.15693122351889496,
      -0.048676993798770773,
      -0.07004498277581232,
      -0.05258891134204823,
      -0.046194316376262416,
      -0.07299684836395941,
      0.0,
      -0.03834355566303942,
      0.0,
      -0.07987102929117855,
      0.0,
      -0.008012093653696154,
      -0.0328957578176,
      -0.07171576445947768,
      0.0,
      -0.11039584930771139,
      -0.07193318574781972,
      0.0,
      -0.02302441797717027,
      -0.1024827148368366,
      -0.2645061530729779,
      -0.1990943115961937,
      -0.013357741269617189,
      -0.013357741269617189,
      -0.056687241506194745,
      -0.02300099037006148,
      -0.10941928184706445,
      -0.10383468780006111,
      0.05111839709712918,
      -0.008012093653696154,
      -0.015399240851533214,
      -0.06896526645938925,
      -0.06895479400089478,
      -0.06267148116178047,
      -0.015399240851533214,
      -0.11963200186348504,
      -0.13538322048786247,
      -0.14643264948470716,
      -0.2000838252354321,
      -0.044748554602591695,
      -0.06992521461699584,
      -0.07210563087278193,
      -0.07299684836395941,
      -0.03186227260413719,
      -0.09350210748920836,
      -0.06297545101053513,
      -0.16033376381213374,
      -0.043219409315997555,
      -0.04207748851107294,
      -0.008012093653696154,
      -0.07193318574781972,
      -0.1024827148368366,
      -0.19856478364535676,
      -0.026990245702056208,
      -0.1859841621616868,
      -0.14267070137921084,
      -0.2052345685169645,
      -0.27387827964569433,
      -0.11840794296140751,
      -0.1294265643692578,
      -0.06804694517464208
    ],
    "feature_names": [
      "bias",
      "category_datasci",
      "category_filesystem",
      "category_general",
      "category_network",
      "category_plotting",
      "category_subprocess",
      "combo_archive_filesystem",
      "combo_dataframe_plotting",
      "combo_network_archive",
      "combo_network_filesystem",
      "combo_network_plotting",
      "environment_risk",
      "family_bigcodebench_hard",
      "family_code_data",
      "family_code_easy",
      "family_code_text",
      "kw_archive",
      "kw_base64",
      "kw_convert",
      "kw_count",
      "kw_csv",
      "kw_default",
      "kw_dict",
      "kw_directory",
      "kw_download",
      "kw_email",
      "kw_encoding",
      "kw_exception",
      "kw_file",
      "kw_flatten",
      "kw_frequent",
      "kw_ftp",
      "kw_group",
      "kw_hash",
      "kw_hex",
      "kw_http",
      "kw_https",
      "kw_key",
      "kw_list",
      "kw_lowercase",
      "kw_number",
      "kw_pair",
      "kw_parse",
      "kw_process",
      "kw_request",
      "kw_requests",
      "kw_socket",
      "kw_sorted",
      "kw_ssl",
      "kw_string",
      "kw_strip",
      "kw_subprocess",
      "kw_sum",
      "kw_title",
      "kw_unpack",
      "kw_url",
      "kw_urllib",
      "kw_window",
      "kw_word",
      "kw_zip",
      "length_chars",
      "length_tokens",
      "lib_base64",
      "lib_binascii",
      "lib_bs4",
      "lib_codecs",
      "lib_collections",
      "lib_csv",
      "lib_datetime",
      "lib_ftplib",
      "lib_functools",
      "lib_glob",
      "lib_itertools",
      "lib_json",
      "lib_math",
      "lib_matplotlib",
      "lib_numpy",
      "lib_os",
      "lib_pandas",
      "lib_pathlib",
      "lib_random",
      "lib_re",
      "lib_requests",
      "lib_scipy",
      "lib_seaborn",
      "lib_shutil",
      "lib_sklearn",
      "lib_statistics",
      "lib_string",
      "lib_subprocess",
      "lib_urllib",
      "lib_zipfile",
      "library_count",
      "missing_library_count",
      "plausibility_score",
      "signal_archive",
      "signal_dataframe",
      "signal_filesystem",
      "signal_network",
      "signal_plotting",
      "signal_subprocess"
    ],
    "policy": "linear-multi-head-orchestrator",
    "verifier_weights": [
      -0.0733519695776838,
      -0.07536961195059011,
      -0.2819259512200867,
      0.03665663455178463,
      0.008798205779061754,
      0.09864630279633278,
      0.1454293408790997,
      -0.09430984114202164,
      0.012232944788022209,
      -0.05059717688115743,
      0.08219051683214586,
      0.025951198662577866,
      -0.06936986681007667,
      -0.0733519695776838,
      0.0,
      0.0,
      0.0,
      0.06929952556385388,
      0.014119685420128914,
      -0.046674792810626343,
      0.10299894207794832,
      -0.2127065023709421,
      0.008503844917656567,
      0.039639788958877445,
      -0.10475467688240343,
      0.010540507792602067,
      -0.03378678934558254,
      0.014119685420128914,
      0.047604149035705756,
      -0.319767884886549,
      0.0,
      0.0,
      0.008503844917656567,
      -0.07931771727730606,
      0.0,
      0.014119685420128914,
      -0.07135564817813873,
      0.0716500090395438,
      -0.06644635034800944,
      -0.18910286287445774,
      0.041903426104037425,
      -0.05405275294131202,
      0.0965650985527503,
      -0.022453415536984076,
      -0.04572566236304662,
      -0.018721808422035944,
      -0.08717027783827044,
      0.0,
      -0.09945278209444774,
      0.0,
      -0.04411052113262738,
      0.0,
      0.008503844917656567,
      0.01712271244109047,
      0.06351168117619231,
      0.0,
      -0.02041675266203872,
      0.10153607239725727,
      0.0,
      0.16357871771141794,
      -0.06231727871956536,
      -0.04100758277488934,
      -0.04286420210699823,
      0.014119685420128914,
      0.014119685420128914,
      -0.036573100957113136,
      -0.019667103925453903,
      0.0662322727986491,
      -0.04539474543469139,
      -0.01799855404687359,
      0.008503844917656567,
      0.01750098484613652,
      -0.09724137643038536,
      0.07775061758704274,
      -0.10960117356631521,
      0.01750098484613652,
      0.13204941069219384,
      -0.12645670700462097,
      -0.11678075771270216,
      -0.02817973105575744,
      -0.0900881308070896,
      -0.2658077521647272,
      0.05551056512953799,
      -0.08717027783827044,
      -0.022079185140372187,
      0.03319700305316972,
      0.03730696314139802,
      0.17171493577355812,
      -0.03802089717716323,
      0.041903426104037425,
      0.008503844917656567,
      0.10153607239725727,
      -0.06231727871956536,
      -0.03659264749364135,
      -0.03732439513875685,
      -0.07303634328530921,
      -0.09430984114202164,
      -0.07536961195059011,
      -0.2819259512200867,
      -0.0119129077443821,
      0.09864630279633278,
      0.1454293408790997
    ],
    "worker_ids": [
      "ollama-cloud-deepseek-v4-pro",
      "ollama-cloud-glm-5.2",
      "ollama-cloud-kimi-k2.7-code",
      "ollama-cloud-qwen3-coder-480b"
    ],
    "worker_weights": [
      [
        -0.03555223859020203,
        0.0655426560052419,
        0.009162203417517875,
        -0.030270250140573475,
        0.10865782822687398,
        0.06229545185061517,
        0.06283402007221725,
        0.017922920866705147,
        0.04473617118092863,
        -0.0459244347860692,
        -0.04196338420259542,
        0.016847123384740873,
        0.07156810290615981,
        -0.03555223859020203,
        0.0,
        0.0,
        0.0,
        0.026526117763322643,
        -0.009100064135639978,
        -0.12288920090739798,
        -0.0074124248513859695,
        0.027067756473210854,
        -0.02049479334783199,
        0.13018717877956407,
        -0.022581415159747986,
        -0.053764874314201315,
        -0.021023490698305444,
        -0.009100064135639978,
        -0.01102907103213639,
        0.038658807362180324,
        0.0,
        0.0,
        -0.02049479334783199,
        0.12826901740865962,
        0.0,
        -0.009100064135639978,
        0.11735113146310075,
        0.011801490111605662,
        0.025553119004001607,
        0.01600278953974948,
        0.0020951397214528785,
        0.004939882807935584,
        -0.022736960275313547,
        0.09459607865440754,
        -0.0709003163617642,
        0.13000548528280154,
        0.05777170800397868,
        0.0,
        -0.10983674589436879,
        0.0,
        0.0914428596024515,
        0.0,
        -0.02049479334783199,
        -0.021628923611819853,
        0.016077521031333475,
        0.0,
        0.06132599768803891,
        -0.010100698988992424,
        0.0,
        0.01352271768315417,
        -0.11292018466841779,
        0.019703697684656598,
        0.02268435574500291,
        -0.009100064135639978,
        -0.009100064135639978,
        0.10369614279004803,
        -0.030123554833945416,
        0.03228394153187085,
        0.053461457134407156,
        -0.14071603553188541,
        -0.02049479334783199,
        0.0021911530582717996,
        -0.11710635247641557,
        -0.002625348897281424,
        0.0294367638834693,
        0.0021911530582717996,
        0.08517849026279525,
        0.03111417983223428,
        -0.11920126462051903,
        0.037743382622789375,
        -0.07765594193506142,
        0.0829277182545198,
        -0.08420739715487086,
        0.05777170800397868,
        -0.05873374180287602,
        -0.11056542469351095,
        0.1573692232984459,
        0.07401192886218022,
        -0.07216572106989083,
        0.0020951397214528785,
        -0.02049479334783199,
        -0.010100698988992424,
        -0.11292018466841779,
        -0.024383899932587664,
        0.0031867029850178538,
        0.04908245174014579,
        0.017922920866705147,
        0.0655426560052419,
        0.009162203417517875,
        0.04083120434020685,
        0.06229545185061517,
        0.06283402007221725
      ],
      [
        -0.04253868114264288,
        -0.038259926220402855,
        0.06297979069678213,
        -0.015767072037994673,
        -0.0362303042213473,
        -0.09529779601829484,
        -0.0949541654379809,
        0.0804889530454871,
        -0.10134585883939266,
        -0.04942750889781508,
        -0.04403820855517729,
        0.005454160088416637,
        0.05107860330255192,
        -0.04253868114264288,
        0.0,
        0.0,
        0.0,
        0.008414989046886166,
        -0.005833577511336633,
        0.2500124180361336,
        0.008243089859390805,
        0.005703293330883922,
        -0.015960287388694382,
        -0.06192456981395974,
        0.04226665829585182,
        -0.055144435249600166,
        -0.014358367379380982,
        -0.005833577511336633,
        -0.025290348149767213,
        0.12072324815837893,
        0.0,
        0.0,
        -0.015960287388694382,
        -0.029943017419801286,
        0.0,
        -0.005833577511336633,
        -0.03137624352707597,
        0.011106226694423026,
        0.16466257181494215,
        0.0260669804521979,
        0.007961327560835249,
        -0.08574134805714534,
        0.05193385162542302,
        -0.039271556152827077,
        -0.05305350193807812,
        -0.021132882490166555,
        -0.08286548753930496,
        0.0,
        0.24511362120835026,
        0.0,
        -0.04495529699155223,
        0.0,
        -0.015960287388694382,
        -0.022060716101163322,
        -0.00939608856302877,
        0.0,
        -0.07845570401373209,
        0.0023480484111586116,
        0.0,
        0.02114156012767743,
        0.17359780539141917,
        -0.07045153581867727,
        -0.06259857280854005,
        -0.005833577511336633,
        -0.005833577511336633,
        -0.03343797864148996,
        -0.02019194489071771,
        0.17884298357907313,
        -0.138839243275124,
        -0.12057981453612249,
        -0.015960287388694382,
        -0.004726860278655969,
        0.19285643997587185,
        -0.0028057709782502312,
        0.1653627892953631,
        -0.004726860278655969,
        -0.0837883648161067,
        0.12602211483748518,
        -0.044613241931866755,
        0.05765179841766358,
        0.2578199495876637,
        -0.20609540549946695,
        -0.08736312298301742,
        -0.08286548753930496,
        0.0008150358523442998,
        0.0007139610994096872,
        -0.08469386329904535,
        -0.002061963301208034,
        -0.04519639349748124,
        0.007961327560835249,
        -0.015960287388694382,
        0.0023480484111586116,
        0.17359780539141917,
        0.015841820846171157,
        0.03640839291768018,
        0.029763282609338148,
        0.0804889530454871,
        -0.038259926220402855,
        0.06297979069678213,
        -0.09441599140242732,
        -0.09529779601829484,
        -0.0949541654379809
      ],
      [
        0.019881519926631414,
        -0.08985131441694896,
        0.08569084216077251,
        -0.028493748259930587,
        -0.03250851601333803,
        -0.032816064017837196,
        0.015400739768999486,
        -0.12189233997401365,
        -0.05455925644430964,
        0.12947923486383062,
        0.13458178237068977,
        0.013993627902919158,
        -0.047421865514266824,
        0.019881519926631414,
        0.0,
        0.0,
        0.0,
        -0.047729371673628486,
        0.005053625016225334,
        -0.04671358110095366,
        0.01677407427641568,
        0.14481416423256677,
        0.008275798201815735,
        -0.0676830130287538,
        -0.13206449878466572,
        0.13130708800474314,
        -0.020249897869903128,
        0.005053625016225334,
        0.057036803455915455,
        0.16123417494032577,
        0.0,
        0.0,
        0.008275798201815735,
        -0.034543547630039036,
        0.0,
        0.005053625016225334,
        -0.04405900858110134,
        0.0032746943659475143,
        -0.11906223500326017,
        -0.22698411429374116,
        -0.010701882000468182,
        0.03143394044228447,
        0.03116034180756915,
        -0.05810693848703267,
        0.12508894463948975,
        -0.050506953642004,
        0.06631867136057244,
        0.0,
        -0.0676268137627414,
        0.0,
        -0.07573526428367786,
        0.0,
        0.008275798201815735,
        -0.023453196094629383,
        -0.008076383319166476,
        0.0,
        0.06492435131589547,
        -0.020495874966834093,
        0.0,
        0.020199960000393324,
        -0.047293716997278926,
        0.02695707311368649,
        0.020150122364311858,
        0.005053625016225334,
        0.005053625016225334,
        -0.06316056350325742,
        -0.015196272853677788,
        -0.11238478612822979,
        0.18808289925416066,
        0.2179165743834288,
        0.008275798201815735,
        -0.0004692419875837754,
        -0.147688113622474,
        -0.00578302676216418,
        -0.10964384645781775,
        -0.0004692419875837754,
        -0.013448300553609543,
        -0.18797359229351587,
        0.07944102600817939,
        -0.04245818250461954,
        -0.10812640556022625,
        0.11829675463949546,
        0.07264182718743628,
        0.06631867136057244,
        -0.012426491560974676,
        0.026814108294204952,
        -0.12232799465036301,
        0.04849338700128523,
        0.13340701254286966,
        -0.010701882000468182,
        0.008275798201815735,
        -0.020495874966834093,
        -0.047293716997278926,
        -0.004197642728296564,
        -0.01395837795313205,
        -0.03164415946786699,
        -0.12189233997401365,
        -0.08985131441694896,
        0.08569084216077251,
        0.0732001495177111,
        -0.032816064017837196,
        0.015400739768999486
      ],
      [
        0.058209399806213286,
        0.06256858463210944,
        -0.15783283627507236,
        0.07453107043849838,
        -0.03991900799218858,
        0.0658184081855169,
        0.016719405596764776,
        0.023480466061820922,
        0.11116894410277353,
        -0.034127291179945805,
        -0.04858018961291839,
        -0.03629491137607681,
        -0.07522484069444493,
        0.058209399806213286,
        0.0,
        0.0,
        0.0,
        0.012788264863419501,
        0.009880016630751269,
        -0.08040963602778209,
        -0.017604739284420537,
        -0.17758521403666208,
        0.028179282534710727,
        -0.0005795959368498883,
        0.11237925564856234,
        -0.022397778440942064,
        0.0556317559475894,
        0.009880016630751269,
        -0.020717384274011822,
        -0.3206162304608859,
        0.0,
        0.0,
        0.028179282534710727,
        -0.06378245235881928,
        0.0,
        0.009880016630751269,
        -0.041915879354923025,
        -0.026182411171976137,
        -0.0711534558156822,
        0.18491434430179374,
        0.0006454147181800446,
        0.04936752480692489,
        -0.06035723315767887,
        0.002782415985451538,
        -0.0011351263396478812,
        -0.05836564915063004,
        -0.041224891825245906,
        0.0,
        -0.06765006155124145,
        0.0,
        0.02924770167277834,
        0.0,
        0.028179282534710727,
        0.06714283580761313,
        0.0013949508508616835,
        0.0,
        -0.04779464499020121,
        0.0282485255446679,
        0.0,
        -0.05486423781122491,
        -0.013383903725721746,
        0.02379076502033402,
        0.01976409469922537,
        0.009880016630751269,
        0.009880016630751269,
        -0.007097600645299659,
        0.06551177257834098,
        -0.09874213898271543,
        -0.10270511311344281,
        0.04337927568457928,
        0.028179282534710727,
        0.0030049492079679305,
        0.07193802612301739,
        0.011214146637695828,
        -0.08515570672101412,
        0.0030049492079679305,
        0.012058175106921688,
        0.030837297623796053,
        0.08437348054420611,
        -0.05293699853583335,
        -0.07203760209237596,
        0.004870932605452671,
        0.09892869295045208,
        -0.041224891825245906,
        0.07034519751150609,
        0.08303735529989578,
        0.04965263465096236,
        -0.12044335256225772,
        -0.016044897975496953,
        0.0006454147181800446,
        0.028179282534710727,
        0.0282485255446679,
        -0.013383903725721746,
        0.012739721814713074,
        -0.02563671794956582,
        -0.04720157488161735,
        0.023480466061820922,
        0.06256858463210944,
        -0.15783283627507236,
        -0.019615362455490375,
        0.0658184081855169,
        0.016719405596764776
      ]
    ],
    "workflow_labels": [
      "direct",
      "verify_then_fallback"
    ],
    "workflow_weights": [
      [
        0.33854678509780334,
        0.07962279984942555,
        0.15309118795289686,
        0.06190547334797636,
        0.03352770736140609,
        0.05208948325283509,
        0.01963615236507207,
        0.09283501552862099,
        0.007295801097597813,
        0.009864790960352421,
        0.04332431996603896,
        0.011188665004141384,
        0.05810962355924817,
        0.33854678509780334,
        0.0,
        0.0,
        0.0,
        0.015075451650990642,
        0.009284494419315299,
        0.05319341092941225,
        0.04712870584193211,
        0.0480796392865999,
        0.005229743581140349,
        0.05676101970291986,
        0.1025319142939065,
        0.03032884798609887,
        0.0072047879361146015,
        0.009284494419315299,
        -0.02638445388648384,
        0.12196468407653632,
        0.0,
        0.0,
        0.005229743581140349,
        0.013759809928866456,
        0.0,
        0.009284494419315299,
        0.015302491800325817,
        0.012995471979939959,
        -0.03206637799142288,
        0.14170226791408438,
        0.03176951681285672,
        0.11210419350636794,
        0.03486933922609738,
        0.04696225776231292,
        0.036283600020668036,
        0.030536805244931874,
        0.0475425543033495,
        0.0,
        0.024694895385895147,
        0.0,
        0.05732496294071406,
        0.0,
        0.005229743581140349,
        0.024063147807098322,
        0.0309692070710141,
        0.0,
        0.07206136216727115,
        0.046894079406592674,
        0.0,
        -0.005294010559587706,
        0.06614696126398324,
        0.1534794787517616,
        0.11494136874821784,
        0.009284494419315299,
        0.009284494419315299,
        0.03767776334299744,
        0.016489282355429975,
        0.05417270959628792,
        0.0698691788211621,
        -0.07999737849300889,
        0.005229743581140349,
        0.011471662553072715,
        0.044816180988283126,
        0.05157593224060094,
        0.04040400357165538,
        0.011471662553072715,
        0.044644411778980354,
        0.07411086393426457,
        0.07003713327792868,
        0.09752249205961627,
        0.028936770833500353,
        0.02706084521608931,
        0.027625479361422574,
        0.0475425543033495,
        0.024400395102985042,
        0.06834786452902028,
        0.041763505915628635,
        0.11730211372348126,
        0.031464129836228365,
        0.03176951681285672,
        0.005229743581140349,
        0.046894079406592674,
        0.06614696126398324,
        0.11325485908863983,
        0.018996499571202502,
        0.11391731410081243,
        0.09283501552862099,
        0.07962279984942555,
        0.15309118795289686,
        0.07729110574841211,
        0.05208948325283509,
        0.01963615236507207
      ],
      [
        -0.3385467850978031,
        -0.07962279984942547,
        -0.15309118795289692,
        -0.061905473347976366,
        -0.0335277073614061,
        -0.05208948325283518,
        -0.019636152365072063,
        -0.09283501552862099,
        -0.007295801097597757,
        -0.009864790960352424,
        -0.04332431996603895,
        -0.011188665004141384,
        -0.05810962355924818,
        -0.3385467850978031,
        0.0,
        0.0,
        0.0,
        -0.015075451650990642,
        -0.009284494419315299,
        -0.053193410929412245,
        -0.0471287058419321,
        -0.04807963928659991,
        -0.005229743581140343,
        -0.05676101970291984,
        -0.1025319142939065,
        -0.03032884798609885,
        -0.007204787936114599,
        -0.009284494419315299,
        0.026384453886483854,
        -0.1219646840765363,
        0.0,
        0.0,
        -0.005229743581140343,
        -0.013759809928866457,
        0.0,
        -0.009284494419315299,
        -0.015302491800325814,
        -0.012995471979939955,
        0.03206637799142288,
        -0.1417022679140845,
        -0.03176951681285672,
        -0.11210419350636786,
        -0.03486933922609737,
        -0.046962257762312914,
        -0.03628360002066804,
        -0.030536805244931884,
        -0.047542554303349506,
        0.0,
        -0.02469489538589515,
        0.0,
        -0.057324962940714076,
        0.0,
        -0.005229743581140343,
        -0.024063147807098322,
        -0.03096920707101412,
        0.0,
        -0.07206136216727115,
        -0.0468940794065927,
        0.0,
        0.005294010559587698,
        -0.06614696126398327,
        -0.15347947875176168,
        -0.11494136874821786,
        -0.009284494419315299,
        -0.009284494419315299,
        -0.03767776334299742,
        -0.01648928235542998,
        -0.054172709596287914,
        -0.06986917882116205,
        0.07999737849300893,
        -0.005229743581140343,
        -0.011471662553072711,
        -0.04481618098828315,
        -0.05157593224060094,
        -0.04040400357165537,
        -0.011471662553072711,
        -0.044644411778980334,
        -0.07411086393426458,
        -0.0700371332779287,
        -0.09752249205961622,
        -0.028936770833500342,
        -0.027060845216089365,
        -0.027625479361422553,
        -0.047542554303349506,
        -0.024400395102985042,
        -0.06834786452902028,
        -0.041763505915628614,
        -0.11730211372348126,
        -0.03146412983622835,
        -0.03176951681285672,
        -0.005229743581140343,
        -0.0468940794065927,
        -0.06614696126398327,
        -0.11325485908863983,
        -0.018996499571202502,
        -0.1139173141008124,
        -0.09283501552862099,
        -0.07962279984942547,
        -0.15309118795289692,
        -0.07729110574841212,
        -0.05208948325283518,
        -0.019636152365072063
      ]
    ]
  },
  "substrate": "research/datasets/20260628-m5-small-orchestrator-substrate-50task.jsonl",
  "target_balance_power": 0.75
}
